question_id,0,1,2,3,4,5,6,7,8,9,10,11,12,13,14,15,16,17,18,19,20,21,22,23,24,25,26,27,28,29,30,31,32,33,34,35,36,37,38,39,40,41,42,43,44,45,46,47,48,49,50,51,52,53,54,55,56,57,58,59,60,61,62,63,64,65,66,67,68,69,70,71,72,73,74,75,76,77,78,79,80,81,82,83,84,85,86,87,88,89,90,91,92,93,94,95,96,97,98,99,100,101,102,103,104,105,106,107,108,109,110,111,112,113,114,115,116,117,118,119,120,121,122,123,124,125,126,127,128,129,130,131,132,133,134,135,136,137,138,139,140,141,142,143,144,145,146,147,148,149,150,151,152,153,154,155,156,157,158,159,160,161,162,163,164,165,166,167,168,169,170,171,172,173,174,175,176,177,178,179,180,181,182,183,184,185,186,187,188,189,190,191,192,193,194,195,196,197,198,199,200,201,202,203,204,205,206,207,208,209,210,211,212,213,214,215,216,217,218,219,220,221,222,223,224,225,226,227,228,229,230,231,232,233,234,235,236,237,238,239,240,241,242,243,244,245,246,247,248,249,250,251,252,253,254,255,256,257,258,259,260,261,262,263,264,265,266,267,268,269,270,271,272,273,274,275,276,277,278,279,280,281,282,283,284,285,286,287,288,289,290,291,292,293,294,295,296,297,298,299,300,301,302,303,304,305,306,307,308,309,310,311,312,313,314,315,316,317,318,319,320,321,322,323,324,325,326,327,328,329,330,331,332,333,334,335,336,337,338,339,340,341,342,343,344,345,346,347,348,349,350,351,352,353,354,355,356,357,358,359,360,361,362,363,364,365,366,367,368,369,370,371,372,373,374,375,376,377,378,379,380,381,382,383,384,385,386,387,388,389,390,391,392,393,394,395,396,397,398,399,400,401,402,403,404,405,406,407,408,409,410,411,412,413,414,415,416,417,418,419,420,421,422,423,424,425,426,427,428,429,430,431,432,433,434,435,436,437,438,439,440,441,442,443,444,445,446,447,448,449,450,451,452,453,454,455,456,457,458,459,460,461,462,463,464,465,466,467,468,469,470,471,472,473,474,475,476,477,478,479,480,481,482,483,484,485,486,487,488,489,490,491,492,493,494,495,496,497,498,499,500,501,502,503,504,505,506,507,508,509,510,511,512,513,514,515,516,517,518,519,520,521,522,523,524,525,526,527,528,529,530,531,532,533,534,535,536,537,538,539,540,541,542,543,544,545,546,547,548,549,550,551,552,553,554,555,556,557,558,559,560,561,562,563,564,565,566,567,568,569,570,571,572,573,574,575,576,577,578,579,580,581,582,583,584,585,586,587,588,589,590,591,592,593,594,595,596,597,598,599,600,601,602,603,604,605,606,607,608,609,610,611,612,613,614,615,616,617,618,619,620,621,622,623,624,625,626,627,628,629,630,631,632,633,634,635,636,637,638,639,640,641,642,643,644,645,646,647,648,649,650,651,652,653,654,655,656,657,658,659,660,661,662,663,664,665,666,667,668,669,670,671,672,673,674,675,676,677,678,679,680,681,682,683,684,685,686,687,688,689,690,691,692,693,694,695,696,697,698,699,700,701,702,703,704,705,706,707,708,709,710,711,712,713,714,715,716,717,718,719,720,721,722,723,724,725,726,727,728,729,730,731,732,733,734,735,736,737,738,739,740,741,742,743,744,745,746,747,748,749,750,751,752,753,754,755,756,757,758,759,760,761,762,763,764,765,766,767,768,769,770,771,772,773,774,775,776,777,778,779,780,781,782,783,784,785,786,787,788,789,790,791,792,793,794,795,796,797,798,799,800,801,802,803,804,805,806,807,808,809,810,811,812,813,814,815,816,817,818,819,820,821,822,823,824,825,826,827,828,829,830,831,832,833,834,835,836,837,838,839,840,841,842,843,844,845,846,847,848,849,850,851,852,853,854,855,856,857,858,859,860,861,862,863,864,865,866,867,868,869,870,871,872,873,874,875,876,877,878,879,880,881,882,883,884,885,886,887,888,889,890,891,892,893,894,895,896,897,898,899,900,901,902,903,904,905,906,907,908,909,910,911,912,913,914,915,916,917,918,919,920,921,922,923,924,925,926,927,928,929,930,931,932,933,934,935,936,937,938,939,940,941,942,943,944,945,946,947,948,949,950,951,952,953,954,955,956,957,958,959,960,961,962,963,964,965,966,967,968,969,970,971,972,973,974,975,976,977,978,979,980,981,982,983,984,985,986,987,988,989,990,991,992,993,994,995,996,997,998,999,1000,1001,1002,1003,1004,1005,1006,1007,1008,1009,1010,1011,1012,1013,1014,1015,1016,1017,1018,1019,1020,1021,1022,1023
rbq001,0.65184844,0.72126067,0.45913324,-0.013602316,-0.18001065,0.41889492,-0.8416176,0.03833891,0.222072,0.032292537,-0.98371774,-0.24927595,-0.5235597,-0.08701615,0.65503526,-0.94069636,0.4681767,-0.41809082,1.7066371,0.09095456,0.040385354,1.5625718,2.1296864,0.53192604,-0.14045708,0.39103192,-0.58992606,1.4126818,-0.43236598,-0.10004338,-1.5238733,0.055716477,-0.8825065,-1.0719411,0.89846975,-0.5371857,0.7430064,0.9644539,-1.7755344,0.36177915,-0.051756382,0.64353585,1.7092962,0.65875936,-0.33312595,-0.20545724,0.53764594,-0.39268613,-0.08843809,-1.0563568,0.5850873,0.5053461,0.6457019,-0.40733996,-0.20230651,0.20771809,1.190772,1.3217194,1.0367779,-0.28775945,-1.452246,0.42620802,-0.918851,-0.13465992,-0.02568683,-0.9576553,1.3110998,1.2727362,0.21471474,-0.64591473,-0.92683697,-1.3998457,0.6930042,-0.37805495,0.6845459,-0.084684744,0.590871,-0.5576233,-0.60825557,-1.6120768,0.2818861,0.63952935,-1.0322951,-1.0465065,0.37396455,0.05840104,-0.7560848,-0.35601982,-0.14910376,1.6328609,-1.1165532,-0.19816847,-1.7176338,-0.16871007,0.6240779,-1.1591666,0.28823888,1.0111302,-0.8823845,-0.2671308,-0.3040998,0.29722098,1.0661474,0.44432935,-0.20807138,-0.8393709,-0.08824973,-0.24135287,-1.2393563,0.71002185,-0.8096781,0.050928883,-0.034958012,1.1514676,0.60981596,0.533131,0.7390064,-0.104970455,0.07565215,-1.8273624,-0.80028474,-0.049877364,-0.76113737,-0.2765731,0.6226263,-0.722646,0.028693859,-0.47064263,-0.20605998,0.33898586,0.08599864,0.0026877255,0.8176173,-0.019524356,1.4254957,0.16307543,-1.7975175,1.9764774,-1.2522867,-0.9161121,-0.91871053,-0.14918232,-0.14213637,-1.2860487,0.37848538,-1.0331928,-0.42300206,-0.0020532988,0.52812546,1.5351158,0.16335557,-0.6565882,-0.6340195,-0.97074395,2.215424,1.1989439,-0.6405801,0.21648113,0.45563126,0.18956228,-1.7328953,-0.9031416,0.06111536,0.76365393,1.2110548,-0.25189105,-0.32667232,-0.46982107,-0.21481505,1.3208497,0.02158703,-0.27275547,0.4651092,0.63392687,-0.35330778,-0.2007812,1.4704441,-0.072059706,0.074444175,0.35622272,1.4569176,0.5163476,-0.44209233,0.45353803,1.4302671,-1.2468809,0.52477133,-0.011077376,0.5154736,-1.0568897,0.81179446,0.1574482,0.43816918,1.9318253,-0.1746701,-0.3162151,0.810613,1.1202294,-0.81826484,-0.121573225,-0.49611133,-0.45601073,0.16715541,1.8557419,1.9163418,0.48658067,0.35886472,0.45895538,-0.2987632,1.3625466,1.3432844,2.0173976,0.8132223,0.4628861,-0.74673253,0.7192579,-0.019145576,-0.65154684,-1.2849112,0.7086267,-1.4189122,-0.5834434,-0.30238596,-0.39289555,-0.7015983,1.171727,0.27291992,-1.0237647,0.06873,-0.05010574,0.6796833,-0.800794,-0.9631879,-0.5643405,0.36660117,-0.9233921,-1.4113146,-0.12499492,0.5558252,0.18244949,-0.030722976,-0.02823357,-0.2890955,-2.5401917,-2.2688136,1.2393224,-0.24933422,0.34810597,0.36675653,-0.9134245,1.0752764,0.24130091,0.65272295,-0.21558635,-0.9986666,0.32610488,1.0898886,-0.47965908,-1.4426492,-0.18472672,-0.40315944,0.020945754,1.6753197,-0.4491926,-0.4770398,-0.54686034,0.23626265,0.05663237,-0.011922985,0.12841842,-0.5236929,0.86558783,0.6792609,-0.7425722,2.4863853,1.7794577,0.5720584,-0.03769168,1.5042773,-0.59389484,0.52802575,0.67149675,0.80967635,0.48124963,-0.61999595,-1.0472509,-1.8652875,1.2058403,0.8125409,-2.1695566,-0.35293442,0.24226165,0.6909374,-0.3536486,0.35242888,0.9825077,-0.03921306,0.33017737,-0.32176486,0.77341825,0.9747776,-1.0833305,-1.2773173,-0.3502069,0.5186988,-0.3394644,0.004598965,0.014806962,0.38709837,-0.375717,0.14363727,-0.3321355,-0.28816897,-0.09176674,-0.102956995,-0.5137998,0.825679,-0.13089529,0.82241553,-1.825893,-0.47156054,-1.5703728,-1.0893465,-0.46684465,0.2871719,-0.56084365,-0.591848,-0.91360235,-0.16322514,0.6689548,-1.2941136,0.62498516,-1.1579187,0.14091267,0.8086178,1.1921167,-0.07218671,-0.052087337,-0.7714509,-2.6021533,-0.48415476,0.94298995,0.007785292,-0.5741431,-0.17296723,-0.1474804,0.16139723,1.3736019,-0.75232065,-0.44194847,-0.0024193884,0.08437504,-1.1079344,-1.2588587,-0.5453347,-0.27541536,-1.0281385,0.53736794,0.5803323,-0.4403717,-0.32752496,-1.3591106,-0.6392609,0.12535357,-0.7988301,-0.24721858,0.894631,-1.367204,-1.2771541,-0.24495788,1.2119468,0.08551689,-2.361508,-0.88563156,-0.47901124,0.06458925,1.5365039,-0.48844695,-1.6208063,-1.1205406,0.43240467,-1.7084354,-0.44847202,0.27458727,0.16484788,1.7928827,-0.72023886,-2.1390498,-1.1525569,0.6539582,-0.6519189,-0.88019973,0.018131645,-0.8363732,-1.227549,1.5394962,0.7976701,0.22017267,-0.01369901,-0.93889713,-0.05550021,-0.4230078,0.5364699,-0.36914936,1.2509091,0.16460046,1.6405916,0.4763104,-0.4627213,-0.3956154,-0.1254529,0.5016716,0.3541,-2.2701278,1.7007593,-0.09325057,-0.3698023,0.17881277,0.34751397,1.1225593,0.40708405,0.030358383,-1.2717867,-0.07263334,-0.022526026,0.22500238,0.027347732,1.6500347,0.55619603,1.4515917,-0.84704125,-0.06364056,-0.4965822,-1.36855,-0.22731212,-0.19717206,-0.22421196,0.002943524,-0.19966918,-1.468446,-0.5834137,0.023998078,0.03963647,-0.5460167,0.43614045,-0.31703708,-0.21238089,-0.5744669,-0.46096474,0.6842686,-0.1465315,-0.18153486,-1.6835934,-0.8128195,0.91823566,-0.22276016,-0.36894542,-1.1734892,0.4223751,-0.90204513,0.25190115,0.83853495,-0.87428296,0.898613,-0.7761469,1.0242132,-0.7210232,-1.4930063,0.6828106,0.8341654,-1.4884623,-0.4593711,0.22086044,0.8980486,-0.6066603,0.37495852,0.717813,-1.7660224,-0.22368836,1.3531436,0.9198904,-0.55281913,-0.34655404,1.254115,0.30894166,-0.086383626,-0.33020195,0.7061172,-0.15816285,-1.0121491,-0.19206008,-1.3461691,-0.2509367,0.43630815,1.2195704,1.8630486,-0.3986259,-0.33432743,0.13487872,0.19968823,-0.14419755,0.33355364,-1.6658415,-0.41266727,-0.6297959,-0.3923741,-0.5542377,2.1722152,-0.039392777,0.34248978,0.010946783,0.037706766,-0.4670685,2.593322,-0.5385619,0.04818981,0.016565297,1.0044549,-1.1070902,-0.086210504,0.8748652,0.95703524,0.19977629,-0.9746908,-0.8464907,1.0024458,1.1987357,1.2318245,0.69738615,0.24273376,-0.19562043,0.5945784,-1.3104174,-0.4736405,-1.491491,-0.12908542,-0.03177016,0.38911277,-0.62456083,-0.3038823,-1.3757597,-2.1719103,-0.8929819,-0.58066416,0.28499895,0.7684475,0.16051896,0.89072734,1.5695558,0.7424693,0.7269419,-0.13292837,0.08965869,0.3416303,0.622714,0.2883436,1.850132,0.3329863,-0.03804202,-0.32440513,0.5167535,0.9751291,0.9826776,-0.61544335,-0.2749968,0.048564177,-0.6184579,1.3663065,0.28014007,1.1305933,0.8364316,0.43991047,0.2788899,-0.4631873,0.5567073,-1.28827,0.0611147,-0.04642088,-0.60501826,0.42803735,-1.7914394,-0.62941325,0.34238645,-1.2522562,0.08203985,-0.22083823,1.0424035,-0.27978086,-1.0642357,-0.9806379,0.8164998,0.44084176,-1.0781734,-1.0754166,-0.7067472,0.68724215,0.37527266,1.1506182,-0.0071564815,0.009870845,-0.92981386,0.10120611,-0.1673875,-1.4265664,2.051811,0.8467239,0.7794328,0.83878434,0.8214796,-0.018996237,1.0610813,-0.8272995,2.343552,-0.58786345,-0.1609489,1.2836739,1.2056774,0.08790898,-0.51481307,-0.33617696,0.4250978,0.66938686,-1.3534822,-0.3938847,0.29242676,-0.31273618,-0.030215722,-2.114044,0.16264497,0.018248746,0.60131896,-0.6171978,-0.5560968,0.002388948,0.9059354,0.022678703,-0.5615365,-0.4545986,0.00028241574,0.40681958,0.27214116,-1.1332873,-1.8896506,0.34834135,0.0042770416,0.0460685,0.6281174,0.5686736,0.40583682,-0.6341511,2.7421067,0.9103001,0.13357356,-0.46637684,-0.9887894,0.30176353,-0.46892723,1.043498,0.11891136,0.18636945,-1.1024957,-0.20194392,0.30958685,-1.9354718,0.12182977,1.4818413,1.1748308,-1.2776656,-0.8044082,0.530526,0.9237644,0.64186364,-0.17955501,-0.95709765,-0.28791818,-0.4281856,-0.5713054,1.2502555,-0.00791342,-0.71890765,0.72451454,0.83977526,1.0171419,-0.8355607,1.7183949,-1.0915117,0.32477126,-0.3476486,-0.7521122,0.46906218,0.24258979,0.9311762,-0.9083125,-0.7149402,0.041921258,-1.1055107,-0.2991998,-0.30611974,-1.2340329,0.7789911,-0.69473016,0.4353435,-0.11318797,-0.37074813,-0.12745902,-0.29907745,-0.24018534,-1.1705911,0.5491263,-0.3178855,-1.473025,1.3448585,0.18779166,2.5245175,-0.09665459,-0.1246324,1.5669166,0.6062101,-0.71418655,-0.7013432,-2.6478925,0.14542393,-0.26605505,-0.0024657683,-0.7021079,1.3980116,-0.61500275,0.42030826,1.1995821,0.23350379,0.6826502,-0.20770764,-0.46408024,-0.74608976,-0.022161523,2.084208,-1.2525032,0.30689985,1.3297775,-0.3768675,0.22092018,-0.21800749,-0.97616005,1.1413711,-0.72031564,0.68227553,-0.07458683,-0.9627619,-0.343835,-1.8279564,0.08235443,0.88503206,1.1878681,0.46496248,0.572918,0.17540203,-0.103570305,-0.88187,0.46616125,0.7604257,0.61924726,-0.3056733,-0.14057687,-0.75439006,0.8081253,-0.26874545,0.44464922,-0.040636517,-0.8153607,-0.83020914,0.83008355,-0.8499163,0.06284956,0.6905139,-0.49243116,1.2507814,-0.66754854,1.7237053,0.8159078,-0.5271482,-1.4570593,-1.6045055,-0.27000278,0.43777394,0.21759315,0.2631634,-0.20623836,0.49121532,0.40026546,0.84531486,0.635954,-1.0552495,0.009620791,1.0187094,-0.5089065,0.44128338,0.06490078,-0.64066464,-1.5340222,-0.20583053,1.1447504,0.2087199,1.1412727,-0.5519478,-0.3160117,-1.3045186,0.4053073,-0.6433629,-1.452678,-0.26548392,0.18733473,0.33670345,0.7378413,-0.72670674,0.54003185,-0.48675832,1.2135019,0.7264252,0.49802846,0.388485,-1.4306524,-1.9618229,-0.81389666,0.32758275,-0.39953217,0.5005141,0.18409063,-1.0292826,-0.59879583,-0.3667031,-1.9497645,0.1155947,-1.234113,0.017240424,1.4109135,-1.9465927,-0.7934581,0.23068646,0.36112738,1.067435,0.17879765,-1.344186,0.4101686,-0.4045382,-0.10036588,1.0954353,-0.39569095,-0.8038805,-0.3574833,-1.6269175,-0.59095585,-0.23548274,-0.076652825,-0.15686682,2.1202443,0.6363707,0.30215558,-0.95623493,-0.8392105,-1.8009456,-0.5082037,-0.43470702,0.42290908,-0.87972337,0.82664716,-1.3893838,0.33604333,-0.27931774,1.4298103,0.2754138,-0.6896823,-0.2909556,0.53969586,0.44092664,-0.361104,1.6836872,1.0414197,-0.031171728,0.12891518,-0.046522945,-0.24630745,-0.68945825,-0.17336379,0.19440065,0.6044909,-0.75166523,0.5271034,-0.06827098,0.19385259,0.64847016,-0.5822042,-1.418278,-0.6085746,-1.0071487,1.993351,-0.28390235,0.7810184,0.35379413,0.3642078,1.6436808,0.6184892,-0.5509392,-0.6283302,-1.831845,-0.8235649,-0.25829306,-1.6274036,0.074499115,-1.8786141,0.8622006,2.0800066,0.21650186,-0.8321641,0.13985595,1.7266953,-0.35984254,-0.64443046,1.0582274,-0.48426837,0.7749671,0.6738879,-0.45848474,-1.1969026,0.75220793,-0.098757304,-1.340531,-0.07916639,-1.3339164,-0.4407689,0.4898077,1.3948543,0.40899172,1.3929523,-0.2705953,0.38849068,-0.38732067,0.3279725,0.9503134,1.8451312,1.0079844,-0.9739932,0.014893724,-1.2027928,-0.78595454,1.5050702,0.16214171,0.18973741,0.64170134,0.31877777,-0.1840789,-0.08123879,-0.009314174,0.22460118,-0.06678,-0.6582616,0.7382065,0.286641,-0.21697824,-0.17708945,1.0914989,-0.39827386,0.26768643,-0.08878921,-0.05437861,-1.1209342,-0.70575315,-1.4296299,-0.93990886,-0.46072608,-1.5285127,-0.94932824,-0.8718058,0.6204418,-0.8910593,0.43869448,0.30633396,-1.9924061,-0.09354542,-0.38800225,-0.11625413,-0.0013787985,-1.4618633,-1.3632252,-1.2936757,1.4166276,-0.84886277,-0.7484908,0.40501612,0.86049175,-1.9289795,0.872939,-0.99695605,0.3445869,-0.54364026,-0.16055772,1.5062636,-0.46620312,0.15102814,-0.18668498,-0.08519377,1.2511187,-1.2926383,-0.8983865,0.648528,0.055367094,-0.8184617,-0.86017764,0.62299436,-0.7938595,-0.95870936,0.103158616,1.2489272,0.4154253,-0.61462754,-0.13576469,-0.16334079,-0.38717383,0.33163023,0.66308576,2.0464292,0.88311034,-0.6744977,-2.1298969,0.73948425
rbq002,0.72338206,-0.26532117,0.01675238,-0.7748153,0.98070115,-1.3813784,-0.5820281,1.3684722,-0.49896616,0.21949977,-0.62572384,0.112269945,0.23527797,0.0136530455,-0.683652,-1.1959606,0.107659295,-0.40996456,0.43598467,1.4053853,0.3243712,-0.746814,-1.3907815,-0.28497413,-0.40151045,1.6042794,0.12688112,0.6920208,-0.23810856,-0.9243059,0.34577364,0.12446968,-1.154873,0.7577562,0.5365013,-1.0824748,0.23695017,-0.3008591,-2.0175095,0.4306548,-0.0135573335,0.3243839,0.49436548,-0.84290415,-0.5182406,-1.4684619,0.12824008,-0.93053716,-0.38588074,-0.78208387,-0.19870761,0.7776784,1.5160458,-0.55133945,1.0737194,-1.6114051,-0.4819193,-1.9789958,0.55733025,0.47605616,0.21236914,1.2687918,-0.23293424,0.74978185,-0.049523685,1.1384482,-0.78717095,0.5517576,-0.13551193,0.74275625,-1.3874797,0.2384137,-0.121088795,-0.09644509,0.05485318,-0.69540316,1.2606515,-0.32955882,-0.78046405,-0.79988,0.15677492,0.8403703,-1.6331089,0.01856828,-0.31545198,0.36265093,0.028624617,0.012506389,-0.7496935,-0.26906472,-0.45584166,-0.019737491,-1.8348986,-0.7924386,1.1233921,-0.44187978,0.2645065,0.9759994,-0.7845917,-1.0805192,-0.4233497,-0.675422,0.033417817,-1.7262632,-1.0134373,-1.9274529,0.5752643,-2.2027261,1.2027194,0.94156104,0.5738749,-0.3652662,-0.09381412,0.37755916,-0.026257545,0.03827306,-1.3948493,0.12454887,1.1604506,0.4512024,0.2747897,-0.13168775,0.9985999,1.6939352,0.7494164,-0.045387212,-0.55462176,0.048584502,-0.2855065,0.3488129,-0.3116345,-0.35372636,-1.1171483,0.07151865,-0.48122242,-0.39870468,-0.122813664,0.31994307,-0.70599395,-0.9075438,-0.41070732,0.85563236,0.7755992,0.7383946,0.63318795,0.6640421,-1.0584283,0.52813715,-0.23591271,-0.14675698,-0.5867999,-0.8078078,-2.2095094,-0.8167572,-0.6055087,-0.46495122,-1.890901,-1.3122609,1.2128901,0.8544,-2.0528338,-1.4519423,-0.84832,0.10092335,-0.6310504,0.3254894,0.65164363,-1.2711952,-0.5812102,-0.0096327895,1.8146591,-0.30572498,-0.33603537,-0.14837514,0.56263936,-0.0602479,0.9652512,0.94451195,0.837416,0.82198656,0.30886868,-2.5228472,0.10247348,-0.19262916,1.5629897,-2.2622793,-0.33389857,0.63901997,-0.5625777,0.005423752,1.0594987,-0.6571595,1.2589657,1.7095959,1.869169,0.3314223,0.7589786,0.72689027,1.3465557,1.7831734,-0.116902165,-0.09109998,-0.37883937,-0.9257767,2.5301492,0.63032246,-0.08220654,-0.70000213,-0.62407243,-0.21306978,1.6679612,-0.2554952,-0.27476045,-0.25520912,-1.0373816,0.52452064,0.8274955,0.44538406,-1.1554275,1.5187598,-0.26552132,-0.69326967,0.3684304,-0.3100955,-1.8478549,1.2059294,0.4777819,-0.61843973,0.95098263,-1.0772134,0.82959336,-0.9137741,0.93612564,-1.40432,-0.07267419,0.54772496,-1.1571102,1.2355723,-0.21823318,-1.6162118,-0.10949801,-0.29207653,-1.8879794,0.6259088,-0.5694576,1.4247835,-1.0216273,0.9091084,-0.088241376,-0.6276829,-1.1149683,-2.6253393,-1.5494461,0.61825204,-0.4206173,-0.34399503,1.4676443,-0.009904187,-0.57089627,-0.7068725,1.7854406,-0.27278984,0.098071136,-0.31683704,1.6194335,1.7586831,-2.356895,-0.91972566,0.5387628,0.10324665,1.3485432,-0.65606415,1.3407298,-0.34541643,0.14028248,2.2920642,1.1682907,0.47191584,1.2496917,1.9703677,-0.24273238,-0.00026883645,-0.109392606,0.45716703,-1.9784889,-0.4637275,-0.47193182,-0.94707257,-1.2842622,-1.1454247,0.5028739,-0.03591655,0.5287102,-0.34189877,0.42167237,1.4953651,-0.16627678,0.99306,-0.59295696,-0.89539117,0.83065635,-0.7054526,0.62601316,-0.36289325,-0.24193008,-1.5373987,0.13820021,-1.0396761,-0.34848207,-0.895532,0.5887576,-0.7349211,-0.5732943,1.5653901,-0.4866365,-0.9848784,-1.6088098,-0.46937057,0.026827762,-2.0603206,-0.058534984,-0.14919847,-0.3391973,-1.8385618,-0.6150401,-0.11515348,-0.9216153,-0.53782815,-0.84103894,2.325403,0.5646383,1.910526,-0.9551701,-0.08149813,0.34483993,0.47808045,0.24335767,-0.54072756,-1.514113,0.60129553,-0.20890021,-1.291425,0.09472111,0.13837355,-0.4093559,-0.047209576,-0.86153424,-0.27171212,0.45539108,0.2127896,2.091453,2.508243,-0.8904466,-0.16347751,-0.90052915,0.020618537,-1.3228724,-0.08937501,-1.8126931,-0.56649613,-0.39333117,0.2294732,-2.2408133,0.09092217,0.8718642,0.5050525,-0.43039548,-1.1314104,-0.55027896,-1.5556315,0.7619123,0.83968425,0.56021965,0.67348,0.0035744454,-1.6146839,1.26801,-0.71899116,-0.5634334,0.3990246,0.12351526,0.30579418,-0.8651545,-0.3768398,0.13833696,3.0006986,1.2091283,0.54707116,-1.5565687,-0.52360165,0.569309,-0.9427058,1.2007747,1.0324916,-0.06744493,0.20946158,0.25047663,-1.2324805,0.1704467,-0.6567508,0.9286251,-1.7970376,-0.70302457,-0.30597407,-1.0942569,0.35471338,-0.5367937,-2.2845862,-0.034036104,-0.6668754,-0.056898475,0.026320904,0.0070459107,-1.0613406,1.805059,0.12813702,-0.12961781,-0.18964857,-0.04999199,0.38922566,-0.049413998,-0.354403,-0.7752533,0.26935446,-0.57067835,-0.47274324,-0.1907318,1.8005867,-0.009407336,0.7115871,-1.0628945,-1.4502099,0.057943765,1.3178749,-1.2777165,-0.08378547,-0.5741894,0.9864495,0.051748488,-1.5678904,0.08575609,-0.60715634,1.437885,-0.6415692,-0.5753953,-0.3128584,1.3860626,0.26513958,-1.8942678,0.10804543,-1.1403686,0.14440316,-0.5794011,-1.6557409,-0.3488236,1.0548846,-0.08337546,-1.2658641,0.17096291,-0.26566684,0.19830965,-0.87449384,-1.704996,0.27850524,0.6073546,0.2029152,-0.3573746,0.32400525,-1.7100886,-1.6870047,0.48297855,0.22539076,-0.07596691,-0.60871166,-0.9095151,-0.22216731,0.7869302,0.6864884,0.5534346,-2.4007683,0.1016805,0.33594704,1.2041366,1.3624616,-0.7909543,-0.84341055,-0.3252936,0.3291191,1.0447326,-0.60286707,-0.06431916,-1.0552475,-0.43755308,0.67598754,1.4270796,0.6899249,0.24149169,0.41037104,0.046282165,0.9320992,-0.048509616,-0.3254947,-0.019760769,0.37931475,-0.08205281,0.014719526,-0.062040046,2.0151503,-0.9888844,-0.92113656,-1.7655944,0.54447323,1.1283643,-0.19159509,-0.6787125,0.08758158,-0.38675225,-0.57321334,-0.86497754,1.2770717,-0.37667185,-0.8212259,0.6007284,-0.30542728,-0.7990115,-0.089541234,-0.7376639,-0.45753133,-2.0480723,-0.25360772,0.29204857,1.8385594,1.1615846,-0.47244456,-1.1437818,-0.6900642,0.5642859,-0.055270698,-1.3613281,0.8547038,-1.6412475,-0.17866413,-1.1595694,0.7220917,-0.22272547,-0.21560477,3.342637,2.0241747,-1.328325,0.70750576,-0.030370576,0.20519549,-0.55544925,0.62652427,0.41423032,0.1194718,0.8013247,-0.11563567,0.2862799,-0.61865056,-0.2789022,-0.35073996,1.2080836,0.5903404,-0.7654846,0.20092839,-0.8342229,1.2272738,1.5696658,1.221176,-1.014726,-1.3744832,0.19386277,0.50430435,-1.4665983,0.6991094,-0.42456868,-0.12374392,0.40438324,0.34320462,-0.76254976,-0.68871677,1.3787646,0.13496424,0.9417334,0.40446502,1.0617855,-0.4435832,1.5212327,-1.9985352,1.834551,0.19839868,-0.4995515,-0.6976379,0.8760117,0.41819933,0.31691095,1.6011505,-0.094904624,0.44316477,-0.70126766,0.57903767,0.7749974,0.35749155,0.8874942,0.08211606,-0.34734184,0.2097616,0.22544773,0.3960273,1.4608611,-1.3134141,0.36017525,-1.4778329,-0.26012823,0.62966096,0.27566206,-0.41276762,0.12295345,-1.1779072,0.2582253,-0.16053909,-1.985455,0.71193993,-0.005830783,-0.9504985,-0.72882843,-1.2678678,0.63367593,-0.6329144,-0.8701842,3.614265,0.5820243,-0.22027907,0.13233736,-0.2521442,0.039805595,0.1181272,0.51712084,-1.2736155,0.9296963,-0.83282906,0.28526208,1.0928442,0.33132908,1.3692049,-0.120380916,0.23231694,0.3014475,-0.7324781,-0.34486982,0.0934377,-0.7393767,-0.64209735,0.11807649,0.4916693,-1.0331681,-0.01682785,-1.0553517,2.0862517,-0.5578396,-0.15318659,0.37271947,-0.23712023,-1.0335574,0.43996704,-2.703259,0.6941663,0.47980338,-0.38042864,-0.2928004,-0.13140143,0.4176318,-0.071327336,-0.18180156,1.4612429,-0.8649101,0.81824976,-0.106945395,0.63888866,-0.90303886,0.3107124,0.36025187,1.0301096,0.86155736,-0.71153533,0.84531665,-0.67643505,-0.5119526,-0.29869145,-0.14340621,-0.5213741,-2.5685344,-0.47858998,-0.2595161,-0.15923601,-0.23446938,0.15283433,-0.43209076,0.48862207,-0.20434943,-0.10052298,0.13675828,-1.9285337,0.68548685,0.15052317,0.7195164,-1.881017,0.187534,-1.4466466,0.45756415,-0.41263327,-0.27164638,0.51694334,-0.3072229,0.7177495,0.5895425,-0.7994674,-0.42244068,-0.42968595,0.20025109,0.1641218,0.8540083,0.92046875,-0.8841855,0.95605457,1.1660811,-0.8386311,-0.25399655,-0.106445506,0.82804215,-1.3354619,-0.11790256,0.5729934,0.8208129,2.3884063,0.093529336,1.464224,-0.26263767,0.6218002,0.37034032,-0.4721836,-1.2666357,-0.7858174,0.67712176,1.0120364,0.02229487,0.43117574,-1.2108299,-1.0605209,-1.780878,-0.93725556,0.92124873,-0.8057773,0.16137399,-0.14258912,-1.0906385,-0.37758875,-0.70736516,0.6117993,0.3322835,-0.27208814,0.3760023,-0.87808675,-0.44734842,-0.12921299,1.3624768,-1.2109325,0.9620537,-1.179877,-1.0045804,0.26680115,-1.7773743,-1.1212361,0.2558828,0.008211335,-0.5694862,2.1416066,0.6527726,-0.7301505,-1.7316086,-0.03707073,0.8678998,0.7870916,0.45342922,-0.44110456,0.43467984,0.38497704,0.042171657,-0.8690023,-0.2236831,0.39225972,1.1560092,1.8204778,-0.10140155,0.3601624,0.111324176,-0.71358806,-0.8164774,0.75496763,-0.032766674,0.6486976,-0.02900049,1.1614928,-0.32863313,0.117653094,-0.10681402,-0.9359169,0.7426579,0.7143946,0.8689448,1.0335248,1.7844551,-0.02861479,0.9845015,-0.6085577,-0.15709959,0.91505915,1.3111821,1.8063937,0.6255322,-0.75506365,-0.5693196,1.66461,-0.8571511,-0.03061648,-0.27377337,1.0026218,0.6286045,-0.11840758,-0.68915784,0.8480619,-0.144479,0.34498355,-0.6938802,-0.029335428,2.3676057,0.64998573,1.7108855,0.50260997,1.203399,-1.7003382,-0.5348639,-0.21273582,1.003064,0.9188144,0.65526336,0.4624047,-0.29254693,0.057278506,-0.8844258,0.61557984,0.51243466,0.2487502,1.6875216,1.0282705,-0.6520173,-0.86954725,0.031813025,-0.12865046,0.47855803,-0.9922594,-0.8609857,-0.5426511,0.90730053,1.3735296,-1.5472919,0.2662666,0.053367034,0.8688296,-0.089230776,-0.69752383,0.029226981,0.09133068,-0.17481853,0.8211333,0.89134604,-0.48551974,-0.03076541,0.674051,-2.5447843,-1.0849786,0.62533885,0.18813913,0.5212783,0.073399544,2.5178645,-0.08563865,0.18378963,0.63820755,1.1584519,-0.79314625,1.0578163,-0.9728206,0.31568906,1.0147964,-0.023568047,-1.0863904,1.162554,-0.37674448,-0.27433702,0.89443713,1.0839161,0.52126586,-1.6430013,-2.1727862,-2.2753878,-0.46413225,-0.5741962,-0.23807248,-0.3690036,-0.12346323,0.11480133,-0.03183299,1.3705823,-0.7580135,0.069096535,1.1306297,-1.0680279,-0.1136519,-0.7701897,-1.3103306,0.2468788,1.1959742,0.65014386,-0.6790053,0.6536841,0.16691184,0.06056205,0.51704,0.9003792,-0.69541305,0.3621362,0.40684766,0.07008533,-0.8567342,0.1988422,0.32425955,-0.5375991,2.0299916,-0.014216549,-0.17985116,-0.9927371,-1.9366106,0.67045456,0.27811486,-0.22062503,0.4895442,0.9795512,-0.06930004,1.142674,-0.23746978,-0.28847134,-0.29797542,-1.323005,0.7015468,0.7059151,0.17255849,-0.26248553,1.3868479,1.0550766,-0.07242358,-0.30719718,-0.538407,-0.08731679,-1.5479232,-0.8086353,0.72380567,-0.6459091,-0.36555922,-0.6893755,-0.9076236,-1.3583671,-0.34341648,0.14761204,-0.03986255,-0.76644516,-1.0350124,-0.332389,1.2966189,-0.81449944,-1.3031889,-0.5467329,0.5287581,-0.4004243,0.24552506,1.155154,-0.4678179,0.00016909953,1.7101105,0.062867224,0.90688294,-0.30088407,-0.41695055,0.2408069,0.20222855,-0.52304816,-1.3532544,0.8471709,0.3461755,-0.20038465,0.1613257,-0.36081335,0.56136787,0.0828395,0.696642,0.4397275,-0.25002617,0.9847768,-2.5562842,-0.6229424,-0.6243459,1.1753949,1.4589506,0.54007566,0.8871082,-1.0397468,-0.26176035,-0.493648,0.8041241,-0.6290311,1.08305,0.41973794,0.7649432
rbq003,0.35276556,0.6599278,0.30820927,-1.1667513,-0.4306341,0.043617938,-1.3467008,0.45062426,-0.27494702,0.5583636,-0.6368393,0.66859555,-0.78264254,-0.090033054,0.053003896,-1.4144936,0.1089075,-0.4297901,1.4184912,0.70770675,-0.46209264,1.3852049,0.01789605,0.22059494,0.020407518,0.48714843,2.0287676,0.57479197,-0.2610738,-1.7430216,-0.05707925,-0.38099155,-0.7402708,0.32715002,1.4821657,-0.6542083,-1.0663356,0.3881981,-1.6680211,1.2779679,-0.77987534,-1.483399,1.8213196,0.1307242,0.05708626,0.40528312,0.38179994,1.2237998,-0.38757715,-1.3653778,-0.38984683,0.2661973,1.805531,-0.20978464,0.9799399,-0.16309303,1.3424999,-0.15015535,0.33625996,-0.16070992,-0.028563974,0.28425208,-0.43155196,-0.3557074,-0.3688128,0.2369659,-0.18877292,0.96152455,-0.45789692,-0.06983028,-0.55841464,1.4760456,0.037574146,-0.81250745,-0.27410957,-1.3215784,0.22253913,-0.74313235,-0.7066031,-0.031252246,0.20559722,0.44950816,-1.4249779,-0.88040704,0.15937813,-0.68170005,-1.1818494,-0.77930856,-0.17249899,1.3001723,0.14702792,-0.7027383,-1.2814946,-0.18840617,1.482098,0.2559228,-0.20474012,-0.5093471,-0.1184564,0.21462452,0.026349813,0.5548269,-0.11798606,-0.44845405,0.23960175,-1.6549984,-1.2885041,-0.88167053,-0.059714925,-0.433073,-0.35885373,0.016578617,1.2565175,0.22620094,0.34644404,0.6535223,-0.5481835,-0.6701975,0.84147805,-0.46881738,-1.5254145,0.82096606,-0.028155332,0.29457858,0.91252726,-0.5208986,0.16564737,-0.36067495,0.22810067,0.17975055,-0.4717057,-1.9551207,-0.40506804,1.0534828,0.6084067,-0.3927733,0.5636743,0.9664661,-1.3925296,-1.4187828,-1.1086009,-0.8109927,0.8100271,0.22715057,1.221757,-0.7352071,0.71430635,0.23333661,-0.026100865,-0.32911107,-0.38199413,-0.1472166,-2.1640692,-0.8051191,-0.35062352,0.91728634,-1.0934042,-0.5206422,0.36193228,0.09295557,-1.9957861,-0.2755312,0.41057086,1.5418652,0.7203714,1.2592454,0.70088196,-1.682003,0.72401494,1.3225487,0.7749371,0.53507346,0.10648855,0.3393836,0.04944773,-0.33911428,0.4720554,0.23391433,-0.39933154,1.0195564,0.69556284,0.49898288,-0.64667577,-0.08174879,1.3953282,-0.9148853,1.9089772,-0.11050702,-0.029965928,-0.81860524,0.071350195,0.7167711,0.592905,1.3919185,-0.07550788,-0.017614968,-0.30675808,0.7514965,-0.11441621,0.95643884,-0.74765825,1.3700724,0.0076194555,1.7405065,0.91892797,0.2359805,0.19720705,0.025463076,-0.1821195,0.5069109,2.1103282,0.532654,-0.12689357,-0.12756391,-0.18902624,1.4115607,0.7473107,0.08082513,0.35105333,0.96176285,-0.8956135,-0.45641372,-0.04183807,-0.98723316,-1.3180312,0.81840044,0.051495973,-1.714826,-0.25100988,-0.57619166,0.85110706,-0.75811404,-0.19469215,-1.4475938,-0.7919387,-0.51461196,-0.20071453,0.21994162,-0.14569794,-0.5712704,1.2374158,0.6968356,-0.68484193,-0.20324005,-0.47734317,0.79512864,-1.7842741,1.9762949,-0.6181119,-0.4149966,0.36016127,-0.13290021,-0.41069582,1.0844928,-0.4680893,-0.6965461,0.5076595,-0.058108132,-0.9542274,-0.8313976,1.6617247,1.1352539,0.018686473,-0.18246587,1.6012764,1.8521972,-0.9126789,0.05776451,-0.21956225,0.5138779,0.0045200884,-1.5700599,-0.08450065,-0.42074528,0.5610711,1.1576306,-0.25054637,1.3593434,0.564549,0.0023396127,0.51391786,-0.29246846,0.08536348,0.23236732,0.3928496,-0.8092487,-0.43109766,2.093949,0.44479933,-1.7058891,-1.3057809,-0.17932771,0.3782153,0.7543962,-0.936101,-0.09900593,-0.44265476,0.23244976,1.9092122,1.0403073,1.5004387,-0.95141906,-0.19403692,-0.6247688,0.3731213,0.122908294,-1.1605524,0.42803693,0.14743732,1.0538827,0.19763564,-0.9788234,1.1666611,0.37668172,0.36494222,-0.9240386,-0.66977316,0.06640995,0.47356424,-1.6740198,-0.6941898,-1.8542012,-0.5145955,-1.2344089,-0.40713143,-0.3698562,-1.0044928,-0.13189478,-1.2437395,1.4240545,0.14471494,-0.37207222,0.358546,-0.056939438,0.92913073,-0.9424564,0.6238101,0.008531039,-1.0412815,-1.7121477,-0.6717599,1.7144064,0.6183155,-0.52824205,-0.30223286,-1.0285254,0.6790326,0.24902694,0.20840198,-1.2980944,0.26901647,-0.3061919,-0.48568788,-1.4114293,-0.50280136,-0.50729984,-1.1013392,-0.20296635,0.667059,-1.4879812,-0.6384421,0.46034133,-1.6660415,0.6991966,-1.0949799,-0.36054924,-1.1671458,-2.553623,-0.16125204,-1.2972369,-0.9080787,-0.41780162,-1.2063712,-0.5066293,0.0027057354,0.80288005,0.5451536,-0.75717944,-1.5077652,0.44915268,0.4146532,-1.1857376,-0.41140434,0.9033243,0.23613632,2.0940795,-1.0489007,-0.6064544,-0.23904435,-0.014425908,0.43223277,-0.047507703,0.26744938,0.8735663,-1.4872252,-0.30683827,0.76461387,0.36349657,-0.08906271,-0.5833819,2.0965092,0.28921378,-0.31598437,-0.46783733,-0.05809854,0.7642076,0.4659915,0.045012604,-1.315283,0.08142671,0.6456417,-0.5571861,1.1996927,-1.2892107,1.829285,0.26278368,-0.38768566,-0.43286386,-0.007533291,0.53150684,0.012997004,0.6082559,-1.8555822,-0.5585096,-0.682291,0.10901317,0.1885498,1.254963,0.6248885,1.0405616,-0.55347043,1.3177562,-1.4501562,-1.5173978,-1.0866729,0.121656895,0.18004982,-0.4926381,-1.0385966,-2.2776134,0.5389562,-0.5183527,0.6150217,-1.3554491,-0.3992292,0.072052695,0.33949876,-0.5710206,-0.83229846,1.5117373,0.65336496,-0.23302464,-1.3777332,-0.085252166,0.63115054,1.0200418,0.08714283,-0.16340254,0.9169567,-0.6457669,-0.037189733,0.09166685,0.390245,0.61794823,0.6440409,0.52509594,-0.14182724,-1.6808963,1.1687067,1.1333972,-0.8956192,0.6334942,0.46065262,0.25683132,-0.118611984,-0.9200255,-0.25025454,-0.075172536,-0.47515646,0.45915422,0.5184684,0.05463266,1.3418059,0.8356883,0.57930726,-0.012919418,-0.519787,1.3218948,1.4041842,-0.68103725,0.2697114,-0.9732942,-0.7540045,0.88925797,0.9834259,0.28067204,0.14135182,-0.024622902,0.49984848,0.10077122,-0.37873957,-0.79857045,-0.6566559,0.7578361,-0.62756586,0.16957086,-0.9077773,0.38774335,-1.0165421,-0.26600966,1.0695415,1.557425,0.13238613,1.7548839,-1.4484476,0.57126254,-0.84238106,0.7617858,0.61075974,-0.7144262,0.46030077,-0.7086897,0.78432685,-0.9523511,-0.32543367,0.19547798,0.19740844,0.51282454,-0.8445155,1.1406871,0.75965,0.09644873,-0.27963835,-0.41345647,-0.8851452,-0.6712019,0.56801665,0.46149087,-1.0298566,0.907758,-0.695436,-0.39772093,-0.5773867,0.18600829,0.849673,1.0663413,0.22008683,0.84157306,0.59421325,-0.26112568,-0.35725436,-0.10290813,-0.52990407,-0.05186105,-0.2945564,-0.28049597,1.4934573,-0.98453474,1.9480404,-0.21929644,1.5386232,0.6189261,-0.26750833,-1.2892514,0.565855,-0.019288458,-1.4160908,1.068383,0.32324338,0.48877838,-0.048245836,-0.62891287,-1.0786546,-0.8913924,-1.1866815,-0.04144102,-0.35514525,-1.2476139,-1.0097712,0.08781061,-1.5175694,-0.2683598,0.1964918,1.6101481,0.006792424,-0.66707444,0.79460186,-0.9395271,0.30694327,-0.94086236,0.049428154,0.73483974,-1.4812493,-0.3255219,-1.0970536,1.0216255,-0.65334123,0.017202547,-0.23710157,-0.89954424,-1.2228719,0.5585649,-0.24922866,-0.39680538,2.0398414,1.1921722,1.1174266,1.3638617,0.9090864,1.2153718,0.09152315,0.12827925,0.05843552,-0.09207261,-1.5818466,-0.21007442,0.6833575,-0.77509445,0.048600644,0.9407222,1.1423013,-0.33878934,-0.8796552,-0.23360975,-0.7720657,-0.47759143,-0.14707237,-2.0274756,1.1729589,-0.59695184,0.5372376,-0.2079339,-0.23480034,0.36022022,0.5549462,0.2822968,-1.0764368,-1.2145393,1.8983979,-1.0666162,0.040936653,0.23069143,0.36930275,0.47673783,0.40376225,0.27307537,0.8179938,-0.659564,-0.36715817,0.38331202,0.25285998,0.45480728,-0.53369516,-2.175373,-1.5139576,0.05046688,0.26934758,1.2657022,0.39673093,1.011124,-1.6601281,0.12087882,0.09839165,-0.65130955,0.19154972,0.37333202,0.8923457,-0.19320679,-0.9168551,-0.77787256,0.47408843,0.6468826,-0.46320513,-0.31495133,0.1425329,0.05256803,-0.72213095,1.9766937,0.3626487,-1.2921133,-0.8770549,0.35107544,0.16595678,-0.24876048,0.426108,-1.3323392,-0.19975935,-0.6172233,-1.3471489,-0.72894746,-0.08339109,0.54527456,-0.1558812,-1.370265,-0.68138003,-0.6555026,-1.1630511,1.0717281,0.22497654,1.2083529,0.34954605,0.7965805,-1.5952953,-1.2686962,0.15418181,0.97827345,-0.289755,-1.2324363,-0.84072876,-1.286126,-0.84001654,1.5221233,0.40247917,1.205503,0.28824925,-0.70449215,0.42153892,-0.23085171,-0.5647089,-1.2313415,0.33130878,0.21409535,-1.8633426,2.4471748,-0.53629655,0.06701192,-0.37910724,0.41509953,0.087250024,-0.051024947,0.8458758,0.3770738,-0.4043622,-0.3045116,0.32959875,0.4293516,-0.7175452,-0.3360661,0.6233918,0.607102,0.73970485,0.19451253,-1.1335765,1.7559633,0.18052436,1.5008516,-0.18909808,-1.9024404,-0.7895543,-0.122856945,0.692885,0.5247719,1.5222994,0.81538504,-0.24544132,0.5018504,-0.69194,-1.2288244,-0.26403356,-0.18256402,-0.06845899,-0.10683918,-0.4856721,0.34823373,-0.38106894,-0.97518635,0.32651812,-1.2300972,-1.3365479,-0.45957398,0.2275699,-1.0858341,-1.3310176,0.00561971,-0.66779876,0.94249195,-0.26086095,0.30934548,0.7616267,-0.79449314,-1.3397651,-0.5919562,0.05510832,-0.07373162,-0.7436926,0.018705709,-1.440746,0.18241881,-0.206908,0.9089012,0.6140882,-1.4084787,0.21012442,1.3855643,-0.080245435,-0.06582508,-0.7216921,-0.5699911,-1.4598614,0.15479507,-0.122717895,-1.3210486,0.59190744,0.35492322,-0.043518472,-1.3269703,0.94922155,0.43415403,-0.15406401,0.94408196,-0.1261201,-0.22039337,1.3969392,0.23848446,1.4370548,0.16476533,1.7790065,0.45981154,0.014235969,-0.0880932,0.06340059,-0.24879818,-0.7980013,0.3027944,-1.0486523,0.8865566,-0.2469724,0.02452767,-0.085912906,-0.7945285,-1.6805058,-0.11174396,-0.69552636,-0.84968233,0.35193077,-1.2098895,-1.2245847,-0.12206497,0.6407533,0.068327956,1.0082814,-1.8808327,0.43440259,0.33609214,-0.5885888,1.6821581,-1.5275178,0.038652543,-0.34997532,-0.21573895,-0.41617593,0.32963154,0.027184375,-0.1017388,0.91605407,0.94467694,0.57318383,-1.3576536,-0.59823656,0.18484814,0.093449615,-0.36132935,-0.051844522,1.6466188,0.46106502,-1.1148024,0.74299836,-0.23620684,0.8735156,-0.17309107,-0.6720839,-0.9491933,0.61356014,-0.43957922,-1.468524,1.5051428,0.36775324,0.17772587,-0.17714517,-0.8064677,0.8273477,-0.17315875,0.7617505,0.5600951,0.8048973,-0.35495332,1.1581837,-0.11341699,-0.95648193,0.120862335,0.69605416,-0.082731664,0.012765437,-0.7872773,-0.005603584,-0.06621156,0.18932569,-0.028280815,1.7450444,-0.8096066,-0.07301206,-1.6111482,-0.6579321,-1.6489798,-0.3396757,-0.13992952,-1.4806167,0.35525224,-0.8770972,1.505627,0.894547,1.0182915,-0.18285598,-0.6534107,1.8693657,-0.82814264,0.90101856,2.4132273,0.22971697,2.0037107,-0.45489296,-0.5678787,-0.9738223,0.61384547,0.18758327,-0.17272204,0.71735597,-1.9137478,-0.29219297,0.061776374,1.1760863,-0.8991839,0.68691355,-1.2970432,0.31228304,-0.867697,-1.1366467,0.48339412,0.8331003,2.025139,0.009380882,1.1464134,-0.17992878,-0.8103759,0.32097435,0.4371309,-1.1987749,0.37941763,1.1849898,0.069966845,0.73511773,0.2531965,0.38012853,0.3329258,0.61987597,0.7502541,0.3530507,-0.33909476,-0.345728,0.05364581,0.586085,0.57786983,1.1171353,1.4669437,1.262368,-1.2483033,-1.4150081,0.30817583,-0.05788685,-0.08561286,-0.015970023,0.24790847,-0.33436212,-0.8956065,-0.96510506,-0.3907844,0.57590383,-1.0364488,-0.06215179,-0.05135995,-0.6171171,-0.9744809,0.13771437,-0.7156773,-0.59800684,-0.7263355,-1.4113998,1.1275507,-0.18073143,-0.35949883,0.20315595,-1.3096664,1.2454594,-2.1352022,0.67565536,0.3901761,-0.46839848,1.4589258,-0.35483083,0.5579713,0.58629763,-1.2592779,-1.0791717,1.6381058,-0.21704514,-0.29504287,0.36614442,0.38663694,0.21813802,-1.5561533,0.5420158,0.59245765,0.638582,0.5164824,0.23544353,-0.80786496,-0.28449705,-0.15190907,0.32595173,1.7012457,-0.23327531,-0.58285016,-2.44234,1.4994307
rbq004,0.30894732,-0.23581046,-0.54640377,0.8071832,-0.19746897,0.3943104,0.57615954,0.24519782,-0.44259992,0.38593966,0.047374595,1.2618697,0.024781909,-1.5055618,0.6744611,1.1887743,-0.00057031144,0.5024784,0.44233087,-0.5283761,0.78324217,0.6339245,-0.91196734,-0.64150363,1.6944996,-0.02108279,-0.21520437,-0.48397642,0.59617007,-1.7114538,0.12678154,-0.099880606,-0.38324046,0.014038647,-0.76692784,-0.38178876,-1.0853382,0.63381726,-0.108112335,0.48255748,-0.351348,0.47156638,0.8317368,1.0654619,-0.15604755,1.4066052,0.23848352,0.24939403,0.99613017,-0.21081126,-0.8857042,-0.18501893,0.59485745,0.21338914,-0.32126582,0.18913348,0.20055544,-0.3946511,-0.26527795,-0.95020115,0.23162976,0.83779436,0.7358754,0.4460483,0.96810466,-0.11378733,-0.8539628,-0.58569056,1.1343652,-0.20957243,-0.43658412,0.52502286,-0.6267886,0.8663119,-0.07951695,-0.49357313,0.7393649,0.08813697,-0.3834857,0.26447138,-0.81939304,-0.13722537,0.4231071,0.502024,-1.099392,-0.87750155,0.35729983,0.31288406,-0.5795307,-0.79730827,0.0752031,1.3507845,-1.0540652,0.6111081,0.7283184,0.34061438,0.8134843,0.062388465,-0.356215,-0.15168574,-0.6935344,0.3088324,-0.015751276,1.0178092,0.0662045,-1.5018324,0.04561728,-1.6253246,-0.01848358,-0.9423196,-0.34385082,-0.31338483,1.0275304,1.5811199,0.8611897,0.55256635,0.19808924,0.75546,-0.044860702,0.43071133,-0.039944787,-0.99534446,-0.977528,-0.65666616,-0.32801834,0.35579962,0.06180388,1.2281904,-0.15371053,0.4199927,-0.5202702,-1.0888679,-1.0392997,0.39878622,-1.399053,1.0933287,0.68726575,0.8618008,-0.83681995,-1.4981837,-0.62385803,0.38391194,-1.1078234,2.602718,-0.44043887,-0.7709525,-0.012181645,0.5583913,1.152423,-1.626899,-0.7994012,-0.47312632,-0.402772,0.14634115,-0.25991863,-0.20253532,-1.2237014,0.899824,-0.10991547,0.74007666,0.1386307,0.3622682,0.09686731,0.25051397,0.30371675,-0.35992345,0.5836986,-1.7296263,0.17013629,-0.31457838,-0.81958824,1.5613729,-0.8925705,-0.6681047,0.46701804,-0.6018533,-1.1740167,1.4031694,0.93035305,0.3716085,-1.3097305,-0.07030944,0.2057894,-0.2923355,-0.82409066,0.25238496,-0.8482588,1.091277,-0.746134,-0.48121244,-1.2374529,1.1776227,-1.8628966,-0.58758616,0.13974373,-1.2908984,0.35063034,-0.60872144,-0.7103989,-0.16960634,-0.114321366,0.25021476,-0.565614,-0.6181428,-0.7173926,0.20650049,0.9007703,1.569792,-1.0030965,-0.2005367,0.1906365,1.2175359,-0.8902744,-0.5496107,0.24787495,-0.7645903,0.15207706,-0.5721173,1.7237142,1.3734076,0.9313693,-0.07296314,0.20923553,0.054917596,-1.4507008,-0.1616024,0.5248597,0.710861,0.7391739,-0.7496591,1.0573083,-0.75946367,-1.7504098,-0.0711104,0.24148265,0.15970233,0.08971091,0.85319626,0.16046402,-0.3539699,-1.1983846,1.0152061,0.9218278,0.025680706,-1.4815671,-1.2894408,-1.1694012,1.6508633,0.028483525,0.7822142,-0.8429302,-1.3836716,-0.44396418,0.16853882,1.575127,0.65104675,-0.62343925,1.4053738,-0.017200759,-0.004072964,0.08093405,0.44988787,0.35986304,-0.96667224,-0.65711296,0.86370695,-0.5546748,0.010792883,0.35447744,0.7731276,-0.25714743,0.6841222,-0.12600671,-0.9907033,-0.58029056,-0.8390841,-0.73751795,0.643654,0.3985528,0.25133237,2.0872242,0.88782966,-0.99609154,-0.3288212,0.3414071,-0.99526125,1.8203906,-0.15269929,-1.1491053,-1.6305616,-0.36564127,-1.9321734,0.56631494,-0.13739629,-1.0986037,0.87823105,1.2709479,0.88736796,0.78858066,-0.5522641,0.023529217,-0.8495122,0.56844413,0.49398065,0.23254517,0.14493208,-0.27547622,0.40789223,-0.47261247,-0.26664576,-1.2724276,-0.24591115,-0.27395937,-0.7075883,0.02368581,0.6265359,-0.36280695,-0.06743816,0.41400078,-0.36977887,0.43733114,-0.08274881,-0.74425775,-0.20278063,0.061191157,-1.0989981,-0.0009187744,-0.3874822,-0.1886894,-0.43458885,1.5356244,-0.67304504,-0.6610941,-0.46325833,0.27462664,0.12299897,1.136565,-0.020458456,-0.6275552,-0.96359706,1.318546,0.61113423,1.284085,0.9419464,-0.45808265,-0.7785194,0.22768003,-0.31064388,-1.3861616,0.86996144,-0.25172493,0.7773175,1.265229,0.16396873,-0.68516386,0.1879304,0.44555864,1.3685822,-0.2373588,0.02030628,0.048563037,-0.3440433,-2.0624495,0.48590416,1.0696044,-1.3518376,-0.2039409,-3.002957,0.114406236,-1.6479613,0.361403,-0.12577248,0.6398772,0.78303444,-0.22498816,0.46272755,0.28537574,-1.1103492,0.40198585,-0.25707635,-0.55144536,0.740801,-0.18300457,-0.27228665,-1.2419826,0.3365611,1.6677215,0.24884063,-1.3652809,0.90436625,-0.27076462,-0.7384142,1.3353605,0.34307608,-0.6380024,0.71421987,-0.12676664,-0.32388195,-0.6969179,-0.05311942,0.21866876,-0.60419154,0.0888872,-0.20941444,-1.8585652,-0.9998049,-0.63335043,-0.7875399,0.5650801,1.2862728,-0.732417,-0.0370294,0.008850146,0.31416583,0.566426,0.9139914,-1.1919258,-0.2169852,0.5063319,-0.95539856,-1.4555345,-0.14667298,-1.4642323,-0.31836143,0.27612114,-1.2871478,1.0115656,-0.21566886,-1.0878268,1.6462649,0.54558897,0.4022491,0.0270687,-0.0927426,0.625295,0.4703344,0.0713258,0.60948503,-0.0047948174,-1.4765791,-0.5507282,-0.16053824,0.3409371,0.83177114,-0.50593513,-0.3420287,0.40375227,0.8819826,-1.2380284,-0.27284056,-0.6054626,0.7523419,-0.45804292,-1.3702732,0.76282644,-0.7964778,-1.4030639,-0.2347299,0.6920489,-1.1580368,0.786534,-0.4127091,0.12403371,0.52576363,-0.55289185,0.17398146,-0.056164913,-0.55056125,1.5009482,-1.0970858,-1.1302904,0.31343237,-1.8887564,0.16320328,-0.060442,-0.9698678,1.3346822,-0.059840713,-0.5031968,-1.5308626,0.020969426,-0.44399923,0.16503362,0.7916478,-1.1447912,-0.62721825,-0.32565105,0.071933806,0.12894566,0.74289215,-0.46006688,-0.6088482,0.44552213,1.5958487,0.9854589,0.24153748,-0.9138721,-0.48665583,-0.7486309,-0.93517685,1.0443339,-1.2104155,-0.16374962,0.43602642,0.29884747,-1.045457,-0.2936259,1.0172418,-0.9180939,-0.025204048,-0.5016133,-0.8472524,-1.0355792,0.9051212,-0.48002657,-0.101122946,0.58804786,0.2860799,1.8827584,-0.15096124,-1.7141658,-0.4166245,0.5870158,-1.5484984,-0.58551806,0.26515415,0.28956628,2.6975312,-1.1330599,0.8827485,-0.046215206,0.5571839,-0.67011696,0.7916208,-0.2938306,0.07515258,-0.15521038,-0.6684121,-2.2865927,0.9162296,0.82350785,0.71917754,-1.749388,-0.30577272,-1.0993154,-0.1954282,0.97940433,-0.08566647,-0.39945638,-0.54084903,-0.49323326,1.1886618,0.50066197,0.3152271,-0.9514247,0.28359675,0.69155693,-0.69123936,0.26558563,0.07780701,-0.25775877,-0.5069637,0.28637967,0.08787834,-1.7741421,0.6048804,-0.37349328,0.5987448,1.4010584,-0.1536949,-0.016601171,-1.129802,0.09772823,0.6892615,0.8176403,1.123913,-0.20817856,-0.27988806,0.9835545,1.1213382,-0.36599028,-1.5953202,-0.21883056,1.5644686,0.13740623,-0.9781661,0.6556901,0.88095427,0.4256917,-0.44272208,0.795831,0.81914663,1.4904869,0.71607405,-0.9622718,-1.067108,0.790508,1.2152754,0.28083697,0.7250907,-1.3421451,-0.39263207,0.9496299,-0.7116396,-0.43343395,-0.72944385,1.1408861,2.0354092,0.68868715,0.3435501,-0.84030485,-0.33167943,0.64020747,-0.3185757,0.6526143,0.9649284,0.9058263,0.4486845,0.80086756,0.45041674,1.9931773,-1.9382339,-0.31125614,-0.5623422,-1.0329123,-1.0558478,0.9801953,0.6229948,-0.17049268,0.20148009,0.1007454,-4.7179556,-0.6657025,-0.49389535,-0.46721476,-0.8866599,0.2772366,0.8514815,0.99562407,-0.14630967,-0.75817883,-1.1009885,0.13602479,-0.31415844,-0.7130147,-2.4048238,0.5012563,1.3882272,-0.0229597,-1.410533,-0.043118224,-0.89104736,-0.12708509,-0.16002053,0.7985074,1.533998,-1.5607425,0.16910979,1.1878375,-0.8811522,-0.00092990056,0.33000654,0.25730413,-0.5959102,0.020112945,1.6693157,0.83643794,0.30464005,-0.001955507,-0.13017854,-0.75655204,1.7456095,0.25529498,0.3433465,-0.680895,-0.31998095,-0.048816215,-0.65778005,0.72758716,0.3909146,-0.24883711,1.415443,1.0852721,-0.25473773,-1.8887625,-0.5408098,1.1149318,0.7723441,0.26574892,-0.04168547,-1.5043186,-0.49704424,-0.16132228,-0.019276472,-0.3769218,-0.2464085,0.75513095,0.35663342,-0.69913167,0.6966399,-0.6914531,0.38157257,-0.4309505,0.094072774,0.72154593,1.4219182,0.71312606,-0.13940018,-1.9680942,0.15668228,0.71253127,1.4101022,0.38381305,-0.21973385,-0.17728654,-0.8977254,-0.19406444,-0.075321995,-3.1429386,0.09322032,-0.14373748,0.1399212,0.1945507,-0.14375187,0.18237703,1.0402639,0.74048096,-1.243248,0.5161124,-1.0486156,2.3009808,-0.23662667,-0.19486982,-0.04892506,0.7412312,-0.2947139,-0.11914821,-0.08129753,-1.8044074,-1.7153342,-0.23676214,-0.31229797,-1.8203288,-0.44149193,0.27640465,-0.70794696,-0.28553003,-0.59663,0.4100055,-0.5889435,-2.147929,0.010324895,2.157409,-1.128322,0.31958503,-0.850046,0.054846082,-0.2523036,-0.026190678,-0.5660004,-0.121916786,0.68726575,-0.54496884,-0.8408918,-1.4842433,0.8527297,0.77345383,-1.8337128,-0.455823,0.23504868,-0.20023969,-0.8592436,1.699989,-1.0788186,-0.79594266,-0.4069097,0.35406938,2.02739,-0.5533312,-0.82334965,-0.12731518,0.58427304,-0.48645228,0.9376602,0.28970572,0.1342077,-1.5965022,-0.11319167,0.3964189,0.24646895,-0.11327303,0.09810357,0.59774673,0.32564357,0.04898917,-0.33160424,0.26442596,-0.8785106,1.2692671,0.30027577,-0.3892895,0.9704994,-0.93361866,0.5345769,-0.75409305,-0.6232924,1.0224615,0.34363857,0.06839017,-1.6608107,1.7132242,0.8383295,0.031362824,0.15168725,0.82659185,0.9089248,0.19220693,-0.44993082,0.1516068,1.825498,0.76950216,1.1899468,-0.27564296,-0.97121555,1.7324506,0.62388086,0.14922692,0.2916949,-0.7059098,1.3597537,0.49349698,2.7124684,0.7027164,0.44851694,1.0662957,-0.017046964,-1.3413032,0.90573984,-0.97028816,-1.1482245,0.5204791,-1.718331,-0.067910776,-0.5658841,0.15085645,1.0904455,-3.220373,1.2606355,-1.3303889,-0.5368859,1.2061952,0.5026717,-0.32816404,1.4054773,-0.6535279,-0.5451598,-0.89728945,-0.47371754,-1.6574323,-0.7204729,1.4023622,0.69091636,-0.04430273,0.6552869,-0.8526643,-0.11230518,-0.0165912,-0.34050682,0.2565234,-0.44670978,1.5644674,0.31630737,-0.9476429,-0.11688815,1.5593334,-0.068538405,-1.1327634,-1.1765639,-0.29937917,0.0104915425,-0.59958965,1.0362009,-1.0090212,2.2041743,0.78152037,0.47032365,0.02258951,0.16923447,0.43025252,0.23977695,-0.61315626,-1.3118739,-0.05947655,0.22622222,-1.3684038,1.0764883,0.34385553,-0.67188346,0.015941365,1.3348207,-0.2145234,-0.2534078,-0.18163686,0.5340435,-1.2577391,0.7197799,0.13262989,0.9600149,-0.6789598,0.7690454,0.82435334,1.0100008,0.36018,-0.010370748,1.6611105,0.77691144,0.4534196,0.21439244,-0.59348667,-0.101634435,-1.0648999,-0.2877374,-0.7463115,0.46147382,-1.0083219,0.061486084,0.9427112,-0.76438886,-0.23214293,-0.21544024,0.6365927,0.035962306,-0.6237316,1.4518373,-0.53862256,-0.1410746,0.15269963,-0.36220038,-0.37248436,0.38841176,-0.56220835,1.1316851,-0.32860866,-0.0935818,0.8816203,-1.0486543,-2.9569278,-0.26027775,-0.0047840206,-1.2752963,0.56210774,0.7690286,1.2005816,-1.036218,-0.5242316,1.5103211,0.28047484,0.6114989,-0.79499054,-0.9454582,-0.9571141,0.5938428,0.31662938,-0.38959286,0.7977139,-1.5695912,0.41576248,0.5767194,-0.4166891,-0.5384223,1.0946776,-0.66345394,0.7961493,0.40445447,-0.120880716,0.48611704,-1.0732826,0.6549634,0.26104745,0.46102577,0.3791701,-0.37538344,1.2996979,-0.5613551,-0.7573402,-0.5780129,-1.3435603,1.7530237,-0.5151086,-0.022573227,-1.4871932,-0.50676084,1.014421,0.27117482,0.031970244,-0.6436215,0.24416836,1.6330165,1.4244308,0.41702974,-0.9803952,-1.2160592,0.61335534,-0.5461264,-0.26982427,-1.2582849,-0.58214045,-0.7643576,-0.6252676,-1.388707,-0.9587773,-0.7144952,-0.756196,0.45663288,0.36303195,0.31488818,-0.15163624,-1.302053,1.0254964,0.25030237,0.24258287,-0.16857803,-0.44712794,0.055773053
rbq005,-0.7413344,0.07015736,0.36047357,-0.40587747,0.094838016,-0.090624996,0.06312414,0.18691877,0.26331466,-0.308343,0.68101424,0.7720419,1.2636123,0.6657181,-0.18502414,-0.9622693,1.2153674,0.25185832,0.21851754,0.010749689,-0.23243901,0.4903138,0.02396727,-0.42019048,1.5463867,-0.35432765,-0.5496577,-1.001624,0.8429303,-1.1117849,-0.733822,0.41309392,-0.7193094,0.6716826,0.15118387,-0.4669935,0.50982696,-0.138098,-0.59736985,0.24030015,-0.075495966,0.2513777,-0.4874837,1.4569224,-0.033031642,0.51706696,-0.63350964,1.4203031,-0.89473623,-0.022964455,-0.6739391,-0.32879877,-0.5856622,0.8249404,0.19068228,-0.9844024,0.42700297,1.0175551,0.69450366,1.0159808,-0.85921127,0.51999,0.5072136,0.36282232,-0.5361994,-0.4431323,0.31372848,-0.30387804,-0.47193256,0.1554153,0.039365955,2.183774,-0.7785726,1.1516477,0.7834116,-0.82823217,-0.23713186,-1.4306555,-0.045114566,0.33603305,0.19433007,-0.221028,0.68307966,0.6011449,-0.37608123,-0.7933061,-0.4457397,-0.6119363,-1.4768872,-1.6311791,1.3053722,0.9680974,-1.481726,0.60925937,0.15375988,0.8748046,0.80625564,-1.2704283,-0.04561903,-0.6026884,-0.96288115,-1.4577203,1.115482,1.321391,0.9200474,-0.9909724,-0.607249,-0.4557375,-0.14068286,-0.5080476,-0.086620085,0.622124,-0.21108371,0.42839342,-1.6088417,-0.89025134,-0.71047413,-0.71326876,-0.2996732,0.72505635,0.034548804,-1.3665434,0.51728624,-0.93572164,-0.5399524,-0.32638898,-0.29641613,-0.03831067,-0.00992365,-0.64557403,-0.012015465,-0.26481563,0.45893505,1.4080985,-0.5332477,0.2505313,1.0684092,-0.8485071,-0.1302901,-1.6559253,-0.676478,0.32759356,-1.0917153,0.82641506,-0.48898315,-0.33239642,0.71792996,1.1290554,0.25740486,0.79823375,-1.3996866,-0.4828372,-0.5268784,0.2665185,-0.9163638,-0.20984036,1.6836164,0.86793184,-0.031275544,0.044873577,-0.9466176,1.6315675,-1.9733137,0.5216558,-0.48338136,1.3988155,-0.86511326,0.16026567,-1.0026035,2.0970201,0.31980264,0.15039727,-0.09713871,-0.3509624,0.2967067,-1.2046427,0.78919834,1.0741884,0.10007506,1.3143715,0.26456666,-1.0437896,0.18028146,-0.72607774,-1.510148,-0.0419569,0.16609383,-0.57523465,-1.3922364,-0.65322214,0.35619605,0.34774375,0.29640597,-1.0325971,-0.37204948,0.15990795,0.12205503,-0.24592867,-0.4545769,0.6269872,-0.85322815,-0.37405726,0.32112247,0.26486996,0.40678167,1.369648,0.3884532,0.53197277,-0.013684367,1.2882797,0.83533907,0.8824974,-0.65449685,-0.36197415,0.64159745,0.8976833,-1.42972,0.41489094,-0.34253022,0.43738434,1.5555257,0.33047828,-0.87088424,0.9090734,-0.88683987,-0.14129287,0.0039279372,-0.06594932,0.7271435,-0.23102637,1.4077526,-1.8481977,-0.9562419,-0.9927521,0.01606186,0.7638493,-0.22889258,-0.7845437,-0.2303333,0.27556062,-0.5943992,-0.3651614,-0.5396118,-0.7997441,-1.2482651,-0.40377608,-1.70927,-0.3089317,-0.34602025,0.5425509,0.6448024,1.3929429,0.022693576,0.8981633,0.10459743,-0.0498652,-0.46677488,1.3722562,-0.5951321,-0.15918793,0.65205395,-0.2519565,0.6966352,0.5013576,0.80576545,0.37251943,-0.41018155,0.14673892,0.62590927,0.46115774,0.1055466,-0.62478554,0.5923071,0.9754644,-2.2482452,-1.0702741,0.21804303,0.56818974,1.1838708,0.60613793,2.1815596,0.5397942,-0.88079834,-0.45089358,-0.73186374,-0.96864736,0.31910637,0.705723,-1.0352184,0.039048348,-0.06743771,-0.054400403,0.2276633,-0.35435346,0.37581226,0.7161348,0.24993922,-0.0050087133,-0.28507665,0.519621,-1.1397673,0.89855194,-1.0593468,0.32131934,-0.6470443,-0.29450452,0.6369922,-0.48154473,0.8261737,0.7717968,-0.5938563,-0.3869712,0.4026456,-1.1357738,-0.15953851,-0.37944475,-0.5129593,0.980198,0.6025877,0.7839161,-0.6969576,1.3135717,-0.38955724,1.2332094,-0.17107491,0.5264188,-0.8559406,0.8346664,-0.27870622,-0.8451689,0.8649027,-0.94361126,0.7564891,-0.9728458,1.2197608,1.2989596,0.86228776,-0.48279688,-0.16771334,0.25182784,0.53941184,0.06712379,0.06592981,-0.4304791,-0.011283014,-0.014338796,0.6732927,-0.36731306,1.016116,0.76142913,0.63169205,-0.14052942,1.9110429,1.3983318,-1.2210381,-0.71039,0.47389692,0.48450553,-0.08221727,-1.7407584,-0.18917373,1.6125482,-0.6494953,-0.56302166,-0.07528465,0.021681815,-0.67714614,-0.5727663,-1.0241435,-1.1367007,0.028664848,-0.34872198,0.4475789,0.54182684,0.8284137,1.0474176,0.2855427,0.07029482,0.8018862,-0.36827648,-0.5384177,1.2786247,0.5809489,0.34492034,-0.7810384,1.6674728,-0.23257546,-0.5504043,-0.02460584,-0.15891609,-0.5113945,0.7665909,-0.10933283,1.6872482,0.18046117,0.023375047,0.8396182,0.15537885,0.23638214,0.62346286,1.3249052,0.0067710346,0.34466147,-0.25798395,-1.3917273,-0.9590945,0.14007613,-0.22224948,-0.90696406,0.37913856,0.12026596,-0.10954724,0.023987912,-0.3717373,-0.2962884,-0.0310705,-1.0650743,-0.37515748,1.2138015,-0.08658305,0.69414073,-0.42637494,0.18370116,-0.42928705,0.57181287,-1.3795345,0.08371256,0.46198878,0.6767393,-0.13553463,-0.15742299,0.5173098,1.0259577,-1.6667407,0.20038314,-0.33472508,1.7649566,0.2820114,0.45770794,-1.0037105,-0.46156242,0.22084406,1.0650277,-1.190873,-0.5641206,-0.22561574,0.9660436,0.60875887,-0.6540937,0.17796984,2.089652,0.25331768,-2.124201,-2.059825,-0.3946662,-0.24819088,-1.1081909,-1.1372793,0.8059326,0.17184858,0.24884169,-0.58503556,-0.6385755,-0.45357755,0.1266023,-0.41301727,0.21150444,0.14111982,-0.17215739,-1.901073,-1.3570992,0.050532952,0.33361027,0.95595884,-0.15557756,0.076615036,0.6041381,-1.1892538,-0.5158671,0.78552014,0.6147936,0.6671299,0.9654781,0.39604303,0.22144485,-0.2403232,0.47032687,1.3785814,-0.58880967,0.3579334,-0.16174959,-0.08705479,1.6534643,0.06700602,1.025662,0.54709613,-0.44090107,0.3279447,0.84460944,-0.041144326,0.12489966,0.23928788,0.65514576,-0.61302197,-0.33582312,-1.4097548,-0.62723964,-0.13480593,-1.5078696,-1.4333955,-1.1065061,-0.5516566,-0.6933618,-1.1560153,-0.23330954,-0.50513047,0.19916426,-1.3547716,-0.30196407,0.7150348,-0.80724454,-0.09814244,-0.02441172,-1.2715411,0.8325635,-0.2610147,0.29028177,0.23424335,-1.7082274,-0.7142425,0.23658694,-1.5262343,-0.13106145,-0.5947366,-1.1147861,-0.110734046,-0.1621325,0.088401124,-0.11812445,-0.2290984,1.183355,0.43606982,0.27598715,-0.13546695,-1.4479789,0.37592015,-1.1099997,0.29153153,-0.5701039,-0.7552911,-0.4536734,0.83973026,-0.47009793,-0.6366821,-0.6424867,-0.22612135,-0.58542603,0.7637009,2.1750586,1.1241688,-0.76576763,-0.502703,0.50830066,-1.6282916,-0.71946865,0.74965006,0.1880861,0.15216483,1.2561328,0.5204041,-2.5214155,0.1041119,0.76126516,-0.16747941,1.6638526,0.031002067,-0.4804637,1.5361985,0.49409512,0.26301193,-1.3129923,-1.2199558,-0.17806067,0.22246486,0.9602717,-1.0690254,0.8744034,0.5867852,0.42228815,0.54072356,-0.18012968,0.14843266,1.0730021,0.55460453,0.11404852,-0.70967,-0.2815313,0.24305004,-0.22070245,0.5450937,-1.0696387,1.2306513,1.1154716,-0.7551368,-0.39250416,-0.26537538,-0.46927318,0.86073405,2.225284,0.4065105,1.1377459,-0.7959246,-3.003275,-1.6041187,-2.3865583,-0.8807035,1.2092222,1.8312783,2.4260876,0.33732238,-0.118376836,-0.6336065,-1.4357315,-0.26706824,-1.2424036,-0.061257944,-0.33244956,-0.3259394,0.091203354,-0.061539233,0.7239271,-2.238173,0.76982594,0.15082537,0.19898996,0.46384943,-0.77543974,1.0234814,0.35326138,-0.48172122,-0.94120353,-1.0407615,-0.12038948,-0.33912292,0.054328542,-0.98273915,1.3086336,1.5084034,0.33847806,-0.8243667,-0.5434589,-0.11409946,-0.63519275,-0.32802084,0.30844218,-0.005086015,-0.55346394,0.53407604,1.1151037,0.5707599,0.04952229,0.7505809,0.98826104,-0.24119096,0.9389465,-0.39755255,-0.99614,0.7879552,0.1443534,-0.24232554,-0.6622541,0.35180223,-0.28073028,0.08459439,0.3204372,-0.810727,-1.0828047,0.34648794,0.6581651,0.38563144,-0.9672344,0.23182629,0.4886682,-0.24831615,-0.9089221,-0.48351502,0.7494419,0.59211373,0.3208334,1.003402,-1.2112707,-1.3612317,-0.1028415,0.5606726,-1.419002,1.1591259,-0.9803964,0.23709188,0.11578097,0.6218388,0.3516844,-0.18609221,0.1375406,1.1099639,0.10671604,0.386141,-0.14438562,0.480107,-2.5251687,0.0148327835,-0.96558744,0.09750429,-0.034534182,0.6541921,0.1573678,-0.40994522,0.37546623,-0.38049036,-0.5944398,1.2963763,0.1724402,1.3931216,0.6604011,1.4758761,0.34663397,0.70423126,0.8186481,-0.059887666,0.023365654,-0.8973487,2.7199364,-0.6012267,-0.5005971,-1.0658228,1.1951872,-0.6694305,-0.19671705,-0.58468354,-1.0997422,-0.6928184,-0.34604025,0.54521877,-0.49044478,0.52913994,-1.1191572,-0.54923844,-1.2920545,-0.4612722,0.43189415,-1.4650782,-1.3639741,1.0671649,1.0283324,-0.9037458,-0.35179394,-1.1253599,-0.3275888,0.41304412,-0.35312396,-1.0997374,-0.39224932,0.45418298,0.26821893,-1.1361234,-0.090475544,-0.5522301,-1.1709687,-0.9478153,-0.22956094,1.5973767,0.037743405,-1.3647903,1.0455117,-0.845417,0.4905964,-1.2337186,0.66374725,1.1742963,-0.51168257,-0.025482697,2.2571647,0.19109744,-1.0656317,0.5861232,-0.41385627,0.2448336,-2.4153836,0.8268386,-0.42673707,-0.17229635,-0.32240114,-0.7373857,0.19901845,0.052298713,-0.50400764,0.023330843,0.6232279,0.20777434,0.23938388,0.28761914,-0.45876792,-0.15182741,0.29271516,-0.36082432,0.11058926,-0.7601605,0.058612805,0.33080652,-1.0381192,-0.50366217,1.3111612,-0.32877913,1.1633449,-0.09369706,0.38656658,0.34735698,0.819292,-1.4729469,0.42458212,1.4530672,1.1183474,0.11856129,-0.26177263,-0.96609426,0.511519,1.1986929,-0.37217656,1.5076832,0.73718804,0.71042734,1.0692463,0.8798024,0.7007954,0.113597244,1.0719362,-1.0061502,-1.9579706,0.9920062,0.9728017,-2.520595,0.6251321,0.08940359,0.5020832,-1.893404,-1.208145,1.0251493,-1.89644,-1.4928845,-0.18456866,-1.3164387,0.8233286,-0.5348806,0.5773528,-0.45057046,-0.6564153,0.72364134,-1.9146894,-0.9213466,-2.5800104,0.23238832,1.1554399,0.72608787,-1.7933542,0.18317722,0.029146718,-0.55161554,0.8876379,0.04744999,0.101937935,0.022118613,0.9318493,0.47298566,-1.4710339,-0.4929046,1.0983287,0.32620156,0.12778309,-0.1735211,-0.280343,-1.5732704,0.39970425,-0.30294698,-0.5698886,3.3354075,0.4822542,0.8299782,0.6840849,0.03997241,2.19196,1.0811448,0.12524499,1.0538558,-0.11281317,0.84617645,-0.3459807,0.7981413,0.77123326,-1.2167861,0.06502253,0.75927705,0.29183707,0.14689623,-0.1262789,-0.17377806,-1.133497,-0.19616815,-0.07139765,-1.3049603,-0.016716251,0.26246536,0.19572495,0.8886014,-0.6656531,0.50657964,1.8478639,-0.33523363,-0.3363844,0.9574892,-0.5958921,-0.04226516,-1.2971947,-0.9484838,-0.06986602,0.24277131,-2.3268304,0.6178337,1.6987319,-0.56700766,-0.860703,-0.08839637,-0.64838,0.17530502,0.48388398,1.0215508,0.75373596,-1.4960905,-1.2521759,0.18248221,-1.5130055,-0.6648063,0.25454855,0.8606808,1.8660438,-0.1562104,-0.3108751,-1.1828098,-2.6689913,-0.7713685,-0.46255752,-0.09113398,-0.8007577,-0.26937133,0.9433069,0.18424685,0.8140647,0.83110213,-1.8273096,1.8855928,-0.55817884,-0.74079645,-0.40536043,1.3789022,-0.24125838,-0.42099503,-0.29604155,-1.4153283,-0.64157367,-0.9698813,-0.7065474,1.1007262,-0.174785,-0.29176787,-1.0012518,0.19628657,-0.78073764,-0.50490284,-1.6559162,1.3585477,0.5956789,1.5464123,-1.002169,-0.3743793,-0.1724934,-0.14962244,0.42849034,-0.72895765,-2.203885,0.85458505,-0.20953672,0.9271466,-1.022953,-1.3863989,0.0057360684,0.1603836,0.20767868,-1.2936156,0.40766266,0.94975775,-0.555153,-0.3362667,-0.25065514,-1.1431487,0.061746947,-0.665796,-0.012532551,0.27498147,-0.63746774,-1.3846227,0.76493174,0.23665756,-1.695956,-0.3019645,-0.73641074,0.953326,-1.0373143,-0.103872925,1.1697247,0.0829367,-1.2716184,1.3188272,0.24359347,-0.028990868,-0.9910275,1.1129277
rbq006,-1.0694782,0.2469764,-1.0264304,-0.15006213,-0.53335494,0.58195275,-1.4332492,0.7154236,-1.6137587,1.3007206,-0.5920781,0.7666934,1.193161,0.83543336,-0.3746684,0.47197342,-0.5139297,0.110052034,-1.0570643,0.5652188,0.22902903,0.4205443,-1.4413168,-1.5683278,0.68365103,-0.12653784,-0.29919323,-0.5751779,0.20403747,-0.39235386,-0.039051645,-0.7955176,0.541273,-0.32824126,0.54086155,-0.73512304,-1.0066801,0.9838961,0.22641023,2.0626624,-0.06680747,-0.0004402265,1.5470638,0.59442854,0.57377994,-0.1346926,-0.12314775,1.2872541,1.1693324,-0.6710962,-1.2032082,0.72605556,0.25522965,0.2643752,0.89566135,-0.49768144,1.5300686,0.39821857,-0.35166594,-0.19325253,-0.13475932,1.0105221,1.460915,0.22175626,0.9526249,-0.54444623,-1.0653244,0.79884064,-0.042393696,-0.28337756,-0.11592561,0.13187957,0.43881893,-1.1434261,0.61515915,-0.7562336,0.24285984,0.005748339,0.08126895,1.0449588,1.1531132,0.07935234,0.23807533,-0.06332625,-0.5653401,-0.7761736,-0.19125858,-0.4688293,-0.67042845,-1.014162,2.1292062,0.42516097,-1.3769944,0.08042075,0.7197801,1.2603964,1.0941455,-0.72048986,-0.13612652,-1.2823762,0.61168593,-1.8210266,1.5758512,-0.6666064,0.045146156,-0.6659218,-0.108978435,-0.3551712,0.7589823,-0.7499765,1.1752205,-0.96746254,0.6375918,2.2668202,0.44457585,-0.81203526,-0.78080887,-1.530138,2.4084141,1.7407055,0.48349446,0.12590821,-0.035316225,-1.5821135,0.1860281,0.6872767,0.50806344,1.8768532,1.4644101,-0.47322655,0.36729094,-0.20047858,0.3545936,0.49085322,-0.18832442,-0.30056724,1.4658415,0.66377527,-0.37417725,-1.6142355,-0.35240892,-1.2345561,-0.04816522,1.9875791,-0.7203102,-0.2683057,0.6124017,0.47965583,0.57838714,0.043447398,-0.37021863,0.030947596,-0.87431085,-0.31163162,-0.86723137,-0.9731366,-0.8631957,1.0738196,0.3513287,0.41170925,-1.1599423,0.44290763,-0.99202573,0.6491351,0.057769913,-0.22733831,0.7114625,-1.4019423,0.75237906,-0.337969,0.0013004721,0.5976222,-0.7501251,-0.47910556,-0.453681,-0.7174622,1.1908324,0.036137868,0.8267245,-0.5397253,0.45618224,-0.039693028,0.48435774,0.02996389,-0.89865017,-0.19635026,0.6227068,0.47573605,-0.6349741,-0.24286222,-0.798052,0.04834801,-0.7262609,0.8579477,-0.58068514,0.7007271,-0.092292376,-0.35872215,-1.180698,-0.5170155,-0.031308588,0.13583484,-0.7769377,-0.17160556,-0.5175171,0.10641384,-0.96497136,-0.07499237,-0.85679734,-0.21872798,0.882861,-0.22353661,-0.61442345,0.7600926,-0.09266823,-0.5127774,-0.22540304,0.12335666,0.9743948,0.7789271,0.7849029,0.6693722,-0.71224946,-0.6526473,-1.0295788,0.8864832,0.1388344,0.9021921,0.054225475,-0.12747583,0.6055273,-0.0025822253,-0.34352687,-0.8388128,0.5488023,-1.0562115,-0.6865733,-0.44087434,0.9297236,0.22072306,0.91620934,0.5531977,0.25542778,-1.408072,-0.38716298,1.3597757,-0.97192824,1.2565801,0.6080226,1.0446182,-0.0145840105,0.24476711,0.41092223,0.8124238,0.5052748,-0.16376534,-0.029056108,1.1950042,0.30121365,-0.3620574,1.0275712,-0.07511773,-0.09339751,0.96376354,0.46057206,0.9326189,-0.37311417,0.8295468,-1.0280654,0.7380353,1.0205865,-1.083617,-0.8399267,-0.84238875,-0.24420369,-0.45537534,0.2231431,-0.94036424,-0.6690384,0.1480625,0.22741804,0.61213934,-0.19370008,-0.60538805,-1.8315064,-0.48910075,0.93924123,0.95342875,0.023512535,-0.18548152,-1.0589119,-1.5731962,0.287716,-0.73174554,-0.36771008,1.1074109,0.63847065,1.8872551,0.95595646,-0.2467998,-0.7829896,0.1254548,-0.76228744,-0.7549063,-0.9196825,0.3651678,-0.07689947,1.0272424,-0.42402536,0.57680625,0.6040656,-0.5312057,-0.07071085,-0.6201235,0.4522593,-1.4498277,-0.1766143,0.57516086,-0.47056064,-2.0026062,-0.08190948,0.009454322,0.8156923,-0.014174786,-1.0422108,-0.17990337,0.38539496,-0.038661625,-0.23918888,-0.04473812,0.45047015,-0.43246073,0.15971963,0.0738547,0.45030755,-1.28792,0.035529055,-2.9291978,0.1862944,-1.0401981,0.09862389,-0.004471472,1.1880264,1.3364046,-0.72570336,-0.7065186,0.96741486,0.05243969,1.2030294,-0.48570925,0.5075648,0.6939837,-0.3854596,0.43722218,-0.7473289,-1.5404546,-0.86103976,0.4963038,0.24890622,-0.6629907,-0.15583214,-0.52674675,-0.7896129,-0.23589721,0.58875084,-0.43375692,0.016862398,-0.68256193,-1.2368133,0.23934202,0.23639897,0.16720478,0.31123033,-0.16679527,1.1735601,-0.0609649,0.8790415,-1.5453475,-0.6435477,1.1422889,0.15796213,-0.88793963,-0.0845713,-1.052225,-1.4069734,1.9549404,-0.6650519,-0.5413738,-2.5564444,-1.7465465,0.50215816,-1.2039554,0.92679375,0.35544887,-0.041592818,1.4623244,0.28660592,-0.7542207,-0.25516158,-0.73733604,1.6478136,-1.8033323,0.37955505,0.20644684,-0.6785699,-1.0690477,-0.006074661,-0.7210985,-1.0459093,0.99788034,0.26207218,0.7367733,0.34856883,-0.7927887,0.13945103,0.7586017,0.1618611,0.79897845,-0.011013716,0.17097645,-1.8615803,-0.20345359,-1.8059978,-0.35044232,0.32839835,-0.8577652,2.0445533,0.19790027,0.15755306,-0.7837782,-0.24380092,0.2337106,-0.9020001,-0.7462827,-1.2272466,0.23888588,0.98049754,-0.37998495,-0.050843216,-1.8630489,-0.17870867,-0.17049007,0.92953473,0.33026916,0.76215446,-0.08399497,1.1576008,-0.48662406,-1.7201159,0.4666973,0.5932188,0.7303076,-1.3058668,-0.5837504,-0.14291683,0.53248566,-0.70911396,0.30873233,0.12679961,-1.5108626,2.0114822,-1.2395353,-0.22736807,0.7086673,-0.2904265,-0.33702475,-0.34146023,0.12069996,1.5052671,-1.041323,-0.017895008,0.038014505,-0.8293231,1.335398,0.30752108,-1.189603,1.3354993,0.27030823,0.49309668,-2.464278,0.6481489,-0.12949583,1.0438206,-0.47433528,-0.3827371,0.5592145,0.68370575,0.8666358,0.8332757,-0.36105746,-0.40618262,-0.34470248,0.80976695,-0.23934254,0.0034879087,0.3425328,-0.3613503,-1.258322,1.2002968,0.5529687,1.0450004,0.9445707,0.27098927,0.64671296,-0.8071396,0.060331773,-0.9516449,0.8920132,-1.1482955,-1.3970027,-0.17480102,1.0408694,0.084265575,1.71007,-1.002388,0.25698695,0.9855381,0.6524831,-1.1890743,0.64872694,-0.46887988,0.010882768,0.15409616,-0.8870777,0.9792097,0.67749834,-1.773035,-0.23783414,-1.1177472,1.2064606,-0.75265545,0.06832262,-0.86974925,-0.1608144,-0.17565146,-0.70114183,-1.3846074,-0.13300012,-0.16887733,0.25582397,-0.7633944,0.98774034,-0.30245775,-0.841924,0.5008694,0.7662265,-0.4936739,-0.069933854,-0.5757481,-1.5764799,0.3864015,-0.18129812,-0.86322725,-0.18081465,0.017284423,0.04457461,0.63453144,0.28799224,1.2979453,-0.06706176,-1.1473348,-0.74229443,-0.7817197,-1.4652288,0.07452611,0.20550565,-1.6415462,0.4744679,0.93860877,1.1245987,-1.0812995,-1.421623,-0.6952874,0.016727883,-0.3328237,-0.5176054,-0.38089448,-0.3345638,0.99830973,-1.2246886,-0.76185954,-0.23782071,0.07520946,0.9236029,-0.49336156,-0.19767565,1.0394595,-0.19858234,-0.35720307,0.11330634,-0.8296626,0.5693577,0.101273395,1.807032,-0.42077416,0.9762964,-0.68752843,-0.36868674,-1.4015642,0.043076877,0.47214264,0.2917534,-1.0325496,0.38941854,0.07202068,-0.16441,0.78771687,2.2678833,-0.29068783,1.2392714,-0.22004075,-0.87203646,-0.94460714,-1.21743,0.6521014,-0.012249941,0.40464315,0.43869877,0.7193953,0.16079457,1.1316127,-0.33263257,-0.6652378,0.8221099,-0.0074088066,-0.43838826,0.4502476,-0.99948347,-0.24535975,0.07063538,0.21586207,1.441615,-1.7000936,0.62004554,0.53184485,-1.0475451,1.4282119,-0.94261295,1.6279659,0.2886016,-0.311937,0.1629596,-0.10056943,0.18241416,0.6281881,-1.0702549,0.41679984,-0.20265055,-0.9391546,-0.61822474,0.7550275,0.72611094,-0.7630671,-0.7329321,-1.4832495,-0.8415616,-0.65485674,0.36036438,0.5280727,1.3978636,-0.35138595,-0.24577825,0.08232365,-0.7282635,-0.7311929,0.551018,-1.934808,0.33560565,-1.0541513,0.9581083,0.5250117,0.11334668,-0.20037818,0.24704257,-0.20548454,-0.28327337,-0.25458357,0.01895866,-0.063471206,-0.654621,-1.456164,0.45708638,0.6635711,-0.45967278,-1.3720311,0.11423924,0.41279227,-0.42100963,-0.60069805,0.7169808,-1.2459457,-1.1793504,0.95897514,-0.33302873,-0.13995817,-1.1310136,-1.1489952,0.38696402,0.85061264,0.7066728,1.451787,0.79495203,-2.2522717,-1.4089187,-0.29417378,0.26393265,-0.25636816,-0.96668303,-0.20974691,-1.2616658,0.4539114,1.4195939,0.8009966,-0.022359854,-0.88483346,0.3509738,0.86873376,-0.0072309957,-0.8090533,-0.6422896,0.83789074,1.755575,-0.56677866,0.34266415,0.2685729,-1.637522,0.63722867,0.15444499,-0.42725143,0.38639534,0.5690204,-0.29680172,-1.1845964,-0.68524945,0.7548865,-0.14223208,0.25693473,-0.607742,0.56520176,0.64479387,0.569102,-0.21980989,-0.15349813,-0.023785533,-0.052686136,-1.0451305,-1.188031,-0.71872437,-1.6253713,0.41152668,0.2135586,0.14878298,0.29700175,-1.3138708,-0.58062613,0.35014564,-0.8984035,-1.4022802,0.44555777,-0.549192,-0.586542,1.6982872,0.27724075,-1.1254454,-2.3733912,0.36524105,-1.0317701,-0.7546607,-0.4980758,-1.4708648,0.4191656,-0.15756384,0.2979897,0.45141417,-1.0728106,0.25380158,-0.6785576,1.1787758,1.1259342,-0.41399306,0.0640317,-0.45185274,0.8743391,-0.05277093,-0.93334806,1.4226748,-0.24611077,-0.8079258,-0.39548028,-0.23051265,0.024250614,-0.5196012,0.2955373,1.0220683,0.6940424,-0.7036236,0.02882705,-1.345916,0.21798837,0.6823605,0.65980625,-1.4825633,-0.014268177,0.58510286,-0.3682641,-0.23097329,0.5530182,0.13652244,-0.37709704,0.36095318,1.4631518,-0.1384689,-0.3985407,-0.27450103,1.5301214,1.1855739,-0.8511814,-0.1415929,0.19272715,1.4532506,2.0277832,0.7945863,-1.1823099,0.75687677,-0.38331112,0.9659529,-0.5321982,0.7977637,-2.0737996,0.52947885,-0.13182625,-0.086765714,0.0061717345,0.5479883,-0.07254439,-0.06410708,-1.5134032,0.17332186,-0.2870863,-0.22011189,0.7974824,-0.6344429,0.09248147,0.5095264,0.8954234,0.9100565,-1.5856284,-0.012153086,0.11521325,-0.6570595,0.36489278,1.2177452,1.0798124,0.7316478,-0.74479014,0.45417428,-0.3443908,-0.18802181,-0.7598343,1.3018084,1.8784691,-0.13772716,0.14839652,1.2832273,-0.34953588,-1.0679435,-0.54827136,0.7762254,0.1450304,0.6944666,0.56347615,-0.706347,0.23222199,-1.33144,0.1695585,0.6771193,-0.8687884,0.060260106,-1.0934131,-1.1610755,0.21158998,0.7982393,-0.36817673,1.7176228,0.14742298,1.2354596,0.6110418,-0.830389,-0.8802775,-0.45429522,-0.5375657,1.4247131,-1.4906982,-0.77797186,-0.4528945,1.0625927,0.12937507,-0.63563746,0.20106664,0.52183646,-1.5435964,-1.2317216,-2.2181315,-0.9061964,-0.1649998,-0.5072261,-1.7669194,0.8686622,0.09791586,0.67659086,1.4113648,0.82305795,0.25419456,0.08463992,0.27148476,-1.0029287,0.12504034,-0.23875299,0.030149067,0.09539165,-0.64404833,0.54627216,0.22134891,0.7256718,0.5073246,0.9277028,0.98359555,-0.030448187,0.3805644,0.67584145,-0.7433823,-0.6174483,0.6162634,1.115208,-0.26203075,-1.45276,-0.16506884,-0.16571453,-1.2844117,1.6639841,0.15279117,-0.14684281,0.9104273,-2.6880708,0.51503813,-0.62659955,-1.5635097,-0.0779386,1.2310036,-0.9232944,0.70474327,0.6766294,0.38640624,-1.2269771,-0.0150306225,1.4931661,-0.1392459,-0.10451219,-0.72681105,-1.6119543,-0.40860057,0.18808863,1.2527499,0.54947096,-1.6098038,0.07978137,-0.7152232,0.4325859,-0.9117462,0.008173077,0.44722098,0.25630322,-0.49525994,1.0007447,0.12448506,0.87670803,1.8499914,0.5156524,-0.11803446,1.590609,-0.6850233,-0.02767188,1.3301139,-0.14725105,-0.24291047,-1.3862036,-1.0076997,0.382389,-0.74962187,1.1794484,-0.88214034,-1.0801232,-0.6428446,-0.6570659,0.29871845,1.1035573,-0.55637586,1.8739884,0.772009,-0.5009063,-0.15969549,-0.6828259,2.2096598,-0.29568595,1.1866186,0.2885688,-0.88225335,0.4464059,-0.7793368,-0.023242265,1.2194636,-0.082250655,0.3256825,0.73905766,-0.24095173,0.63904,-0.26249975,-0.18235382,-0.28648263,-0.29242277,-0.5961088,-0.15156035,-0.73926896,0.18067011
rbq007,0.34618858,-0.37363648,0.03695453,-0.8105645,-0.12874193,0.59732944,-1.1664338,1.3230172,0.45586237,-0.5519962,-1.0388731,0.93546015,0.9313674,0.90327054,-1.7879921,-0.4180274,-0.35733435,-0.7314265,1.6977148,-0.57490027,0.5478901,0.010388518,0.9090758,0.15595254,0.5189323,0.15742293,-0.21661216,0.35085794,-0.15376177,0.10246159,-0.9830659,1.4665333,-0.7224577,0.277765,-0.42342085,0.1800527,-0.62858987,0.71961623,-0.67313385,0.98474133,-0.3009155,0.18814464,1.5669022,1.0581317,-0.5063523,-0.8652377,-0.5882014,1.1940947,0.22387306,0.20671067,-0.67811674,-0.123834305,1.1587497,0.3959226,0.0036290921,-0.8848103,1.9320801,-0.53893435,0.32105768,-0.089088716,-0.5085426,1.1617572,-0.08806358,-0.9966651,0.7732463,-0.16293143,-1.5028735,-0.23890859,0.3209249,0.026509717,-0.05419442,0.038235813,1.1325667,-0.08982159,-1.0610288,-0.61879694,-0.021036573,-0.099343464,-0.24451658,-0.54840636,-0.05846268,2.205251,-0.19637342,-0.81502485,0.85238373,-0.8076386,1.2607462,-2.1871057,0.0034773021,-0.25801045,1.5770018,0.16817465,-0.49865714,-0.010978054,0.13163395,0.20368987,-1.4365507,-0.3672399,-1.6892431,-1.008976,0.509648,0.75820065,0.8922421,0.23814014,0.39685002,-1.6863594,-0.34855637,0.025490258,-0.13359496,1.0750988,-0.38752198,-0.41935474,1.0245554,0.2514678,-0.37593412,-0.26049668,-0.263059,0.07734224,0.7329716,-0.6495419,0.0015467769,0.8854601,-0.77135116,-0.27993292,1.4917457,-0.45133764,0.5172917,-0.44027546,1.3195429,-0.15280083,0.5889616,-0.4319136,0.45382392,0.8027677,-0.48099065,0.23587269,-0.4446326,1.6035275,-0.2630108,-1.2809368,0.49153316,0.04960054,-0.20808755,1.7839546,0.07450975,0.16450576,0.1306171,-0.50618935,0.7398233,0.49671447,-0.5428483,0.19516066,-2.0938036,-0.31564522,0.013283138,0.21499394,-1.1223408,-0.97235316,0.6151352,1.0425961,-1.4769589,-0.07236533,-1.458395,0.012493482,-0.4459281,0.9855783,-0.115520105,-1.1328156,-0.054459184,0.79644346,0.47151273,1.1474437,0.8409526,-0.03976664,0.27433965,0.05784172,-0.13786831,0.47357017,-0.5484234,0.10939804,-0.20586412,-1.1831886,-0.5460422,-0.5927454,-0.5526583,-0.53835666,1.538011,0.731719,-0.73341674,-0.7014765,-0.4148265,0.30509946,0.6018442,1.8301915,0.2845623,0.4322406,-0.014808104,-0.4252286,-0.036705263,-0.36938152,-0.1648351,1.0633953,-0.279349,-0.14294869,0.42340463,0.8502802,0.09404477,-0.44401854,-0.5800179,0.04839009,2.0216916,1.4272356,-0.40072584,1.8491263,-0.14016005,1.0856149,0.8220697,0.084421255,0.7545457,-0.05408616,0.048765056,0.40052497,0.21961449,-1.0473595,-0.43229675,1.195292,-0.03134408,0.15164427,0.6940181,-0.36499164,0.4912895,-0.5860183,-1.251599,-0.18351528,-1.432462,-1.2808044,0.0026671058,-0.040576596,-0.4489386,0.061433196,1.8522602,-0.10996908,-1.4471045,-0.81253767,-1.7854174,1.2505926,-0.12788387,0.45801824,-0.025717236,-1.8875023,0.42115372,-1.0639532,0.015530767,0.50534457,0.85590583,0.44944444,0.7578128,0.25674003,-0.4715643,-1.4986053,0.39083412,1.5868601,0.38435465,-0.62972677,0.87951857,2.1389084,-1.6692872,-0.3176638,-0.0636707,1.23475,0.7226305,0.26661402,-0.29721245,-1.0310624,-0.28321546,-0.2976419,-0.81062245,0.74165285,0.5480528,-0.7016904,0.34656397,1.3881395,-1.6000285,0.07622552,-0.6804622,-1.2651273,-0.2560078,2.9219851,-1.0332935,-0.6450962,0.10185523,-0.61277413,0.5241836,-1.5465877,-0.17999528,0.16390431,-0.65115833,1.4571948,0.60674715,0.615217,1.2495029,0.13045602,-1.2756132,-1.3424451,0.16874193,0.23446229,0.29251027,-0.20648077,0.374689,1.3063674,-0.14772525,0.4926296,-0.397449,-0.49105245,-0.16371532,-0.5832169,-0.1613271,1.33015,0.26103184,-1.2372545,-0.174133,-0.73559964,-0.43949974,0.79636025,-0.0021246732,-0.27390173,-1.1829206,0.25323337,-0.67518055,0.84862614,-0.1358585,-0.33727828,0.12875119,-0.14610875,1.9682001,-0.080197215,0.607403,-1.5178305,0.012824414,-0.7805032,0.052014776,1.034812,1.0972233,0.6245663,-0.30280215,-1.215574,1.3730707,-0.14682204,0.98551285,0.14005789,0.47385907,0.22998029,-0.791957,-1.0048655,-2.527423,-1.1827812,-1.1218952,-0.773096,0.0965214,-0.108272746,0.10882777,-0.6711237,-1.1388637,0.26568818,0.98139966,-1.6998565,0.27704662,-2.3147929,0.112052746,-0.7027076,1.0378497,-0.44972578,-1.2648236,-0.32982415,-0.21862006,-0.3833863,0.23316376,-0.030798893,-1.5103157,-0.54096085,-1.534689,-1.4420023,-0.3520051,0.29127967,-0.10802245,2.4755216,0.78970665,-1.7802025,-1.9119368,0.1667594,-0.45128703,-0.7278491,1.3064446,1.1295342,-1.1596601,-0.13466665,0.8213063,0.88905555,-0.9988519,-0.35243124,2.319688,-0.99670315,0.7279448,-0.08189109,0.9553971,0.7243301,0.18952885,-1.0277054,-1.1698707,0.046558566,0.035941415,-0.26907116,1.3650136,-0.5617933,1.297388,0.0031889416,-0.15432349,1.2431486,0.117862344,0.3754277,1.1018832,-0.7254025,-1.0084404,-0.40821797,0.9631282,1.2369998,-0.49218184,0.98271006,0.5365661,-0.06515259,-1.7231302,0.7175573,-0.3737543,0.32906836,-0.8126911,-0.15145251,-1.3921986,-0.3817572,0.29095456,-0.58345634,0.3398682,0.8879084,1.4364152,-0.15095338,0.47512594,-0.5902108,1.2993785,-0.6862344,-0.92571354,0.39446896,1.0848513,-0.3711331,-0.17334093,-1.439179,-0.1333009,-0.54562235,-0.96865153,0.06270359,-0.6985067,-1.2346172,-0.07125056,-0.54387486,0.22116673,1.0786717,-0.13697256,0.297699,0.030845186,-0.46709174,1.1612606,0.09693161,-0.66156113,1.0818564,-0.5993185,0.40411106,-0.5972519,-0.5330744,1.1914809,-1.1319559,0.32437044,1.1271667,0.40956682,-0.16883525,0.99740696,-0.34755492,-0.58791316,1.3334788,-0.38306612,1.6761422,1.3099304,-0.7238784,0.3396264,-0.4012577,-1.5792248,1.5183288,1.5561266,0.76065785,0.6956858,-1.5256765,0.5744525,0.7025478,1.7828329,1.0943416,-0.5560832,1.5344526,0.1531316,-0.16823623,-0.331635,0.9445038,-0.0024538436,0.23894776,-0.9994831,0.75131387,0.11615898,1.612351,-0.5355792,0.060005866,-0.7067055,0.33583462,-1.2876554,-0.18488352,1.3084638,0.31872156,1.1101813,-2.0849266,0.98447394,0.5723616,-0.8973725,-0.57190603,-1.2136898,1.8180127,0.0026301183,1.5992585,0.1448497,0.69715047,0.5200295,-0.28952742,-0.3460247,0.50508195,0.49896544,0.80528593,-1.3582597,-1.1731548,-0.96786773,-0.5227011,-0.72993696,1.1922486,-0.3178315,2.0060155,1.1803553,-2.3160958,0.021681797,0.058851328,0.004145482,0.6272534,1.3680418,-0.41763282,-1.4221241,-0.67451096,0.8619462,0.20690185,-0.5306932,0.26658368,-1.1052923,-0.6378679,-1.9372534,0.33152452,-0.5093056,-0.07696461,0.396468,0.29140761,-0.61471254,-0.34636253,-0.92717284,-0.52373475,-0.2290582,0.2051343,-0.0030351188,-0.61857665,-0.19431591,-0.099006705,-1.4103475,0.36072597,0.078859985,-0.29825544,0.8356963,0.55903417,0.8717089,-0.54849386,-0.11205572,-0.9015229,-0.23705925,1.3577828,-0.98372513,0.77667505,-1.161126,-0.419415,-0.39098632,0.9936573,-0.7679722,0.15959302,0.7899846,0.75776803,-1.2841829,-0.67184055,1.5255748,0.86569506,0.83518255,1.616847,0.4576881,1.1321818,-0.48142207,-0.3658417,-0.77511936,-0.799857,0.346767,-0.19615218,0.6579727,-0.34747124,0.44415414,1.1526401,1.0205629,0.058239825,-1.3969823,0.7497736,-1.3525305,-1.8848139,0.19331655,-0.8829015,0.8795173,0.37367603,0.6292537,2.4521985,-1.531713,0.52417356,1.0533795,-0.15505855,-0.07717623,-0.30185652,2.6830974,-0.47105426,-0.14368235,-0.03837473,-1.6561198,0.49711922,-0.85820526,-0.7154441,0.93375504,0.8105986,-1.1354767,0.24420196,0.8077314,1.4875276,-0.25270385,0.04718011,-0.412922,-0.6242263,0.36026776,0.05190878,1.5211203,0.9517742,-0.46243948,-0.65396017,0.36055875,-1.607255,-1.0812582,-0.22740795,-0.046910677,-0.24067742,-0.9828611,-0.2442179,-0.61885226,0.12158094,-0.6522825,-0.12126145,-0.49906728,-0.31682685,-0.53414404,1.4565641,-0.15013814,-0.5383171,-0.81210244,0.96061146,1.0813828,-0.14894177,-0.023401365,-1.3468702,-0.36754295,-0.66210806,-0.34638163,-0.30433607,0.38280755,0.23165289,0.61330664,-0.67652214,-1.1378751,-2.479108,-1.3351264,-0.27648002,-0.18936506,0.7688557,1.6592548,-1.6343037,-1.9320998,-0.79495114,0.785838,0.85161686,0.10218647,-1.3866796,-1.0117486,-0.91325516,-1.1068747,1.290487,0.13438845,1.3705759,-0.50987947,-1.067137,2.2015564,1.1490972,-0.7509142,-0.4480867,-0.71089625,0.82201505,-0.92885166,1.0006938,0.319804,0.23003784,0.6977774,0.97530323,0.42194608,1.0014497,1.52835,-0.30037373,-1.7660298,-0.9814351,1.0761347,0.7723089,-0.2714771,-1.6056087,0.5299728,-0.41667283,-0.07949859,-0.2473088,-1.0584157,0.549949,0.127956,-1.0911362,-0.8734436,-1.5718079,-0.36712405,-0.24002181,0.45330533,0.27650014,1.3570354,-0.07886092,-1.2901325,1.8647562,0.081171855,-1.167455,0.13939327,-0.6716661,-0.060890395,0.10940299,0.35315114,-0.36189815,-1.1570387,-0.24130486,-0.2099078,-1.866547,-2.1185462,-0.92650926,1.9808044,-1.0449557,0.53659153,0.46215433,-0.39979526,1.9342631,-0.82556474,-0.49045724,0.6977571,-0.41610813,-0.73584384,-0.34072757,-0.24450451,0.273964,-1.3169628,-1.5804591,-0.5541909,-1.1318524,-0.2825381,-0.5012022,0.3722282,-1.5501456,0.92497325,0.9865875,0.30400747,-1.0004666,0.58594304,-2.0287957,-1.7266377,0.13391066,-0.28400522,-1.0152874,0.030246384,-0.14943855,0.0048568156,-0.5662111,0.35322726,1.5930455,-0.08720616,-0.42700443,-0.07000683,-0.22310375,0.71546686,-0.0962401,1.9774117,0.3480364,0.53018904,0.92515814,0.3792552,0.50747603,0.27309293,-0.37664756,-0.42402762,0.25981185,-0.49757236,0.65450686,0.51029396,0.84171313,-1.9131906,-0.97212887,-0.8957912,0.4543348,-0.68781674,-1.0283107,-0.68611884,-0.1626629,-2.878024,-0.92247343,0.77455306,-0.45934257,-0.007403782,-1.7136555,0.48423976,-2.0665631,-0.34090436,1.1764042,-1.9889351,0.13303322,-0.29629558,0.31891173,0.4209965,1.328052,-0.14042059,1.0509113,-0.79590094,0.8416676,-0.35354364,-0.57029796,-0.32637694,-0.32866654,-1.0766463,-0.2711494,-0.7963271,1.9302233,-0.81860673,-0.9926707,1.4667044,0.16672282,0.18818101,0.39074713,-0.85407686,-1.9932151,-0.10451315,0.2493242,-0.7351779,-0.5015027,0.80411005,-0.91749513,-0.015188316,-0.97818387,0.23450062,0.6805716,0.38456196,0.8958646,-0.27929622,-0.07292763,0.6475177,1.237767,-0.2150874,0.19016933,0.5399636,-0.08120887,-1.5906326,-1.1126013,-1.5712415,0.8577662,-0.25667205,-0.293174,0.36469316,0.8546908,-0.13994744,-0.74077904,-0.515069,-1.8658619,0.84108305,-0.24388638,-0.18099426,0.50102776,0.0060058087,1.6380825,0.5534738,0.17110269,0.21678895,-1.0344226,1.7551918,-0.13421962,0.27437896,1.3223958,-0.7788713,0.51531905,-0.43885845,-0.40154615,0.47335,0.61249506,-0.28003427,-0.5800056,0.47758132,-0.7738832,1.842989,-0.10620708,0.422123,-1.0776566,0.8405421,-0.5923686,0.13244277,-0.9054781,1.0874125,1.3395923,0.24389398,0.23524252,-0.25334454,1.0861938,1.3322076,-1.3522458,-0.08623744,-0.063170254,-1.9458395,-0.0052063987,0.25604528,-0.36373436,0.47738385,0.5987528,1.3822234,-1.3514888,-1.561638,1.2371068,-0.33993885,0.003579543,-1.2389224,0.9990537,-0.6625745,-0.6501448,1.2100801,1.3724661,-0.40060052,-0.5226437,-0.5755905,0.4255436,-0.58274573,-1.0696876,1.2540736,-0.51392454,-1.0487148,-0.66938287,-0.74247384,0.38068694,0.37251055,-0.3165289,0.21411265,0.8442434,-0.2681456,-1.7847378,0.18500575,0.55923176,0.7420355,-0.26531968,-0.37555447,0.16552535,1.8369772,-0.5992263,-0.24584007,-1.2572802,1.5282692,-1.0909739,-0.21270569,-0.670671,-1.2009156,-0.17690843,-0.020475669,-0.9718949,0.33118027,-0.6224952,-2.0909612,-0.35518232,1.0698409,1.2437129,0.09073255,0.5567782,-0.686553,-1.8367021,0.60913086,-1.429659,1.2839674,0.061675675,-0.81109715,1.3106393,0.7483204,1.1539848,-0.65236986,1.8039773,-0.0061565833,0.07031463,-2.0918179,0.61350244
rbq008,-0.15953933,-1.8483473,-0.70711476,0.27792433,-0.9963639,-0.71286404,-0.99386716,-0.3858268,-1.5875206,0.3457339,-0.42036045,1.1528183,-0.96363443,0.051797688,0.4632414,0.86274445,-0.3321042,0.71427304,-0.3191673,2.266243,-0.6126732,1.169569,-0.13110061,0.14007458,-0.6528684,0.4939429,0.5367794,1.5922755,0.05313209,-1.1121399,-0.212489,-1.9266375,0.009300465,0.9854346,-0.3272745,-1.1414557,-1.0352188,-0.018559054,-1.1026483,-0.13928223,-0.66274637,-0.54975516,-0.32159707,0.66171986,1.3479329,-1.1591268,-0.15614942,0.9560032,0.015694397,1.0064244,0.44053233,0.38414922,0.8746244,0.64790577,0.89885765,-0.45210376,1.4729466,1.0563558,0.058267567,0.114180736,1.9272914,0.25905034,-0.7827082,0.9024306,0.7121259,-1.128857,0.000876092,1.4166737,0.3393146,-0.20422633,0.021560838,-0.5733639,-0.942422,-1.5724989,0.5592381,-0.46962738,-0.052827377,0.30244642,-0.24879742,0.94799775,0.53771317,-0.35325724,0.47070768,-0.49141115,-0.43156573,-1.5539775,-0.9940827,-0.40545815,-1.0882239,-0.6426127,1.559105,0.15222718,-2.271071,-0.32825062,1.4520408,0.99185175,1.3246969,-0.35795224,-0.6173003,-1.2882589,-0.32236883,-0.9434846,-0.4305725,-0.2400278,0.3862378,-0.817867,-1.1408999,-0.4078779,-0.48326632,-0.6462244,-0.45900816,-0.18351409,1.0421455,1.6039989,1.000856,0.06688808,-0.13834523,1.0372046,0.855003,0.61943847,-1.0530975,-0.542622,-1.3761132,0.0389632,-0.5063038,-0.13227934,-0.52715933,1.0298241,0.9026623,-0.37340194,0.38591197,-1.3672315,-0.46814474,0.14506042,0.8443965,-0.5296801,0.026639368,-0.5101653,0.122363284,-0.74982804,-0.8963125,-1.9098186,0.63292325,1.2761157,0.41368756,-0.07834489,0.9003306,0.8563954,-0.012577658,0.6382121,-0.3615834,0.3982061,-0.7182842,-1.0854106,-0.802497,-0.33084586,-1.0781097,0.67762846,-1.06195,0.24209943,-0.7564916,0.86117196,0.42547306,1.2134727,0.4790304,0.9887631,1.5846232,-2.2746599,-0.560431,0.4845592,0.38264164,-0.8238271,0.86102176,1.6911689,0.50742775,-0.10083748,0.45365852,-0.961341,1.5162792,-0.31462196,0.20725176,3.0156233,0.24057399,-0.4202041,-0.5285171,1.1509436,0.05885038,0.31841284,-0.38510898,-0.9479366,-1.3648473,0.55192673,1.028686,-0.50372976,0.5294666,-0.6577415,-0.011215871,-0.025025355,0.37126687,0.008834673,0.06405877,-0.69076896,-1.2590377,0.43222106,-0.9443268,-0.15661907,-0.25363147,1.3943604,0.5351924,-0.98348165,0.5422456,-0.008640891,0.36035416,0.03654093,0.5707874,-0.78570396,-0.085494235,0.11116923,0.31893694,0.49841058,0.562638,-0.65738714,0.17132115,-0.8275544,-0.42894968,0.3295534,-0.84759927,0.9364036,-0.31959373,-0.71908915,-0.69384885,-0.4126124,-1.0054599,-1.1616964,0.86897916,0.60176677,0.1452081,-0.02319458,0.4599322,-0.40406072,0.25422448,0.52564156,-1.448252,0.1170746,-1.4701266,-0.70178646,-0.5073659,1.7653617,-1.1492515,0.93322307,0.37033647,-0.6569425,0.15882048,-1.9452174,-0.1438718,-0.8049114,-0.5278812,0.889948,-0.3716354,-0.22855958,0.8519337,0.46253744,-1.0054657,0.32172224,1.1968338,1.3063757,-0.2325152,2.0296843,-1.0088117,0.02453198,-0.8195525,-0.90559757,0.886794,0.11524984,-0.2236601,-0.107497625,-0.23125021,0.09015604,-0.6643969,-1.1858915,0.7611698,1.4720236,-0.46343943,-0.7305408,0.25901997,0.5498117,0.84534305,0.7054981,0.18253674,-0.9451597,0.2027852,-0.5703429,-0.20676419,0.5947227,-1.3665509,1.8317678,0.49787533,0.16393614,0.48167282,1.0561624,0.4612593,0.416753,-0.22742407,-1.117907,0.0078518195,-0.5047562,-1.1675913,-0.008715764,0.80370986,1.334377,0.24688926,0.047995217,1.4622304,-0.93278813,0.20683345,0.6350477,0.14335176,0.24130395,-0.08283632,0.01554903,0.52961266,-0.36057055,-1.7849809,-0.93188655,1.3759962,-0.74033654,0.70031387,-0.019342573,0.3692029,0.097482316,-0.75412875,-0.6651923,0.4932995,0.14659296,-1.3537933,-1.0498598,0.2681386,-0.8982885,0.71614957,-0.5127524,-0.7879877,0.07924998,0.40332538,-1.0893922,-1.3418788,-0.340517,1.2217991,2.0930643,0.59813863,-0.6863645,-0.08344635,-0.027507983,0.58091426,-0.40312716,-0.07159108,-0.12597388,0.415993,2.478602,-0.11633503,-0.7995065,-0.961234,-0.96096843,-0.77755266,-0.051351555,0.29875872,-0.35173342,0.5799659,-0.26503298,0.26956624,-1.1712224,0.62724006,0.5348213,-0.24679035,0.44589928,-0.1701462,0.90916973,0.04773226,-0.8515921,-0.606605,1.1452806,0.6334263,0.49330145,-0.58547854,-1.3881956,-1.2479722,1.2345598,0.0950373,-0.5278699,-0.6139499,0.39221632,-0.4059027,-0.6529249,-0.19983754,0.116479985,-1.0202341,0.5693255,0.3179611,-0.40645987,0.09810435,-0.17325291,2.855852,-1.5708498,-0.48147386,0.2092022,-0.07647815,-1.6681918,0.5344298,0.11777035,-1.5401946,0.71852916,-0.014681823,-0.1771262,0.5140399,-0.3888354,0.50119805,0.15135556,-0.93352455,-0.3778234,-1.2083508,0.08065626,-0.89111966,1.3765242,-1.6674927,-0.61613274,-1.0713539,-0.5312269,1.8290825,-2.3131306,0.004934336,0.37886423,0.006080669,0.11234873,-0.09932855,-2.2299778,-0.51107514,0.2867393,1.0983208,-2.049534,-0.7304916,-0.678996,0.101855904,0.849748,-0.94190514,-0.2614662,0.072771996,0.025746647,0.45700762,0.9065372,-1.3408434,-0.46393842,-0.1725438,0.90534073,-0.5335386,-1.4363898,0.017844085,-1.0350046,-0.23096514,-0.46127173,0.14625178,0.86833966,-0.10148932,-1.2717527,-0.49130958,0.42057985,0.6692078,-0.3161474,0.30064327,0.114549786,0.7528467,0.39394805,-0.63232994,-0.16681772,-0.20112276,-0.89303976,0.45626897,-1.0834035,1.5413194,-0.3469093,-0.5725328,1.3555666,0.56642413,1.0139489,1.3574824,-0.831762,-0.3367484,-0.64195734,-0.7228254,0.01711698,0.14733319,-0.33493942,-0.048557494,-0.6493194,0.8555221,0.9356954,0.9529976,0.7420902,0.6728501,-0.37538213,0.39284676,0.38210347,0.92708457,0.47631675,-0.20751514,0.29859534,-0.47050303,-0.21744765,0.75967956,1.1679586,-0.8338249,-1.5538495,2.0353367,0.42532504,-0.8183047,-0.22347721,-1.0377195,0.95836854,0.099270135,1.2980614,0.38354784,-0.5445624,-1.4914597,-0.7289969,-0.3731499,-1.7196653,-0.17180076,-0.36044362,0.5713705,0.583554,-0.53068286,0.43169016,0.1271963,-0.2399862,-0.9541941,-0.4678615,-0.59761035,0.07431309,-0.47770804,-0.48786145,-0.49380064,0.59042037,0.4080313,-0.3977701,-1.5770054,0.18612099,0.24998416,0.109809875,-1.996388,-0.38218424,-1.4135619,-0.8105118,1.7030542,-0.47961044,-1.7873198,-0.90817195,-2.2727292,0.23879205,-0.07533434,-0.4013095,1.4770472,-0.6353973,0.30788487,-0.98499006,-0.054042034,-0.20486036,1.2985458,0.23786134,-1.8382615,-0.48961318,0.86172855,-0.08794216,-1.1111699,0.61289096,0.10575056,-2.2393203,-0.037972573,-0.051778294,-0.18590458,0.58898485,-0.5245908,2.3387818,-0.90589964,0.77098244,-0.68697065,0.5300827,1.2006717,1.4746311,0.5588162,0.51946837,0.029033996,0.39430442,-0.2755276,-0.99379855,-0.8654445,0.90477276,-1.2205937,-0.1890365,-0.06334081,-1.4213042,-1.9985944,0.57589334,-0.5582106,1.0741416,-0.09707014,-0.18972443,0.76455915,0.24344914,0.96367866,2.6252933,1.1786922,1.2508646,-1.8024657,1.0036327,0.06504351,-0.5512459,0.04160038,0.5801618,-0.608627,-0.6696151,1.0163176,1.1536866,0.9695518,-1.4828372,-1.171743,0.8348984,-0.21454886,0.6062899,1.1465651,-0.26015493,0.12302993,-0.047533788,-0.30162278,-3.3620617,-0.046405494,0.5114988,0.28938624,-0.12014369,0.19364008,0.9116717,2.133975,0.22178575,-1.1797459,-0.7630202,-0.055399098,-0.49525297,-0.09556641,-0.34119067,0.7919019,-1.420852,0.45228794,-0.9463974,1.4010965,0.7826453,-0.02103784,0.6475831,-0.2449806,0.21232311,0.21918021,0.46218097,-0.3214762,-1.4346341,-0.81157243,-2.0754352,-0.20160796,-0.49101272,-0.04766105,-0.013332218,0.58406264,0.33004636,0.63980836,0.59527767,0.19314076,1.3497128,0.20047106,0.17978531,0.17826582,-0.3325704,0.07233095,-0.37046403,1.2671726,-0.4620489,-0.22279423,-0.1820568,0.18772966,-0.0064865244,-1.4149795,0.3501749,0.50411314,-0.34404343,-1.1731344,0.10118376,1.0221244,-0.4941365,0.16063529,-0.44951504,0.36295432,1.1332031,-1.6028682,-0.1994732,1.0735104,0.5547282,-0.76396644,1.1470113,0.69343114,-2.3949776,-0.72807145,0.27858952,-0.09149459,-0.6084785,0.13424407,-1.2003939,0.33688357,1.8662751,0.5407687,-1.4160894,1.0818274,-0.29785964,-0.19537303,0.7444751,-0.5287258,-0.36344907,0.30550557,1.0036052,-1.1862624,1.9786738,-0.12756184,-1.3593782,0.16424553,-0.10689659,0.32058206,1.7781848,0.7174081,1.631131,1.622384,-0.6643419,-1.3767885,0.14679727,-0.36372343,-0.8235823,-0.38709867,-0.24589205,0.24693458,0.26078144,-0.74303764,0.7169609,1.1002616,0.732124,-0.93188035,-1.787581,0.25204703,0.17838489,-2.066983,-0.24507369,0.9946107,-0.33460802,-0.08509919,-0.20124486,-0.7662757,-1.5569438,0.14369875,-0.09953077,0.1519359,-0.027434519,-0.87781703,1.3291658,-1.4941008,0.3841574,-0.052835748,-0.9900037,-1.0034575,-0.20699333,-0.6326886,0.19762048,0.60874075,-1.4340055,-2.2751634,-0.16316584,-1.4967939,1.3854369,-0.95108765,1.1875249,0.41457304,0.34923065,-0.48728293,1.0968875,0.43792555,0.67993057,-1.3040097,-0.82004577,-0.030076882,-0.6930579,0.25266925,-0.24682969,-0.561089,1.6179868,-0.042752568,-1.0973346,0.18059395,-0.17942575,-1.0936759,0.97540355,0.62968796,-1.1531676,-0.8122453,-0.6169232,0.31132153,-0.66079277,-0.24414308,-0.5948123,-2.1244702,0.5293781,0.14713997,0.26136088,-0.3090121,-0.29054216,-0.5334427,0.30901268,1.023774,-1.3023915,-0.55930805,1.3126966,-0.4934354,-0.3483806,-1.4754162,-0.14139739,-0.73113704,0.9685261,-0.13467044,1.298462,-0.14325958,0.03283446,0.30713823,0.62650025,-0.57390213,-0.2560332,0.53506637,0.036022816,-1.6518848,0.029196177,0.7654762,-0.7734925,1.0219959,-0.5003717,-0.014137376,0.7275635,-0.7513761,1.6170428,-0.9260596,-0.46115413,-0.3673075,-0.34789687,0.45230898,1.3901652,-0.13128163,1.2856236,-1.7469865,1.138358,0.17307743,-0.16108662,-0.65725416,0.82496715,0.01864041,0.75789,-0.3380892,0.5625215,0.2264686,-0.7503464,0.13505112,-0.5500079,0.8392743,0.067770615,-0.24873327,-0.025856582,-1.3226771,0.5262556,1.3211758,1.5063882,-0.24607728,-0.19148456,0.85713995,-0.805664,0.25665805,1.0617292,0.67173886,0.87085664,1.0926745,-1.1589259,-1.3512704,-0.24540605,0.037866767,-0.6867109,-0.666793,1.8154932,0.37797254,0.74884695,-0.40471798,0.86166203,0.33192855,-0.24088861,0.85591495,0.16012862,0.5574232,-1.5024995,-0.03901977,-0.04225191,-2.3134155,0.78744304,-1.1090028,-1.0107913,0.21084683,1.181841,0.20653094,0.2515507,-1.6039164,-0.455491,0.549901,-0.49367926,0.8312325,0.44295982,0.3875899,-0.54697305,0.15728606,-1.2035054,0.110618286,0.06312206,0.61160755,2.1071877,0.6438769,1.1292754,0.5304326,-1.4536309,-0.6515145,0.8992319,1.7445512,0.6997605,1.905593,-1.6761594,-0.31577623,-0.36249077,1.0163188,1.1081786,1.2594476,0.90556115,0.3649356,-0.5884483,-0.88305444,-0.37167805,-1.7163507,0.28755236,0.89941514,-0.55171865,1.59691,-0.7850835,1.1407434,-0.53790474,-1.4122466,0.6409483,-0.78378636,0.61204785,0.33313814,-1.5621703,0.6274625,0.60875756,1.4950368,0.81007206,1.2773244,-0.86904013,-0.108885914,-0.26114148,0.021053603,0.7045246,1.4897194,1.752403,0.73982203,0.3427611,-1.7787843,-0.57584107,1.0429218,-0.32610896,-0.5241633,-0.5748451,-0.15465774,-0.9165519,0.06739554,0.59452736,-0.69165486,0.13951749,-2.0722976,0.034738682,-2.6747682,-0.46758524,-1.0147488,-1.2458357,1.3458585,-0.50957036,0.0559803,-0.36439008,-0.081994295,2.4588773,0.48150107,-0.5982398,0.44007424,-1.3806052,0.24090579,0.6313698,-0.46896473,-0.7206383,1.3664733,0.3561837,0.5562566,0.17905305,-0.27636996,-0.942981,0.79056865,0.597723,1.2552781,-0.57978404,-1.0865216,-0.53242856,0.27581522,1.0298927,-0.38360733,-0.80625874,0.13259989,0.9607042
