question_id,0,1,2,3,4,5,6,7,8,9,10,11,12,13,14,15,16,17,18,19,20,21,22,23,24,25,26,27,28,29,30,31,32,33,34,35,36,37,38,39,40,41,42,43,44,45,46,47,48,49,50,51,52,53,54,55,56,57,58,59,60,61,62,63,64,65,66,67,68,69,70,71,72,73,74,75,76,77,78,79,80,81,82,83,84,85,86,87,88,89,90,91,92,93,94,95,96,97,98,99,100,101,102,103,104,105,106,107,108,109,110,111,112,113,114,115,116,117,118,119,120,121,122,123,124,125,126,127,128,129,130,131,132,133,134,135,136,137,138,139,140,141,142,143,144,145,146,147,148,149,150,151,152,153,154,155,156,157,158,159,160,161,162,163,164,165,166,167,168,169,170,171,172,173,174,175,176,177,178,179,180,181,182,183,184,185,186,187,188,189,190,191,192,193,194,195,196,197,198,199,200,201,202,203,204,205,206,207,208,209,210,211,212,213,214,215,216,217,218,219,220,221,222,223,224,225,226,227,228,229,230,231,232,233,234,235,236,237,238,239,240,241,242,243,244,245,246,247,248,249,250,251,252,253,254,255,256,257,258,259,260,261,262,263,264,265,266,267,268,269,270,271,272,273,274,275,276,277,278,279,280,281,282,283,284,285,286,287,288,289,290,291,292,293,294,295,296,297,298,299,300,301,302,303,304,305,306,307,308,309,310,311,312,313,314,315,316,317,318,319,320,321,322,323,324,325,326,327,328,329,330,331,332,333,334,335,336,337,338,339,340,341,342,343,344,345,346,347,348,349,350,351,352,353,354,355,356,357,358,359,360,361,362,363,364,365,366,367,368,369,370,371,372,373,374,375,376,377,378,379,380,381,382,383,384,385,386,387,388,389,390,391,392,393,394,395,396,397,398,399,400,401,402,403,404,405,406,407,408,409,410,411,412,413,414,415,416,417,418,419,420,421,422,423,424,425,426,427,428,429,430,431,432,433,434,435,436,437,438,439,440,441,442,443,444,445,446,447,448,449,450,451,452,453,454,455,456,457,458,459,460,461,462,463,464,465,466,467,468,469,470,471,472,473,474,475,476,477,478,479,480,481,482,483,484,485,486,487,488,489,490,491,492,493,494,495,496,497,498,499,500,501,502,503,504,505,506,507,508,509,510,511,512,513,514,515,516,517,518,519,520,521,522,523,524,525,526,527,528,529,530,531,532,533,534,535,536,537,538,539,540,541,542,543,544,545,546,547,548,549,550,551,552,553,554,555,556,557,558,559,560,561,562,563,564,565,566,567,568,569,570,571,572,573,574,575,576,577,578,579,580,581,582,583,584,585,586,587,588,589,590,591,592,593,594,595,596,597,598,599,600,601,602,603,604,605,606,607,608,609,610,611,612,613,614,615,616,617,618,619,620,621,622,623,624,625,626,627,628,629,630,631,632,633,634,635,636,637,638,639,640,641,642,643,644,645,646,647,648,649,650,651,652,653,654,655,656,657,658,659,660,661,662,663,664,665,666,667,668,669,670,671,672,673,674,675,676,677,678,679,680,681,682,683,684,685,686,687,688,689,690,691,692,693,694,695,696,697,698,699,700,701,702,703,704,705,706,707,708,709,710,711,712,713,714,715,716,717,718,719,720,721,722,723,724,725,726,727,728,729,730,731,732,733,734,735,736,737,738,739,740,741,742,743,744,745,746,747,748,749,750,751,752,753,754,755,756,757,758,759,760,761,762,763,764,765,766,767
rbq001,0.044745006,0.001965065,-0.01674038,0.034363084,-0.08947098,-0.012975409,0.04393769,-0.048949815,-0.006987106,0.021107798,0.025927082,-0.047497377,0.010594423,-0.032573033,-0.0035748605,0.03419094,0.016984275,-0.0026375086,-0.011450732,0.005529575,0.014871243,0.014530886,-0.0038184258,-0.064367615,-0.030905813,-0.024025902,-0.045380075,0.023570172,0.03848411,0.03591127,-0.033631325,0.038189553,0.02572397,-0.039597,1.5145594e-06,0.015631845,-0.05211536,-0.042189248,-0.016108584,-0.049948364,-0.0074404804,0.05358184,0.03983437,0.020160668,-0.020335486,-0.023449868,-0.014384358,0.002701719,0.06976955,0.026559941,0.016649995,0.011811776,-0.04817959,-0.019925624,-0.002203991,-0.049094047,-0.029412644,0.0036197817,0.019466804,-0.011896382,0.034037113,-0.042137325,0.012500781,-0.016967775,0.01192039,-0.025731673,-0.01891427,-0.032861315,0.014310884,-0.0027495888,0.09578113,0.026095737,0.0041961223,0.02876723,0.04784946,0.05641323,-0.0010934897,-0.011676978,-0.02850456,-0.038270716,-0.034818884,0.058964197,-0.053994276,-0.04246119,0.04420095,0.0054437723,-0.01378964,0.008526895,-0.039752737,-0.015312974,0.05532101,-0.007907436,-0.0050886157,0.018920463,-0.06454559,0.02010695,0.04185265,0.04293052,-0.028880853,0.020210432,-0.024120899,-0.014864397,0.02374634,0.0027929544,0.07408362,-0.0076433546,0.024650266,-0.027836856,-0.081163935,0.015055211,-0.0065359306,0.00650464,-0.052914817,0.010551914,0.027176749,-0.01746245,-0.0036843426,-0.0043287072,0.009856548,0.020345395,-0.03707285,0.06287915,-0.0312003,0.013319698,0.022323616,0.010133329,-0.023753816,0.009438916,0.0643937,-0.049133897,-0.015229108,-0.01431827,0.025212504,0.014600643,-0.007729699,-0.00025958678,-0.050517995,-0.018744502,-0.0071098437,-0.032430824,0.0027502635,-0.019393519,0.0075542987,0.004711869,0.059412856,-0.055596214,-0.029143602,-0.0042796964,0.048176154,0.014678886,0.031360403,0.060475077,0.06253434,0.026619438,0.038348887,0.053551678,0.07036711,0.019398404,-0.027472256,-0.033794347,0.022082472,-0.0054351897,0.01482942,0.023528308,0.04501899,0.024626773,0.07280831,0.031481914,-0.033758968,0.06895998,-0.051673174,0.029752806,0.024211371,-0.020695765,-0.03201938,0.028056879,-0.03853061,-0.016932102,0.012338009,0.029976854,-0.01601293,0.07639463,-0.0049736043,0.020687725,0.03532348,-0.042916603,-0.0020637503,0.019451978,-0.03199114,0.020922052,0.03529471,0.041557208,0.012166652,0.06596196,-0.089696854,0.0027265185,-0.01464182,-0.005475005,-0.06179445,-0.046690617,0.013290604,-0.013899854,-0.033414155,0.003805247,0.024988333,0.035486042,0.017988982,-0.026394347,-0.018139532,-0.010038114,0.080096275,0.004594792,-0.039505,0.031163275,0.007282306,-0.019457815,0.0043241214,0.037032712,-0.031593606,0.017308127,-0.007542605,0.007992615,-8.564551e-05,-0.009204048,-0.038475916,-0.08344344,0.002686976,0.0022514611,-0.021423213,0.051295962,-0.029228222,0.009053493,0.01273971,0.01969676,-0.0040925783,0.04809385,-0.028840633,-0.038133927,-0.021917617,-0.053777993,-0.06928187,-0.009731383,0.017833743,-0.0053490186,-0.0038144772,-0.009312557,-0.004618973,-0.03795004,-0.0069948016,0.016039064,-0.034069423,0.029049773,-0.023355423,0.028190533,0.0080997,0.034225315,0.024479788,0.016697153,-0.08930766,0.0021586667,-0.001608383,0.0014711431,-0.0025814588,0.023623522,-0.022791704,-0.043137614,0.017461164,-0.11423608,-0.00014651887,-0.042175025,0.005206146,-0.02237752,0.022972256,-0.0003290918,0.0017147869,-0.07133827,-0.050216045,0.05674798,0.012451635,-0.013182087,0.057826035,-0.0019072172,-0.0026818407,0.009365132,-0.014789181,0.05963474,0.071094744,-0.0065064477,-0.012058482,-0.035140805,-0.012000297,0.0055491123,0.02957864,0.030273318,0.014598991,0.008975128,-0.064759776,0.043005023,0.0065455185,0.0022800846,-0.0012309598,-0.04526289,0.036032837,0.008162664,0.049513727,-0.009483611,0.015354428,-0.038904306,0.0116945375,-0.057272367,0.039355602,0.02696378,0.039217785,0.044625223,0.009001291,0.0020061866,0.0054713977,-0.045515552,-0.019769039,0.026025416,-0.0033326624,0.040064435,-0.0008001231,-0.010947429,-0.0064952676,-0.0036859063,-0.008984599,0.022636946,0.091719024,-0.00063678005,0.04606411,0.04716964,-0.030731661,-0.024134794,-0.040637575,0.045480084,-0.029975163,-0.060342755,-0.07027396,0.006803889,-0.0002415147,0.0012474082,-0.049904365,-0.0009425999,0.050873816,0.0047666417,0.030772198,0.086707376,-0.05868771,-0.0074926945,-0.012344503,0.040566847,-0.016161755,0.011006217,-0.0014755245,0.041403998,-0.03482934,0.052683163,0.020936359,0.0044549387,0.028333148,0.0029940372,0.021124031,0.011631318,0.04663866,-0.008094169,0.015779387,0.018644726,-0.007391387,0.0358244,0.042549357,0.0032330982,-0.05147826,0.02827685,0.021587417,-0.050007094,-0.023025505,-0.068846285,-0.07273789,-0.029778164,0.0403201,-0.06892191,0.05767724,-0.029720891,-0.006418037,-0.04155746,-0.04326223,-0.06759233,-0.05954735,0.048556454,-0.004252842,-0.007939697,0.034651216,0.044881586,-0.014064917,-0.009687459,0.051572114,0.029678063,0.0046393992,-1.1787382e-05,0.008685238,-0.0386929,0.007984884,0.06874839,0.003198876,-0.01905175,0.025939412,0.007979584,0.032668795,-0.00094761787,-0.061799046,-0.0072053215,0.031741653,0.03060327,0.0042800624,-0.06836499,0.002740402,0.0046804915,0.06535795,0.021537652,0.050090656,0.03776651,-0.020395081,-0.050130848,0.023888374,0.07023324,0.036356878,0.05346181,0.017343402,0.010812855,-0.0027047228,0.028400524,0.030877758,0.051909927,-0.056058813,-0.022958353,-0.024418518,0.044400442,0.06334487,-0.0050812764,-0.03284524,0.07214484,-0.013403703,0.020988716,-0.02978598,5.6523906e-05,0.0060337777,-0.02215331,-0.01523082,0.026148815,0.022601496,0.013188484,-0.062236942,0.012050561,0.018964278,0.0058646505,-0.033870846,-0.03728969,-0.0014168774,0.012333753,-0.043223776,0.01741456,0.052817483,0.043998126,0.028865239,-0.05179525,-0.05223734,-0.050597455,0.025306286,-0.061258905,0.01820267,-0.0020549607,0.01008428,0.025385773,0.024155643,-0.000344174,-0.048897732,-0.093137085,-0.1171897,0.04192171,-0.00040373538,-0.01845048,0.0016409601,0.0042384355,0.012026895,0.010095724,-0.0052794623,-0.035805754,-0.02341843,-0.00470248,-0.04701009,-0.02119013,0.054042272,0.034239624,-0.065021016,0.0534407,-0.052287214,0.03687132,0.01741015,-0.09705953,-0.06139752,0.008757186,-0.017151834,0.007989151,0.0027159676,0.051282328,0.048552737,0.037316762,-0.00608848,0.0346245,0.00879214,0.010151288,-0.04826172,-0.054646496,-0.0007041408,0.0042279745,-0.061335005,-0.009499218,-0.063090086,0.058243755,0.03040326,0.059111137,-0.0062421127,-0.05480238,0.007161507,0.025967775,0.0036305187,0.0075837146,-0.029362347,-0.0032821456,-0.020183729,-0.009700956,-0.03350736,0.021408143,-0.023467038,-0.05804577,0.05974912,0.010683356,0.008669201,-0.01978363,0.011127085,0.021432687,-0.01949877,0.012427548,-0.015429513,0.006829456,0.0005866656,0.061644793,-0.00012621419,-0.013828889,-0.05290637,-0.035963222,-0.02000447,-0.014456998,0.05975529,-5.0710903e-33,-0.05621114,-0.05965375,0.05750074,-0.001716363,-0.055400334,-0.039116926,0.008356545,0.03941246,-0.034769285,-0.02619256,-0.009991007,-0.017013635,-0.011470612,-0.028539738,0.013608786,-0.006440405,0.01114442,-0.04904998,0.00380444,0.018560313,-0.06764357,0.0089295,-0.04217181,0.018168895,0.007811923,0.010478901,-0.030110849,0.046510674,-0.008131813,-0.07699614,0.031803813,-0.054055586,-0.008572585,-0.044802375,0.033714384,0.104882695,-0.028067656,-0.0103097875,0.036108464,0.013766897,-0.06577534,0.013361873,0.003589323,-0.0018166037,0.083769605,0.007075681,-0.00030967797,0.0412765,0.012610928,0.0656561,0.020971056,-0.051428385,-0.021573637,0.01957183,-0.0059216567,0.07721592,-0.030200923,-0.08748858,0.01616357,0.010726408,-0.007374544,0.00028089545,-0.014056085,0.0139006125,-0.01401762,-0.019778838,-0.0027789199,0.011766472,-0.010257177,-0.003842896,-0.051668208,0.055644277,0.04687832,0.08169679,-0.04868008,0.027397128,0.051056687,0.0146643035,0.080474816,-0.0028276513,-0.026476745,-0.0018995681,0.036396503,-0.031078568,-0.046260115,0.005626878,-0.016073434,-0.03669903,0.00047242583,-0.021030208,-0.04863634,0.030293083,0.035498045,-0.025466522,0.058318175,-0.010385825,0.006267066,-0.004763662,-0.06285206,-0.0026743938,-0.02842047,0.060474474,0.034950998,0.012485042,0.021524372,0.008768171,-0.07567776,-0.0013753442,-0.038061645,0.0070202253,0.005841453,0.028189754,-0.051922373,-0.0066261454,-0.047318157,-0.0040512593,-0.014022749,0.01925875,-0.012151528,-0.050629225,-0.026394915,-0.06702408,-0.0027586776,0.007915546,-0.04064862,0.026051607,0.02206715,-0.003932223,0.057364028,0.0604268,-0.01048052,0.019054763,2.1618156e-07,-0.05073342,-0.048073526,-0.03159739,0.032928314,0.042870127,-0.041571498,0.025463726,0.025366299,0.037782665,-0.103368215,0.08011635,0.020330368,0.00824291,0.03053292,-0.022513896,-0.06182389,-0.049995717,-0.026822325,0.034955457,-0.007845231,0.038154647,0.0048949546,-0.0026152264,0.019818526,-0.049789,-0.062385157,0.0029157568,0.04935208,-0.06764886,0.03357525,-0.028869117,-0.030773044,-0.013795719,0.09358083,-0.004331291,-0.021090057,0.01642339,0.0017892029,-0.020578431,-0.019996803,-0.026063401,0.022804974,-0.010364509,0.015548778,0.026351126,-0.019572182,0.012449465,-0.0147156995,0.033758257,-0.04598922,-0.0035248857,0.043063115,0.052101366,0.042454924,-0.0030749755,-0.003968313,0.018016782,0.045517214,0.03857673,-0.027894588,-0.03851463,-0.031877484,0.04850776,-0.08110765,-0.07256311,-0.007183796,-0.00039157658,1.1352092e-34,-0.021086706,0.0828816,-0.057834297,0.020196978,0.022346977,-0.0019990213,-0.03801581,-0.01495514,-0.014295673,-0.0016511084,-0.008330141
rbq002,0.049429193,0.07267298,0.0034809776,-0.0044403304,0.022818742,0.004319793,-0.007476254,-0.02619874,0.015135914,0.00032529427,0.037701223,0.023513634,0.007260229,-0.014058912,0.03001616,-0.013590373,0.027661622,-0.045245185,-0.034493335,-0.032481268,-0.046535473,0.010764855,0.003416659,0.0048620705,-0.013482334,-0.0730853,0.037870783,0.019125935,0.031603187,-0.01328949,-0.04464799,-0.021201845,-0.019272653,0.02586991,1.7038877e-06,-0.03186698,-0.0063950536,-0.022186898,-0.11890941,0.030243628,0.057540454,0.06908571,0.025727807,-0.004002412,-0.0028697217,-0.009593127,0.0500316,0.026473016,0.01499058,0.038951177,-0.0035438177,0.0023621463,-0.019658396,-0.034064025,0.06338141,0.09282378,-0.0006102142,-0.036389858,0.008589589,-0.008365502,-0.011800711,0.023907948,-0.015286809,-0.035584755,0.08317703,0.0063128714,-0.0031427233,-0.018946975,0.024117615,-0.022005348,0.08199131,0.016254887,0.0017612578,0.02187089,0.05009253,0.07307521,-0.0029931767,0.02887221,-0.0044981376,-0.007626297,0.0126112485,0.07066647,0.0041938373,-0.017607773,0.028928347,-0.044899054,-0.0022407433,0.03132407,-0.011351223,-0.03486445,0.03674604,-0.049011633,0.008852219,-0.0123259,0.012969108,-0.03644619,-0.0118861515,-0.044944853,0.01029793,0.019659363,0.01653419,0.023444096,-0.061555944,-0.0049155806,0.065889195,-0.033879865,-0.016951948,-0.005425072,-0.075584054,0.028348267,-0.04638395,0.021306831,-0.015468499,0.06655029,0.034470517,0.0027852706,-0.05202966,0.022737594,0.02047613,-0.0027361093,-0.0055354997,0.028864743,-0.0036070424,-0.018466327,-0.028073208,0.021580294,-0.06499104,-0.023713931,-0.016335908,-0.025335146,0.022907335,-0.05452889,0.06964154,-0.043349132,0.035131622,0.017891182,0.015836732,-0.041550756,-0.056402516,-0.034324065,0.024009557,-0.039022453,-0.020531695,-0.01192393,0.021295905,-0.0047842157,0.042642597,-0.022915717,0.00443133,-0.023026116,-0.025017435,0.010788929,0.025463436,0.012206834,0.059302192,0.025087027,0.08782872,0.0024882823,0.010458111,0.012159613,0.045469955,-0.030773215,-0.021699054,-0.049888745,-0.014127632,-0.025743,0.09771473,0.013645969,0.0029193102,0.03828731,-0.005677126,-0.0051013427,-0.010083732,0.07297474,0.06605498,0.06415026,0.017447785,0.023288133,-0.04516957,0.05881345,0.037551638,-0.0645358,-0.031919107,0.035179622,0.049691603,0.017771505,0.054172907,0.054543518,-0.04536485,-0.0037159172,-0.027651746,-0.030790107,-0.038204957,0.039170735,-0.027325958,-0.031753995,0.05560693,-0.0055182423,-0.0013054608,-0.07544311,0.019947978,-0.03113137,-0.00013579121,0.11917342,-0.026078792,-0.011890269,0.04869117,-0.073744945,0.052048538,0.0064724865,0.028433625,0.031112343,0.040876716,0.020855444,0.006819426,-0.022802591,0.010719659,0.03746938,-0.0009210108,0.07241915,-0.031327408,0.028297134,-0.029734753,-0.00017354009,-0.045051754,-0.09805418,0.051816218,0.020878684,0.04382626,0.06171286,0.00903671,0.017831832,-0.0017169154,0.021371357,-0.023057465,-0.0021971213,0.045787208,0.020425135,-0.01329818,-0.061438102,-0.03258294,0.0015603283,0.05910838,0.00021964537,-0.008272347,-0.010685719,0.06389993,0.009645687,-0.017279709,0.03571938,0.02299358,0.024528932,0.01349906,0.012765302,-0.01079311,-0.016830612,-0.0117111625,0.0063990294,-0.072879784,0.033084907,-0.054807305,-0.044383783,0.04049907,-0.017581603,-0.005410259,-0.014970273,-0.010999957,-0.08599331,-0.031081064,0.0025346403,0.01611364,-0.035705976,0.008941547,-0.00081479055,0.0182569,-0.021467593,-0.0045092185,-0.020110631,0.021684727,0.023234986,0.038161293,0.043476574,-0.007298545,0.027548809,-0.0056085316,0.023672577,0.04914954,-0.020412698,0.01377504,-0.0317283,-0.0097124,0.02916937,-0.0067038145,-0.04674782,0.0039678332,0.010503763,0.056384277,0.054228373,0.049672104,0.003566735,0.026347175,0.0022133326,0.0032534895,0.0032667029,-0.00084652216,-0.0050763,-0.022612324,-0.013228958,0.02735667,-0.057771128,0.04340539,0.021337284,0.015585717,0.030207014,0.007913651,-0.01635546,-0.023185713,0.016698958,-0.017962517,0.041602198,0.024983278,0.02326792,0.012207509,-0.0017080483,0.0056281043,0.071301706,-0.0153849535,-0.0020328043,0.07126203,-0.016180623,0.046922807,0.05005486,-0.007799259,0.037931144,0.022976963,0.02885748,-0.018898066,-0.08669473,0.0024180072,0.0070746145,0.023946809,-0.035941947,-0.029049957,-0.10174605,0.011423644,-0.085646704,-0.031384047,-0.007983987,-0.03623825,-0.078354955,0.05541946,0.023964921,-0.0064637098,-0.019547218,0.027394561,-0.0010969519,-0.04125251,0.08053444,0.016702998,-0.01879056,-0.07391782,0.009622341,0.026206706,0.024925968,0.04950576,-0.032194577,0.047163747,-0.011162381,-0.050966877,0.014984497,0.053933535,-0.0031193013,-0.016287914,0.043762676,-0.022951948,-0.05231214,0.02300379,-0.03772386,-0.040788397,-0.011587319,0.050669797,-0.051367458,0.029679725,-0.048254237,-0.013278763,-0.066118754,0.0014807581,-0.039679486,-0.008504482,0.05556163,0.02407394,-0.018241156,0.04142572,0.0057929507,-0.03454646,-0.028094329,-0.072226144,-0.033737075,-0.07462754,0.012945577,-0.029395552,-0.04602082,-0.061718337,0.011821492,-0.008443934,0.048510637,0.026795592,0.058526926,-0.02829668,-0.05879942,-0.023270898,-0.009796696,-0.009174189,0.00901739,0.09835203,-0.096084714,-0.022181487,0.0039096805,0.063463226,-0.08889776,0.028837333,-0.00096744293,0.0063529364,0.0046931026,0.038259555,0.021902608,-0.020968378,0.037114684,0.020842563,-0.056411978,-0.025225172,0.08843854,0.0113023305,-0.0266867,0.014696922,-0.020887192,-0.022325434,0.035254396,-0.028134786,-0.038751714,-0.015584078,0.025905272,0.049595404,0.00768497,0.005237482,-0.052752957,0.04009989,-0.006642252,0.051939733,-0.04172497,0.0126541015,-0.029500624,-0.07744392,-0.012813081,-0.02076957,-0.0039748247,-0.06270736,-0.030171316,0.0037332717,0.07729546,0.01810377,0.036898974,0.03918415,0.002407142,-0.02722105,0.0044736066,0.04541719,-0.09784685,0.010599877,-0.021689361,0.047137514,-0.003819987,-0.008896804,0.005084652,-0.015647918,0.012737131,-0.08492054,-0.032576032,-0.068970725,0.00045809086,0.07091621,-0.0007081057,-0.040955577,0.0645715,-0.019023672,-0.0037764849,-0.037776493,-0.005779404,-0.030146377,-0.024008367,0.040158693,0.013342638,0.0044092285,0.033137843,0.009784112,0.038110998,-0.02049206,-0.034218524,-0.03622456,0.036789987,0.00829278,0.010251171,-0.0102578765,0.024296205,0.050553482,0.0072003,-0.026611073,0.07155915,-0.007746748,0.016552854,-0.0018361232,0.025028164,-0.10161035,-0.11522482,-0.021709766,0.01789821,-0.046509504,0.027724685,0.014868844,-0.021704717,0.008219606,0.0058515244,0.020996863,-0.014763084,0.0011353215,-0.0009804172,0.0047445893,-0.021202002,-0.051640306,0.004614786,0.013042009,-0.012380779,-0.03740907,0.0056780595,-0.031437915,0.029029282,-0.06573657,0.050422717,-0.03519413,0.022570027,-0.032693658,-0.029231861,-0.018702777,0.019362684,-0.040886316,-0.024120651,0.018502165,0.006633629,-0.0012855489,-0.021193625,-0.04128576,0.030414987,-0.05653127,0.005378915,0.08600949,-6.189036e-33,-0.005255369,-0.023391651,0.030914554,0.0054834397,-0.038102645,-0.020057347,0.019677991,0.04354295,-0.016912686,-0.023055851,-0.010927707,-0.0033928296,0.02177259,-0.009606611,0.019033067,-0.019622294,0.065369524,-0.023236549,0.004859622,-0.015379167,-0.023753202,-0.014824511,-0.004161604,-0.049324363,0.030318793,-0.012916046,0.005749084,0.015270678,0.042736817,-0.03244499,-0.04052458,-0.0036046125,-0.0030506637,0.0073641203,0.040647425,0.033005413,-0.07853383,-0.036981877,-0.009626627,-0.0278916,-0.09165667,-0.099774145,0.0027679792,-0.0073099816,0.013065393,-0.01093237,0.022231225,0.03122556,0.0315885,0.031015998,-0.014751412,-0.027400034,-0.0021831617,0.020241866,-0.03353388,0.014118137,-0.018658523,-0.006288554,0.0071438355,0.0018445578,-0.042572487,0.006659281,-0.020261033,-0.045998078,0.025559772,0.0110971,0.030067567,-0.000893227,-0.038976185,0.015490625,-0.005221107,-0.002137834,0.011293451,0.08437291,-0.024170319,-0.03751458,0.03962613,-0.0020584315,0.07034527,-0.07052825,-0.024948047,-0.008419463,0.002615113,-0.016828617,-0.010313328,-0.06934719,0.0019635493,0.026243202,0.006433138,0.0079422165,-0.06928276,0.062263336,-0.020894993,0.021311276,-0.023981916,-0.006655918,0.042498626,0.0044152313,-0.0036388142,-0.014853983,-0.059998203,0.04720112,-0.06878554,-0.006574429,0.026203275,0.04202644,-0.0010610214,0.026361024,-0.06405032,-0.0016544771,0.011252585,-0.010392971,-0.0010856485,-0.03484149,0.022501286,-0.035264287,0.022243174,0.027941521,-0.031987175,-0.008072297,-0.01876377,-0.028293805,0.0138954865,-0.0021297706,0.010572157,0.016705256,-0.047908064,0.028722672,0.10451034,-0.037552387,0.03255169,-0.041168805,2.3504809e-07,-0.05985351,0.036911495,-0.015191111,-0.05767444,0.035203524,0.005110376,-0.0047583086,0.020538008,0.0055492385,-0.008190545,-0.015110983,0.021123586,0.027680578,0.0044569056,-0.04151773,-0.05405577,0.013397877,-0.052816913,-0.014536629,-0.013312262,0.012272402,0.043347027,0.049863398,-0.012065452,0.0378716,-0.05531753,0.024776807,0.012601241,-0.012819408,0.012981535,0.018702878,0.014269597,-0.019382672,-0.005070149,-0.027432594,-0.030841954,-0.0092142355,0.07170472,0.0035965028,0.045169532,-0.00831362,-0.0018995209,-0.023883056,0.032560494,0.031051513,-0.036877528,-0.014970007,-0.022958111,0.038255036,-0.008072566,0.014561215,0.022087894,-0.019266753,0.042062677,0.030183258,-0.049843013,0.013514038,-0.04607391,0.032158215,-0.08364022,-0.02739584,-0.042770408,0.013015237,0.039979365,0.0337468,-0.027151892,0.0020743764,1.1878924e-34,-0.013853568,0.020007677,-0.010175585,-0.057272322,0.00705726,-0.014225703,0.011050568,-0.01697503,-0.0320352,0.024457632,-0.010554799
rbq003,-0.004290622,0.0891115,0.013607024,-0.007228017,-0.10561461,0.0061959354,0.01612349,0.017257005,-0.0048183855,0.0037171654,0.009932529,0.0092979595,-0.051555432,-0.010551953,0.042672873,0.02787566,0.012886399,0.00846583,-0.012307744,0.01570425,-0.0005280772,0.01902759,-0.015006529,-0.032625068,0.040144548,-0.014411397,-0.07097674,0.046889625,-0.01494093,0.014896818,-0.014876584,0.019873422,-0.030093877,0.06556385,2.1050164e-06,0.0038187366,0.0014009299,0.024265641,0.03462181,0.036100592,0.020941569,0.08657225,0.01806965,0.03208819,-0.03553605,-0.073564515,0.029890873,0.029678755,-0.023485309,-0.0026452767,-0.013167914,0.07092475,-0.03042562,-0.017995803,0.026447222,0.048641477,0.037182953,-0.011577648,0.052275784,0.002963028,0.032636814,0.013470984,-0.02610152,-0.057524763,-0.009439359,-0.0047770203,0.01845394,-0.013984106,0.03216186,-0.008483311,0.043345217,0.01694426,-0.004759064,-0.009848314,-0.0016740161,-0.00387271,0.032818884,0.008462636,-0.044874463,0.033861093,-0.016295552,0.05426554,0.024178524,0.026274197,0.04339719,0.04591786,-0.006589434,0.0063720304,-0.046568245,0.008061656,0.03794433,-0.0136483135,0.01353453,-0.025049618,-0.016232613,-0.04502684,0.027258357,0.03754047,-0.054741647,-0.058792893,-0.03221447,0.033032063,-0.07180394,-0.035229452,-0.02806163,-0.011556597,0.031694405,-0.0013824092,-0.034782633,0.04652943,0.011735815,0.019361276,0.039569333,0.06522921,-0.015685063,0.0026752756,0.042934634,0.002873199,0.0383161,0.016196776,-0.05286487,-0.004788008,0.045701314,0.039645832,-0.011721092,0.05339213,-0.058243595,0.0006294916,0.04973161,-0.023389349,-0.016080707,-0.05425342,-0.04659765,0.009046937,0.030871049,0.0538761,-0.015193199,-0.017098987,-0.04650305,0.019592352,0.005713796,0.022041641,-0.0112190815,-0.0055647367,-0.020467717,0.0066729765,0.016314797,-0.041520644,-0.014958576,-0.026717091,0.0041226195,0.02478751,-0.0762565,-0.0016759036,-0.037104003,0.0037816856,0.06428628,0.01687709,-0.0008186918,0.041893307,0.03295109,0.015595352,-0.057645295,-0.01641164,-0.04471929,0.038124904,0.049820885,0.0028291561,-0.040789384,0.046399195,0.055532698,-0.00067692617,-0.029378725,0.009965911,-0.007185623,-0.026607577,-0.09190621,-0.03719778,-0.010276776,0.028263299,0.031326123,-0.056807533,-0.020508938,-0.020086393,0.06917859,-0.015746335,0.00826615,-0.030139437,-0.02626446,0.024398487,0.008617325,0.07578665,-0.0034958487,0.08915113,0.0049827425,-0.01757996,-0.0060308175,-0.004083241,0.07340897,-0.041675605,-0.03147355,-0.012138224,0.05025421,0.051611975,-0.00873783,0.0051296963,-0.02622928,-0.04822463,-0.03772849,0.04859641,0.06281782,0.03654844,0.04138315,-0.04842426,0.01870081,-0.048811775,0.0400638,0.0064217583,0.017772794,0.025553482,0.0010942651,0.04129149,0.009355443,0.019196728,0.07153203,-0.060533796,0.02437648,-0.011867625,0.003172427,-0.007621149,0.0043209805,0.0027854706,0.005533569,0.014192021,0.017738804,0.012001331,-0.0018942175,0.05029903,-0.01069772,-0.046651773,0.00011104789,-0.02245588,0.0051747556,0.017683854,-0.020572,-0.043881163,-0.028784463,-0.05966508,0.019690817,-0.020790422,-0.040607367,-0.01137969,-0.06035314,-0.005961069,-0.020423431,0.006817982,-0.101380214,0.04968381,-0.020454697,-0.010770509,0.011055798,-0.030766098,0.006020841,-0.04912795,0.030839888,-0.04177391,0.018661017,-0.06951295,0.008318803,0.010106632,0.024607062,-0.03954089,0.08943016,-0.015231972,0.021735452,0.004716031,-0.016965052,0.033864763,-0.015312376,0.0048323898,0.02445068,0.032938488,-0.032627676,0.038943034,0.004722876,0.030815156,0.008709935,-0.00900621,0.0062329983,0.013077315,-0.013173543,-0.0012777123,0.011429392,-0.013166504,0.016403453,-0.028914113,0.005670562,-0.009065067,0.008497616,0.06503459,-0.0020538345,0.024470165,0.03995658,-0.0056608906,-0.04627727,-0.06060254,-0.0028989099,0.03293034,-8.307242e-05,0.07330948,0.01693783,-0.013664241,0.00982413,-0.0059582824,0.039859522,0.025576627,-0.0054834145,-0.0025895084,0.024703464,0.037930455,0.0004394197,-0.005766107,0.035865266,0.030817607,-0.0065841675,0.0051734,-0.013957036,-0.00975674,0.007398846,0.0011869929,-0.02076813,-0.023079304,0.07008133,-0.06670571,0.0038719485,-0.07152035,-0.0021193102,-0.020718433,-0.029965859,0.012707286,0.006011483,0.0330733,0.011310048,-0.07811522,-0.12354662,-0.061338603,0.03137441,0.033996947,-0.07830301,0.008909335,-0.01811619,0.03249277,-0.0128305,-0.0623392,0.026157346,-0.072020724,-0.03021645,-0.056429487,0.029597113,-0.04868079,-0.033654567,0.05462902,0.017230019,-0.056424335,0.018862817,-0.0232426,0.04496346,-0.030151984,-0.009156151,-0.018855307,-0.005656986,0.031458482,-0.008710025,0.0027204826,0.025997724,-0.0990565,0.038182564,-0.05553763,0.08205151,-0.008920247,0.07784154,-0.049964882,-0.016222697,-0.036704883,0.0030287872,-0.0018948519,0.01211167,-0.008429599,-0.012466789,-0.052754726,-0.016675765,-0.01767421,-0.010554343,0.069241285,0.0121723795,0.03284059,0.021186085,0.050839208,0.0016494897,0.030355612,-0.024169255,0.011426851,0.032091796,0.016778992,0.0013926629,-0.011788841,-0.021579616,0.016023384,0.082740374,-0.06960164,-0.063912116,0.058248367,-0.035484377,-0.00967357,-0.004687966,-0.050139595,-0.022610553,-0.09161507,0.034313135,-0.019627206,0.024563208,0.022460762,-0.0314783,-0.059563283,-0.023266248,-0.018253522,0.008579588,0.041839685,-0.03335672,-0.014416695,-0.034766097,0.012541844,-0.01667175,-0.008449334,0.00061205606,-0.08553756,0.0075769653,0.09586413,0.06074832,0.0042579505,0.007906924,-0.04317843,0.055032853,-0.03356395,-0.02564213,-0.0463396,0.036089167,0.0059605646,0.038485967,-0.0128310975,0.013488474,0.006707807,-0.06314377,0.054267935,-0.050748955,-0.014322177,-0.011165657,-0.06816303,0.040070895,-0.033619218,0.013728369,0.042479843,0.036883038,0.026171707,0.0165098,-0.024732511,-0.036588583,-0.013696761,0.010620988,-0.026005797,0.088346675,-0.024472684,-0.004262736,-0.033170506,-0.014676404,-0.080882385,-0.06369033,0.0016632355,-0.09044841,-0.03658355,-0.013813105,-0.052421845,-0.024130339,0.026575955,0.030571638,-0.038008183,-0.019625721,0.03030141,-0.014700916,-0.00805571,-0.00600198,0.023181733,-0.03515955,-0.06934495,0.00924404,0.00711219,-0.009305628,-0.0094953105,-0.016493266,-0.04409235,0.019487718,0.02246927,0.017830929,0.012541496,-0.017443044,0.0017389363,-0.022246962,0.045043565,0.008090152,0.003485377,0.056204025,-0.019526822,-0.10066536,-0.07282157,0.041692723,-0.030533971,-0.036909457,0.00981313,0.06047878,0.0056381724,0.040049672,0.045482278,0.050282225,0.029964333,0.013046782,-0.0017116158,-0.0041441848,-0.013159559,-0.08690903,-0.022901466,-0.018650964,-0.009250342,-0.0015631384,0.012011522,-0.038296647,-0.0003558134,-0.03202746,0.030554693,0.002550229,0.02155521,-0.011325186,0.031949226,-0.02998617,0.05493725,0.0035489893,0.016257782,-0.0077989325,0.04271119,0.055714697,-0.038187794,0.007759582,-0.04049812,-0.017630944,-0.0127013335,0.03562065,-7.7606335e-33,0.006712633,-0.04022134,-0.048980482,0.080342256,-0.077206016,-0.05949225,-0.018505478,0.024031354,-0.03344468,-0.012274053,0.012098177,0.0049789716,0.025625879,0.051427335,0.0059742895,-0.03185196,0.027035113,0.036902778,0.04710249,0.015795797,-0.02266703,-0.026026133,-0.047918934,0.0071730595,0.06393271,-0.0065671247,-0.025301643,-0.017274864,-0.050200686,-0.050521195,-0.0017497799,0.015500179,-0.009890666,0.06415679,0.020329917,-0.022812916,0.010841212,0.03694892,-0.01452875,0.012466115,-0.029725572,-0.048837986,-0.07076355,-0.03133744,-0.0016367332,-0.06604241,-0.0059497165,0.032662597,-0.0019064159,0.03299005,-0.0067056986,-0.033144012,-0.023679743,-0.0040028654,-0.023653952,-0.022135863,0.02447379,-0.0072194077,0.029031577,-0.015513323,-0.04799508,-0.050164007,-0.033180907,0.025766257,0.012937065,-0.0135234855,0.10478337,0.020756515,-0.04204237,0.0247285,0.05460354,-0.019965418,0.008747979,0.07389318,-0.059896518,0.012599687,0.011826332,0.04157232,0.0038960143,-0.01499711,0.009355435,-0.013227604,0.0104209045,-0.0039352123,-0.00016846968,-0.05072389,-0.011829746,0.05158318,0.006998319,-0.018277075,-0.03636334,0.07289861,-0.01635197,0.054622892,-0.007264984,-0.030661656,-0.043060325,0.0019171166,-0.02827207,-0.06356566,0.013450067,0.038924668,-0.012538315,0.00019863967,0.0037999093,0.022753388,-0.057721235,0.008524604,-0.08045266,-0.0047771363,-0.018816255,0.051785193,-0.0048942645,0.04048259,-0.031197082,0.006024359,-0.022740787,0.043568764,-0.01986336,0.0563233,-0.018782726,-0.016355794,-0.03554093,0.0516125,-0.04384715,0.03856693,0.033387627,0.021340126,0.032284882,-0.029065989,-0.030073734,-0.08622952,2.8670317e-07,0.032382753,0.011695891,0.03158099,0.012064361,-0.039439548,0.05989221,-0.010889556,0.012289161,0.10714127,0.022171218,0.013069631,0.021728281,0.06364505,-0.014573511,0.016535595,-0.05775694,0.060947698,-0.016353935,0.014190689,0.05784824,0.057798322,0.03613799,0.019145837,-0.012499207,0.021097505,0.017952207,-0.0041396744,-0.015998302,-0.01459442,-0.0020023305,-0.01204983,-0.047218796,-0.007837142,0.037844032,0.0049530137,-0.018864585,0.013127583,0.020967064,0.012204544,-0.030379225,-0.076421015,-0.0002384561,0.029759586,-0.0015005119,-0.009276602,-0.0399971,-0.019464118,0.014679687,-0.06768533,0.010636598,0.037997544,0.0130927935,0.023343157,0.024823135,0.022024397,-0.0277818,-0.012185372,-0.008406471,0.024445973,-0.0437126,-0.032569773,0.039081443,-0.024052393,0.022289876,0.01819277,0.0575441,-0.07422746,1.3549425e-34,0.014840565,0.018837485,0.059451126,0.009165457,0.018990606,0.040766396,0.022953052,-0.072943546,0.027913809,0.04347172,0.013049483
rbq004,0.044866838,-0.038076304,-0.006002443,-0.008825719,-0.073892504,0.0014699011,-0.022698628,0.0011965696,0.010874136,0.018371949,0.03170617,-0.056842316,-0.0284062,-0.044143464,0.01659611,0.021235865,0.032145157,0.015664876,0.0142276995,0.0049207676,0.004506775,0.01565226,0.011827903,-0.028663091,-0.016285531,0.011914161,0.004620794,0.016420886,0.01949761,-0.0041993,0.042811994,-0.021440899,0.025845706,0.026029898,1.4740256e-06,-0.015733875,0.00013670603,-0.03185807,0.02856196,-0.035927434,0.03810876,-0.073655285,0.026167497,0.031945728,-0.036727753,0.0072730733,-0.03476479,0.070170365,0.0414178,0.02412547,0.0033812057,0.046093635,-0.08037312,-0.027260322,-0.013776204,-0.09728648,0.044203375,-0.012365928,-0.005601876,-0.014633223,-0.005133148,-0.015214344,-0.0976677,-0.046390016,-0.081227556,-0.059502937,0.032947835,0.00043363197,0.045361273,-0.018285418,0.000608788,0.017386941,0.047050547,0.015524123,0.0070650578,0.08253325,0.02586652,-0.024632871,0.0059165596,-0.0031341484,-0.016479796,0.11216823,-0.014157052,0.030214697,-0.030157998,0.0053805704,-0.03671194,-0.026345784,0.009666522,-0.005119186,0.0032342123,-0.041440036,-0.023061011,0.026393322,-0.04854439,0.021416612,0.008987822,-0.028957127,-0.033876836,-0.06919483,-0.04359328,-0.008036887,0.057431847,0.011817732,0.035969716,-0.02115686,-0.010207002,0.005466492,0.029677538,0.024509814,0.0030198742,0.004112792,0.02874307,-0.02554837,0.07821989,-0.030980676,-0.001932332,-0.0008615893,-0.03891249,0.037942734,-0.082556844,0.04260188,-0.013353651,0.014354204,-0.0001167735,0.057706837,-0.019417109,0.010864343,0.0036376158,0.005294114,-0.020778568,-0.053634126,0.011816379,0.017881053,-0.004598068,0.024324404,0.04037134,-0.020686816,-0.077876985,0.000113270224,-0.009265291,-0.01861514,-0.02037986,0.051159207,0.047981214,-0.003209079,-0.014231251,-0.10149666,-0.0016949462,-0.033977527,0.025559818,0.0130408835,0.029285355,0.0038645195,-0.003369194,0.06460672,-0.030894088,0.016407954,-0.078094274,-0.03514186,0.02875473,0.0018603666,0.05339283,-0.02869018,0.030386427,0.03348934,0.029814836,0.010894684,-0.014004072,-0.0021740913,0.039183225,-0.0536935,-0.010045701,0.057374485,0.042692114,0.024130873,-0.0845701,-0.001641817,-0.056050867,0.024636462,-0.018996626,0.049013585,-0.0030811622,0.0043890313,-0.015233088,-0.02022632,-0.017570322,0.017254932,-0.010627292,-0.007093188,-0.01321544,0.0352584,-0.06112915,0.050104577,-0.0118098445,0.0043764445,0.023065858,-0.048182838,-0.0234076,0.00037468763,0.028966276,-0.0015063761,-0.022521745,0.059437335,-0.028118253,-0.0016230155,-0.04163995,-0.018782534,0.013940352,-0.06753561,0.02079331,0.039383084,-0.027570356,0.012181341,-0.035170227,0.002906355,0.022772744,0.025141679,-0.08242204,0.011415635,-0.041202243,0.08680422,-0.038560774,0.0124174,0.013782989,-0.090991646,-0.08956345,-0.011971613,0.0006230105,-0.008990345,-0.026377741,-0.011539172,0.024227032,0.029568804,-0.01276291,0.001624774,0.013368049,0.055798925,-0.008815807,-0.033106115,-0.07137985,-0.005830624,0.02884098,-0.013485333,0.05912484,0.004334991,0.008899354,0.0035425962,-0.040967982,-0.007797744,-0.018335247,0.03177252,-0.046067107,0.01084714,0.01856218,0.071509145,0.035694998,0.028299544,0.048757654,-0.031871315,0.03571234,-0.029143158,0.0059896624,0.040430553,0.01816995,-0.022415662,0.025567044,0.0755133,-0.04937592,-0.018648032,-0.020154051,-0.035305593,0.014503596,-0.020818166,0.041010346,0.06756752,-0.01890553,0.024212617,-0.032852292,-0.00878702,0.0210026,-0.051874097,-0.008937342,0.041471835,-0.0043836427,-0.0085627865,-0.022584045,-0.0013945489,0.03434676,-0.033376493,-0.029305864,0.03735517,-0.018834235,-0.032436784,0.0043072742,0.007893304,0.0036998189,0.038461987,0.0043774634,0.0132265035,0.03191382,-0.025857856,-0.04942161,-0.021541405,-0.0206156,-0.026049322,-0.02310037,-0.0036026244,-0.05993877,0.034393925,0.014982021,-0.024976047,-0.023739897,-0.0028288981,-0.0033494763,-0.027642349,-0.04731754,-0.030323708,-0.029480692,0.06460983,0.044482157,0.04873415,0.029158203,0.009257877,0.0462359,0.07346263,0.049989592,0.029176688,0.05332308,-0.013948348,-0.02534097,0.042489555,0.019347223,0.057273347,-0.033778075,0.05352668,-0.031177528,-0.041460164,-0.04920368,0.024879577,0.0101611605,0.032200586,0.010898745,-0.02789227,0.022043379,-0.042428493,0.042549763,0.002435206,-0.029984899,-0.05934909,0.009782041,0.015089475,-0.0035832983,-0.006170434,-0.01821782,-0.09304127,-0.005526151,0.043308016,0.010542928,-0.02358596,-0.031048607,0.055600945,-0.016929269,-0.07640392,0.011042191,0.014264398,0.074409775,0.063574605,-0.0006637816,0.00021857899,0.044754755,0.026151735,-0.031851254,0.04588129,-0.0140176155,0.0178876,0.021161392,-0.14757876,0.030587673,0.02518908,0.0059050447,0.010064362,0.048066795,-0.0021123386,0.01761522,0.013299738,0.009890628,0.0015513657,-0.014956355,0.0032555445,0.032066315,-0.020164954,-0.03184091,0.053569578,0.015456123,-0.039072435,0.059358574,0.012399445,-0.0016562409,-0.015206548,0.045397814,0.05810245,0.014047655,-0.020256253,-0.039015867,0.031113843,-0.0048318193,0.0056110616,0.024431797,0.01207093,-0.009071173,-0.003874935,0.012824434,-0.0036048493,-0.0374849,-0.031099018,0.016936641,0.012862346,-0.017926116,-0.007080353,0.0013270736,0.020954987,-0.011869202,-0.03864498,-0.009454566,-0.010069652,0.02221221,0.10757917,0.012763464,0.035883695,0.0012479235,-0.055192456,0.0055913692,-0.07402102,-0.025190225,-0.033440296,-0.04898535,0.025536705,0.012719033,0.007316036,-0.04068127,-0.0008156378,0.037146937,0.004514306,-0.03261825,-0.0535114,0.012310701,0.059570283,0.006125608,0.06885797,0.022537427,0.048222847,0.020467296,-0.03517872,0.035755347,0.011670617,-0.044538006,0.07136056,0.0046499907,0.03619031,0.0061910627,0.035452705,0.04604187,0.043183677,-0.054703016,-0.02784076,-0.050042856,0.041236438,0.010870276,0.021162432,-0.011112893,-0.037609614,0.017985698,0.014780571,0.021399066,0.004150619,-0.05028224,-0.056227494,-0.025802005,0.010025766,-0.089225374,-0.006977638,-0.05099188,-0.012433133,0.017316256,-0.022180632,0.011624943,-0.022998122,0.04955883,-0.025761506,-0.00065949914,0.03694055,0.009717877,-0.003214463,-0.036337644,-0.034536753,-0.030080827,0.005959799,-0.013462736,-0.060078558,0.0025075343,0.013604063,-0.015954148,0.038232107,0.024517197,-0.016765565,0.009321552,0.040744774,0.0037896521,0.05246223,0.03359254,0.0022157512,-0.035258163,-0.034070954,0.02174908,-0.04623923,-0.012819576,-0.07809252,0.043209285,-0.030522002,0.0030257525,0.03647794,0.03210832,-0.03890982,0.01784311,0.007901694,-0.011326491,0.025299493,-0.051818836,-0.0037235934,-0.039059106,0.039851457,-0.035363976,0.04975095,-0.020418243,-0.028819652,0.063608035,0.027022913,0.018724497,0.023439903,-0.049087383,0.006594652,-0.0042444505,0.03630543,-0.007449943,0.0019993223,0.0077667483,0.008978741,-0.022620672,-0.005801932,-0.008150859,-0.0035012672,0.029748278,-0.0075256536,-0.0026032713,-5.3427126e-33,-0.031441167,-0.07011739,0.0027770093,0.009295619,-0.019419178,-0.07654947,-0.00396767,-0.005105795,-0.03239388,-0.024658758,-0.049191896,0.021248078,0.015898502,-0.008565434,0.033004787,-0.04874384,-0.024304822,0.032168273,0.025293337,-0.01639088,0.031489838,-0.015900983,-0.026941199,-0.027586175,0.05482774,0.016123207,-0.06745763,-0.019031068,-0.030151766,-0.03249901,0.0023612948,-0.03954819,-0.025179416,-0.037434507,0.032616362,0.12164241,0.02186235,-0.007318682,0.034058068,0.00040492543,-0.058231704,0.00926093,0.004272243,0.048401084,-0.03707826,0.009538299,-0.012125707,0.051262613,0.032854494,0.011057208,-0.077911995,0.0058220094,-0.040564965,-0.019148123,-0.01662368,0.038298585,-0.015866742,0.0017260497,-0.037108276,-0.018529212,-0.03286724,0.014966515,-0.016668884,0.05335848,-0.028304089,0.0112189315,-0.06545781,0.0231637,-0.03758174,-0.03134256,-0.001113342,0.07421196,-0.0010677804,-0.0026522714,-0.02649868,-0.072520025,0.034715302,-0.03759648,0.055112783,-0.0016997502,0.00074504194,0.035603583,-0.01690046,-0.0024544045,0.037995953,-0.067728035,0.013046955,0.033040583,-0.041224416,0.026504233,-0.045733996,0.07102541,0.053017948,0.016917937,0.015229542,-0.021997662,-0.005762183,0.0004435944,0.010512613,-0.022291161,0.013053859,-0.016605332,-0.028005684,-0.044344876,0.043045778,-0.0212574,-0.0684097,0.013798743,-0.057353288,-0.01943479,-0.0042405142,0.071290664,-0.020915957,-0.07771498,-0.043693632,-0.037875786,0.006144825,-0.049252346,0.011525598,-0.053087305,-0.018554427,0.108639635,-0.024502208,0.03254769,-0.01910478,0.040596966,-7.030061e-05,0.060352344,-0.004185373,-0.048445415,-0.008896331,-0.07596351,2.1499825e-07,-0.01742253,0.040342294,-0.010580791,0.017091261,0.024203148,0.035270534,-0.021933082,0.05553902,0.020204931,-0.06946509,0.080734774,-0.037694346,-0.018089099,0.0044866833,0.039265536,0.027218716,-0.0031421243,-0.08793809,0.06496749,-0.02832877,0.04259935,-0.02556295,-0.038247563,0.009591694,-0.016202524,-0.00023227431,0.024250718,0.016149143,0.0771439,0.08248728,0.026654355,-0.025009379,-0.0050610243,0.006048361,-0.017304046,0.014370463,-0.04962137,0.079479046,-0.005039142,-0.03032726,-0.04618973,-0.00689304,-0.03074503,-0.011640093,0.015286324,-0.019326085,0.038876545,0.0056788307,0.055754613,-0.0027883183,0.004572312,0.023176985,0.058965467,0.05095597,0.010319448,-0.023290396,-0.05737885,0.007777272,0.027489513,0.018263267,-0.021157814,0.03689233,-0.0015759221,0.084688745,-0.009707172,0.048595026,-0.046458595,1.1120298e-34,0.002840945,-0.032847166,0.025617866,-0.04826064,0.047555894,-0.028517706,-0.016286956,0.047567878,-0.0055980994,0.067881845,0.00079480663
rbq005,0.003388723,-0.064028114,-0.009088523,0.009025121,-0.04000658,-0.016603917,-0.05368115,-0.043587502,0.0025577517,-0.011536487,0.096327744,-0.014535091,0.021392038,0.013094017,0.01467648,-0.007685035,0.025689142,0.02649493,-0.004090424,0.047723074,-0.002748157,-0.007357426,-0.008641438,-0.011890727,-0.010598763,-0.005833332,0.023077235,0.028936416,0.04544241,-0.06297626,0.046340976,0.042128485,-0.034769904,-0.061081246,1.7290703e-06,-0.033348907,-0.01064795,-0.009562968,0.040145498,-0.008020892,-0.003944649,0.01022148,-0.0075367307,0.023151051,-0.0044186707,0.014290002,0.03419382,0.07493936,-0.08845419,-0.005836299,0.0056053763,0.047124512,-0.05685932,-0.02491846,0.046074636,-0.05883225,0.042844784,-0.041685786,0.022814447,0.010946061,-0.007886031,-0.019519936,-0.03703932,-0.002358487,0.055586975,-0.011104702,0.055700704,0.016443782,-0.0066077,0.0099798255,0.005025401,-0.010330054,0.05120491,-0.007077862,-1.8434559e-05,-0.048773758,0.029953085,-0.015770212,0.043325145,-0.024945863,0.0810483,0.11713724,-0.017028894,0.05340405,-0.06904645,0.020382721,0.0001286668,-0.01868417,-0.04276732,0.006890929,-0.081363134,-0.021127662,0.022061912,-0.025111508,-0.029780386,0.03286787,0.03016322,0.06541924,0.0105880685,-0.075383484,-0.031114789,0.001390037,0.042689558,0.015188723,0.048543826,-0.023829965,-0.022285394,-0.043115146,-0.013971068,0.06444442,0.06423396,-0.0024740964,0.045537647,-0.006635985,-0.012625681,-0.04704456,-0.021527313,-0.027075155,-0.03336961,-0.0011327475,-0.007482811,0.022231277,-0.02393369,0.009440532,0.035692878,0.10384597,-0.025695316,0.006989432,0.038799074,-0.016482616,-0.005506122,-0.041193426,-0.027986163,-0.011945553,-0.046543732,-0.006780921,0.0045462986,-0.02739183,-0.010789305,0.013351463,-0.0121676475,0.029142331,-0.06022671,0.014947226,0.005092193,0.01307244,0.010893471,-0.004116876,0.015527802,0.043423742,0.06648715,0.020433592,0.07257733,0.016359653,0.006750143,0.03454471,-0.06625008,0.019156978,0.0035078095,0.014406629,0.018738776,-0.0006474228,0.010876712,-0.0074230586,-0.00901413,-0.044506375,0.005521041,-0.010395331,-0.03646674,-0.06048174,-0.014526983,-0.038536504,-0.007227186,-0.0036339709,0.053884,0.01763502,-0.051911406,-0.0227772,-0.109469905,-0.0025371888,-0.10863806,0.020789297,0.0068400363,0.03966999,-0.06262651,-0.023318844,-0.049312226,0.024547538,0.014211299,-0.009200611,-0.006919266,0.020941688,-0.049151763,0.015366395,-0.017876899,-0.0085254,-0.037900526,-0.010290573,-0.029752372,0.01962808,-0.03761945,0.024921624,0.009374868,0.019264642,-0.034028135,-0.07475167,0.04734809,0.027988493,-0.01870878,0.003818677,-0.011804502,0.039309874,0.026300756,0.014056923,0.007274624,0.06151514,-0.005505494,0.027208496,-0.091558404,-0.046791304,0.024963459,0.05914109,0.025690772,-0.010664503,0.029424189,-0.027602952,-0.053581033,0.012344173,-0.0064091356,-0.01566714,0.0067099975,0.06549738,0.009501389,0.00079185097,-0.03466767,-0.03426456,-0.036670268,0.049310777,0.010181241,-0.080319256,-0.049289804,-0.006383874,-0.02361891,0.024666939,0.0049894387,-0.01355499,0.055661894,0.011135821,-0.017690474,0.025284547,-0.025231775,-0.024410723,0.06037772,-0.006080685,0.039897565,0.083256185,-0.0045571933,0.049257036,-0.0086434195,0.0051972107,0.08179528,-0.03367213,0.00062504824,0.028440095,-0.023086077,0.0039867163,-0.008011001,-0.025161866,-0.0027951724,0.03668068,-0.004586315,-0.016727101,0.015812365,-0.009836525,0.023837416,0.01767778,-0.083866164,0.0123546515,0.027867652,0.01607404,-0.00371627,0.025771625,-0.059233323,-0.0065254164,0.012395285,-0.001258338,0.013381336,-0.033725075,0.018866114,0.03408552,-0.03532219,0.002318565,0.005471107,-0.012342727,-0.021762168,-0.011230889,0.055683296,0.104223244,0.0018045824,-0.035258852,0.0074554295,-0.0060725254,-0.068809,-0.06749893,-0.01770179,0.022735871,0.030152405,0.019297056,-0.02642129,0.059869207,0.023294395,-0.01361816,-0.012017201,-0.03273851,-0.02676576,-0.041278306,-0.027546471,-0.018090462,-0.05345407,0.08500835,0.007456761,0.04191502,-0.013361831,0.010402024,0.036403757,0.0067153443,0.023690747,-0.0072311927,-0.041352164,-0.01033246,0.008297239,-0.04448442,-0.0513419,-0.033244412,-0.024545029,-0.005388105,-0.04411294,-0.01724562,-0.056946233,0.006370196,-0.02160797,-0.086435,-0.01070789,-0.005283184,0.049533714,-0.0045778607,0.028663723,0.013869724,-0.017898912,-0.006778716,0.0018145003,-0.00015288327,-0.0049142186,-0.0028496964,-0.033596013,0.0040965294,-0.014238147,0.05371778,0.034225147,0.014663943,-0.09762322,0.10454292,0.033378232,-0.018266749,-0.020040995,0.015238612,0.051637217,-0.006419094,-0.015127698,-0.012369285,0.008678044,0.015580841,0.0706301,0.0710637,-0.0022857478,0.033653427,0.04609793,-0.023048537,0.0105345445,0.018103467,0.015114941,-0.079362005,0.10373701,-0.01956302,-0.055968616,0.0026199738,-0.02781655,0.009690056,-0.04743816,-0.0027069803,0.0156465,0.056428038,0.0051557925,0.011664156,-0.011631472,-0.090615,-0.0007487177,0.000118578435,-0.011881883,0.029309092,0.010354669,0.08830617,0.038075,0.0008452158,-0.052413538,-0.014217092,-0.0374963,0.0132834595,-0.0561275,0.019452915,0.007868471,-0.001150918,-0.05135811,0.0033931807,-0.023816226,-0.021923736,-0.020853193,-0.083801344,-0.054089054,-0.0011728231,-0.029659912,0.035224203,0.025955472,0.034381695,0.008034814,-0.007728661,0.05431394,0.040646367,0.023429025,0.020088505,0.043511555,-0.008939328,-0.0040951762,-0.00043248892,0.012901398,-0.032233745,-0.040450294,0.05969315,0.018948045,-0.06375287,0.014701333,0.05619073,0.08930101,-0.021090303,0.028258476,-0.073896684,-0.01687633,0.035294276,-0.07831306,0.011806912,0.017709883,0.022085264,0.017055022,0.019411813,0.02877683,-0.022563659,-0.010495687,0.08127486,-0.025818704,0.027395817,0.008322682,0.035802145,-0.07261999,0.027563954,-0.031189026,0.007990709,0.024788264,0.034289982,0.012946379,-0.035486154,-0.10140139,-0.0006977346,-0.024767738,0.026049035,0.05392145,-0.019879824,-0.007945632,-0.026185982,-0.0022413046,0.025052818,-0.0018040502,0.024872102,-0.046198916,-0.022093276,-0.039480727,-0.03919913,-0.031236598,0.004219751,0.009427088,0.021447582,-0.001485785,0.013838624,-0.014731815,0.021481153,-0.0043520173,0.0020795215,-0.057588622,0.02178929,0.009297229,-0.06343596,0.034030125,0.033677664,-0.024753507,0.050329454,0.012862869,0.07722595,0.01661202,-0.013353788,0.01746661,0.00034545735,-0.031855196,0.0621231,0.008003181,0.0104966825,0.008378604,-0.0141232265,0.055898875,-0.13921328,0.0213688,0.027900064,0.013073709,0.019257333,-0.0016706765,-0.03854753,0.0290804,-0.056896284,0.022775555,0.023001574,-0.0021634758,0.024498401,0.00088188064,-0.049475927,-0.0011046052,0.04173704,0.0016417814,-0.00075552205,0.0051014055,0.04269222,0.0045465366,0.025552012,-0.07792216,-0.014354614,-0.008974235,0.019307178,-0.0024963066,0.015855193,-0.008465033,0.0044963,-0.01694116,-0.02390758,0.005405049,0.003935721,-0.021121694,0.010697125,0.050742805,-6.4323844e-33,-0.053616945,-0.02753511,-0.0005010265,0.0015951229,0.00013876999,0.012263123,0.027099425,0.020266281,-0.011997392,-0.012987283,-0.044471845,0.0028691108,0.028209692,0.019726237,0.012747683,-0.001037049,-0.020876376,0.030531082,0.021688692,-0.010910478,-0.009889578,0.002667805,0.056443963,-0.030553741,-0.0045966795,-0.042389464,0.012830878,-0.011072204,-0.08387141,0.030068148,0.03436858,-0.012133926,-0.013835005,-0.03385648,-0.011315157,0.0620425,0.07717499,-0.0768388,0.021673763,-0.039045356,-0.024209986,-0.00325037,-0.0044264905,0.026902981,0.009525548,-0.03006359,0.02692092,-0.024523485,-0.05436011,0.025646977,-0.024207976,0.0064670774,-0.02536946,0.06044326,-0.016632091,-0.033575512,0.00786812,-0.01663609,-0.0053682853,0.008928308,0.019217039,0.04183195,0.0117607275,0.020986866,-0.026065543,0.031057728,-0.00038291217,0.06509099,0.04906823,-0.02116424,-0.068528004,0.12066005,-0.005582888,-0.05415106,0.044304952,-0.009762769,0.011588512,0.02716922,0.065735206,-0.04280305,-0.050822683,0.027853645,-0.10058852,0.012211116,-8.745341e-05,-0.0053519513,0.027447028,-0.015831642,-0.0034251695,-0.029446345,-0.04211776,0.062804766,0.041639313,-0.0134340655,-0.063457,-0.03484553,0.06533599,0.005969636,-0.025655914,0.005086832,0.020086354,0.02450167,0.010817627,-0.0077705877,-0.025297804,0.01939701,-0.06785219,-0.026327675,-0.044418003,-0.006944969,-0.009228646,-0.049426116,0.022809332,0.012001247,-0.014619704,-0.01366973,0.005267958,0.010064807,0.043794,-0.0533252,0.0072982414,0.08174357,-0.0244225,-0.029591782,0.014663098,0.016971864,-0.018057799,0.057732288,0.04647103,0.023222154,-0.034346458,-0.025431234,2.482394e-07,0.06078706,-0.009153642,0.051508423,0.042214043,-0.0022050315,-0.035277702,0.019508462,0.066606134,-0.020788822,-0.05105013,0.08479494,-0.02893922,-0.03791301,-0.016599007,0.02735959,0.02285471,-0.03399699,-0.045174647,0.0063509266,-0.017775819,0.051012255,-0.00815985,-0.03242343,0.015128203,-0.047045413,0.0023499622,-0.00044073642,-0.06409502,0.024060214,0.019900046,0.015458983,-0.010610439,-0.016693277,0.0077731675,0.00089128636,-0.006051453,0.06223382,0.030221527,-0.008306742,-0.007880492,-0.019557597,0.02774595,-0.013688159,-0.026983552,0.026413448,-0.050964538,-0.0006122371,-0.016763762,-0.050241694,-0.03333835,0.013883009,0.038896143,0.0033461004,0.043950196,-0.006260172,-0.015935829,-0.0681203,0.001609275,-0.007604029,0.012360913,-0.007473539,-0.003392378,0.014379768,0.009731717,-0.019537928,0.0693265,-0.05758461,1.99014e-34,0.030128792,-0.05821011,-0.0068853577,-0.02367897,0.04642514,0.018887874,-0.0236831,0.020129766,-0.02794773,-0.010973241,-0.029686674
rbq006,-0.048216227,-0.04314098,-0.022062974,0.0076282993,-0.06947972,0.004021614,-0.020563195,0.049141522,-0.037884053,0.021983892,-0.040077485,-0.009670842,-0.012619337,-0.050812326,0.055538,0.02206662,-0.026004717,0.043598354,0.010161192,0.0149916075,0.017228048,-0.005672669,-0.03760739,-0.020315068,0.047733065,-0.062281907,-0.024256188,0.0503733,0.032846093,0.045049746,0.032480456,0.03367903,-0.03159131,-0.0035292557,1.4766115e-06,0.034967303,0.02323693,-0.017874155,0.07814897,0.016080957,0.054228004,-0.007142453,0.012632977,-0.045863606,0.013236888,-0.08050557,0.021280574,0.006754163,-0.028368386,-0.009744448,-0.0025092368,0.019579943,-0.13876916,0.01842868,0.006772007,0.038064234,-0.0037722774,-0.027870566,0.015391932,0.008219417,-0.052121762,-0.07381917,-0.037128486,-0.035546664,0.029191373,0.0033803536,0.030104738,-0.027095238,-0.0016268456,0.014718109,-0.008533652,0.01721841,0.03730424,0.031318158,-0.00766167,0.05401793,0.03733667,0.014955119,0.0424409,-0.06816151,0.031786494,0.106796056,-0.029797679,-0.01226154,0.03252999,-0.026549902,0.0074084117,0.021175873,-0.014939877,-0.036437973,0.05739444,0.0029132245,0.013677884,0.026110187,-0.027184967,0.0073127523,-0.046436157,-0.027959391,0.026503818,0.011964932,0.008324665,0.04660088,0.02556834,-0.053143233,-0.042077534,-0.021388466,-0.01227707,-0.110976934,0.026509548,0.10243838,0.020557076,0.052978523,-0.009050315,0.015975676,6.381219e-05,-0.05878345,-0.010959246,0.053145118,0.028732577,0.02181242,0.022287931,0.000958767,0.059300948,0.06892474,-0.019520406,0.027827691,-0.021585347,0.02756277,0.021869153,0.006315244,-0.025882067,0.039704185,-0.021900035,0.0018027241,-0.018148825,-0.04825232,0.015011688,0.029354641,-0.0031272247,0.023544557,0.011289738,0.019963609,0.020038353,-0.0052457303,0.004688423,0.0031201146,0.0009584022,-0.032820933,-0.033708345,0.013976001,0.05081508,-0.055647455,0.0062503815,-0.0026418774,0.0050274334,-0.01834353,0.054642774,0.013888332,0.0032591359,0.007367332,0.009430909,-0.021015074,-0.03835455,-0.02646028,-0.007369149,-0.05059108,0.012669075,-0.02707712,0.031335328,-0.019072875,-0.0002825423,0.025949376,0.02244162,0.06461613,0.049901854,-0.014183605,0.009124988,0.007730698,-0.08790802,-0.026655328,0.038112976,0.06641813,0.025232024,-0.01747221,0.031325832,-0.006221999,-0.0016434945,0.030798813,-0.018900542,-0.017896177,0.0031321612,-0.009578408,0.0317873,-0.0130251255,-0.028322333,-0.02284652,-0.010466685,-0.016116934,0.049429838,0.04449986,-0.08031613,0.014135042,0.020858811,-0.031600066,-0.03341677,0.014067994,-0.04149132,0.007780324,0.06288004,0.0080281785,0.020143477,0.036551647,-0.01976248,-0.01988152,-0.03129397,0.011070361,0.070511125,0.052865885,-0.04610783,0.047149707,-0.025052518,0.02732381,0.016970737,0.0029005895,-0.04393165,0.0040245,0.031521685,-0.0057759667,-0.00677103,0.025740908,0.0051748827,-0.008610153,0.02820016,0.024343375,0.026554225,0.05273942,-0.030602045,0.0383954,-0.022556264,-0.005236449,-0.003503493,-0.034132537,0.016494097,-0.069255814,-0.002097399,-0.021259615,-0.028365891,0.026709436,0.008421239,0.028698394,0.023156498,0.009955822,-0.03642051,-9.8722645e-05,0.013686516,-0.007504722,-0.017501898,0.018971955,-0.0044826814,-0.06692422,-0.0013845549,-0.058844842,0.05745221,-0.02726102,0.09088275,-0.0069030696,0.049081564,-0.018561305,-0.0015203677,-0.028022809,0.011405315,0.033884868,0.04367055,0.014475675,-0.021812951,-0.058915332,0.075699806,0.0007323023,-0.04097437,0.04489364,-0.009835344,0.042902302,-0.050150096,0.010549383,0.017379388,0.0016923136,-0.011266402,-0.009138677,-0.023382245,0.026693664,0.042286605,0.029926943,0.010455939,-0.03396232,-0.01889364,0.0040605906,0.0012642964,0.042381078,0.048084535,-0.10294602,0.0019984622,0.055429216,0.010005977,0.008465482,-0.014634496,0.006132147,0.02013489,-0.010274642,-0.017277904,0.0009727733,0.011675174,-0.020831034,-0.004051615,-0.078297995,0.05516731,-0.033968605,-0.052478526,0.03905707,-0.01635295,0.049727872,0.001677681,-0.03220045,0.004277405,0.0049826936,0.015194162,0.04113734,0.022205431,0.0328771,-0.039947454,-0.01218052,0.005224336,-0.0010718877,0.022294404,0.009287224,0.00020565566,-0.019128244,-0.016277853,-0.03415842,-0.042234275,0.027909324,0.003993057,-0.0354147,-0.00490131,0.033690237,-0.049185988,-0.03521685,0.04106943,-0.023732632,0.0017673852,-0.04290555,-0.011777678,0.0077836136,0.009266243,0.045328267,-0.02802675,-0.048133228,-0.01470883,0.07323377,-0.017892288,0.017217696,-0.063677266,0.07239251,-0.07661784,0.09793033,0.0073345946,-0.002155081,0.028663283,0.0011575591,0.042186983,-0.020545853,0.051006567,0.073788434,0.025751013,0.052096225,-0.022361862,-0.04684834,-0.02157169,-0.046513125,0.0804596,0.014490066,0.012447058,0.0098094735,-0.0032934158,0.010927403,0.003388793,0.0439378,0.002642714,0.054960158,0.037527144,-0.03361795,0.04498942,-0.04235262,0.025713988,-0.028403463,-0.0066910232,0.055267528,0.0071302196,0.076020524,0.0075528147,0.024236944,-0.032130297,0.05311425,0.03139483,-0.0009011376,-0.0062377807,0.026109358,-0.038389612,0.03243968,0.0005053948,-0.04554943,-0.031162927,-0.010527449,0.014249103,-0.021500839,0.025204431,-0.04372389,-0.04219221,0.021389326,-0.002180559,-0.051928747,0.07010607,-0.005726083,-0.015123674,0.0057322658,0.065582216,-0.01676325,0.038603507,0.049809504,-0.030614665,0.028767291,0.02399698,-0.039507594,-0.015025589,0.022596164,0.052791987,-0.027987676,0.026540825,-0.030316493,-0.0455954,-0.0034635884,0.040042665,0.03341576,0.04258982,-0.0114509035,-0.03754135,-0.02686715,-0.021554524,-0.06164788,-0.034784175,0.066123135,0.030428363,0.002947008,-0.019910166,0.047922697,0.029823538,0.005119907,-0.036546223,0.05455345,0.021831276,-0.033458278,0.029488333,0.024701394,-0.054130416,-0.003119316,0.041980036,0.002552947,-0.028700344,-0.0927014,0.012406764,-0.0028642886,-0.05129844,-0.005900622,-0.017371595,0.024626719,-0.074574575,-0.066428475,-0.033462085,0.07554618,-0.10555141,0.008188296,-0.029236877,-0.00972999,0.013058847,0.049675494,0.020713318,-0.014850843,-0.016726172,-0.0036294085,0.008685085,0.010071959,0.009918582,9.7450975e-05,-0.022452695,0.03674483,0.01287462,0.0623993,-0.024437828,-0.062364604,-0.021837946,-0.121717155,0.0054768296,-0.0071027884,-0.024613304,0.011071459,-0.03585835,-0.027635908,0.017968377,0.030820837,0.049595788,-0.017742714,-0.021969752,0.04192924,-0.011754674,0.016968675,0.013202657,-0.0036319925,-0.026271282,-0.081311114,0.030775644,0.024263583,-0.021798996,0.012393116,0.0316625,0.015908057,-0.028452745,0.052682467,-0.04207179,0.008432628,-0.01634125,0.0035649524,-0.034334857,-0.05838515,-0.029555682,-0.04479572,-0.034073554,0.06153836,0.02085053,0.023278018,-0.011955232,-0.05262485,-0.0032693313,-0.028002447,0.025397466,0.011613682,-0.02330152,-0.011942742,0.013352692,0.0016034163,-0.0025124343,-0.032895707,-0.041781615,-0.03136548,-0.062700756,-0.025213053,-0.010740024,-5.7078307e-33,-0.017417068,0.075237,-0.02956777,-0.018777218,-0.005375608,-0.022742024,-0.029035868,0.018195588,0.00816034,-0.016620802,-0.039711,-0.02003392,0.0016249274,0.033299137,-0.008984359,-0.014738216,0.015634963,-0.004484971,0.024977898,0.006328657,-0.060033023,-0.0069906902,0.02347514,-0.04260334,-0.008108466,0.007020054,-0.044267017,-0.042243212,-0.04011932,-0.008473563,-0.033706866,-0.041531898,-0.021667976,0.06596473,-0.023654908,0.06577822,0.039854843,0.06280379,-0.06103518,-0.0043646563,-0.08212579,-0.01618963,0.018233785,-0.024174897,0.010646784,-0.050431255,-0.051604066,-0.005862867,-0.01939026,-0.029678507,0.013268723,-0.0052731456,-0.05545176,-0.03304064,-0.04118959,-0.032282487,-0.018869687,0.022716198,0.008617338,-0.017263731,-0.002607909,0.020977799,-0.04082517,0.034385808,0.02812124,-0.052083075,0.02609524,0.045811124,-0.096672,0.049300674,0.011072952,0.019720929,-0.0009253902,-0.013202139,-0.029261064,-0.04909784,0.039516807,-0.0010554946,0.0065710023,0.10500848,-0.0181034,0.050923552,-0.041782476,-0.014719392,0.0014702004,-0.012232929,0.021493345,0.012101856,-0.0062507903,0.008432903,0.004890976,-0.031094143,-0.027057527,0.015173182,0.0089314245,-0.017488273,-0.0320404,0.0066966973,0.0049188216,0.005813448,0.03103727,-0.0064190724,-0.060981695,0.037210897,-0.008544474,0.0021030968,-0.05679671,0.025410967,-0.040958773,0.01969477,-0.019420892,-0.0043068994,0.021282496,0.024491372,-0.010783253,-0.053743236,0.005344947,0.09971675,-0.0016153364,-0.0029785438,-0.0030096376,-0.03749541,-0.022144137,0.009555507,0.0053570447,0.009987926,0.038907316,0.01952528,-0.011529684,-0.04150938,0.04870541,-0.042672288,2.0648001e-07,-0.0030811636,0.031860698,-0.0135908825,-0.014891709,0.07549609,0.008943859,0.0079641305,0.037866805,0.039095227,-0.099911526,0.03163415,0.0025684012,0.032906253,-0.0051552327,0.042235173,-0.09033234,0.06599353,-0.10946759,-0.008111724,0.05399332,0.019418534,-0.023621583,-0.042953074,-0.019791469,0.0040347273,-0.040385272,-0.007783268,-0.05536906,0.04604221,-0.06421803,0.05232589,0.0059017334,0.010674868,-0.07652022,-0.012962761,0.027264368,0.012512437,0.13580145,0.023654815,0.06627583,-0.018054696,-0.010224666,-0.0021323375,0.007687583,0.021466203,-0.041550636,0.0365074,-0.01352595,-0.037525903,-0.0030411182,0.037997685,-0.030295527,0.0058306516,0.06358286,0.0068392446,-0.05216217,-0.017568342,0.016019639,0.028428296,-0.02273619,-0.07627958,0.049096946,0.034486383,0.0192288,0.02324892,0.003187843,-0.00925313,9.970904e-35,0.003037858,0.01234528,0.031361815,0.031726114,0.014991426,-0.0641192,0.023689654,0.017715769,0.00823854,0.012396215,-0.039980095
rbq007,-0.02525656,-0.0354954,0.0025749393,0.013119346,-0.0021989506,0.034664586,-0.017297225,0.020159874,0.029661378,-0.008234893,-0.03135423,-0.026586266,0.008496339,0.013192423,0.04619805,-0.02333374,0.074774876,0.007490474,0.04471609,0.0062786024,-0.022845551,0.025957154,0.028543659,-0.007054498,0.027031932,-0.04519682,0.038412444,-0.02745208,0.015413371,0.03340883,0.016086252,0.02039871,0.0010853533,-0.036475506,1.2787364e-06,-0.005051037,0.021553092,-0.022994362,0.018807743,-0.06503705,0.043080907,-0.015314758,0.061861917,0.02862049,-0.05110584,-0.02310994,-0.029210871,0.010964275,-0.0014453153,-0.0061534434,-0.0020115888,0.02177376,-0.05057274,-0.03748771,0.0022097412,-0.032935,0.009272175,-0.031723373,-0.018848393,0.039869044,-0.014859515,-0.017988488,-0.036601305,-0.023856215,0.07828264,-0.054847952,0.0044620843,0.019791732,0.027190078,-0.0097580375,0.05293146,-0.010243692,0.022073574,0.015264289,0.040766828,0.08545209,0.0051807,-0.034454226,0.043993223,-0.00097206596,-0.016739933,0.11127557,-0.01070385,0.02955309,0.027911615,0.010805428,-0.022793679,0.03390303,-0.016217219,-0.04702919,0.0016947248,0.01328312,0.01227813,0.062010337,0.009878259,-0.001548407,0.015424788,-0.00096098287,0.009277485,0.0018406445,-0.04847829,-0.036944423,0.0223908,0.0021616048,-0.026936632,-0.058319543,0.0264359,0.026970992,-0.018925408,0.008523575,-0.0104530705,-0.029267732,-0.042336237,0.04939192,0.041916624,-0.017859466,0.029091697,0.0045159576,0.00072222186,0.039093256,-0.031374868,0.022673478,-0.014482909,-0.008958329,-0.0001378346,0.01802613,-0.02684136,-0.02932352,0.025780477,-0.04001003,-0.009719947,-0.029414127,0.08648074,0.016545683,-0.014730856,0.024872405,0.06355378,-0.06041841,-0.040465984,-0.02652331,0.026886785,-0.050680194,0.0026982487,-0.022073787,0.0012151288,0.02680865,0.04346327,-0.109619275,0.011407496,-0.011804987,0.061856225,-0.0512545,0.0011142766,-0.00882826,0.004929708,0.012173507,0.08049818,0.013299966,-0.027234118,-0.06206031,0.030860139,-0.01854935,0.042583276,-0.037666153,0.025245538,-0.03211923,0.070150785,0.0005225134,0.04638692,-0.04469865,0.031996656,-0.027547574,-0.00034930083,0.0053815735,0.06209649,0.05053493,-0.0034540482,0.02635892,-0.058384668,-0.0010503638,-0.023188876,0.02437435,-0.018985283,0.05501817,0.03928585,-0.02005768,-0.046862964,0.054919608,-0.034301713,0.003175362,-0.0005574079,-0.00039206905,0.07963789,-0.012731471,-0.043638304,0.011137048,-0.01599044,-0.053670395,-0.0048325164,-0.047132608,0.01946817,-0.00019951288,0.012961811,0.06638764,-0.031645842,0.006043026,0.03242717,-0.01545037,0.007364721,-0.0123439105,0.02925931,-0.0012678627,0.012565828,0.0043823626,-0.0006328461,0.02509928,0.034889143,0.019341066,-0.043769635,0.031767637,0.015076736,0.038326982,-0.059041176,-0.01924218,0.0047531184,-0.037038617,-0.033601034,-0.011053337,-0.009533156,0.0148846,-0.027819565,0.018394118,-0.029095849,0.06240987,-0.012011567,0.055746254,0.0035323934,0.05365925,-0.058463126,0.014356152,-0.0966638,0.056196656,0.056801256,0.007900292,0.03197052,-0.029853592,0.07981292,0.0020032425,-0.03710536,0.0017610161,0.04654588,0.056975648,-0.014680987,0.02066629,-0.023568155,-0.042302985,0.03705912,-0.0045298156,-0.02963991,-0.0034096935,0.0193521,-0.02638027,0.0071736597,0.0011238074,0.021432582,-0.009883805,-0.0013951428,-0.06276584,-0.036865693,-0.0109626725,-0.015241343,-0.00032272702,0.04147824,0.0044274675,-0.0050035887,0.01910239,0.03268235,0.01718803,-0.014021023,0.0511216,0.009229759,-0.059225477,0.003851767,0.004792582,-0.018549515,-0.024522947,0.0012631488,-0.0002956326,0.058729384,-0.009184174,-0.037642844,0.02593553,0.014011149,-0.0060948865,-0.019147567,0.020974724,0.011010442,0.074110344,0.05645115,-0.07657689,-0.0071087293,-0.03487611,0.007123141,-0.028390486,0.0017370196,0.082016736,-0.03417127,-0.008080489,-0.014988449,-0.051450536,-0.0015363499,-0.031867087,0.0032951117,-0.02165267,0.03892056,-0.04513592,-0.056953173,-0.006128638,-0.02020398,-0.019250259,0.0016968071,-0.011223407,-0.017840248,0.001728435,0.027885307,0.059985805,0.0018945029,-0.003142383,0.053398605,-0.007937924,0.015343521,-0.06213838,-0.058649495,0.060931556,-0.025144728,0.03454435,-0.07331939,-0.04003684,-0.0050740894,-0.026854249,0.02703228,0.043010134,0.02102515,0.025507137,0.0074835615,0.0046848836,0.029087067,0.009553565,0.007856705,-0.03896142,-0.03246334,0.025667002,0.0012684027,0.042173672,-0.026472736,-0.066906914,-0.009518638,0.108519875,-0.019089663,-0.059969507,-0.019026633,0.036943864,-0.059269298,-0.054515775,0.02631699,-0.008096433,0.033343114,-0.0045818654,-0.03968785,-0.002902316,0.079093486,-0.017082585,-0.01404471,0.03606106,-0.025431836,-0.0077691553,-0.0035843686,-0.05731244,-0.036833983,-0.004522092,0.03102239,0.041091673,0.06441772,-0.0020773883,-0.014237926,0.020211793,-0.007812575,-0.0019437392,-0.015351689,0.049599104,0.050868083,-0.06482592,-0.052563064,-0.0051963357,0.0016602229,0.0067261355,0.05283225,0.008074402,-0.022360487,-0.007218732,0.0032162156,-0.013471117,-0.0050046816,0.013783499,-0.06259989,0.052464478,-0.013281827,0.053903103,-0.009459491,-0.036619417,-0.05810727,0.07526831,0.031515777,-0.02207578,0.052935682,-0.050794896,0.01990462,-0.035775963,-0.024755502,-0.014994642,-0.035222314,0.012682003,-0.0064954357,-0.015606402,-0.00029509637,0.008796392,0.037332464,0.058015455,-0.020835191,-0.02608405,0.017442197,0.031342935,0.048516538,-0.019916322,-0.0033339374,-0.07504625,-0.045704346,0.04062195,-0.082837194,-0.06419202,-0.017557597,0.033028614,0.07141234,0.006198071,-0.029942924,-0.039497346,0.020813983,0.018566042,0.0026910277,-0.008745143,0.030150257,0.005153624,-0.034466617,-0.0014580501,-0.004085663,0.005831994,-0.091697074,0.085291706,0.0034460456,-0.00712478,-0.018928876,0.014739514,0.03486988,0.007987842,-0.042855565,-0.0115574375,-0.054955624,-0.031901736,0.058871314,-0.009924053,-0.08482522,-0.032934852,0.0011007601,0.03740772,0.037325718,-0.036870558,-0.039015487,0.016676567,-0.031226136,-0.0052476237,-0.04086587,-0.0022047185,0.011719541,0.004211005,-0.008697981,-0.07453398,-0.001993988,-0.013672885,0.035456643,-0.02671006,-0.04181095,0.055736218,-0.0070664682,-0.027787972,-0.03875733,0.038463827,-0.041050095,0.0027592983,-0.04966866,-0.060328923,-0.02639879,0.008539621,-0.00067452114,0.008341517,0.020619355,0.037987024,0.04099357,0.031160034,0.0016606621,0.043752763,0.040370386,-0.011180844,-0.024955412,-0.019617807,-0.07582883,0.06372276,-0.03785953,-0.0034379608,0.010524309,-0.012412244,0.024117496,0.014033127,0.0222978,-0.019719273,-0.033935007,0.012249755,-0.0045524575,0.023689663,-0.034814015,-0.032405343,-0.069619596,-0.028592413,-0.023542996,0.011577382,-0.011018195,0.017073644,0.09058088,0.052001555,-0.009936126,0.050320525,-0.021608321,-0.04061586,0.024713526,0.045704655,0.009452857,0.044136997,0.021393932,0.03187227,-0.043892916,-0.025629718,-0.088620774,-0.05374776,-0.012460301,0.041666295,0.05253075,-4.8771933e-33,-0.04116176,-0.025917465,0.03541813,0.09179633,0.0027789713,-0.043271437,-0.027793637,0.022267986,-0.01574614,-0.008536176,-0.009307845,0.043830078,-0.00018512485,-0.028413644,0.031504948,-0.022396581,0.02267655,-0.03814657,-0.0054200874,0.00992713,-0.009493143,-0.018444717,0.01331529,-0.024804486,0.039866034,-0.00514187,-0.026535958,-0.03799686,0.034544617,-0.06731783,0.023235815,-0.01561206,-0.024724295,0.03293617,0.01675104,0.12122436,-0.024327818,-0.0062033935,-0.017880907,0.014977665,-0.05058785,-0.012162693,-0.011873303,-0.016846592,-0.014893736,0.013324651,0.04112416,0.02161248,0.05448707,0.06495855,-0.0082879355,-0.008272116,-0.031002166,-0.01931814,-0.039292242,-0.0028486329,-0.0071916087,0.0366382,-0.0069754897,0.031383827,-0.07560305,0.015841883,-0.006574947,0.0004137599,-0.0023127566,0.0007941952,0.013311761,0.049435444,0.025986532,-0.004029939,0.07342044,0.074604966,0.015442078,-0.029590996,-0.06925413,-0.018267164,0.04821966,-0.025478242,0.05805964,-0.024907209,-0.021083437,0.001996284,-0.03413781,0.012229442,0.02974198,-0.009383383,0.027375014,-0.035655916,-0.044156916,0.008820773,-0.018800082,0.04373572,0.052208528,0.0033825904,-0.06344929,-0.009414268,0.022369726,-0.021071093,-0.023876287,-0.027436025,0.01053083,-0.0652444,-0.020970566,-0.008088736,0.008899798,-0.003808749,-0.07355133,0.029130321,-0.06208713,-0.0056512486,0.0006490554,0.019268999,0.0036381218,-0.07642009,-0.017777927,-0.088808335,0.008994684,0.061695673,-0.03830266,-0.01994483,-0.067183025,0.0653924,-0.031066142,-0.03276242,-0.015079119,-0.004400112,-0.00026171532,-0.014595967,0.010129864,0.034776423,0.011154008,-0.038681287,2.0127338e-07,-0.029430803,0.044571992,0.00136737,0.005203917,0.026856635,-0.030791666,-0.0065777474,0.08352115,0.072932415,-0.027381485,0.03256937,0.010998501,-0.0017881455,0.008238463,-0.0055644843,-0.00079704507,-0.033104185,-0.11622712,0.08213565,-0.060492147,-0.053469066,-0.027538799,-0.0288368,0.017067354,0.00372931,-0.082875505,0.0092884395,0.0031761602,0.040259942,0.011754494,-0.02651897,-0.0002323026,0.0051587676,0.064774774,-0.031438455,0.038422722,0.034726705,0.09455152,-0.038384177,0.0666113,-0.007332915,0.0344129,-0.015263606,0.03238657,0.047590762,-0.068263225,0.027644228,0.027242165,-0.009985589,0.012201147,-0.020026125,0.032337196,0.01840359,0.017528046,-0.0051490027,-0.069659285,-0.014674248,-0.0071554678,0.015818283,-0.024648134,-0.0037622063,-0.07148413,0.044481948,-0.016916715,-0.0042039985,0.041302804,-0.03217224,1.0155346e-34,0.06777986,-0.016291885,0.006792749,0.00013880296,0.06796874,-0.05637298,-0.04239281,0.006484476,0.042869642,0.042022254,-0.00035599817
rbq008,0.04367944,-0.04094995,0.013886123,-0.022687217,-0.0063820994,-0.01804235,-0.02903738,0.035623375,-0.03657286,0.029360745,-0.007783103,-0.021726184,-0.02687544,-0.034514103,-0.015871437,-0.013845496,0.016184183,0.065858,0.07987512,-0.023645196,-0.02865369,0.037950914,0.017995298,0.0041893967,0.021028904,-0.0654596,-0.0111661395,-0.021408038,-0.0418898,0.042560462,0.055076946,0.03721214,-0.03591524,-0.049067423,1.3535218e-06,0.067266576,0.03385166,-0.02569498,0.02588721,-0.010082798,0.024275882,0.015852937,0.10323039,0.023557685,-0.052112814,-0.07525414,0.017773021,0.014561855,0.014210177,-0.01119533,0.032983467,0.02799002,-0.057481565,-0.04158981,0.003949682,-0.01378769,-0.0012643781,0.00295266,-0.025829006,0.008408132,-0.071190946,-0.045986436,-0.046413522,0.0070882854,0.020710528,-0.05076184,-0.05423009,-0.016962245,0.008413966,0.009767233,0.06404303,-0.005877968,0.019814458,0.0046358826,-0.014494878,-0.014074473,0.031192396,-0.0059976326,-0.004275768,0.010012387,0.014747348,0.11049533,-0.039441075,0.03690749,-0.0063546165,0.010559301,-0.01691884,0.025106631,-0.017999874,-0.07183787,-0.006469378,0.0014663618,0.015606322,0.017288094,0.012773473,0.0116926525,-0.015109902,-0.071465924,-0.013119763,-0.0060639316,-0.050945643,-0.04405628,0.016288616,0.009149543,-0.026215523,-0.012274596,0.06669042,-0.029765574,0.01708383,0.003061639,0.009966915,-0.02268657,-0.03249515,0.0120027745,0.049598705,-0.06763412,-0.03617736,0.010913743,-0.051032953,-0.015807243,-0.055853333,0.04170262,0.012405208,0.0070149605,-0.028490243,0.04934202,-0.006488634,0.0068020304,0.037539292,-0.031810474,0.019373352,-0.020639045,0.014930785,-0.008801206,0.0025487335,-0.019836115,0.040586878,0.0018810639,0.005653776,0.002769189,0.018507611,-0.075937115,-0.038163576,0.00038706625,-0.021100024,0.043257315,0.03030399,-0.11822783,-0.022314481,-0.02487575,0.07024165,-0.0012729737,-0.030359395,-0.0005160051,0.008993575,0.0074144076,0.026131285,-0.011770537,-0.05820807,-0.021056697,0.033803243,-0.022633797,0.060192604,-0.036433853,0.044921245,0.025453141,0.025796799,-0.013547177,0.008210518,0.021410251,0.08335434,0.0020014506,0.02908232,0.028441733,-0.007554595,0.02246261,-0.021423263,0.034415238,-0.022449512,0.034657698,0.0052753114,0.017067254,-0.015232139,0.026111437,0.033129472,0.009840105,0.0278914,0.0010955529,-0.01449853,-0.05630511,0.018472934,0.019317862,0.022876212,-0.009339551,-0.024704799,0.009936212,-0.024159424,0.0071498426,-0.007444999,-0.042816345,0.0090190405,0.026191091,-0.0027429461,0.045089617,0.0060004094,-0.008976417,0.029137742,0.005526446,-0.009872568,-0.013211217,0.011468364,0.020116912,0.028119007,-0.02471406,-0.014959622,0.03299554,0.02880128,0.003901526,-0.06733236,0.02999751,0.018422,0.0028231808,0.020746792,-0.012970704,-0.002249465,-0.09347611,0.011831972,-0.021893768,0.0013471593,-0.013774832,0.018048322,0.017066743,1.2874837e-05,0.0287274,-0.044834457,-0.034142092,-0.025711365,0.074867636,-0.08767851,0.0217094,-0.02406189,-0.0044306843,-0.014714219,-0.041003387,0.05577829,0.027994618,0.062340137,-0.04289419,0.0062246667,0.0052279457,0.073473684,0.037311982,-0.013926011,-0.018704869,0.055691425,0.033795338,-0.001554799,-0.02304072,-0.028207123,-0.047388278,0.008662455,0.011259295,0.034766417,-0.02092968,-0.025935207,-0.012550159,-0.038679022,-0.010043407,0.014665397,0.025721682,-0.012833346,0.028433308,0.032924745,-0.03496541,-0.0027499963,0.003611273,-0.023856366,-0.019125938,0.017112343,0.05317453,0.044808373,0.0053303773,-0.026894832,-0.018624209,0.015315559,-0.033632837,-0.12514842,0.013338607,0.024533914,0.08198824,-0.010845575,0.047889046,0.0045190915,-0.06451731,-0.015875148,-0.02456975,-0.015606787,0.038781527,0.05791341,-0.011081366,-0.009005428,-0.012336179,-0.008804089,0.020767666,-0.043398295,0.07009501,-0.012220933,-0.016752325,-0.02973603,-0.038686648,0.027270548,0.012752703,-0.038213246,-0.024782382,0.010633621,-0.037988417,0.0049975426,0.04620732,0.010581116,0.031775676,0.053744625,0.026885882,-0.06522584,0.015371325,0.020144407,0.06436644,-0.036726303,0.022214234,0.022698529,-0.06608207,-0.026486227,-0.0049758623,-0.047646202,0.013151829,-0.045326702,-0.050805435,-0.048351824,0.008808672,0.04336764,-0.041910175,0.040771596,0.04933439,0.03486215,-0.003037922,-0.032379825,-0.021564065,0.061221894,-0.02858664,-0.0016722895,-0.015282032,-0.09963814,0.037684932,-0.029534109,0.008459388,-0.035636637,-0.092420824,-0.007676554,0.059818555,0.019290848,-0.035202656,-0.012245981,0.012596888,-0.0725382,-0.02816892,-0.00817831,0.009737422,-0.010318723,-0.014615757,-0.030790241,-0.029606303,0.012784103,-0.0061668316,0.023741238,0.031510893,-0.014589864,0.042823177,0.0039953054,-0.066123396,0.098205745,0.017383419,-0.0021552425,0.035246875,6.566667e-05,-0.038462263,0.046839412,-0.03411942,-0.02275991,-0.002751055,-0.007845194,-0.016453994,0.010037015,-0.011868818,0.054806,0.046840496,0.03451227,0.023315506,0.01641919,0.0033355746,-0.0062523643,0.017230827,0.013797907,-0.064785555,0.03504455,0.019320985,-0.0073066023,-0.005860808,-0.10566715,0.054107178,0.001515298,-0.0025163973,-0.06306467,-0.036823016,-0.009951674,0.011741988,-0.034721054,-0.025437191,-0.025800265,-0.039424025,-0.0207841,-0.012693702,0.038123764,-0.011645928,0.024674786,-0.050527886,0.009850023,-0.010646984,0.039122123,0.041339062,0.017886385,-0.0013121389,-0.0144355595,-0.06267692,0.06174445,0.0791247,-0.00044969746,-0.028489992,-0.017450552,-0.014216879,0.015454594,-0.0026265385,-0.070020534,-0.028027479,0.057098523,-0.014966996,0.013723026,-0.08736512,0.014937597,-0.013258192,0.00046435752,0.07320751,0.0073068007,-0.012900924,-0.03984493,0.009632299,0.014681116,-0.00394348,-0.028856734,0.07236875,0.02405909,0.049752936,0.021035185,0.032749757,-0.042406317,0.044426095,-0.027936835,0.02413425,-0.03087391,0.0067295795,0.07532391,0.03170715,-0.0241702,-0.051435098,0.0088817775,-0.0037611534,-0.00664555,-0.019614516,-0.037853602,-0.0002475292,-0.06947451,-0.014317795,-0.040293626,-0.027483657,-0.018029388,-0.044612117,0.0047241338,-0.051147193,-0.00706523,-0.00860365,0.019901464,-0.0019570151,-0.031628136,0.024650753,0.010920896,-0.07705748,-0.000120031254,0.04656455,0.0028058973,0.002521684,0.04167464,-0.10237947,-0.008197646,0.016610006,-0.008075811,0.024707299,-0.023755979,0.004246737,0.012576396,0.059827372,0.033411328,0.0340099,-0.010542254,0.013124057,-0.025584465,0.022344328,-0.0037180486,-0.04540157,-0.080338344,-0.041892566,0.0007011623,-0.021132726,0.025060577,0.0030810188,0.026960744,0.010220205,-0.05382979,0.041766487,-0.009620356,0.031817727,-0.02639527,-0.043973137,-0.06998828,0.08704224,-0.033432003,0.053857423,0.0038308955,0.028480353,0.07976482,-0.015951982,0.03223379,0.011632195,-0.0243562,-0.020322476,0.05939813,0.028687254,-0.0036508727,-0.027029352,-0.0050820885,-0.0048553757,0.008018131,0.041357107,-0.085201815,-0.020767607,0.0058907173,0.034072865,-0.011013074,-5.818925e-33,-0.044471182,-0.032683346,-0.0077736853,0.053260688,-0.012706475,0.03646659,-0.004887068,0.03025804,0.010157812,0.014022012,-0.023410471,0.020585503,0.0025095812,-0.018270424,0.05497562,0.051986627,0.00023069722,0.042017307,-0.0022933702,0.010254141,0.051789213,-0.025991645,-0.018402612,0.004667867,0.0078019113,-0.03764674,-0.09171732,-0.04339573,0.07956833,-0.031586826,-0.0015574994,-0.00082053954,-0.028050154,0.07080117,-0.023979567,0.076688685,-0.0066323257,-0.033462968,-0.017419605,0.05776439,-0.027672714,-0.023810936,-0.011336527,-0.011240778,0.0021410757,-0.013672295,0.005716464,0.06393429,0.002493799,-0.014331354,0.01902079,0.0052848402,-0.0387085,-0.066449195,-0.021416571,0.0014198165,-0.009525801,-0.0065891724,-0.027912144,-0.032593094,-0.049118076,0.013088236,-0.025223115,0.045239378,-0.03606505,0.03501841,0.06040105,0.066670716,0.016969321,0.021650406,0.05711688,0.06485212,-0.0001834966,-0.029296534,0.034722313,-0.011333656,0.14362556,-0.037386872,0.009029025,0.05549803,0.0097640045,0.0029039627,0.0102958465,-0.031893294,0.013698081,-0.024270173,0.03485566,0.017405571,-0.03455114,-0.029046059,0.06010793,0.03245504,0.036416423,-0.0057134368,-0.041861393,-0.015612972,-0.060676098,0.045475245,-0.024296144,-0.017666487,0.06917678,-0.028557489,0.033676405,0.026118673,0.029572355,0.011779031,-0.07069461,0.037887666,-0.071295746,-0.029471612,0.008697411,0.036462143,-0.030181238,0.0074132,-0.028607417,-0.0652872,0.01108876,0.017166862,-0.028484808,0.03844454,-0.043421954,-0.010103521,0.013460544,0.03224537,-0.017113471,-0.006520406,-0.0057904026,-0.028551372,0.020130565,-0.018127987,0.012650465,-0.02175014,2.2221683e-07,-0.005274586,0.027491948,-0.032966327,-0.008576311,0.02390521,0.009372087,-0.01587407,0.045764994,-0.03401399,-0.055067226,0.044486564,-0.059954457,0.023137433,-0.021789312,-0.04273085,0.06702465,-0.07408543,-0.061598673,0.03256171,-0.028317265,0.01358683,-0.0022791806,-0.029507756,-0.0007038159,-0.027869878,0.008142065,-0.015500521,0.035274692,0.06888289,0.015068031,0.002865288,-0.032372527,0.058506668,0.0377689,-0.043640856,-0.014683712,0.075086996,0.07238042,-0.019670116,0.01133369,0.035970747,0.006968917,-0.062107194,0.08367794,-0.028996045,0.007405505,0.025289368,-0.0030830703,-0.025713153,0.02731592,0.061412994,-0.01252888,0.042543977,0.021914728,-0.016349778,-0.0994868,-0.014830752,-0.0068208384,0.034173276,-0.036480255,-0.03968962,0.021833966,0.008103871,-0.004270686,0.03828982,0.01564347,0.014500937,1.1729848e-34,0.064768285,-0.0046026567,-0.0021965515,0.034751363,0.02736708,-0.053428683,0.026117504,0.034328002,-0.009337311,0.0013493386,0.0061542867
rbq009,0.019316169,-0.01049545,0.005074235,0.0051493393,-0.046254337,0.02508632,-0.1063775,0.028869305,0.046381813,-0.018177401,-0.0011008135,-0.008940281,-0.024319263,-0.023890605,0.040337004,0.016737618,0.022605732,0.010475675,-0.019975778,-0.022856409,0.0054000993,0.028050574,-0.044027463,-0.031886682,-0.0413341,-0.020362685,-0.046780627,0.041383542,0.020320604,0.020828927,-0.014410325,0.008334914,-0.017606253,0.028020468,1.1177603e-06,-0.01119096,0.014446217,-0.03294995,-0.0036331522,-0.005772422,0.068372585,-0.005593231,0.008385361,0.014486158,0.0024285747,-0.038542695,0.056695264,0.014157067,0.023711126,0.018833738,-0.0019931786,0.019355478,-0.038546555,-0.039822128,0.023534385,-0.04474814,0.030522559,-0.030013321,0.012853628,-0.05361533,-0.048644792,-0.02246363,-0.025434958,-0.032263935,-0.0067126174,-0.022760695,-0.041943915,-0.0013834719,0.035301324,0.0070963036,0.025921742,0.0026406876,0.018110925,0.04039422,0.024367854,0.078040525,0.015279084,-0.029637968,0.019960156,-0.040026624,-0.022933131,0.09912987,-0.05721376,0.018834198,-0.012983154,0.020515902,0.013135435,0.018923588,-0.012011011,-0.041097157,0.017144434,-0.027144467,0.0319538,0.046934564,0.01975649,0.027679086,-0.023061223,0.02090892,-0.01671826,-0.027672958,-0.040934447,-0.030597359,-0.035652213,0.03186094,-0.01981114,0.009056592,0.059882578,-0.027870178,0.0065274974,0.019523062,0.018266847,-0.018818444,-0.013966402,0.060218215,0.09919035,-0.058347225,-0.053729,-6.9786955e-05,0.007390783,0.025163319,-0.043314423,0.026736584,0.000674921,0.014476736,-0.0153487595,0.04071054,-0.0018185072,0.018022286,0.054348633,-0.055597074,-0.008652173,0.008606904,0.0057038115,0.012104647,0.03724498,0.016105661,0.033429347,-0.04763139,0.005569058,-0.0016661455,-0.015034002,-0.017151779,0.032685813,0.033562932,0.01615872,-0.02096706,0.0063132946,-0.029362073,0.013146929,-0.033834107,0.061566476,-0.005496933,0.019097095,0.0359716,-0.054115392,0.0028342106,0.014279253,0.0056404066,-0.04124708,-0.0033269676,0.030639319,-0.042692363,0.021427525,-0.031873886,0.013137263,-0.016179372,0.056229297,-0.0027710733,0.007274461,-0.03206222,0.08514709,-0.047586326,-0.014574539,-0.023261389,0.028450737,0.04069104,-0.003754407,-0.035025056,-0.01972465,0.005100189,0.097391814,0.038527034,-0.029361716,0.0034637717,-0.008179503,-0.046194397,-0.051462725,0.06814972,-0.012438605,0.0025859382,-0.03111264,-0.0004506963,0.0009921566,0.007194758,-0.042568214,0.019719392,0.025126887,-0.031865805,-0.019806504,-0.06686694,0.0021507246,-0.027415225,-0.0017389694,0.06666779,-0.0006308228,-0.012217511,-0.0048993505,0.026010938,-0.021797666,-0.07915443,-0.045601096,0.023323921,0.019434433,-0.006704281,0.06703836,0.010993786,0.03944592,0.011822336,-0.00060249155,0.047618605,-0.050034232,0.010038699,0.062003274,-0.013101352,-0.09487457,-0.055773105,0.0066486998,0.0065273503,-0.05138898,-0.021270487,-0.0016148485,0.012484585,0.0046951137,0.070567235,0.0052576414,0.123213746,0.037358116,-0.010635098,0.021895172,0.031885363,0.0031260846,-0.03029173,-0.022967786,-0.01639303,0.010387777,-0.061341744,-0.022916252,-0.04289296,-0.033846024,0.009426877,0.019048233,0.058619868,-0.049017448,0.008544253,-0.0062821633,0.022109313,0.03630211,-0.0013823666,-0.014950849,-0.054641545,0.0540286,-0.06598252,0.02705009,0.013029242,0.015654135,-0.024419682,-0.057391133,-0.021643031,-0.015249027,0.025140582,0.023376573,-0.00400004,0.0062081493,-0.011584973,0.0133947665,0.027257998,0.06666607,0.0049764025,-0.026163975,0.018114092,-0.02915206,-0.031449843,-0.041502263,-0.003219795,0.020906502,-0.012143778,-0.0142533155,0.021189658,-0.0012886128,-0.0081421845,-0.028929388,0.034317702,0.0029219347,-0.03155846,-0.03517973,0.025553852,-0.03679496,0.05272023,0.019453177,-0.03161111,-0.0045347493,-0.036363002,-0.00038811442,0.0048668114,-0.0063167308,0.0439948,-0.024317916,-0.032498162,-0.04028715,0.039112598,0.013517692,0.0071341423,-0.014891501,-0.038305677,0.044637047,-0.07986218,0.0020936278,-0.016784005,-0.0023069768,0.02659214,0.041946337,0.008763687,0.04071661,-0.0034036979,-0.021446472,0.057736762,0.042800695,-0.020906199,0.058364265,-0.018897522,-0.025610648,0.021452973,-0.016659293,0.043522745,-0.019641496,0.014306178,-0.038566694,0.017178664,0.005158742,-0.016128892,0.0014532721,0.07214028,-0.0545754,-0.019965742,-0.013516608,-0.006946181,0.021900944,-0.030912017,-0.01552554,-0.026258638,-0.017563768,-0.05190925,-0.017584486,0.010870185,-0.04199704,-0.013140981,0.017526338,0.08703917,0.02176758,0.046903603,-0.07264821,0.03298107,0.0024271384,0.064688295,0.014316043,-0.011427414,0.053581487,-0.0071026376,0.0037902861,0.0108850645,0.014697383,0.05190158,-0.02174596,0.036407873,-0.015534945,0.03522311,0.02193799,-0.07505483,0.02019724,0.019699853,0.03829288,-0.04250337,0.03784994,0.043195955,-0.017398931,0.040949862,0.03368189,-0.0036282483,-0.094799526,0.024629312,0.059592377,0.013994286,0.02485934,0.036343385,0.04198557,0.012503409,0.008755133,0.025454508,-0.04064129,0.0102530755,0.046773054,-0.004683857,0.0022588007,-0.013935633,0.007960939,0.07349625,-0.004948177,0.025297126,0.031719156,-0.11228084,-0.038341697,-0.022861235,0.04432606,0.022440914,-0.020089023,-0.010867628,0.03182847,-0.02467548,0.0049908324,-0.034066603,0.032045323,-0.00391809,-0.0048654964,-0.037586473,-0.024033906,-0.0028884297,0.057640616,0.02333634,0.015644118,0.009808409,-0.017012358,-0.021940047,0.080543086,0.016598709,-0.04534897,-0.017418584,-0.030845525,0.06293272,-0.052230287,-0.06530355,-0.029127529,-0.010682269,0.017353887,-0.044924513,-0.08093341,-0.063121654,0.01913407,0.04251531,-0.027626505,0.038994584,0.085147634,-0.02584116,0.014661413,0.062685944,0.0055813664,0.005204167,-0.016686939,-0.0380546,-0.03171046,0.029839676,-0.013638632,0.018037068,0.0283767,0.0068823625,-0.05551127,-0.011388822,-0.03256379,-0.049754027,0.04958411,0.02894577,-0.040845457,-0.045555156,0.008365287,0.010360512,-0.010437682,-0.036667664,-0.057673573,0.023866767,-0.091574565,0.012125481,-0.036341425,-0.0350319,-0.031353205,-0.039568227,-0.0071328175,-0.0032218536,0.0069352873,0.0024929726,0.00964312,-0.034873743,0.012003053,0.019554896,0.0053855856,-0.030747442,-0.038569085,0.057244934,-0.01640914,-0.045877952,0.03219235,-0.047347706,-0.038002126,0.055968676,-0.050598864,-0.012612777,0.02862035,-0.0060382527,0.00052707514,0.05957624,0.010163491,0.00465093,0.050658602,-0.010540872,0.015834441,-0.004558848,0.018210882,-0.055535544,-0.009244003,-0.014210157,0.03978544,-0.05010042,0.01697528,-0.018844455,-0.015696827,-0.010808734,-0.027011722,0.035641402,-0.036487702,-5.6958754e-05,-0.08736739,-0.050735053,-0.060750984,-0.0050337315,-0.034070846,0.021521209,0.0013287393,-0.0027735794,0.030049149,-0.0016862674,-0.037168466,0.05034893,-0.020222304,-0.040142488,0.05450779,-0.028310258,-0.00994899,-0.024938965,0.045050118,0.056968916,-0.011411065,0.049085338,-0.029881388,-0.019441556,-0.05743011,-0.0037992578,-0.020457782,-4.767046e-33,-0.01782609,-0.008851031,0.026085746,0.03326674,-0.03391979,0.013696589,-0.017868485,0.007191198,-0.0150654,-0.014696022,-0.047297157,0.014143879,0.006343085,-0.0070827235,0.0062993076,-0.05394774,0.024767043,-0.0035437818,0.0097959405,0.025229862,-0.008133486,-0.04697455,0.03010669,-0.067846775,0.020549601,0.05676584,-0.08933871,0.0046269153,0.046949644,-0.02558259,-0.0050557144,-0.009235524,-0.033444952,0.061259117,0.013352785,0.033485338,-0.015770275,0.018777696,0.018885847,-0.010603757,-0.106151216,0.0036615778,0.030663148,0.012519165,-0.027411934,-0.034744218,-0.007944869,0.03865107,0.055505745,-0.023597067,-0.048890676,0.0233483,0.004235298,-0.04711359,-0.038151547,0.08353022,0.00044911768,-0.03389601,-0.015214443,0.010880218,-0.061188396,-0.0073882523,-0.01750681,0.0028052726,0.0018212678,0.032125704,0.051580094,0.065184504,0.040634427,0.03024425,0.03262474,0.08560324,0.0074159624,-0.007888214,-0.034664284,-0.033700164,0.099030726,-0.01263619,0.06391192,0.0010232923,-0.02160055,0.03495471,-0.03679965,0.00879015,0.043511294,0.036706064,0.033464443,-0.015534494,-0.027881889,0.029236935,0.0080978535,0.069321096,0.048013926,0.012473037,-0.03402747,0.00074644765,-0.04673265,0.013389873,-0.017933385,0.017057782,0.049365222,-0.0058682715,0.03897854,-0.060311712,0.010340086,0.020810584,-0.04855769,0.076306455,-0.080203585,0.01406807,0.013036289,0.036132663,-0.017067904,-0.012463247,-0.02632731,-0.01664319,0.019603936,-0.0012725515,-0.06733444,-0.019904222,-0.061918844,0.077564485,0.01767105,0.08201975,-0.09511881,0.036293168,-0.033287544,-0.06517716,0.0073010507,-0.0043923534,0.002359721,-0.017104436,1.974592e-07,-0.012399963,0.020459097,0.027052261,0.040819217,0.09665135,-0.021015592,-0.0030433657,0.029412,0.0921401,0.015704367,0.016235381,-0.042050924,0.026369767,-0.0038719962,0.0024902308,0.015064885,-0.021043463,-0.03371205,0.082791105,-0.0679598,-0.028357735,-0.014238994,-0.06457532,0.015880855,0.009091091,-0.0965015,0.042646784,0.018510588,0.034112528,0.022492874,-0.066182755,-0.027979912,0.026926914,0.0507735,-0.04215421,-0.013997621,0.006943549,0.061201897,-0.030847603,0.01758624,-0.052546866,0.0045122528,-0.04062321,0.00096534804,-0.0066611143,-0.0061469646,0.047734637,-0.0042417436,0.06245369,-0.05971489,0.002469599,0.035303377,0.025207683,0.07660009,0.024000488,-0.019529318,-0.010710438,0.013642874,0.0014906354,-0.057701297,-0.07817984,-0.04622954,0.015587011,-0.004216403,0.0070461687,-0.041443884,-0.031031456,7.704172e-35,0.032036606,0.031638,-0.0021392643,0.03184689,0.045349456,-0.050852545,0.04741152,0.0219416,0.027404126,-0.021118805,-0.030181898
rbq010,0.0015176871,-0.0066832327,-0.026391229,0.00089423603,0.057480074,0.0008065718,-0.058092248,0.02100711,0.0391746,-0.00883365,-0.01782796,0.022303807,0.0075296536,0.0136320945,0.042973015,-0.038732365,0.03491471,0.0038367696,-0.033584543,-0.009057401,0.00013319221,-0.0018167439,0.015360186,-0.02992338,-0.02238346,-0.018985607,-0.0464392,0.042882077,-0.0047946186,0.058457427,-0.062105373,0.02143742,0.015883388,0.0077408114,1.5277308e-06,0.041060418,0.049879357,-0.029995952,-0.038756352,-0.026787689,0.059848163,-0.06355139,0.0026512404,0.012046479,0.035560988,0.013131998,0.0196171,-0.041475754,0.007787739,-0.010252504,-0.015719863,-0.011039588,0.010251046,-0.04641908,0.024150161,0.022225639,0.014986495,-0.03340862,-0.014737776,-0.03368471,-0.019785361,0.028350556,-0.021249183,-0.024990838,0.04028247,-0.026421681,-0.0149900485,0.05193904,0.017973488,-0.006586789,0.031961992,0.0054551517,0.026432622,0.02373795,0.030650375,0.021979662,0.04064177,-0.019260127,0.06873868,-0.07537176,-0.018941754,0.056143735,-0.03383226,0.06625214,-0.040846754,0.028389852,0.008177495,0.0012544983,-0.024146281,-0.03539615,0.017574482,-0.011925604,0.0120586995,0.037512,0.03513828,0.022977293,-0.037596352,-0.00048646942,-0.03917944,0.0007553929,-0.050777834,-0.008690758,-0.041834038,0.012803294,-0.010102013,-0.044168513,0.039651714,-0.07726028,0.035352327,0.019216001,0.02987497,-0.008452561,0.007619247,0.010627964,0.0713018,-0.038889773,-0.028666351,0.08100626,0.07082362,0.013662002,0.006577708,0.020750241,0.025707066,0.05493925,-0.011414013,-0.0037630552,-0.019320859,0.021731004,0.015325236,-1.4800042e-05,-0.042102013,0.011615059,0.0042199353,-0.0086907605,0.05392197,0.03160056,0.026490098,-0.07517991,0.019006055,0.057168152,0.030941503,-0.004695803,-0.010233676,0.028672019,0.013582077,-0.0031902592,0.015809065,-0.037416898,-0.00600739,-0.044507742,0.019642971,-0.04031213,-0.015501299,0.019159937,-0.029154154,-0.040166967,0.0035538655,-0.06300088,0.01633703,-0.0061766664,0.02506718,0.002092455,0.0482512,-0.013597526,0.018521613,0.0013909489,0.0594444,-0.03165512,0.039655812,-0.011605964,0.027740315,-0.028571405,0.061854113,-0.0060109277,0.0052764765,0.018922636,-0.035010085,-0.0073815286,-0.04361453,-0.008808529,0.04140148,0.037715722,-0.0016061175,-0.0054176133,-0.010309709,-0.03881867,-0.031879123,0.08671786,-0.018720541,0.016879182,-0.023603827,0.007493888,0.009842837,0.008852895,-0.01561183,0.0053175036,2.6738968e-05,-0.052256804,-0.03932802,-0.038178388,-0.009338571,-0.056838457,0.055670638,0.0035243502,-0.03455913,0.014710337,0.0053927884,0.0084345285,-0.013803046,-0.010790975,-0.061158903,-0.008316535,0.04598693,0.039343,0.041437715,-0.041122913,0.026702415,0.047017194,-0.04215993,0.06359553,-0.04558728,0.10158265,0.05058041,0.036951847,-0.032395203,-0.028140588,0.015600119,0.009034207,-0.06312255,-0.0012629637,0.006619364,-0.022584321,0.032242052,0.049566515,0.029238231,0.10100827,0.047206145,-0.022622192,-0.015256142,0.024379605,-0.018041281,-0.029321052,-0.017721355,-0.041940004,0.06101528,-0.0038818973,-0.021115366,0.006122319,-0.013552833,0.009955997,0.0015251703,0.027823452,-0.06405555,0.027654422,-0.004826855,0.024988726,0.03540901,0.01966676,-0.010215247,-0.084156975,0.01626762,-0.03160181,0.014491944,-0.0036590784,-0.006804193,-0.016129259,-0.018557604,-0.041257445,-0.025686517,0.012126852,0.018827586,-0.0020854743,0.021582559,-0.001418818,0.022369454,-0.024382342,0.08567272,0.02976694,-0.029427672,-0.009088194,0.029485084,0.023542961,-0.06858186,0.0051576383,0.011233465,-0.00350053,0.030317634,-0.07148552,-0.003616139,-0.012740877,-0.013616915,0.057962127,0.0011114483,-0.02918725,-0.0088668605,0.04401328,-0.018403325,0.029146567,0.0670853,-0.07768727,0.0332044,-0.028938428,-0.049087703,0.016370447,0.05557079,-0.0065314295,-0.02477934,-0.030111944,-0.020240845,0.009802448,0.011281509,-0.019175317,0.0031726258,-0.042947993,0.034034505,-0.051423185,-0.0366748,0.0057779537,0.0035348209,-0.025354113,0.06994069,-0.01735281,-0.0021466585,0.012992703,-0.015883798,0.058927774,0.0244336,0.018130854,0.014898033,0.020744804,-0.024875714,0.022203602,0.008869346,-0.04407683,-0.040730696,-0.026120942,-0.009199172,-0.0045510638,-0.044365805,-0.018721836,0.014517887,0.033165418,-0.06262288,-0.004452778,-0.022276476,-0.011359914,-0.002908462,0.01130636,-6.180047e-05,-0.008693719,0.047873095,-0.029766835,0.009089196,0.005365256,-0.024264602,-0.014013233,0.024653802,0.04297075,0.0085082855,0.00013344582,-0.05462066,-0.0019655074,-0.028336985,0.087958366,0.025546456,-0.0076303985,0.05793998,0.03708128,0.010788424,0.004168586,-0.010139854,0.082161725,0.015813787,-0.0042390064,0.01799572,0.029510781,0.0023665172,-0.03350233,0.027082287,0.016658548,0.04374641,-0.0344994,0.037432563,0.039716277,-0.051596195,-0.0037835194,0.053373635,0.0069465153,-0.012441371,0.016570698,0.04612019,-0.040239282,0.037979394,0.016525777,-0.009524869,0.062446285,-0.019988695,0.023078067,-0.018052515,-0.0073456676,0.005356695,0.08710118,0.053776875,-0.029211024,-0.010983234,0.018302327,0.019319251,-0.008135117,0.022500997,-0.05689858,-0.060845368,0.013705345,0.023612093,0.008475704,0.013751866,-0.04342564,0.02029952,0.008816128,-0.028983528,-0.05950936,0.03276011,0.038511883,-0.0879323,0.027986938,0.017223421,-0.011238412,0.022554932,-0.037166286,-0.009671386,-0.07166765,-0.007181081,0.02213645,0.021394871,0.010009999,0.006254766,-0.05401879,0.0036020305,-0.002528233,-0.033192355,-0.061256465,0.00061748805,0.012271454,-0.015265993,-0.021283261,-0.05597155,-0.035984702,0.05036577,-0.0060199467,0.0012973739,0.02820921,0.06744387,-0.020613838,-0.07714462,0.009346456,0.013594999,0.03710323,-0.002189588,-0.023526492,0.009331381,0.0022586372,0.009236185,0.0041417317,0.03971623,0.055996027,-0.019811107,-0.03658523,-0.032369856,-0.028316807,0.038912218,0.029296204,-0.07232268,-0.027205855,0.0019256632,1.8469436e-06,-0.06779421,-0.010661865,-0.088890254,0.06603306,-0.06361615,-0.015002593,-0.001287998,-0.00817768,-0.02015578,-0.019024193,0.018060984,-0.028289571,-0.035558276,-0.027250659,0.006605338,-0.0017943396,-0.04057789,0.05873979,-0.032051776,-0.04539732,-0.046365544,0.056959905,-0.013418197,-0.072348416,-0.06597673,-0.07603227,-0.005802441,0.036862098,-0.02301551,-0.009250973,0.015730642,0.0011837684,-0.025339551,0.04874761,0.029842073,-0.011478751,0.021639923,0.017190896,-0.055077814,-0.043141983,-0.040512208,0.0069591594,-0.02050821,-0.01827148,-0.017613247,-0.029696748,0.00850635,0.012024227,-0.016219484,-0.034909315,-0.052395258,0.07138727,-0.032010555,-0.060445987,-0.058483344,-0.05574595,-0.12866811,-0.018262317,0.033029906,0.017025415,0.0020160947,0.017116403,0.109352015,-0.01748394,-0.014489964,0.041851584,-0.008121812,-0.06408755,0.010532485,-0.036731202,0.0067144097,0.013761667,0.0075112465,0.0012362178,0.0017431438,-0.024521293,-0.035091624,0.02095691,-0.03429613,0.004775869,0.026805216,-6.8388785e-33,-0.0020069785,0.06932078,-0.03584384,0.036903713,-0.011937003,-0.036828786,-0.0018927132,0.04679864,-0.035291947,-0.043694828,-0.087472215,0.0135204885,0.018503396,0.032902762,0.0117919175,-0.07108414,0.0069574756,-0.0019650743,-0.023594886,0.020307897,-0.055817284,-0.028870158,0.021991802,-0.048492625,0.010641251,0.065380774,-0.06288093,0.03003565,0.051683683,-0.0049394486,-0.0435721,-0.041833058,-0.027685508,0.09689031,0.026262015,0.054017715,-0.0036432408,0.029938512,-0.022260947,-0.039571624,-0.08510998,0.016305601,0.021129362,-0.009429648,-0.015266421,0.05519698,-0.010310113,-0.007208149,0.047657195,0.0071952315,-0.039720107,0.015321715,0.055141505,-0.031451132,-0.03324316,0.034209967,0.08170732,0.022318259,0.04378209,0.0052756285,0.0051551294,-0.03020941,-0.0155721875,-0.0018205384,0.037195127,-0.011596053,0.058877602,0.058113497,0.03175917,0.018984297,0.030988812,0.028111234,0.013149724,0.013748609,-0.092144005,0.024182802,0.023059465,-0.04115126,0.07803918,0.008246583,-0.03762926,0.016208904,-0.022067938,-0.0037426597,0.01633433,0.029962473,0.01799275,-0.009579138,-0.0035325044,0.01491477,0.0042006015,0.012161594,0.0034208293,-0.0016068402,-0.03415971,0.030577524,-0.025716273,-0.052935693,0.015863558,0.055998888,0.052241653,0.0099179605,-0.0003547525,-0.024986478,0.021034474,0.05045462,-0.10793359,0.06615339,-0.053877972,0.014639663,0.029534644,0.0265927,-0.028194845,-0.01379153,-0.07217967,0.005056787,0.0061216513,0.047077272,-0.035290208,-0.044083647,-0.017411055,0.02225862,0.037998505,0.048182577,-0.050470594,0.0008262372,-0.005914489,-0.020662319,0.06590232,-0.011654072,0.011965503,-0.02808407,2.300876e-07,-0.012676731,0.008910207,0.00043609965,0.061889045,0.07323318,0.008793408,-0.0044540367,0.028510818,0.058104783,-0.020625107,-0.0018639859,-0.05909642,0.005976097,-0.029508036,-0.00563217,-0.011597133,0.076527774,-0.11845009,0.07399,-0.04028673,0.04514295,0.017534757,-0.044602755,0.035825144,-0.020903861,-0.03978785,0.0048151133,-0.037705373,0.009533435,-0.007921621,-0.053625032,-0.05302386,-0.006345566,-0.007092729,-0.04137161,0.012114968,-0.034664217,0.0727335,-0.023514686,0.027136048,-0.05890932,0.022621527,-0.02384992,0.01971652,-0.02671101,-0.05875053,0.05284139,-0.011004977,0.044256985,-0.039732315,-0.029544497,-0.007043315,0.004828354,0.07577529,0.019713635,-0.010182904,0.025870133,-0.03677088,-0.009737831,-0.04256432,-0.068144746,-0.0466088,0.018898439,-0.0028097364,0.027144209,-0.02530806,0.036873326,5.7442793e-35,0.047745317,-3.4956196e-05,0.025278516,0.04288233,0.02287253,-0.08057234,0.009143918,0.012541228,0.0705893,-0.03247993,-0.051826652
