question_id,0,1,2,3,4,5,6,7,8,9,10,11,12,13,14,15,16,17,18,19,20,21,22,23,24,25,26,27,28,29,30,31,32,33,34,35,36,37,38,39,40,41,42,43,44,45,46,47,48,49,50,51,52,53,54,55,56,57,58,59,60,61,62,63,64,65,66,67,68,69,70,71,72,73,74,75,76,77,78,79,80,81,82,83,84,85,86,87,88,89,90,91,92,93,94,95,96,97,98,99,100,101,102,103,104,105,106,107,108,109,110,111,112,113,114,115,116,117,118,119,120,121,122,123,124,125,126,127,128,129,130,131,132,133,134,135,136,137,138,139,140,141,142,143,144,145,146,147,148,149,150,151,152,153,154,155,156,157,158,159,160,161,162,163,164,165,166,167,168,169,170,171,172,173,174,175,176,177,178,179,180,181,182,183,184,185,186,187,188,189,190,191,192,193,194,195,196,197,198,199,200,201,202,203,204,205,206,207,208,209,210,211,212,213,214,215,216,217,218,219,220,221,222,223,224,225,226,227,228,229,230,231,232,233,234,235,236,237,238,239,240,241,242,243,244,245,246,247,248,249,250,251,252,253,254,255,256,257,258,259,260,261,262,263,264,265,266,267,268,269,270,271,272,273,274,275,276,277,278,279,280,281,282,283,284,285,286,287,288,289,290,291,292,293,294,295,296,297,298,299,300,301,302,303,304,305,306,307,308,309,310,311,312,313,314,315,316,317,318,319,320,321,322,323,324,325,326,327,328,329,330,331,332,333,334,335,336,337,338,339,340,341,342,343,344,345,346,347,348,349,350,351,352,353,354,355,356,357,358,359,360,361,362,363,364,365,366,367,368,369,370,371,372,373,374,375,376,377,378,379,380,381,382,383,384,385,386,387,388,389,390,391,392,393,394,395,396,397,398,399,400,401,402,403,404,405,406,407,408,409,410,411,412,413,414,415,416,417,418,419,420,421,422,423,424,425,426,427,428,429,430,431,432,433,434,435,436,437,438,439,440,441,442,443,444,445,446,447,448,449,450,451,452,453,454,455,456,457,458,459,460,461,462,463,464,465,466,467,468,469,470,471,472,473,474,475,476,477,478,479,480,481,482,483,484,485,486,487,488,489,490,491,492,493,494,495,496,497,498,499,500,501,502,503,504,505,506,507,508,509,510,511,512,513,514,515,516,517,518,519,520,521,522,523,524,525,526,527,528,529,530,531,532,533,534,535,536,537,538,539,540,541,542,543,544,545,546,547,548,549,550,551,552,553,554,555,556,557,558,559,560,561,562,563,564,565,566,567,568,569,570,571,572,573,574,575,576,577,578,579,580,581,582,583,584,585,586,587,588,589,590,591,592,593,594,595,596,597,598,599,600,601,602,603,604,605,606,607,608,609,610,611,612,613,614,615,616,617,618,619,620,621,622,623,624,625,626,627,628,629,630,631,632,633,634,635,636,637,638,639,640,641,642,643,644,645,646,647,648,649,650,651,652,653,654,655,656,657,658,659,660,661,662,663,664,665,666,667,668,669,670,671,672,673,674,675,676,677,678,679,680,681,682,683,684,685,686,687,688,689,690,691,692,693,694,695,696,697,698,699,700,701,702,703,704,705,706,707,708,709,710,711,712,713,714,715,716,717,718,719,720,721,722,723,724,725,726,727,728,729,730,731,732,733,734,735,736,737,738,739,740,741,742,743,744,745,746,747,748,749,750,751,752,753,754,755,756,757,758,759,760,761,762,763,764,765,766,767
rsq001,0.02043049,0.06554081,-0.0049890303,-0.020465503,-0.0669191,0.0141211385,-0.057748955,-0.00029149046,-0.0083814915,-0.0018821397,-0.07492686,-0.014134112,-0.0019698024,-0.022199007,0.014059089,-0.026429014,-0.012026537,0.031905077,0.002351491,0.013578494,0.017356034,-0.017910758,-0.010381762,-0.06283262,0.06079215,-0.018788705,-0.0011257583,0.05719204,0.045956425,0.013660301,0.031572897,0.04116062,0.005288637,-0.009533451,1.8389383e-06,0.008339607,-0.005398443,0.0010259912,0.015106322,0.008005714,0.00713922,0.035312913,-0.04738395,-0.029496057,-0.015917454,0.0128059,0.019580033,-0.062115386,0.027620144,-0.050643753,0.0066492674,0.064332195,-0.14053956,-0.020630952,0.05850267,-0.027908893,0.048311528,-0.06705364,0.07014774,-0.0570473,-0.01382324,-0.088145375,-0.027462553,-0.018928194,0.033628047,0.034151506,0.038001943,0.035643324,0.01019453,-0.01914677,-0.023422115,0.04481508,-0.029438455,0.047397424,-0.0066637895,0.021810351,0.003938425,0.012069664,-0.031207327,-0.004674613,0.03443323,0.087091304,0.0028774352,0.047394168,0.08201981,0.026870336,-0.00096720655,-0.00025906842,-0.016889079,-0.022877982,-0.027108278,-0.024189264,0.004761839,0.01425976,-0.009111898,0.022984395,-0.029081337,-0.0076416302,0.027782384,-0.042338945,0.016501995,0.015447515,0.03903895,0.025598401,0.035055973,-0.084609196,-0.031778187,-0.06299786,-0.007552401,0.06763311,0.052726503,0.020732753,0.0036456254,-0.0025417719,-0.045015804,-0.02405471,0.008220955,0.06063399,0.030271774,0.0077693476,-0.02524305,0.013750601,-0.021241132,0.03561952,-0.00425397,-0.049624488,-0.0024300897,0.00633697,0.017128611,-0.017192457,-0.045899514,-0.017590612,0.009304091,-0.027926734,0.006424988,0.058634352,-0.025201626,-0.015000802,-0.011969186,-0.0016195581,0.019182302,0.030775541,0.009990346,-0.017948624,0.012289394,-0.069090985,-0.016277803,-0.026603745,0.020376027,-0.0073697786,0.06557693,0.050137334,0.04367901,-0.014430302,0.026036689,0.047277205,0.0006966117,0.048030972,0.051589657,0.002069302,0.044811282,0.019665271,-0.01007124,-0.014510949,-0.024748232,0.028528789,0.084647454,0.020532774,0.032017946,-0.010092075,-0.02423175,-0.07309574,-0.01035376,-0.002795211,0.032607663,0.017182246,-0.029229559,0.005333871,-0.04292561,0.051215883,-0.07094071,0.10958847,0.03259035,-0.015331586,-0.017123295,-0.005045039,0.04766405,0.048327662,-0.013878105,-0.0025347834,-0.0023008971,-0.011581328,0.072335355,-0.026119027,0.0116020795,0.008527434,0.012515202,-0.05968695,0.058298633,-0.0077060596,0.029142335,-0.0007769596,0.004378666,0.018964417,-0.028099656,-0.014878659,-0.045756884,-0.034340132,-0.005113416,-0.040363144,0.013686973,0.011539247,0.025258789,0.01244834,-0.029977247,-0.009766836,0.05012685,0.051308405,-0.015298208,0.022761654,-0.04143303,0.08797394,0.052699648,0.014822609,-0.03490638,-0.018960215,0.04241488,0.00054820493,-0.016729323,-0.012339967,-0.010196771,-0.0007116987,0.02186785,-0.004878131,-0.008035803,0.07597802,0.0066482057,-0.023802368,-0.051040757,-0.047856368,-0.023639828,-0.07039646,0.055019338,0.029434549,0.02476277,0.001248142,0.010295244,0.012357209,-0.04879118,-0.03172749,0.005384259,-0.0034395119,-0.025458867,0.0091991415,0.03445912,-0.023090502,0.002350701,0.014596937,-0.045679007,-0.03296183,-0.05241002,-0.005882096,0.004099855,-0.05052482,0.07175977,-0.03330057,-0.01614763,-0.06583534,-0.03299232,-0.006547288,-0.007593829,0.03516288,0.013626232,0.009226072,0.02372319,0.029605757,-0.019256312,0.0105044395,-0.043525867,0.016063575,0.012517709,-0.0003052251,0.034330044,0.01763666,0.010525167,0.04802806,0.064834334,0.02389448,0.01030324,-0.00074201473,-0.0086141,0.028581135,-0.03782017,0.030688342,0.0038217972,0.0113612795,0.022561727,0.026869925,0.010656308,0.0104564605,0.017975768,0.043312337,0.065429926,-0.017049463,0.07271742,-0.004208611,-0.0033958056,-0.040873256,-0.024258627,-0.059815686,-0.04335668,0.0003483221,0.011818281,0.05128845,-0.012279278,0.0009343394,-0.021389544,-0.06633988,-0.032937296,0.024286725,0.02054461,-0.012918077,0.054308366,0.010457447,-0.009934485,0.0141687635,-0.008467708,0.008748882,0.03434576,-0.036811553,-0.017549623,0.010492887,-0.003143025,-0.025220132,0.005855738,-0.051135488,-0.04493957,0.013607643,-0.07968974,0.014618914,-0.024696989,-0.06712201,-0.035555944,-0.0758704,-0.0077953474,-0.03649868,0.003094401,0.052334182,0.014909863,-0.01746471,-0.028655432,-0.08046524,0.034578826,-0.019050432,-0.003957484,0.015222244,-0.025360512,0.05366526,-0.00021945442,0.008709087,-0.06358043,0.07994583,-0.023968004,0.027094642,0.034426913,0.008220296,0.027035978,0.015785815,0.0074675893,-0.056431178,-0.016022924,-0.022012193,-0.040681373,-0.0014597179,0.0035900355,-0.06657591,0.007392347,-0.058878727,-0.0075754486,-0.020794759,0.03324588,-0.07992426,0.014949872,0.03670261,-0.056282356,-0.05224061,-0.0028697704,-0.04073005,-0.054582465,0.024784898,0.04550029,-0.0028828352,0.035708867,-0.026720814,0.017149065,0.04042181,0.04758872,0.05298091,0.009291558,0.015316045,-0.017603518,0.17200968,0.0026035863,0.042896964,-0.024915062,0.020010676,0.015918352,0.035493623,-0.017963069,-0.026832707,-0.0631804,0.022228237,0.033603724,0.015773037,0.011525883,-0.04678494,-0.0092859445,-0.07032563,0.010941611,0.003926432,-0.036265723,0.029468218,-0.010501424,0.00021314893,0.024309602,0.0063654757,0.01232266,0.08438448,-0.016508382,-0.021990923,-0.025622625,0.0617592,-0.0008878197,0.0074681058,0.011639169,-0.031067273,-0.033838436,0.08345375,-0.0075963507,-0.026301159,-0.0060460116,0.00043142858,0.068166934,-0.04423925,0.05719856,-0.047138948,-0.0034099205,0.019824378,-0.035999976,0.053518366,0.012665822,-0.008747048,0.020478368,-0.0010511666,-0.041378807,0.0072283763,-0.030954361,0.012333619,0.0038548608,-0.0077375295,0.0013603247,0.027089966,0.047888145,0.03591648,0.010829739,-0.041364796,-0.015547257,-0.03519162,0.022896642,-0.04116286,0.063796096,-0.009468229,-0.042904027,0.03857434,-0.047450155,0.028639033,-0.06820893,-0.050411932,-0.039342366,-0.0018988661,-0.03999789,-0.019355029,-0.0017743097,0.011498881,0.019638598,0.0116243,0.0070673847,-0.027686333,-0.0075002727,-0.0734188,-0.012362148,0.0068017626,-0.010064706,0.0060704835,-0.013220159,0.0257724,-0.0701492,-0.03895152,0.0028936837,-0.10373568,0.00046884193,-0.013525683,-0.026939804,-0.001269453,-0.0023779543,-0.0405755,-0.0010302337,-0.0033197894,0.013487384,-0.027031336,0.026689047,0.022969292,-0.046689376,-0.035842773,0.0056405175,0.06140089,0.00317999,-0.024525454,0.03895619,0.022232302,0.0260667,0.012686097,0.0060230847,-0.043019447,-0.10761055,0.026687084,0.03103018,-0.001880303,-0.042238712,0.022972854,-0.071558155,-0.02389521,0.021588903,0.006777393,0.020410344,0.01770829,-0.012160186,0.0045753843,-0.034183346,0.033223458,-0.02969972,-0.025765797,-0.042820815,0.0042264764,0.014894504,-0.0036454587,0.010323765,0.00029219085,0.024235524,-0.014714807,0.015329163,-0.037032414,0.03524655,-0.062809415,-0.033117622,-7.296243e-33,0.032901023,-0.023475563,-0.018416947,-0.014797646,-0.05771978,-0.060617473,-0.012186642,0.026559241,0.030993806,-0.026067806,-0.047467437,0.00032743736,0.027262889,0.044379603,-0.01934466,-0.0030735584,-0.017640216,-0.00015196372,0.024297802,-0.02913555,0.007595261,0.04707995,-0.0046278643,-0.06686887,0.02428976,-0.018921237,-0.020104634,-0.0032423155,-0.041305587,-0.04285948,0.01717609,-0.024173105,-0.0018727791,0.045098923,0.014107566,0.07876064,0.079395756,0.009182433,-0.05285068,0.013645956,-0.025138013,-0.0010133234,0.011178979,0.008272602,0.06880339,-0.07260197,0.00053549506,-0.008223959,0.009702604,-0.00932774,-0.021618722,0.0124705685,-0.015205699,-0.05236262,0.019854875,0.030603519,0.021640878,-0.027026875,0.0047122096,0.04186335,-0.0057003484,0.020952873,-0.019602546,-0.0664231,0.055631388,-0.007817525,-0.041122187,-0.0061234497,-0.08759762,-0.075691976,-0.017149977,0.027674971,0.01157984,0.00425109,0.014712544,-0.07212157,-0.010317328,-0.020710338,0.04124457,-0.03933932,0.024056265,0.017355274,0.0059146676,-0.023816805,0.0061760703,0.06630944,-0.015050485,0.00470569,-0.03476003,0.0014713223,-0.026422426,-0.038656782,-0.062208377,-0.009730069,-0.01928512,0.0028301177,0.06630298,0.0077110305,-0.024580607,-0.043778792,0.03554163,0.025555125,-0.0070717847,-0.012768779,-0.010894985,-0.015179616,-0.07719488,0.023485381,0.0056228777,0.024071818,-0.03746124,0.08479024,0.06972992,-0.015920535,0.009210468,-0.036399007,-0.008032576,-0.0052141487,0.05290663,0.034689188,-0.0015549813,0.053726833,-0.051709756,0.05161347,0.009841044,0.030826805,0.038712658,0.00540546,0.002477894,-0.011229056,0.017625438,-0.045450706,2.5233865e-07,-0.0036417772,0.007815719,-0.013643838,0.062714085,0.021729298,0.045411777,-0.0428164,0.09027102,0.06773561,-0.047312904,0.0017628556,-0.011861728,0.021423042,0.056860015,0.023847327,-0.023793837,0.0010115507,-0.049863897,0.06361542,-0.042010516,0.03465897,-0.04429233,0.052374765,-0.029723197,0.003554046,-0.03543256,0.0041938815,-0.062179256,0.041472662,0.0110519,-0.030293258,0.01460278,-0.05668144,0.01351057,0.0041697207,-0.03656626,0.011595967,0.062072277,0.032549452,0.007293373,-0.01262407,0.020628985,-0.02693453,0.0064580687,0.03302664,-0.087787196,0.0014167823,0.069212265,-0.06196442,-0.019135974,0.043997273,-0.007890739,-0.0074592773,0.032848366,0.013844557,0.01493737,0.030821795,-0.000107340406,-0.0020319347,-0.018446557,-0.036537774,0.06435524,0.0077179363,0.06926091,-0.042222913,-0.04248033,-0.009223963,1.132598e-34,0.010624493,0.0008168042,0.0019151196,-0.015972644,-0.009780834,0.004534568,-0.003283433,-0.023383014,0.04615583,0.11563238,-0.04179699
rsq002,0.055887792,0.044747446,-0.02905397,-0.007953978,-0.044687357,-0.0036349033,-0.018509548,-0.021088157,-0.02533328,-0.017280871,0.06950623,-0.053617198,0.012265356,-0.029638644,-0.017767714,-0.036872983,0.007943488,0.012959656,-0.0037020778,-0.012703035,-0.0059102876,0.045110993,0.019094545,-0.004601599,0.018725311,-0.004951707,-0.0029185286,0.005763442,0.06879458,0.020873781,0.009099024,0.02148762,0.016685555,0.0020996092,2.3527732e-06,0.00022924016,-0.006026498,-0.013464113,-0.052217584,0.06327643,-0.03278251,-0.045045752,-0.04935192,0.008654509,-0.04751379,-0.019157587,0.021197163,0.009349511,-0.006432236,-0.008854016,-0.0027017323,0.048406035,-0.04799465,-0.030797109,-0.05321431,-0.06541456,-0.005515459,0.008405173,0.01099886,-0.037766706,-0.014527088,-0.0056738104,-0.0069555202,-0.024330556,-0.055442493,0.011077709,0.13778862,0.0058452706,-0.0066272356,0.034431722,-0.013742338,0.0878263,-0.0051292493,0.03362179,-0.038224798,-0.030232867,0.040042106,0.027199818,-0.04581085,0.011874698,0.035113264,0.025347944,-0.00042543563,0.029890934,-0.043156117,-0.015509346,-0.044772044,0.020097496,-0.062123746,-0.044445716,-0.03594087,-0.06294998,-5.0573064e-05,0.0010771352,-0.020131445,0.015565126,-0.045516882,0.033112895,0.0053635677,-0.10605013,0.007039707,0.033523403,0.01539999,0.025919568,0.049014438,-0.006449837,-0.034477536,-0.023465812,-0.00074143446,0.031231977,0.00041603416,0.029780485,0.00856214,-0.008180919,-0.093866765,0.01834092,-0.019738866,0.038450487,-0.017443402,0.019288888,-0.077521876,0.020013805,-0.0492058,-0.0048187687,-0.03885831,0.014266883,-0.044799503,0.010783851,0.025035365,0.025113212,0.0053450353,-0.063831724,0.04261537,0.031233579,-0.04052342,0.038259435,-0.02080914,-0.0031255668,-0.07645214,-0.008509656,-0.027364822,-0.035016607,-0.06715998,-0.0007244667,-0.0039565456,0.0003776357,-0.010254282,-0.030554982,0.0092811305,-0.023702925,0.0068995,0.07368277,0.018682038,-0.013230016,0.008572452,0.06908664,0.016701922,-0.05678854,0.005690498,-0.04749282,0.011656602,0.0062751533,0.035037298,-0.02444837,-0.030108778,0.011642185,0.08509838,0.02321379,-0.077255264,-0.016126234,-0.015860744,0.00070864003,-0.05001016,0.08151284,-0.010343458,0.0067792987,0.019822014,0.016061805,-0.053939678,0.03277281,-0.058810014,0.048300896,0.0010513095,-0.0046585756,-0.044996813,-0.016924746,-0.026659135,0.053190235,-0.020885747,0.009897767,0.012129517,-0.024976932,0.011758687,-0.03441657,0.006243965,0.0010417046,0.038532175,-0.060597073,0.04196626,-0.015769694,0.025867565,-0.02141449,0.041878797,0.07461665,-0.03324896,-0.012425959,-0.0011428319,-0.03755772,-0.0059588,-0.014486952,0.014255739,0.030819153,0.02533567,0.022776216,-0.013977619,0.022655066,0.044383623,0.044243954,-0.029754793,0.038110852,-0.010014408,0.10867152,0.015359098,-0.011727862,-0.03761755,-0.02011569,-0.013006599,-0.014410865,-0.008123455,-0.025270285,-0.009953754,0.013124969,0.008593305,-0.014683928,-0.048390687,-0.017711954,0.0057168775,-0.017799815,-0.03194045,-0.1287842,-0.01986317,-0.066312484,0.03673025,0.0015075866,0.06226498,0.023166286,-0.004967897,0.008433755,0.015371376,-0.00042652493,0.0407876,-0.032245085,-0.0027198994,0.008452906,-0.022867918,-0.03264011,-0.0646068,0.008422331,0.05828386,0.01072099,0.0040872362,-0.0057598464,-0.017694328,-0.010345221,0.050675407,0.0024313964,0.020119797,-0.05385171,-0.02694846,-0.00026545962,-0.008692158,-0.012023555,0.022794785,-0.007022084,0.007353526,0.028794002,-0.030133946,0.009755622,-0.039082743,-0.013521982,0.0018857007,-0.0303652,0.024226254,-0.0070440904,0.00032566377,0.0310903,0.025770199,-0.021339057,-0.01053165,-0.037511602,0.03163285,-0.0010952799,-0.03297095,0.01793339,-0.0027199897,0.03361545,0.028324373,-0.0068001896,-0.0030102662,0.06988503,0.011690372,-0.0082610315,0.018652162,-0.021935554,0.0211521,-0.020756532,-0.025394207,-0.018258236,-0.08153812,-0.03847319,0.025260175,0.029120563,0.03699636,-0.019344967,-0.02011849,-0.0016825272,0.057365913,-0.037306394,-0.0002860172,0.06384074,0.047802813,0.0349381,0.026671302,-0.00013649723,0.0467682,0.020659432,-0.042176526,0.012746363,0.07895856,-0.009516998,-0.027474409,0.050134,0.0018176549,-0.04352043,-0.017189223,0.007937749,-0.016594423,-0.019027662,-0.05960698,0.014970775,-0.0346174,-0.055052344,0.0069237202,-0.005588684,-0.025236769,0.020501299,0.061444182,-0.007487283,-0.015015531,-0.015749598,0.0025101781,0.03358992,0.0054414193,-0.04862579,-0.006261274,0.029020071,-0.01693256,0.048330046,0.08083502,-0.054182973,0.009844715,0.024927946,-0.044340473,0.012317475,0.00047927082,-0.0013998752,0.033092182,0.047361415,0.007913526,-0.0072234618,-0.047740523,0.008515874,-0.056523398,0.0007086166,-0.0075977603,-0.0016711802,0.0209425,-0.036515046,-0.06296372,-0.026080403,0.038033545,-0.060592823,0.038394943,0.0017337454,-0.049876608,-0.039695136,-0.008130939,-0.046456903,0.019601425,0.026241375,0.034226693,-0.0491408,-0.030748177,0.04767163,-0.009546762,0.0031879712,0.09176169,0.0061585037,0.018635519,-0.013425409,-0.008490037,0.018738482,0.034272414,0.07722266,-0.023412202,-0.0065641613,-0.013052058,-0.010582033,0.0055931136,0.07591259,0.015291822,0.03871015,-0.0063344105,-0.0036153882,0.0045842477,-0.0017061158,-0.033750255,-0.056421004,0.008953878,-0.0304611,-0.0016290994,0.0037086594,0.012484916,-0.0385867,0.02277873,0.0051115444,-0.04880263,0.01859612,-0.009313913,0.0050250287,-0.047427587,-0.015199132,-0.010017245,-0.033515126,-0.038822625,0.0030415102,0.011491288,0.047813166,0.029998668,-0.015099306,-0.0017360868,0.022070603,0.09829082,0.004610649,-0.018881308,0.065491326,-0.024971297,-0.006487017,0.011275176,0.06393322,0.029890558,0.03422052,0.039503153,-0.017988877,0.033164006,-0.0052193543,-0.12215972,0.022137513,0.010583837,0.064742684,-0.013352847,0.05102149,0.05385431,0.015218858,-0.05479173,-0.021343993,-0.047975272,-0.0876968,-0.0022305383,-0.0051118773,0.06450424,-0.02476973,-0.008592125,0.023403954,0.025286049,0.026367448,-0.02207432,-0.13137822,0.043184016,0.0143350195,-0.04752643,0.04261438,-0.053021032,-0.101318866,-0.014765407,-9.8979035e-05,-0.008803909,0.01448959,-0.04272451,-0.0651124,-0.013304566,0.03892341,-0.012545584,0.004847323,0.049593177,-0.030513225,-0.04064845,-0.018478556,0.015302694,-0.049139727,-0.0041754805,0.017491577,0.029077617,-0.034285013,-0.037527937,0.010361073,0.006522764,0.020715509,0.0035386004,-0.033069074,-0.007166902,0.0035270157,-0.027998613,-0.0417527,-0.031536028,0.0588615,-0.023294106,0.0072111604,0.025238542,0.0009875168,0.029997414,0.0076420936,0.013778942,-0.023934096,0.013713031,0.014803647,0.03282774,0.014371351,0.0117154205,-0.0061518047,-0.0480796,0.0036925648,-0.08248064,0.062003065,0.023230359,0.010582476,-0.038686644,-0.01507189,-0.034570865,0.005698049,-0.0798334,-0.012692475,0.02705583,0.01009953,-0.024556803,-0.029058896,0.0068665016,-0.030595573,0.034099955,-0.0009886234,-0.028533446,0.01546577,0.05112257,-0.04933904,0.085026115,-8.80694e-33,-0.052433997,-0.054789323,-0.0026190425,-0.022719733,-0.004185808,0.016665274,-0.006702899,0.045520805,-0.05877729,-0.017017968,-0.0019949635,0.01966476,0.03057705,0.051348355,0.03891987,0.01602005,-0.03562347,0.057283457,0.034813672,-0.039616972,-0.0024819453,0.047596533,0.05097861,-0.09072394,0.0037633372,2.0738988e-05,0.0027850394,-0.02906705,-0.04426577,-0.026780738,0.0031547295,-0.007427028,0.0012500373,-0.010026227,-0.008008962,0.044454444,-0.013722369,0.0019572137,-0.017774321,0.004179295,-0.04852386,-0.06022364,0.020930538,0.03616761,0.033366643,-0.05640441,0.023888214,0.01226438,0.033985015,0.007106104,-0.047448616,0.036655642,-0.048137728,0.048214804,-0.03595467,0.037988685,-0.012585271,0.038871035,-0.054246813,-0.03067462,-0.023308754,0.011353628,-0.004472634,-0.018623091,-0.017555177,0.036857683,0.052343864,-0.026188303,-0.13977551,-0.05806431,-0.014299088,0.07075318,-0.016463323,0.07386244,-0.011714918,-0.03051516,-0.09675009,-0.020304715,0.03249361,-0.0124926595,0.010123889,0.037914563,-0.00796455,-0.02029971,0.011419841,-0.044385836,-0.009850079,0.10600046,-0.019571804,-0.02924282,0.007168236,0.049963348,-0.011263685,0.0093966145,-0.0007591902,-0.095078915,0.06578687,0.0069377227,0.008235651,0.038161248,0.049926672,-0.006897952,0.013793557,-0.018777985,0.031770445,-0.00379758,0.017937224,0.016901832,-0.033098314,-0.017399572,-0.0051437495,0.02191704,0.02342783,0.01510532,-0.034661055,-0.011033475,-0.008908987,-0.05675849,0.034296945,0.005528091,0.013224552,0.050028324,-0.021848965,0.0103443675,0.02068957,0.036889754,0.057266433,0.03983087,0.029814435,-0.023915729,0.011720922,-0.010019015,2.914381e-07,-0.008299518,0.014521585,-0.028352665,-0.05137194,0.019011209,0.0633559,3.454472e-05,0.04030303,-0.05869767,-0.0040077996,0.041803174,-0.03295586,0.021149503,0.008661886,0.044048294,-0.0035327857,0.028225226,-0.040362347,0.006213612,-0.042276464,0.08065311,0.028810585,0.058800105,-0.011805721,0.018489564,-0.0084077595,0.00062930625,-0.022126688,0.05806115,-0.021780672,-0.027592832,-0.011108283,-0.022713589,0.062124018,-0.013601234,0.0065020025,-0.012175324,0.079505295,-0.004361913,0.02169264,0.023988359,-0.09124614,-0.007811449,0.05626839,0.011793851,-0.017772019,0.01095012,0.009072236,-0.026209699,0.0003263015,0.030306492,0.06864303,0.038352944,0.043107554,0.0060121417,-0.02944342,0.03185565,0.0028962553,0.05426508,0.021288257,-0.043361656,0.07890538,-0.012827861,0.049716093,0.013496927,0.07340984,0.022086702,1.5334136e-34,0.013523868,-0.033961464,-0.009270875,0.0082748905,0.016629804,0.015433818,-0.08068885,-0.019584764,0.026839664,0.021092761,-0.020999188
rsq003,0.056671284,0.11185236,-0.009159404,0.0050856117,-0.056676965,-0.012191337,0.014010787,-0.011872744,-0.044707473,0.006779535,0.08882147,-0.021791445,0.0070534586,0.0054520676,0.014404554,-0.033707898,-0.015654685,0.030981151,-0.02794822,-0.013674939,0.0047414047,0.050236408,0.011610231,0.018480223,-0.0672384,-0.024006657,0.023095453,0.019324653,0.01101241,0.02552368,0.04817256,0.00921966,-0.008686345,-0.0015447092,2.1914366e-06,-0.016394975,0.02474635,-0.021597067,-0.07435162,-0.017703874,-0.059917185,-0.098323,-0.034315884,0.005272765,-0.008843214,0.045296133,0.05066325,0.013066606,0.027051743,-0.010879138,-0.0031539672,0.07728479,-0.02836918,0.008090544,0.019733364,0.032837596,0.0045298846,-0.03455074,0.016769057,-0.03832704,0.040186144,0.03275582,-0.04300238,-0.012394611,0.00882475,0.014842376,-0.004613223,-0.019207502,0.028512044,-0.02525759,-0.011190694,0.009026297,0.016283683,0.07341735,-0.026990354,0.039059944,-0.0071882117,0.048568696,-0.0630962,-0.026670828,-0.011998976,0.004294025,0.004335342,0.008346117,0.01164921,-0.029215574,-0.04787503,-0.006243609,0.00067493354,0.05218786,0.020764776,-0.053913545,0.073522195,0.004417394,-0.051957797,0.010961053,0.004524692,-0.043807622,-0.008569403,-0.07472206,-0.01136161,0.03635565,-0.007523234,0.051578388,0.0069623413,-0.02265472,-0.003421443,0.008138559,-0.04024488,0.032816187,-0.046844598,0.02334488,-0.005089063,-0.035931587,0.020915153,0.0429431,0.032248646,0.001390113,-0.00022282878,0.06042399,0.03452776,0.044029046,-0.077263795,-0.043405414,-0.009638353,-0.002822818,-0.012254239,0.041299153,-0.021655204,0.02891497,-0.021480832,-0.0017349406,0.050464485,0.014163063,0.024343342,0.004116745,-0.0007324481,0.003211482,-0.07263673,-0.0065860995,-0.022887485,0.0011871562,-0.07058314,-0.0061299973,-0.009865322,-0.023699827,-0.0026651528,0.05335637,0.00030297876,-0.023028262,-0.011459082,0.06369906,0.01309399,0.006772925,0.03993361,0.04826463,-0.022905428,-0.066839196,-0.02058254,0.033256706,-0.014423699,-0.005707228,-8.396213e-05,0.0028586835,-0.06441672,0.019433163,0.104592115,0.014507403,-0.036433667,0.03220502,0.029453661,-0.0077118296,0.02138104,0.103300564,0.013421302,-0.014792457,-0.039146047,-0.03659606,-0.025145484,0.05667842,-0.07470519,-0.05450307,-0.0010985305,-0.008883756,0.0109933205,-0.03363439,-0.026608752,0.058339614,-0.03784322,0.022196928,-0.0014679808,-0.0031180894,-0.004285185,0.021977901,0.031133791,-0.022130173,-0.030419461,-0.04689837,-0.025879573,0.03873435,0.04679851,-0.054442983,-0.012574437,0.07233876,-0.025856761,-0.034004323,0.001306761,-0.045379188,0.049987074,0.007607639,-0.0018511286,0.02044425,-0.011992121,0.023395957,-0.029712707,0.009237317,0.01792091,0.031263094,-0.025713032,0.06144022,-0.033667047,0.018145204,-0.022144696,-0.0070157745,0.01723324,-0.02502874,-0.010037125,0.03174393,-0.01756813,-0.0006125159,0.005588105,0.0432962,0.023602488,-0.05224122,-0.012826391,-0.040139515,0.08622151,0.05763899,0.007822684,-0.079112105,-0.040701933,0.02749051,-0.005308191,0.0053291544,0.042098664,-0.011111347,-0.04910837,0.00892973,-0.0050150193,0.00190734,-0.042543758,-0.022202777,0.006818778,0.051677704,-0.024463592,-0.009743483,-0.06919316,-0.0007659912,-0.025064811,0.0067404793,-0.014284318,-0.016085526,0.006470787,-0.00021294005,0.057834685,0.010090707,-0.016862204,-0.01635886,-0.023114001,-0.00985027,-0.002165804,-0.021192716,0.06321029,-0.010097372,0.0121114645,0.014966741,-0.027985834,0.01901725,-0.037687223,0.029430013,0.03617799,-0.023549039,-0.009486778,0.03384842,0.0028510068,-0.03246569,0.06614576,-0.06430799,-0.08505802,0.014069225,0.0063184258,-0.007251799,0.035711657,-0.017924815,0.0029497135,0.015837137,0.04467489,-0.012618015,-0.028992835,0.023317019,0.0148133,-0.0014613122,0.02307769,-0.015387624,-0.017327698,0.00315261,0.0336541,-0.022116536,0.010195181,-0.03939375,0.02960918,0.017762622,0.026244802,0.05109377,-0.013792807,-0.004977782,-0.03816343,-0.085553735,-0.0020262832,0.029618707,-0.03750354,-0.0032235011,-0.036415216,0.02027227,0.030550133,0.017364882,-0.029572027,-0.009138175,0.081404895,-0.08145041,0.023071945,-0.026391668,-0.018105134,-0.047930364,0.02067536,-0.029675892,-0.040825196,-0.110404775,-0.061247602,0.034104247,-0.013784613,-0.046617363,0.00331878,0.01171481,-0.060354386,-0.03850822,0.00998588,0.040291682,-0.04701726,-0.023609942,0.035278477,0.034151338,0.018522017,-0.030928764,0.0005678903,-0.0038695324,-0.03246258,0.07370413,0.012121095,-0.016984675,-0.0018157592,0.016130572,-0.008470628,-0.036818024,-0.029718295,0.020791782,0.05115553,0.043440364,-0.040148426,-0.04697987,-0.009589509,0.0033054787,-0.053653866,0.014768283,-0.014053263,0.01756293,0.024026336,-0.042268407,-0.09210397,-0.015966048,0.057193805,-0.026581084,0.020625228,0.00044605884,-0.0076472755,-0.025869956,-0.016736655,-0.046613865,0.009342645,0.13752806,-0.0033361916,0.05084636,-0.0028875559,-0.0026351716,-0.02096355,-0.024030013,-0.010427637,-0.02244335,0.027613718,0.010946976,0.06480061,0.10927057,-0.008261301,0.027558098,0.0061863977,-0.026215473,0.06541311,0.048424058,0.026629059,0.02144528,0.008380005,0.019843416,-0.02841262,0.01816815,0.0115438225,-0.006938212,-0.052003045,-0.049881525,-0.008271442,-0.07382419,-0.008269034,-0.00974254,0.06353425,-0.019092029,0.048571557,0.0074125305,-0.002867899,0.027333144,0.047545735,-0.058990717,-0.00600888,0.047613222,-0.031786855,0.03426256,-0.10506373,-0.015749704,-0.008129601,-0.035029978,0.026660651,-0.0130633935,0.020317014,0.08799826,0.06099848,0.034345217,-0.04192974,0.015029331,-0.0042650597,0.013597304,-0.023722973,-0.00037482035,0.0633473,-0.008209557,-0.053961642,-0.062959366,0.023593778,-0.0044368617,-0.057673756,-0.07569069,0.020063445,0.039182458,0.034720983,0.04859018,-0.06370302,0.010067601,-0.0009120211,-0.026908528,0.035848334,-0.07911218,-0.012918089,-0.033884436,0.013022763,0.011900281,0.0016645953,-0.011477156,0.052387275,0.004040097,-0.028440885,-0.036547497,0.0053652287,0.035323765,0.025680294,0.029266233,-0.0243166,-0.037007302,0.0044605057,0.032518946,0.07961547,-0.010549968,-0.036519542,0.06903852,0.028952299,0.010672013,0.018341197,0.05995349,0.023253076,-0.019411085,-0.014920572,0.012520366,0.0013014378,-0.035052467,0.030106628,0.036920816,0.040776964,-0.0062063495,-0.004923676,0.01656639,0.018363563,-0.0558843,-0.021771763,0.014401715,-0.006849599,-0.012126003,-0.06557897,-0.11886235,0.010196112,0.04611921,-0.011451652,0.01297729,-0.013954053,-0.006892147,0.026517078,-0.006075389,-0.014529882,-0.0071239597,0.028600307,-0.02158332,0.025277926,0.0137744,-0.06072678,0.04042152,-0.084659316,0.050921932,-0.030268578,0.004903625,-0.025742412,-0.028825704,-0.0138887875,-0.006728177,0.01731897,-0.011196746,-0.0061316574,0.060308542,-0.018242339,-0.010958549,-0.046803888,0.017453663,-0.028357117,-0.028700966,-0.027270282,0.0047758333,-0.021099033,-0.0034933568,-0.010325702,-0.01743482,0.056978814,-7.446484e-33,0.031591922,-0.040187005,0.0037463496,0.016522875,-0.054274984,0.0052287425,-0.0042611384,0.0047013457,-0.028512679,0.014178269,-0.012072392,0.022168875,0.05411088,0.006622466,0.09791033,0.014869952,0.046187032,0.022066437,0.011035109,-0.04392482,0.00577593,0.023191353,0.014826747,0.033140637,0.010375233,0.032879703,-0.050193567,0.027632482,0.035202496,-0.01959312,0.0027814247,0.023958111,-0.0034626252,-0.05516615,-0.0022985819,0.0922451,-0.07872107,0.010910352,-0.0071835043,-0.0005715293,-0.04128735,-0.004821322,-0.01334184,0.033299442,0.020115966,-0.020111272,0.008645411,-0.0029613227,0.034987975,0.001531397,-0.030165195,-0.020991467,-0.03411982,-0.050425053,-0.019602068,0.03911199,-0.007818131,0.014480671,-0.07143369,-0.034164894,-0.04746581,0.031210398,0.008589993,0.01480844,-0.052098703,0.018862223,-0.043000754,-0.008680021,-0.019985218,0.004694688,-0.036341492,0.02692316,-0.03977124,0.04143862,0.026349023,-0.027807418,-0.047223672,0.045406863,0.06246495,0.047574725,0.027795007,-0.0121,0.015895963,-0.034490872,0.035980415,-0.05154811,-0.009258913,0.07945254,0.0015375986,0.0179532,-0.056236926,0.071379155,-0.051754903,-0.009650455,0.047456942,-0.04716388,0.004727484,0.034045313,0.008157835,-0.016707772,-0.010999837,0.024516445,-0.052722912,0.038907543,0.019645033,0.040603876,-0.017543484,-0.0026493056,-0.04023754,-0.0048132627,-0.037031952,0.07099687,0.009823143,-0.008314419,-0.0024768228,-0.015407107,0.032182552,-0.070919394,-0.0040158657,-0.06209563,0.040017348,0.068571426,-0.015251472,0.015417633,-0.059186,-0.014020233,0.033700813,-0.025842974,0.01217113,-0.05153092,-0.034947846,-0.055618655,2.73414e-07,-0.036511872,-0.01794894,0.018209076,0.0022307544,-0.010551208,0.0009471514,-0.019372711,0.041742146,-0.0637973,-0.06828957,0.07159386,-0.059703846,0.040977485,-0.0069845826,-0.058148347,-0.0082243085,0.0009929175,-0.03724775,-0.021833599,0.00044416252,0.05479598,0.024609337,0.049857963,-0.03199985,-0.021817148,-0.047933094,0.023834627,-0.01962056,0.070188284,-0.018491438,-0.007283303,-0.005829303,0.009566256,0.028826095,-0.023879757,-0.06130862,0.01986514,0.07650007,0.012456722,0.04340361,-0.029347165,-0.025809307,0.00014724881,0.055668604,-0.0032266958,-0.014857033,-0.023498287,0.04060924,-0.014173207,0.013873823,-0.014812601,0.04046776,0.0036961588,0.003034185,0.0010581983,0.0090096705,-0.016056538,0.034404594,0.049733244,0.033968493,-0.08472485,0.0006621877,0.03029159,0.03668026,0.027748382,-0.012916284,-0.03308494,1.3146784e-34,0.0059880707,0.023893304,-0.011212395,-0.027265573,0.011313412,0.023043502,-0.09814646,-0.0073542064,0.006802994,0.007534381,-0.014934545
rsq004,0.0030650902,-0.026292568,0.007022859,0.042221207,0.000115973824,-0.0123889465,-0.042011384,0.034244843,-0.012422497,0.011900586,0.010809262,-0.023850268,0.04262537,0.028847441,0.07600703,-0.057565108,0.0002949175,0.053966153,0.06860286,0.029884439,0.064564236,0.00017607468,-0.019247647,0.017661322,-0.058236502,-0.031582464,-0.0035190983,0.057602134,-0.006308913,-0.03561086,-0.027927361,-0.008703623,-0.013210088,0.006928158,1.3574189e-06,0.0028107313,0.04791996,0.010475957,-0.00014993573,-0.06008527,0.041749872,0.0002111402,0.013653312,0.021864342,0.007211773,-0.051022917,-0.029082945,0.08346052,0.015157929,0.01517533,0.0084427,0.020891506,-0.009073983,-0.04937372,0.03500238,-0.033897124,0.02734176,-0.09158463,0.0113341315,0.0043080864,0.0077837985,-0.033153757,-0.04411209,0.0040561724,0.068642214,0.010075916,0.026611455,0.03748086,0.027520068,-0.042175952,0.012108385,0.016859418,0.04423151,0.017109057,0.016918331,0.06676297,0.028166346,-0.01366637,0.0100688925,-0.060160078,-0.037415203,0.06891644,-0.030085066,0.09089409,0.001695105,0.020781573,-0.028014148,0.0050506876,0.054400906,-0.0097028185,0.055797182,-0.038268026,0.03013532,0.01171505,0.024089983,0.008985085,0.03702889,-0.033437934,-0.049480025,-0.003267055,0.009113124,0.026393075,0.049874287,0.051717523,-0.03162826,-0.02577245,-0.006308275,-0.034877796,0.011799251,0.07156607,-0.016447227,0.015507435,0.0033513166,-0.03231404,0.05773169,-0.059008863,-0.054931525,0.0074711833,0.046269216,-0.0061128982,-0.013567765,0.018556686,-0.0014158444,0.019103548,0.01116267,-0.022600701,-0.025863528,-0.009213184,0.011476809,-0.05476631,-0.06580155,-0.028553676,0.007372945,0.026305057,0.024922848,-0.025371956,-0.019227365,-0.031713065,-0.01970526,0.036332134,0.011326456,0.026099788,-0.0483821,0.0014189122,-0.012341114,-0.013944438,0.00096621347,-0.028945275,0.004201421,-0.010703426,0.03907249,-0.030994305,0.05283083,0.04774013,0.010200193,0.007557342,-0.06496013,0.021986242,0.010793364,-0.03839034,-0.002196976,-0.050606973,0.03775261,0.001389239,0.0054745097,0.0026278186,0.047496833,-0.051346336,0.04795476,-0.0148573695,0.041189622,-0.036052182,0.020193188,0.029624362,-0.01477456,-0.0024034157,-0.047779616,-0.0202885,-0.05246738,0.04804431,-0.008910585,0.027699295,0.018105622,-0.031084904,-0.04823707,-0.048275728,-0.046253234,0.0146858785,-0.041506093,0.020413961,0.0011731831,0.038779262,0.0060094795,0.007931192,-0.022213837,0.036330976,-0.050037473,-0.07827438,0.0018060852,0.0041438113,0.011997841,-0.029043099,-0.015042381,0.05462887,-0.06048238,0.014389503,0.12484527,-0.03276643,-0.010874922,-0.033247728,-0.051726528,-0.0075173494,0.0035523036,0.027759204,-0.01633463,-0.015118154,0.026025282,0.042269465,0.03272714,-0.002126004,-0.02252731,0.07216745,0.03371519,-0.0069711874,-0.04068631,0.0013221907,-0.03705474,-0.012435712,-0.041286256,0.042603735,-0.012109811,0.006207258,0.056521013,-0.015097607,0.015800416,-0.018995544,0.026709892,0.012784876,-0.023987956,-0.05742353,-0.054965857,-0.030193128,-0.022210322,-0.038797546,0.035226204,0.004909598,0.053565547,0.046247974,-0.024945537,-0.014564465,-0.01743029,0.021764454,-0.028865198,0.023223214,0.032998234,-0.02224162,0.05037977,0.021774894,-0.06274677,-0.043039255,-0.06417604,-0.059901666,0.047774173,-0.0056472546,0.06804132,-0.012320296,-0.06009609,0.0016520831,0.0012469712,0.030565474,-0.018470567,0.0025265214,0.025040755,-0.04804638,0.014449676,-0.0026643206,0.005204905,-0.021466931,-0.011195221,-0.0040285615,0.048498914,-0.0006274497,-0.00035032484,-0.0060962024,-0.004570425,0.020846011,0.008350925,-0.03067024,0.005475381,-0.033819035,0.0008004609,0.042162307,-0.009661016,0.033386655,0.030429624,-0.0014463736,0.028942013,0.040328432,0.012670696,-0.04513401,-0.011528282,0.011986257,-0.047519162,-0.025493778,0.021760168,0.020424752,0.031951744,-0.023251466,-0.019483004,-0.05238062,-0.031907614,0.034397166,-0.0062372657,-0.01627616,0.040129337,-0.09830079,0.0021632498,0.009152607,0.0091928225,-0.009801982,0.050760746,0.015416648,-0.025351785,-0.010070622,-0.007834339,0.11663046,-0.0028610427,0.073700584,0.02594901,-0.017004829,0.020886816,-0.0076130982,-0.015587879,0.008103736,0.009704118,-0.056626927,-0.04421395,-0.03544531,-0.06867683,-0.034514923,0.005198472,-0.0243974,-0.025556259,-0.00021548553,-0.038089268,-0.09575782,-0.07196703,0.018895097,-0.01174689,-0.019269278,0.007854468,-0.007454053,-0.02054271,-0.011476289,-0.025940506,-0.069287315,0.01743043,0.043131303,0.024218015,-0.024400413,-0.08485169,0.0048856153,0.0136179235,-0.000949446,-0.012023669,0.0042980034,0.014090278,0.0098791085,-0.032055266,0.04271414,0.009053294,0.036548726,0.01583162,-0.008030861,0.00634598,-0.023461375,0.0068320767,-0.01959232,0.02185677,-0.013017854,0.06917804,-0.014283023,0.00937922,0.006444076,-0.029375661,-0.006216128,0.018408844,-0.06353147,-0.055025697,0.042550854,0.03222331,-0.012823773,-0.066973254,-0.023111336,0.007462264,0.038243115,0.033680752,0.029285861,0.0029762047,0.048122883,0.008034037,0.11051675,0.00029514474,0.010931909,0.054820023,-0.024531795,-0.03737552,-0.009457532,-0.034251176,-0.03218386,-0.06346761,-0.005731722,0.01908497,-0.029244699,-0.003582886,-0.04913951,0.016654883,-0.046566248,-0.0018571635,-0.032349117,0.022451194,0.04453941,-0.036447614,0.046875317,0.029546829,0.03856292,0.013873488,0.016346522,-0.028445415,-0.03163875,-0.040593546,-0.023638472,-0.017559614,0.06412576,-0.023472767,-0.016011564,-0.026340064,0.04342295,0.0033597448,-0.042107318,0.031534042,0.03207878,0.027711688,0.012355555,-0.02046537,-0.053316727,0.009271629,0.024709191,0.0026033707,-0.009261389,0.07352097,-0.00016888806,-0.056025237,0.011950023,-0.046400532,0.009302846,0.015548187,-0.00017112584,0.019966828,0.017131157,0.024772808,0.020946432,0.09328473,0.05624031,-0.009376619,-0.07518763,-0.059409685,-0.0004593744,0.02421366,-0.035894334,-0.04699793,-0.0070118015,-0.021728583,-0.003991795,0.016391382,-0.0015087571,-0.0669102,-0.0496855,-0.054279048,-0.018221049,0.0051661814,0.06282553,-0.027968299,0.0018437824,0.038671385,-0.035799563,0.062037587,-0.0034041859,-0.005601737,-0.008988885,-0.003883876,0.03589837,0.021038413,-0.060044765,-0.035729315,0.02699846,-0.024926687,0.0022051989,-0.037200637,-0.091955826,-0.008451117,0.013197762,0.02459459,0.015990412,-2.7011693e-05,0.033632215,0.0031502494,0.007938059,0.016586581,-0.032921523,0.052757706,0.05890986,-0.037506558,-0.060908504,0.0278656,0.024158947,-0.003514521,0.006286267,-0.0010622197,0.021553304,0.033388875,-0.0022146506,0.007028723,-0.056644395,-0.09443746,0.05300698,0.013318196,0.0034869832,-0.039895274,0.029924117,-0.111058734,-0.004063549,0.07880476,0.03244567,-0.036285978,-0.024623675,0.046800837,0.0061542178,0.010967708,0.035823572,-0.043076023,-0.004828007,-0.043084756,0.0037177885,0.0090934755,0.018073928,0.007079348,-0.02171136,-0.07261407,-0.035742693,-0.01883344,-0.055463165,0.054963022,0.0020134395,0.08946899,-5.9696687e-33,0.02872661,0.0043736794,0.01249775,0.035792828,-0.059666637,-0.022052528,-0.021223376,-0.010810592,-0.016345764,-0.04060277,-0.09099366,0.018946653,0.022366578,0.04376859,0.047316168,-0.024028538,0.031501587,-0.013687946,0.022236243,0.021002043,0.0245789,0.0071860473,0.0068187527,-0.021706365,0.013274081,-0.0071890797,-0.06996764,0.009635825,0.06796393,-0.038541157,-0.015058256,-0.02551953,-0.033695776,0.05868204,0.022501163,0.10133748,0.027156811,-0.009347853,-0.037779573,0.058185928,-0.03723937,0.028652014,0.0031422519,0.008267668,0.0008426876,0.029842071,0.008828427,0.00025397234,0.03657181,0.029721249,0.024349619,-0.0017565264,-0.0072002476,-0.06664486,-0.008284341,0.06780862,0.009105986,-0.025094807,0.005889378,-0.0048464043,0.011784421,-0.020476658,-0.02717847,0.070925996,0.024296876,0.008848903,0.045058213,0.039996292,-0.016809944,-0.032320905,0.026435426,0.021694962,0.043690912,-0.04995914,0.02478186,0.028735645,-0.008846007,0.037192438,0.12940602,0.008212382,-0.042956825,0.017323015,-0.021476327,-0.00730129,0.0023653356,-0.046324205,0.034427553,-0.007490736,-0.015065318,-0.01379942,0.0081465915,0.020855622,0.006988873,-0.02762964,-0.10594307,-0.06586196,-0.002869916,-0.030487254,0.0155964615,0.009689812,-0.012545407,0.0014976392,0.021302372,-0.009912814,0.0069537875,0.02661875,-0.06639057,0.00995248,-0.05749541,0.0049975137,0.005762887,0.00951262,0.013164018,-0.036021475,0.0051987246,-0.05320999,-0.004735516,-0.026964314,0.010655389,0.0029598882,0.02259461,0.06423837,-0.023987217,0.015266358,-0.042243097,-0.0011106167,-0.0065192375,0.014600471,0.02013318,-0.022997078,0.0004406607,0.0212275,2.1554042e-07,-0.0032174513,0.07555226,0.0030408218,0.04903113,0.022581644,-0.01912887,-0.05208665,0.049992345,0.02892939,-0.080831625,0.034257397,0.0041588373,-0.033580326,-0.03251654,-0.047746547,-0.0013147605,-0.00035239707,-0.068084866,0.06692151,-0.0314418,0.021753086,-0.05771969,-0.009163348,0.022541972,-0.022841282,-0.027533289,0.04929889,-0.027138898,0.09783294,-0.022909448,-0.053987447,0.014695653,0.0034754237,0.082432166,-0.056379933,0.07014688,0.01602028,0.054996684,-0.048416846,0.11923238,-0.03266166,0.048027676,-0.037576355,-0.023375664,-0.014750787,-0.010624699,0.030417588,0.041668244,0.037224453,0.00882362,-0.004313284,0.011097819,0.03045389,0.038087286,0.0067937598,-0.004103132,-0.017952818,-0.017774398,-0.002162205,-0.072118014,-0.04470603,0.030813143,0.040125005,0.0008196817,-0.015564816,0.0060883956,-0.031333867,1.3000412e-34,0.0011727741,-0.0055693914,0.025899474,-0.0435966,0.0049538976,-0.020295512,0.060112968,0.017674157,0.020656334,-0.009686487,-0.02792145
rsq005,0.011204359,0.026393391,0.010841104,0.04377261,-0.036125164,-0.013186544,-0.014001028,0.0010901666,-0.014821867,0.018834217,0.017413137,-0.023917867,0.050128557,-0.041917026,0.04776012,-0.059700083,-0.0048807617,0.05461557,0.107331485,0.011515655,0.063354544,0.01707406,-0.060502708,0.036736805,-0.0345018,-0.02876914,0.018054213,0.046803586,-0.017969016,-0.06321814,-0.023840817,-0.010629279,-0.02246829,0.028311443,1.5633165e-06,0.009767114,0.02652967,-0.0013293985,-0.040213823,-0.041639805,0.010617831,0.004545795,0.0078213,0.039804533,-0.014951703,-0.017810041,0.025538752,0.15156557,0.012880249,0.035625048,0.017505672,0.03875301,-0.0094950115,-0.010752564,0.026137115,-0.012665113,0.0075488747,-0.081329025,-0.0134216575,-0.020025283,0.021898597,-0.013456593,-0.05020298,-0.012157099,-0.029010614,0.006218751,0.0009614319,0.008563709,-0.0021336253,-0.019987555,0.0313363,-0.009391096,0.03680329,0.060141746,-0.010997147,0.057598583,0.013784901,0.024968347,-0.05078419,-0.032950196,0.0019665936,0.08600834,-0.010393046,0.036001742,-0.017736662,0.030207481,-0.023759872,0.005584778,0.07616585,0.021820478,0.031176558,-0.059145935,0.04839325,-0.0034808915,-0.02709325,0.025769765,0.02081629,-0.0017941842,-0.052211963,-0.062226105,0.010142048,0.011293589,0.015035342,0.055944562,0.0019511529,-0.06963461,-0.002697697,-0.01760831,-0.006739038,0.07670552,-0.018024022,0.022695325,-0.028619248,-0.040383905,0.049168922,-0.038822845,-0.03176904,-0.010082448,-0.019365896,0.029440023,-0.09323695,0.0077829794,-0.013270422,-0.030358797,0.0012334152,0.058972977,-0.023690147,0.014921968,0.000608091,-0.04293245,-0.032912478,-0.0082407305,-0.04937522,0.04447035,-0.0006591199,-0.012982724,-0.010168043,0.02425367,-0.025705371,0.024434725,-0.029977681,-0.041704617,-0.07171543,-0.0017963164,-0.01593733,-0.037075784,0.022496149,-0.05086974,0.0113091925,0.00269102,0.04526491,0.03162885,0.033874854,0.044953343,0.031980976,0.019090323,-0.065256245,0.03367942,-0.01414535,-0.039376374,0.011916711,-0.058688994,0.01065211,-0.017945347,0.004268792,0.0200599,0.073241234,-0.042541374,-0.034433965,0.0039873924,-0.003919686,-0.011927315,-0.013202757,0.03004329,0.0074336124,0.052196242,-0.038935866,-0.0589149,-0.06150183,0.043014694,-0.0057863407,0.029569762,0.035628308,-0.0070036487,-0.058704074,-0.012816577,0.020096947,-0.012237364,-0.027507605,0.014721023,0.008004043,0.023041446,-0.035085846,0.040048204,-0.031981345,0.006879763,-0.022644091,-0.061153106,0.029227061,0.025133522,-0.033657447,-0.017546892,0.041046124,0.021230627,-0.0727278,0.034862917,0.09557411,-0.0761665,0.02557197,0.050691333,-0.022987952,-0.0043669934,-0.017711312,0.015163103,-0.04729643,-0.026151776,0.016025966,0.089284584,-0.0319811,0.0012467935,-0.0094449045,0.01253761,0.02274132,-0.010521707,0.009822868,-0.0037761866,-0.05151806,-0.0058743837,0.009107943,0.012584983,-0.0084875915,0.0070371106,0.051834118,-0.036104027,0.014869481,-0.002575887,0.011111035,0.037102807,0.0033681109,-0.1055374,-0.04104699,-0.05399819,0.009839689,-0.017584853,0.027202751,-0.03594509,0.07643887,-0.018671928,-0.015872534,-0.019992558,-0.020447291,-0.0027702234,-0.015230005,0.0516561,0.005105401,-0.016729152,0.000513091,0.0739606,-0.031163622,-0.009123166,-0.045198396,-0.02027731,0.011916654,0.018180624,0.02404713,-0.03210421,0.008659905,-0.014365425,-0.0043181316,0.017874323,-0.02860405,0.011191023,-0.010520257,-0.021773864,0.019842498,-0.01603445,0.003947055,0.002993381,0.008718155,-0.008613939,0.010836842,0.00051638624,0.056905072,0.012773908,-0.0073351855,0.04615764,0.010767819,-0.05978143,-0.02996093,-0.02795819,-0.0042791064,-0.009246802,0.00072684523,0.02580016,0.034879602,0.0062990743,0.014220271,0.021671928,0.005873202,-0.0030964774,-0.011526258,0.03529297,-0.050977614,-0.028649915,-0.033202946,0.023639644,0.032481443,-0.029337918,-0.027859438,0.0027977691,0.016491652,0.036405846,-0.006309424,-0.006231128,0.049011294,-0.05403507,-0.023066808,-0.056632783,0.011677142,0.036357373,0.0051534497,-0.0063585006,0.012532318,-0.024729319,0.013656639,0.052163,-0.020405686,0.03753983,0.042755328,-0.052670486,0.018951723,0.037551314,-0.0074557187,0.014111607,-0.040293057,-0.041271556,-0.03351641,-0.026884757,-0.085570455,0.0026874954,0.031640492,-0.015388299,-0.02991162,0.006694775,-0.064328454,-0.13203844,-0.083797306,0.0085345255,-0.039898522,-0.027511746,0.009086072,-0.002002396,0.011761708,-0.03879766,0.015267677,-0.11645495,-0.03735908,0.033128995,0.040162835,-0.065512925,-0.050620493,0.011378154,-0.002183306,0.0010234873,-0.01186063,-0.014341179,0.013097917,0.051439643,-0.009262712,0.03535254,0.034658838,0.027608464,-0.007080702,0.01541565,-0.025489964,-0.031298053,0.042008385,-0.052094318,0.036724467,-0.01360335,0.028042845,-0.056345828,0.0023913216,-0.038849764,-0.036165185,-0.012531051,0.009124285,-0.07315619,-0.011772367,0.06309609,0.047026027,0.052960806,-0.023668142,-0.021195522,0.005551721,0.02266876,0.056958865,-0.018160425,0.029728377,0.021490624,0.03622972,0.055408254,0.024740558,-0.0019310734,0.051428035,-0.015501938,0.0056209937,0.009867892,-0.027421968,-0.070089355,-0.038089454,-0.025921963,-0.018093284,-0.0036223938,0.009970457,-0.03564756,0.010675078,-0.017031403,0.04614922,-0.031047914,-0.009999692,0.07082946,-0.013446564,0.00021977049,-0.030766057,0.05328326,0.08300189,0.044663128,0.013531874,-0.006444446,0.024051828,-0.012482835,-0.03881923,0.026977632,-0.0032724708,-0.006867038,-0.01924795,0.03986966,0.015764724,-0.017153474,0.05982962,0.051199656,0.05907792,0.00025344084,0.01509783,0.0067451037,0.01778996,0.016283877,0.039541896,0.009024612,0.08326329,-0.006533969,-0.040642038,-0.018652145,-0.03125296,-0.010994836,-0.006561815,-0.004486308,0.009535466,0.022208199,0.0023646343,0.03662528,0.04940945,0.040416677,0.017128814,-0.037787713,-0.042015027,-0.03476199,-0.02283804,-0.01878584,0.0046312273,0.0066195023,-0.031710435,0.015158109,0.046710256,-0.01573538,-0.07353732,-0.091576986,-0.03877902,0.031249609,0.013611548,0.035373036,-0.00027958493,-0.025660861,0.020013023,-0.009554308,0.06708092,0.0120127,-0.0012460871,-0.0054026963,0.04597197,0.0007392432,0.058764275,-0.01361033,-0.029469004,0.0045705275,0.02840897,0.027391167,-0.04100558,-0.06462343,0.01047284,0.009773851,0.023153419,0.06057032,-0.016288267,0.06525341,0.013927347,0.00934154,0.03777621,-0.024075225,0.039160606,0.016210478,-0.092776775,-0.1385716,0.05239325,-0.023471218,-0.025444243,0.021119628,0.013891187,-0.028702265,0.027127398,0.0056584906,0.046194598,-0.02283416,-0.03485144,0.029227553,0.0045150146,-0.0074932845,-0.029563993,0.0014997607,-0.13165906,0.03072338,0.026394324,0.004252913,-0.07141958,-0.06980009,-0.044655044,0.017603906,0.0027389685,0.043682646,-0.024716532,0.07845724,-0.04140359,-0.027069699,-0.0066890833,-0.006969413,-0.026000462,0.023919268,-0.064694546,-0.03658009,0.013460446,0.0066199866,0.06473746,0.021543937,0.070737675,-6.464155e-33,0.019108986,-0.030326026,0.008956123,0.038203716,-0.04884087,-0.031173823,-0.0148078,-0.013842664,-0.041557834,0.02554216,-0.032949544,0.027953513,0.029608985,0.0356761,0.008651894,-0.001993577,0.03667304,0.04124115,0.025165103,0.0047107353,0.03607745,0.010556333,0.01818162,-0.07403404,0.036832582,0.025614325,-0.05029469,-0.018686535,0.01074656,-0.04337632,0.0026458648,-0.038148485,-0.013868912,0.042835318,-0.00492061,0.094878584,0.01588513,-0.00803061,0.009520829,0.009168357,-0.07924398,0.043317758,-0.02568885,0.017409116,0.002896406,0.029397108,-0.0010512209,0.00052649016,-0.00090899045,0.024362778,-0.005978392,-0.00413194,-0.051085643,-0.05129088,-0.035136197,0.04996052,-0.032076206,-0.02124925,0.008329492,-0.0059214337,0.013256614,0.011198348,-0.052452464,0.010552174,-0.025659129,0.036018845,0.04232701,0.0021681974,-0.053222932,0.0040077204,-0.01606575,0.04611474,0.062697075,0.026169179,0.006054254,0.018489782,-0.040865753,0.029469626,0.13244791,0.0152942315,0.039908767,0.0030858107,0.019294038,-0.023235962,-0.019810952,-0.07631992,0.022749921,0.009900124,-0.011397067,-0.019729827,0.0072105397,0.028777225,-0.015060265,-0.028700326,-0.028250853,-0.06531058,0.035204995,0.00559765,0.014460038,0.0007584907,-0.026947629,0.009180818,0.0049587726,0.023107942,0.055500314,0.018366802,0.0059175985,-0.04133995,-0.055475112,0.013071896,-0.01877372,0.021489672,0.027553814,-0.041001424,0.009523207,-0.030153356,-0.0035698107,-0.030517511,-0.011390702,-0.033925574,0.051328044,0.048101004,-0.026039062,0.04313061,-0.03875656,0.02198498,-0.011177672,-0.012122326,0.039436217,-0.02645377,0.004716049,-0.0317324,2.2544873e-07,-0.027519716,0.036638055,0.0468096,0.020143507,-0.0069696354,-0.009924352,-0.053315476,0.020214051,0.008966257,-0.13155414,0.035240967,-0.013955693,0.02023071,-0.0012122706,-0.05901423,-0.0035743418,-0.026758548,-0.088625625,0.015171821,0.015912874,0.079980545,-0.004498563,0.009014943,0.016051246,0.038361624,-0.01462885,0.034274645,-0.052408263,0.0780433,-0.0145260235,-0.009366735,-0.048795406,0.0006009838,0.068871304,-0.013086418,0.024279557,-0.037323285,0.026950719,-0.02478256,0.038330685,-0.069400154,0.016070444,-0.03524766,-0.0075445804,-0.010008711,0.006951795,-0.012924032,0.028626211,0.03386011,0.019547816,-0.00017379805,0.018970896,-0.014066312,0.004442883,0.019441467,0.010225047,-0.017319482,-0.02306464,0.04378464,-0.0050343564,-0.005042744,0.030522505,0.024848975,-0.03326583,-0.002079701,-0.045895167,-0.05518657,1.3073535e-34,0.010800314,0.03901735,-0.0068770293,-0.029078254,0.0019772912,-0.006128449,0.040852353,-0.023772966,0.038778648,-0.024248838,0.00054613146
rsq006,-0.010411801,0.052238498,-0.012833576,-0.0055721845,-0.03586171,-0.0008675706,-0.057671223,-0.017813025,-0.014763375,0.029532393,0.08655449,0.039190557,0.024998162,0.022724349,0.061217535,-0.047443118,-0.012822369,0.0476336,0.04629802,0.025677428,-0.0028009561,-0.02998934,-0.0488859,0.014902264,-0.029272677,-0.0013737003,0.013066779,0.0024130272,0.01966737,-0.077873856,-0.027828496,-0.013527835,-0.020944566,-0.052467927,1.8439041e-06,-0.018319117,0.023478704,0.009712252,-0.026185418,0.014592984,-0.06178987,0.0032441923,0.004651294,0.019406375,0.02386322,0.028152343,0.039911333,0.03460241,-0.078120336,0.02888168,0.0062216083,0.06957262,-0.059218004,-0.006255021,0.03977654,-0.024834538,0.030828722,-0.06276271,-0.0082991505,-0.041455552,-0.0016816058,-0.0389374,-0.02443593,0.016794752,0.03435629,0.038636908,0.053741578,-0.026134722,-0.026615141,-0.061680295,0.04618139,-0.039280485,0.04296673,-0.009193655,-0.009094341,-0.027808337,0.0060357386,-0.021253869,-0.03422499,-0.02128584,0.054559544,0.13876572,0.01157,0.02738229,0.0069323303,0.043888662,0.0063831815,-0.018998515,-0.016819771,0.111931115,-0.008446029,-0.04909003,0.044304635,-0.009434364,0.026132695,0.051041603,-0.019390266,0.03286808,0.0074810176,-0.05820572,-0.02189327,0.0073058098,0.042631973,0.03210089,-0.0120579405,0.002807778,-0.047919203,-0.015163601,-0.038019914,0.07239976,-0.003272163,-0.016467985,0.03390035,-0.00038857866,0.071668155,-0.029443385,0.012007144,0.0339349,-0.044066623,0.0036239964,-0.03255949,-0.046727058,-0.06732351,-0.016033499,-0.032149315,0.03762457,-0.021244073,0.010317696,-0.050040923,0.0010545825,-0.03968307,-0.06785303,-0.01251817,0.033089228,-0.019500343,0.055235356,0.0128641855,0.023764463,0.02187059,0.001048785,-0.014426985,-0.025854675,-0.05197557,0.0008900724,-0.0006632835,-0.020725505,0.018497378,0.008742554,-0.01633549,0.037408326,0.0542033,0.016109528,0.10460224,0.015328907,-0.049376924,-0.018889373,-0.0010855355,0.038440306,0.033373304,-0.028999144,0.036130764,-0.0011270839,0.026881412,-0.010438535,0.009787319,0.052171484,0.0876048,-0.04466076,0.0030528558,-0.057175294,0.024512103,-0.03645956,-0.017408587,0.0241448,-0.007810986,0.009613385,-0.0032582753,0.0028746508,-0.0405305,-0.050702624,-0.043927226,0.037288792,0.03624352,0.03400434,-0.019216487,0.02878712,0.013276272,-0.0079044225,-0.04455096,0.01530192,0.013611083,0.041490156,-0.010207047,0.049751263,-0.020417744,0.038530614,-0.023084411,-0.01691794,-0.0017618024,0.0076331873,-0.0043358197,-0.051865954,0.042061806,0.021071639,-0.036987465,-0.024682365,0.037789572,-0.04019412,0.036889922,-0.010248369,0.032568395,-0.009081991,0.01646633,0.063401915,-0.0052896207,0.028297203,-0.0073100138,0.03344725,-0.035800304,-0.041542653,-0.039188113,0.032341428,0.030101433,7.1756476e-05,-0.018846447,-0.03386842,-0.044251017,-0.0076879757,-0.0076781893,-0.007419556,0.018722568,0.046585362,0.043859128,-0.020559298,0.04018289,-0.041828178,0.011751297,0.068303294,0.014372693,-0.06542041,-0.022244252,-0.020287583,-0.025978243,-0.010182681,0.031862874,-0.01990542,0.03127107,0.008486415,-0.01671242,-0.022483904,-0.04069425,-0.032083835,0.014344876,0.0480622,0.023529463,-0.061724164,0.048823383,0.025234714,-0.019647203,-0.020850468,0.045138553,-0.012244776,-0.021008644,0.08256883,0.020361364,-0.03680463,0.006320894,-0.0014414927,0.0379062,0.03626321,0.0153769385,0.025194647,0.018622844,-0.024756618,-0.0035259572,-0.004731256,-0.05455705,0.044359818,0.013180273,0.010691324,0.0061478126,-0.015975967,0.0077800797,-0.013953173,0.0116216075,-0.0063700303,0.059162565,-0.037277743,-0.0015832888,0.015901,-0.0147260595,-0.029307915,0.0005984595,0.0049550836,0.047341812,0.0039230785,0.0040169945,0.004205008,-0.033344343,0.015372394,-0.023437463,0.008308665,-0.05819296,-0.016298873,-0.060910627,-0.02038437,0.04883746,-0.0033033718,-0.033653986,0.044090293,-0.006203117,0.0091774985,-0.011153942,-0.062067386,-0.0039046914,-0.054023825,0.026906576,-0.024640057,-0.016187876,0.040362865,-0.01641779,0.02504025,-0.00082868774,-0.0023545478,0.011686799,-0.010433995,0.016503641,0.034974165,0.053132527,-0.0098251775,-0.00034263334,-0.03415258,0.002343835,0.012705921,-0.034621533,-0.0048333197,-0.03744479,0.01051113,-0.05566275,0.049477287,-0.0063303784,-0.06654725,-0.028735956,0.019556057,-0.030427553,-0.060750354,-0.07034385,-0.0026217424,-0.008304087,-0.03971852,0.07074532,-0.043565698,-0.004802323,-0.052161053,-0.012231434,-0.11264666,-0.059484072,0.021946527,0.019510582,-0.07072839,-0.055525944,0.012058872,0.020169668,0.024267374,-0.0157178,0.010293601,0.015812874,0.020750817,0.0055377535,0.029646065,0.016781006,-7.7846176e-05,-0.06364163,0.013991737,-0.026853973,0.00010897201,0.045381,-0.034164682,-0.012714206,0.009174959,0.039938163,-0.060969047,0.047920853,-0.0033687395,-0.05677249,-0.063915044,-0.015199392,-0.01424089,-0.056111217,0.06896595,0.0032014134,0.100408636,-0.026438931,-0.037458014,0.0248897,-0.058387186,-0.058640003,0.004770298,-0.0027844552,0.03908867,0.05203392,0.029206371,0.02272858,0.024253989,0.032761294,-0.01978294,-0.008744265,0.020975932,-0.07760244,-0.021820022,-0.01807909,-0.026506832,-0.0762672,-0.009221749,0.020099478,0.0065132584,-0.027479082,-0.06209287,-0.015577784,-0.03230399,-0.018770108,0.0049918112,-0.024736846,-0.011491554,-0.023146989,0.013589356,0.059579052,0.019976294,-0.013087632,-0.04261466,-0.0117066745,-0.024856212,-0.04017383,-0.013907993,-0.0893913,0.018708996,-0.0072456,-0.011625124,-0.014635793,0.00040818367,0.050919976,0.075175114,0.11142381,0.0148454495,0.0019802628,0.021628687,-0.010346639,0.0029717942,-0.104116224,0.00045394182,0.0431761,0.032518234,-0.04261357,0.008696455,0.03638597,-0.005411514,-0.030724982,-0.004654647,0.0030749117,0.044642918,0.058533784,0.049216244,-0.027802652,0.019170953,0.0395383,-0.06172789,-0.018511109,0.007108676,0.010319376,-0.034017652,0.0077756466,0.018727489,-0.03590122,-0.034338884,0.018018914,0.006513047,-0.02359232,-0.03459201,0.0004522652,0.039226122,0.04416969,0.04271621,0.0046089906,-0.030154685,-0.03159222,-0.04843887,0.0054447353,0.015632736,-0.018614,0.06234745,0.017511113,0.05715635,0.016035056,-0.014474057,-0.039749563,0.041810784,-0.0005779964,0.03076906,0.041532926,-0.010922571,0.028042356,0.016492167,-0.0011200132,0.012318634,0.009891444,0.065849744,0.03388038,-0.029914984,0.0026208642,0.03986357,-0.059272643,-0.006960287,-0.061796598,-0.068710886,0.05541424,0.0060016364,0.017309211,-0.016578816,-0.022242256,-0.011984958,0.0236279,-0.013962992,0.012014365,-0.024994122,0.0233295,0.0125637185,0.0073150895,0.0038164444,-0.052441426,0.043944735,-0.027739566,-0.0031896147,-0.062238004,0.035771538,-0.035579175,-0.079680264,-0.010311093,0.04517364,-0.0012227914,0.01787559,0.046045087,-0.0028776296,-0.024337519,-0.019007841,0.051956058,-0.040428557,-0.017416999,-0.031948615,-0.0033639215,0.011435855,-0.060272306,0.026017249,0.058172733,0.02060479,0.090590045,-6.882721e-33,-0.0110962745,-0.023751326,0.050677035,0.06724875,-0.044965263,0.016314846,-0.029802268,-0.029673835,0.01743669,0.014313133,-0.03813147,-0.016383093,0.040539432,0.02228801,0.07674669,-0.015061756,0.040488936,0.021436423,-0.00058530935,-0.030034646,0.019873127,0.006138907,0.036533054,0.034541823,0.044392902,-0.016150592,-0.04723981,-0.048196256,-0.027936818,0.008409722,0.011870971,-0.08123008,0.005989729,-0.02344614,-0.017018052,0.1091715,0.026235754,-0.042645443,-0.0031115522,-0.03147428,-0.07357531,0.019823175,-0.02987925,0.05950375,-0.028943459,-0.0328316,0.00020940178,-0.016135769,-0.037217285,-0.0050680265,-0.0019656117,0.006874533,-0.019137222,0.021860803,-0.016736472,0.03128662,-0.044042174,-0.044676475,0.0071037523,-0.028463667,-0.028806133,0.016145604,-0.032415845,0.044517584,0.012641477,0.012949239,-0.050073598,0.029614178,-0.0088840835,0.024155153,0.0045440495,0.017559262,0.0028549246,0.003487585,-0.0073225414,0.006949864,-0.051169228,0.032448065,0.11401084,0.008039097,0.02405643,0.06601659,-0.043551553,0.021206781,0.020356555,-0.02994103,0.022056278,0.02117294,-0.035823606,-0.014427936,-0.03764607,0.103371575,0.0010952418,-0.02979835,-0.039906673,-0.0285009,0.0038946897,0.01527775,-0.017664652,0.0018592995,-0.036998324,0.01846543,-0.020948956,0.01195066,0.023900602,0.013663121,-0.03543471,-0.008742947,-0.04301137,0.005616831,-0.027767599,-0.006850861,0.09792319,0.007958499,0.01115045,0.012335936,0.0066429987,-0.06791258,0.0010197562,-0.06351995,0.053140763,0.1521791,-0.008549432,0.0051236767,-0.021787949,-0.021308241,-0.025442205,0.024340168,-0.023724439,-0.02654056,-0.017719733,0.009631016,2.4864494e-07,0.006142351,-0.02327099,0.024415929,0.05600008,0.004946717,-0.021370457,-0.022299955,0.09043195,0.009762028,-0.045271814,0.083855025,-0.04726335,-0.036812227,-0.009686585,-0.010878642,0.008153092,0.02435738,-0.051920407,0.027656866,-0.005811417,0.01807768,-0.015087167,0.004034177,0.024896422,-0.0017016241,-0.031158118,0.016983721,-0.03626948,0.04290444,-0.010478772,0.02742475,0.020283788,-0.012660991,0.11114559,-0.034661386,0.013998709,0.025543807,0.050039113,0.0055389367,-0.0074938997,-0.05561538,-0.048116215,0.013984643,-0.02055295,0.0009676097,0.028805304,-0.0014594482,0.0006656732,0.024416264,0.0038178477,0.03856189,0.045079485,-0.05399295,0.054344114,0.017244106,-0.0063599437,-0.054784823,0.00423803,0.046588365,0.020676127,-0.028946355,-0.0059998073,0.022679096,0.038082827,-0.019669749,-0.0012033905,-0.035124082,1.6710472e-34,-0.0111304,-0.012410879,-0.018938886,-0.08152018,0.024379203,0.021700945,0.01653674,0.0009359805,0.005810101,-0.01689731,-0.050615966
rsq007,0.03259921,0.08677198,-0.012982409,0.01720536,-0.00060882105,0.004812962,-0.020739427,-0.039094508,-0.022711992,-0.0065634525,-0.06314381,-0.008543939,0.0037054142,0.013514954,0.020682642,0.016647669,-0.003609315,-0.033910226,0.036023185,-0.010310005,0.06447754,-0.028242435,-0.014931616,-0.026105454,0.03915141,0.0057622446,-0.023074375,-0.01625539,-0.02904042,0.036884997,-0.034007665,0.022414932,0.0027040034,0.014466746,2.0715843e-06,0.019177115,0.034345157,0.010658788,0.009730867,0.0014768945,-0.006706271,0.004536756,0.0009144883,-0.017384436,-0.039005727,-0.027047759,0.015958443,0.094463855,0.01959005,0.025159325,-0.016789215,0.038585506,-0.06980455,-0.04126525,0.005619748,0.02289679,0.02689831,-0.000112580885,-0.038428817,0.026229419,0.013745656,-0.03610801,-0.059432205,-0.055247314,0.040509947,-0.031672884,0.03963894,-0.018165523,0.012016199,0.074906476,0.026928741,-0.037543166,-0.0028002933,0.05640663,0.008294659,-0.020789452,-0.02509862,0.013265812,0.014486005,0.027596114,0.0030814207,-0.026688708,0.024562033,-0.00101568,0.06617435,0.0557213,-0.018126637,-0.077619925,-0.049897086,-0.028875502,-0.023359727,-0.058832254,0.0084160315,0.0027088905,-0.008330896,-0.008432327,-0.020324059,0.05448159,0.0094626695,0.0071827015,-0.02115654,0.019562844,0.008674849,0.008251239,0.04359229,-0.03604693,0.055421572,0.005970109,0.031186411,0.04342195,-0.0048613423,0.00036749247,0.03666802,0.030257838,-0.08514655,0.0030884284,0.012678088,0.027783746,0.006187158,0.03290459,-0.031013502,-0.049637828,-0.023355495,0.027498074,0.0031521043,-0.012026598,-0.024836766,0.019014193,0.06306973,-0.06803526,-0.067868955,-0.016731862,-0.022040997,0.0042425888,0.0111419745,0.06919108,-0.03591524,0.019530097,0.12140997,-0.028621025,-0.022163047,-0.019957121,0.047586467,0.0238172,-0.014191032,-0.05015726,0.038210027,-0.048148096,-0.005991668,0.017443355,0.0447801,0.09589157,-0.018587573,0.0032595561,0.053749412,0.044650007,0.047941133,-0.03763049,-0.00049400714,-0.018830368,0.04236681,0.020198666,0.0062101297,-0.032961063,0.012719617,-0.024180524,0.0613303,-0.0036035676,0.018876432,-0.002768571,0.0073476965,-0.0045935297,-0.021471817,-0.04890955,-0.0059440313,0.061516304,-0.0602782,0.04282745,-0.015063195,0.01736988,0.0068889814,-0.00018009706,0.009708532,-0.04266853,0.0055147503,0.058210537,0.049876153,0.048692882,-0.0012147421,0.005243957,0.036529135,-0.014069113,0.06775994,-0.016374893,-0.018191993,0.026062226,0.007172844,0.007890474,0.0058016605,-0.015405364,-0.07647458,-0.0039695203,0.010088005,0.010939764,0.012187123,-0.005772104,-0.051685274,-0.062128842,0.0500506,0.056614555,0.07049677,-0.028451422,0.038046774,-0.008320756,0.021209199,-0.00056627026,0.02102659,-0.015477481,-6.0056653e-05,0.020922866,-0.012919537,0.027331615,-0.0147209745,-0.004461256,0.10770346,-0.019330055,0.008216098,-0.014791835,0.017752584,-0.0151325315,-0.04168042,0.031002957,0.02521665,0.03962261,-0.040782448,0.087144144,-0.008773114,-0.008843498,-0.0011044005,-0.07449086,-0.0015853177,-0.03750327,-0.0058634863,0.005501377,0.04874197,0.0032990158,0.007731741,0.020699216,0.03928537,-0.023762455,-0.040388975,-0.027671216,-0.11303486,0.0068424474,0.0051400973,0.034874745,-0.027077245,0.008956753,0.0047903443,-0.017641434,-0.011112759,-0.0042563006,-0.024590088,-0.035088725,0.01849244,-0.012673972,0.044160414,-0.07460993,-0.012305627,-0.0020446265,0.009081938,0.0077628917,0.034443345,0.006096105,-0.067406684,-0.011513893,0.024168517,0.006075387,-0.04297503,0.062601425,-0.03672776,0.02474858,-0.024649365,0.012760741,0.006899938,0.022864394,0.03358729,-0.034775414,0.022893269,0.031429075,-0.043301173,0.02758168,-0.044649005,-0.027839908,0.021558324,-0.012866429,-0.0019477528,-0.033502925,0.043181606,0.027218888,-0.04771464,0.011476613,0.061440263,-0.023599265,0.05342292,-0.020250289,-0.02587278,0.037754335,-0.016521282,0.058160387,-0.019238885,0.0062048864,-0.008218926,-0.002378347,0.028952586,-0.030355992,-0.069259875,-0.04447484,0.02435982,0.0067504016,0.011293022,-0.029069483,0.021986458,0.025251478,0.009814374,0.043183472,0.0013997889,-0.008365134,0.013424031,-0.041311644,-0.013447073,0.07711116,-0.029053356,-0.029476512,-0.07664776,-0.031907547,-0.037685152,0.011070356,-0.049886763,0.028530085,0.023187017,-0.032603167,0.008950562,-0.0035627272,-0.0322386,-0.024154996,0.049340583,0.0040575773,-0.009554178,-0.025613248,-0.0054286118,-0.064508855,0.072471805,-0.038053203,0.0577038,0.0021207118,-0.061902534,0.06923755,-0.010654106,0.032945935,0.0060270806,0.031624675,-0.015768884,0.063258894,0.0525338,0.008927793,0.007441715,0.051883254,-0.018972956,-0.014223456,0.056972798,0.06062051,-0.09033866,0.004522477,-0.0339212,0.035861205,0.02647708,0.005154755,0.013322058,-0.048950013,0.028917817,-0.09119205,-0.014638455,-0.0020422044,-0.028939588,-0.016910767,0.033510342,0.020376626,-0.04790752,-0.033753585,0.041579,-0.048929285,-0.032107227,-0.014791233,-0.00974887,0.004933099,0.050984766,0.0051368535,0.009718651,0.015808308,-0.021003611,0.037964817,0.01252144,0.019440591,0.049224176,0.07279165,0.013020554,0.039069045,0.07482267,-0.0769573,-0.013753051,0.05084236,-0.002823879,0.0009178478,-0.053217813,-0.026557012,-0.007890518,-0.07586073,0.048615955,0.017297724,-0.036110703,-0.0013940973,-0.010611565,-0.028469242,-0.041281987,0.05296176,0.049185112,0.0438367,0.0041188095,0.017363258,0.025501626,0.0072675664,-0.002394111,-0.013477883,-0.040356074,-0.073621005,-0.025395771,0.10104383,-0.03851118,-0.048736546,-0.06324323,-0.037321854,0.05177647,-0.007936105,0.037663322,-0.019725965,0.007882414,-0.005372462,-0.025194881,0.01821139,0.0029922149,0.0033042363,-0.04183408,-0.006134843,0.052061766,-0.02514494,-0.025446357,0.011227045,-0.001294329,-0.050345134,0.018043961,0.039065924,-0.0014787805,0.053341225,-0.05896003,-0.014795293,-0.0007598055,-0.08059249,0.02328692,-0.00087263295,0.0063832332,0.020598827,0.0035462228,0.008506087,-0.030716678,-0.017837318,-0.05800432,-0.0729912,-0.054944836,-0.019711247,-0.029047996,-0.013712833,0.050750438,-0.034544405,-0.020580878,0.018108131,0.016287733,-0.020481044,-0.011727218,-0.011005975,-0.039591316,0.01678954,0.034006022,-0.07373481,-0.06390106,0.050848655,-0.015170002,-0.04116846,-0.029994823,-0.027965926,-0.017438354,-0.004830106,-0.0075689773,0.009744359,0.021798782,-0.009857557,0.027110074,0.034519155,-0.004391606,0.026167145,0.072210796,0.028791608,-0.024257679,-0.10465454,-0.024218056,0.05375051,-0.033902537,0.059087902,0.06374716,-0.029343357,0.021509036,0.05256955,0.07159413,-0.04452124,-0.004820604,0.027430484,0.0007576664,-0.03295846,-0.027573453,-0.032259613,-0.041297328,-0.022747163,0.023553232,0.023969306,-0.042579938,-0.0031630474,-0.023141978,0.020682057,-0.009625695,0.04656918,0.013208869,-0.03584576,-0.014857034,0.014606491,0.031131886,0.0069907,0.02733742,0.016749764,0.029522493,0.0024112642,-0.0049640355,-0.002178822,-0.02794142,-0.06034015,-0.028870674,-7.6812855e-33,-0.02158296,-0.011461531,-0.04306248,0.011014021,-0.12610482,-0.06729434,-0.03506993,0.012065674,0.00010156245,0.04227702,-0.010657049,0.038844716,0.014890387,0.050211478,0.037887212,-0.06415757,0.024117323,0.034248643,-0.014059864,0.026851809,0.0015773525,0.038803693,0.038038414,-0.034744248,0.090082996,0.05445409,-0.0115149515,0.0014211143,0.037008457,-0.015039348,-0.033788458,0.025777414,0.006169749,0.022810308,0.009977725,0.056997318,0.055081207,0.013570472,-0.005123543,-0.02950222,0.0035290217,-0.002405877,0.04627207,-0.02604215,0.02737062,-0.06223735,0.010150664,0.01493412,0.018409025,0.054724853,-0.07344028,-0.010691246,-0.036040127,-0.033292152,-0.024043744,0.0188092,0.035783555,-0.06393573,-0.057938673,0.04402946,0.018598195,0.013168568,-0.0055354405,-0.055847786,0.077849984,0.020828608,0.009769971,0.029018238,0.027631138,-0.03499223,-0.00071225275,0.038731135,-0.0014539474,0.029006446,-0.0011295854,-0.004610091,-0.032847673,-0.008448289,0.034736127,0.03520533,-0.054929566,-0.017915033,-0.042345285,-0.011584004,0.03061308,-0.004219992,0.012992827,0.00082204293,-0.008725905,-0.005818618,-0.028787574,0.0008211485,-0.05161609,-0.019969966,-0.0035383007,-0.028283931,-0.005491949,-0.03813149,-0.027007775,-0.044433355,-0.058485433,-0.00079844357,0.0026242647,0.04158441,0.046972122,0.027716728,-0.07241327,-0.012314244,-0.020861957,-0.019218408,-0.03404156,0.0413294,0.0062814173,0.023036925,-0.045470145,0.023987107,-0.018184599,-0.017394478,-0.05822504,-0.017616969,-0.014744962,0.019741472,-0.03400563,-0.017043488,-0.002268144,-0.041003406,0.020982765,0.020321278,0.015950713,-0.02095771,-0.023153307,-0.08548526,2.7656836e-07,-0.015028958,-0.030739617,0.033051405,0.06273707,-0.00856068,0.057086293,-0.013193722,0.052712504,0.024993818,-0.02651447,-0.03657723,-0.0025538802,0.06627634,-0.006685658,-0.0116427,-0.09939621,-0.031880185,-0.10823273,0.05254536,-0.067396395,0.057386488,0.0037330287,-0.0076040532,-0.008199447,0.028692886,0.0034914783,0.008968118,-0.0629681,0.032444876,-0.0050953818,0.000109827124,-0.034894817,-0.012467452,-0.0051561445,-0.02879618,-0.013015058,-0.02958345,0.021462988,0.024355581,-0.017488038,-0.06576483,-0.0028540143,-0.0020366842,0.028372195,-0.038263418,-0.056703955,-0.023071809,-0.0008052277,0.03145162,0.010957727,0.03118817,-0.008682133,-0.009441418,0.017185956,0.037846018,0.027570866,0.08635361,-0.02229125,0.022369439,-0.05445143,-0.017203586,0.026536578,-0.037523188,0.022672515,-0.060969647,0.062351648,0.0070297713,8.0437385e-35,0.0005077962,-0.015621318,0.029325875,0.07344577,0.026818711,-0.016170867,0.020296581,-0.021909587,0.05104529,-0.006963304,-0.018047087
rsq008,0.070647076,0.003358723,-0.027817067,0.006607171,-0.040133376,-0.017055642,-0.018114597,-0.02349055,0.020511676,0.013431533,0.019612871,-0.02129331,0.053488966,0.011266105,-0.009369381,-0.002722046,0.009645379,0.011734056,0.045612443,-0.007515005,0.040723667,0.014182043,-0.037129078,-0.012975065,-0.0070540747,-0.0048011043,-0.026417661,-0.026285168,0.0016814606,0.021449039,0.019126572,0.04172775,-0.0037075188,-0.036883336,1.8452009e-06,-0.027780557,0.045140404,-0.032101605,-0.05920328,0.03977189,-0.005319688,-0.04541687,0.07900291,-0.023749644,-0.04557904,0.018471679,0.017946208,0.09001266,0.02793306,0.01109349,0.0034269793,0.06961392,-0.042275287,-0.03282204,-0.019566193,-0.01718657,-0.014235911,0.00581258,0.012809056,0.024115605,-0.013982048,-0.0006504348,0.010521677,-0.05500951,-0.03076646,-0.027794534,-0.010574174,-0.017479705,-0.004013571,0.047074046,0.08152052,0.00010927939,0.0056109224,-0.021707363,-0.013731155,-0.0034802856,-0.04476665,0.012271349,-0.0027928664,0.022990378,0.0045113163,0.036343344,0.0020014665,0.0049857087,0.035317108,-0.006698875,-0.03900762,-0.030389668,-0.03679865,-0.029060869,-0.032207172,-0.056369483,-0.035630804,-0.026665673,-0.04593866,0.024482008,0.0067090257,-0.012968452,0.022824403,-0.014868583,-0.06640429,-0.0072059873,-0.0033752238,0.005058971,0.047579374,-0.011271076,0.054330956,-0.010840518,-0.022718888,0.041852828,0.0038956113,-0.030338943,-0.023889204,0.021784112,-0.0733931,-0.014985255,0.036375992,-0.008022822,-0.0061935615,0.014925858,-0.03155733,-0.031264737,-0.052899875,-0.01383593,-0.037010178,0.015607275,-0.044703938,0.05875362,0.0501186,-0.043297306,-0.015849484,-0.05569961,0.0011963763,0.048079252,-0.04432876,0.050927434,-0.024429694,0.033797964,0.032973424,-0.008132872,-0.0027731152,-0.03864079,-0.030302783,0.023569152,0.010631355,-0.009259612,0.011510833,0.008724261,0.01395424,0.010319033,0.026759712,0.04835309,0.06447686,0.0014126769,0.046361905,0.05676931,0.06827432,0.0072455555,0.009444525,-0.0482986,0.028486904,0.0016120186,0.02578257,0.011861175,0.04175879,-0.019425293,0.10459272,0.020933103,0.02455042,-0.012759843,0.018428313,0.00027138303,-0.057301085,0.008347997,-0.002665048,0.030965343,-0.09223038,-0.04943506,-0.04262023,0.08019413,-0.031754848,0.066809475,0.014289647,0.011078005,0.0023217483,0.014767325,0.053537484,-0.0030438215,-0.021334507,0.0060351263,0.0399827,0.0073911436,0.036894,0.0007266658,-0.06301199,0.017475197,0.0059070275,0.026489817,0.036235157,-0.030122375,-0.041417245,-0.05522292,0.039481565,0.040468704,0.0019572158,0.09215002,0.02638815,-0.026891323,0.06810252,0.061700143,0.038020983,-0.01230333,0.015798187,-0.007318438,-0.02542891,0.009475631,0.0022774667,-0.004489592,-0.03986338,0.017480578,0.0011853516,-0.0015886046,-0.08761402,-0.013299875,0.01883688,-0.05643592,-0.022363411,0.0010307048,-0.002736815,-0.020318046,0.017099353,0.017798508,0.015533853,0.028751172,0.042817596,0.008777266,-0.04930425,-0.040843252,-0.027298493,-0.0204901,-0.008958654,-0.056263395,-0.010966474,0.0010367221,0.04931302,-0.015801914,0.039401915,0.017414695,0.000726347,-0.018316578,-0.009099427,-0.01575606,-0.0801455,0.014546825,-0.020800242,0.0019022127,-0.023396809,0.022102708,-0.012780932,-0.016528526,0.05922199,-0.018882317,0.0039994,0.030681018,0.04553391,-0.068885,0.056558423,-0.0988205,-0.061642654,0.043705683,-0.013260149,-0.020298382,0.03831794,-0.01756311,-0.02894772,0.010121298,-0.00605141,0.020704646,-0.027475972,0.055565048,0.053852007,-0.035342366,0.0069173207,-0.01761041,0.038558703,-0.022402532,0.03161257,-0.044596683,0.009650378,0.018849388,-0.006102346,-0.012925098,-0.032677226,-0.020516643,0.008011518,0.040595297,0.087150894,0.0058973185,0.04206378,0.011893157,-0.029317226,-0.0036433684,-0.056636617,0.0015397135,-0.05768609,-0.032368667,-0.024298329,-0.022867331,0.013262102,0.05911289,-0.0029776327,0.04165371,0.017105078,-0.023923,0.006317934,-0.008068061,-0.0017751288,-0.030988347,-0.018672973,0.08450786,-0.018380493,-0.0240336,-0.006313147,0.00785085,-0.008709765,-0.021798288,0.00254528,0.063692145,0.076727346,-0.042844027,-0.017827649,0.08716116,-0.053502966,-0.03661493,-0.11137743,0.028244926,-0.0348175,-0.003908743,-0.031679943,0.049637277,0.029136209,-0.021681922,-0.032241534,0.053432785,-0.0339211,0.011136147,-0.019584028,-0.031212931,0.0153515665,-0.058196437,-0.030829143,-0.005664616,0.007367484,-0.024285156,0.020123577,-0.042673808,0.025726417,0.07778036,-0.023418307,-0.017207276,0.021914156,0.045544617,-0.04026104,0.032903355,0.061539672,-0.04570655,0.010714263,0.07980043,-0.019316034,0.008085163,0.01798648,0.022240331,-0.05042744,0.016763205,-0.03643916,0.024708847,0.007970188,-0.08913824,0.06454375,-0.015616713,0.04212677,-0.13400309,0.0121934805,-0.026254503,0.035258703,-0.017316792,0.03120541,-0.034349483,-0.04809945,0.0471349,0.0050933734,0.0036512588,-0.017368348,0.023705678,0.009767165,0.014385136,0.073969945,0.008059986,0.057077177,-0.020821089,0.058843553,-0.043387946,0.016672404,0.019820327,-0.015482599,0.03789488,-0.032778315,0.057571452,0.03408845,-0.054276917,0.028255297,0.038069636,-0.028632827,-0.020668117,0.013643541,-0.029943094,-0.026134068,-0.08469418,0.021510664,0.04558904,-0.010131247,0.029775223,0.022132888,-0.07309639,-0.021959452,0.009652,0.055110328,0.054588176,-0.0037487494,5.638612e-06,0.0015075909,0.024860924,-0.0042068926,-0.013677741,-0.023012402,-0.058595218,-0.026928829,0.0033089905,-0.0006101203,-0.021031842,-0.024484733,0.027271487,0.067387275,0.024317887,0.020998526,0.034200322,-0.018341405,-0.025098931,-0.01503757,0.032970946,-0.027561652,0.013795571,-0.06888389,-0.016887406,-0.03164285,-0.028398287,-0.037630133,0.034834985,0.016860344,-0.044513725,-0.014726355,0.035144925,0.053634197,0.048665084,-0.044430923,-0.045585882,-0.031064257,-0.0431357,0.011452358,0.0050314036,0.031351056,-0.010826124,0.028098237,0.0454063,0.02795475,-0.009263062,-0.030988922,-0.020333672,-0.087757796,0.01193892,0.03624477,0.021896768,0.03023004,-0.05787017,-0.0838478,0.02115347,0.050328325,-0.0051464224,-0.02666804,0.03195833,-0.029965196,0.051813275,0.0070351255,-0.027985062,-0.02512332,0.02080315,0.029974492,-0.009395393,0.009271426,-0.0634814,0.0012964794,0.0068794303,0.01820646,0.006165004,-0.0111903045,0.06646426,0.024738366,0.04998789,0.01034362,-0.0052438974,0.04442934,-0.029956479,0.024638142,-0.11024151,0.0024061622,0.0016588425,-0.08255301,-0.015441604,0.03522009,-0.0042080265,0.04294008,0.024477603,0.06188605,-0.007950758,-0.01726035,0.0350617,-0.009285624,-0.038115595,-0.026776407,-0.009797207,-0.068536445,0.026096264,-0.085028134,0.06591371,-0.027200872,-0.036083028,0.037685618,-0.028264837,-0.029818214,0.014235408,0.023891214,-0.02553028,-0.05928734,0.0059746522,-0.06057538,-0.029662702,0.06040921,0.033971947,-0.016160613,0.010619915,-0.0102185,0.034378015,-0.0015827633,-0.027079409,0.02102186,-6.934769e-33,-0.039336495,-0.04380543,0.020148342,0.053836744,-0.09353176,0.010335405,-0.03227255,0.02122823,-0.0054632253,0.021170292,0.011417006,0.015296928,0.0074968645,0.029404035,0.075668596,-0.06464583,0.021507027,-0.006809497,-0.025009165,0.009095955,0.027528375,-0.008386348,0.039244853,-0.04929913,0.03292334,0.006595353,-0.04343816,-0.04088005,0.00084667007,-0.014761621,0.011178278,0.001124176,0.0002662211,-0.032170735,-0.006182978,0.0887755,-0.0067512663,-0.0073322635,0.032522913,-0.041711885,-0.092036165,0.014774738,-0.01646221,0.022908054,0.020800097,-0.026427973,0.021604119,0.023637306,0.0056483373,0.045305777,-0.04745401,-0.006696514,-0.06074522,-0.01862602,0.023871861,0.08948341,-0.010116005,-0.056650788,0.024022026,0.050922308,-0.0085241655,0.03596839,0.018206127,0.0026997828,0.009787266,0.06836754,0.0019045018,-0.008801904,0.009375147,-0.0041841753,0.026757522,0.093958825,-0.07103812,0.026604846,-0.049347907,-0.043218784,-0.022180257,0.0048307567,0.054457873,-0.018084986,-0.008421509,0.0023160428,-0.046438184,-0.05723719,0.024209166,0.020461127,-0.00077485817,0.013057797,0.0074996958,0.02840359,-0.017677417,0.028699666,-0.020744532,-0.004773485,-0.012853012,-0.024019953,-0.0043291054,0.0043263463,-0.05810229,-0.030116862,-0.041615553,-0.03232314,0.016121402,0.013453743,0.009675763,0.049523253,-0.010017287,-0.043646008,0.0078340005,-0.022749225,-0.0027586971,0.039519545,-0.02952638,0.027603297,-0.032776553,0.014499555,-0.040095545,-0.021736057,-0.049336344,-0.055300426,-0.06929986,0.051463194,-0.032795716,0.011947708,-0.049501635,0.027787203,-0.015393539,-0.004212827,0.009061139,-0.006572088,-0.0036107206,-0.07309583,2.5200953e-07,-0.027164292,0.0008226837,0.009475666,0.044168003,0.0028492399,0.030261204,0.06234923,0.03001918,0.03882378,-0.06286625,0.030577455,-0.030459555,0.037421122,-0.00960815,-0.051562883,-0.046751972,-0.061423287,-0.11020831,0.033055983,-0.05459432,0.05365894,-0.006474085,-0.041457966,-0.009897549,0.006960937,0.021952718,-0.012345896,-0.060352027,0.03599962,0.018436695,0.026369171,-0.038333654,0.053830504,0.086762235,-0.014137828,0.0081119705,0.03813042,0.056754757,0.017758008,-0.01942259,-0.014712227,0.006596013,-0.015683258,0.012295317,-0.0007140905,-0.007697198,-0.008838611,-0.012410031,0.043200206,-0.004028373,0.02413014,-0.012747189,0.0049278485,0.0069042486,0.00549085,-0.016915355,0.03990339,-0.00034526663,0.027219087,-0.008598833,-0.011968199,-0.032411445,-0.005379995,0.0075345766,0.006992185,0.044176515,0.016345352,8.75664e-35,0.021505116,0.043241255,0.020184526,0.058687896,0.010600323,-0.004338677,0.058459543,-0.014882507,-0.0025577606,-0.010393858,-0.02357619
rsq009,0.06534282,-0.00894686,0.0028464831,0.02818843,-0.034704287,-0.029162245,-0.009635542,0.014543483,-0.00646985,0.026963996,0.045236707,-0.021591319,0.06395366,-0.03667269,0.015033401,-0.06600122,-0.015887273,0.035498563,0.09801964,0.01913823,0.03508651,0.012889675,-0.067574486,0.007170622,-0.0428056,-0.01952883,-0.038479913,0.053016387,0.0058226683,-0.021746488,-0.04225109,-0.0010690591,-0.03873537,-0.053243104,1.6249126e-06,-0.012574394,0.022452377,0.008068298,-0.07153059,-0.036650427,-0.040677793,-0.015269862,0.04638492,-0.0018023773,-0.0009126535,-0.018896548,0.04512159,0.11699877,-0.002463523,0.021289159,0.0003714112,0.04629249,-0.043292824,-0.013995126,0.032222804,-0.05941345,-0.007941472,-0.08139546,0.03727486,-0.016715037,0.0319927,-0.02590903,-0.016660932,0.0025517384,-0.013206564,0.020271955,0.0045244885,-0.0026191755,-0.035265706,-0.010409336,0.070449226,0.037484366,0.027780253,0.028261777,-0.017791856,0.011119286,-0.008537338,-0.011862941,-0.028428353,-0.062779486,0.005964928,0.08655008,-0.0179184,0.011649323,-0.013422646,0.049200546,0.00080437236,-0.008340335,-0.015393401,0.028457178,0.0044283625,-0.037714534,0.041245278,0.0024204578,-0.030081686,0.018483447,-0.014363542,0.016693637,-0.033553544,-0.027806565,-0.0021784494,0.002964653,-0.001259895,0.062854186,0.0144728795,0.005672445,-0.025143627,0.0012582163,-0.05247687,0.07477914,0.0066606784,0.014548758,-0.0264765,-0.01685737,0.016532335,-0.029975856,0.024524702,-0.0044756993,0.026463399,-0.00058507506,-0.017441656,-0.004551846,-0.03676612,0.0061984276,-0.044286028,0.0048359856,-0.023756932,0.017285224,0.007281275,-0.013438378,-0.03184215,-0.059787877,-0.006442842,0.031913076,0.002870647,0.010615284,-0.053186547,0.03452021,-0.024398988,0.013099547,-0.011445013,-0.01249503,-0.058536354,0.036110003,0.047663625,-0.01425336,-0.019595534,-0.022184385,0.0045002843,0.039987866,-0.013637322,0.0057756086,0.09848778,0.037300553,0.0070261746,0.0099696005,-0.036769252,-0.014839213,-0.0074526747,-0.030751096,0.032824133,-0.03746958,0.005932515,-0.0036054868,0.003441372,0.029895654,0.07399487,-0.005418088,0.014867015,-0.00692362,0.024596443,0.0037285497,-0.0017245875,-0.0024040563,-0.01494218,0.07037787,-0.032674685,-0.055440873,-0.045893874,0.024753457,-0.036181662,-0.008820584,0.020634692,0.013698105,-0.042265244,-0.03525864,-0.02901146,0.00374974,-0.05148899,0.021462344,0.0069911857,0.011884844,0.0097638285,0.061199024,-0.03180954,0.01154061,-0.038733914,-0.020950865,-0.01793107,0.018731488,-0.041678198,-0.037064474,0.053586245,0.0662056,-0.035878733,0.024493793,0.09761622,-0.053453565,0.030498829,-0.013829533,-0.009257742,-0.0029591129,0.027078234,0.04094212,-0.031119375,0.048256055,-0.025743762,0.06961814,-0.00803474,-0.021313682,-0.0009952728,0.022409962,0.050622143,-0.0045837974,-0.029137257,-0.035585456,-0.02563058,0.0060822037,-0.0014941746,0.019584421,0.029195284,0.025883686,0.084348395,0.0007114144,0.051201973,-0.029990101,-0.037857298,0.0043827263,0.004951664,-0.06839412,-0.02592539,-0.063838206,-0.027881635,-0.030188214,0.01444826,0.0038777487,0.040691923,-0.008377644,-0.019530762,-0.029236317,-0.03787691,-0.026260158,-0.026844526,0.046239655,0.03248023,-0.02139917,0.02107818,0.053255085,-0.04655855,-0.06666826,0.03345696,-0.02012344,0.027851574,0.02909209,0.0524496,-0.022908377,0.006887068,-0.022327516,-0.012185765,0.04604233,-0.04330305,0.0044408715,0.04381874,-0.030734265,-0.033603057,-0.024918798,-0.03110346,0.021091912,0.023207672,0.00083523354,0.038666844,0.030305203,0.039789405,-0.028423203,0.041466832,0.033646632,0.021176677,-0.034114845,-0.017709164,0.0003991896,-0.004862479,-0.0037967605,-0.004171416,0.014614253,0.055588502,-0.0016004117,-0.0060024243,0.029000187,-0.04349106,-0.00527977,-0.007091653,0.0028006304,-0.06759235,-0.01789108,-0.025169866,0.009184581,0.07457667,-0.016568549,-0.010272293,-0.007323421,0.043693718,0.04255363,-0.025207927,-0.06243582,0.025543652,-0.05144229,0.018102301,0.0020078132,-0.027255658,0.056724224,-0.006133208,0.03562251,0.0048815715,-0.022211352,-0.011724344,0.009821462,-0.0025585778,0.08130675,0.05444687,-0.060296886,0.0022126064,0.0020545474,-0.021214485,-0.008112746,-0.013447613,-0.01892456,-0.03885827,-0.017140778,-0.07684433,0.03154112,0.003969511,-0.03567669,-0.024236694,-0.0005613772,-0.04662351,-0.0735555,-0.0896867,0.012202492,-0.012100114,-0.04099143,-0.009913365,0.012976432,0.0027213558,-0.023688532,-0.021826984,-0.088904254,-0.03676003,0.053732827,0.0069992123,-0.038563292,-0.046505395,0.008924463,0.0469832,-0.0048699207,0.03329466,0.016207995,0.025762744,0.02467332,-0.012880718,0.046455212,-0.018094564,0.009535456,-0.01710635,0.02342085,-0.005640034,-0.03230368,0.01067244,-0.05183272,-0.018246861,-0.0059122,0.04413811,-0.07329636,0.03271807,-0.01548069,-0.051810898,-0.018393535,-0.0104584545,-0.07585611,-0.030612752,0.060379837,0.001423679,0.054595623,-0.039513573,-0.003449342,0.032692745,0.034403645,0.02377954,0.005738456,0.03019059,0.048379578,0.032464504,0.07179976,0.036528077,0.0396539,0.07506676,-0.03320331,0.009044588,-0.018324269,-0.056388337,-0.029336473,-0.034147304,-0.040401805,-0.059050832,-0.011567913,-0.027803553,-0.021574514,-0.0062617348,-0.02569844,0.043290377,-0.03556745,-0.013906918,0.05714177,-0.033390995,0.002443628,0.00020010376,0.029941188,0.062205948,-0.0020567002,0.0063740197,-0.00425769,-0.015626952,0.008019476,-0.026334036,-0.034668937,-0.030381631,0.037757866,0.025653217,-0.010893779,0.034520667,-0.028279152,0.07505397,0.11059512,0.060592484,0.02105387,-0.013987638,0.017604934,0.016197259,0.002130763,-0.047759023,0.025714112,0.050420977,-0.033861887,-0.063083105,0.0100283,-0.009603233,-0.017009579,0.012810714,1.1010395e-05,-0.003352145,0.048786335,0.041532476,0.030208776,0.025243502,0.03332153,0.03081288,-0.04741235,-0.032076955,-0.024005562,-0.014052001,-0.05315179,0.0004970974,0.024050584,-0.04357481,-0.01877476,0.02671087,-0.0029847499,-0.06579927,-0.050585374,-0.08525552,0.032667227,0.07060684,0.013883187,0.029972835,-0.059613235,-0.01205723,-0.00891711,0.045404267,0.0025425982,-0.011821744,-0.0050465674,-0.0068007424,0.006115893,0.049229335,-0.0630817,-0.05299215,0.03215074,0.042040367,0.017253688,0.034567725,-0.08304065,0.010503738,0.03370961,0.031496946,0.011519016,-0.019397367,0.087652534,0.0096457545,0.027897399,0.014592978,0.00417815,-0.013938348,0.040706377,-0.054395694,-0.14201817,0.08971121,0.028507909,-0.046508756,-0.032083604,-0.016565263,0.034149386,0.03733565,-0.003943565,0.015106036,-0.0025657148,-0.035553895,0.08813012,-0.0075467904,0.015162307,0.0025928689,0.03641421,-0.09793768,0.038109876,0.022065667,0.05539019,-0.080151975,-0.06782859,-0.023710249,-0.017250871,-0.008844457,0.007851244,0.014144056,0.047952186,-0.07489658,-0.01988977,-0.02178426,-0.023138158,-0.021615865,0.037600994,-0.021243868,-0.029739114,-0.042573653,0.028203247,0.024900785,-0.011965915,0.08337113,-6.675497e-33,-0.004284864,-0.019962234,0.028150842,0.06323462,-0.02707991,0.0048867133,-0.02085348,-0.020907875,-0.011275335,-0.012690226,-0.04721218,-0.0046103974,0.03695717,0.041766886,0.031178012,-0.030076351,0.011250227,-0.007890266,0.014976006,0.0057531893,0.012693109,0.013029097,0.02584183,-0.0045648725,0.049591776,-0.024446027,-0.02879941,-0.0003672003,0.017463647,-0.018713137,0.0065259608,-0.023419712,-0.009753181,0.04617965,0.001774136,0.13927591,-0.007007681,-0.022340083,0.0050623077,0.017484378,-0.12406287,0.013464867,-0.02831119,0.026445147,0.02793252,-0.004255093,-0.01851173,0.006520976,-0.026712922,0.023056258,0.025751278,-0.026002862,-0.044685446,-0.051395398,-0.0046466305,0.09452077,-0.045957185,-0.040706437,0.04411754,-0.02020918,0.039512664,0.0022511375,-0.05203431,0.030840341,-0.0028660102,-0.01913478,0.02234367,0.0045253406,0.010496999,0.014613351,0.0074044256,0.04916161,-0.00035311992,-0.0053068073,-0.023279492,0.039524443,-0.005231759,0.03723206,0.14920554,0.032148767,-0.0020496224,0.02640192,0.03553482,-0.020957708,-0.04130074,-0.052458245,0.018226177,-0.031116636,0.011403545,-0.040048577,-0.000347168,-0.004380106,-0.0033626594,-0.020173512,-0.03970814,-0.09003812,0.0142457485,-0.0035072784,-0.014983393,0.050361194,-0.047674138,0.01811447,0.032225296,0.02320775,0.00865392,0.012063094,-0.046360124,-0.012916557,-0.034163557,0.012525125,-0.01194116,0.038824398,0.013098014,0.050927263,-0.009510281,0.006734996,-0.0077129835,-0.055047445,-0.001905678,-0.053736057,0.025421362,0.06856535,0.0010562591,0.03603999,-0.05166424,0.033598613,0.006451148,0.020357605,0.038581394,0.0089878775,0.0030176337,0.005746386,2.2377704e-07,-0.016463768,0.0029277673,0.07023506,0.02675101,-0.0065776166,-0.03301349,-0.020631747,0.03549045,-0.0012158118,-0.057660032,0.07544305,-0.028204195,-0.018587418,-0.04469101,-0.068817906,0.008807837,-0.015319999,-0.050158747,0.021643192,-0.014490968,0.06583873,-0.039289206,-0.016828028,-0.0008304773,0.0050253486,-0.015675679,0.01281736,-0.060311534,0.032962833,-0.02976941,-0.0069453614,-0.009328447,0.009327379,0.10299297,-0.006582726,0.011660627,0.01617192,0.062020596,-0.01073713,0.01086019,-0.028760113,-0.0039924537,-0.01268809,-0.02383241,0.004080695,0.01998524,-0.010577923,0.05171683,0.0057725767,-0.014141543,0.008863007,0.024442274,-0.029309241,0.0704192,0.018337935,-0.0018157137,-0.030805513,0.022129612,0.039993312,-0.035168096,-0.009754084,0.02657751,0.025266213,-0.03252408,-0.023370365,-0.0068340674,-0.027191265,1.2249943e-34,-0.020901687,0.011535023,-0.014233714,-0.035719614,0.017675852,0.0069896616,0.021316156,-0.011016275,-0.012463545,-0.039843246,-0.029295258
rsq010,0.044886567,0.0069933604,0.0048385984,0.009303325,-0.05209695,0.012361178,0.012637131,0.0010138591,0.014278474,0.012276465,0.05624419,-0.046029814,0.0036405374,-0.02939116,0.018493861,-0.060207445,-0.045650113,0.03762708,0.023679944,0.03529178,0.02800149,0.04223708,-0.025315484,0.03457834,-0.047800455,-0.030760676,0.011754371,0.062258046,-0.002369288,-0.0015954898,0.022668228,-0.0015835111,-0.016733069,0.0026240943,1.93178e-06,0.021326236,0.004147723,-0.009906156,-0.03620604,-0.05305078,-0.063641936,-0.07906909,-0.014170755,0.03334539,-0.016476743,-0.031141995,0.034305885,0.034943268,-0.0015960867,0.012893473,0.0064113406,0.08307842,-0.024719624,-0.01276451,0.034229517,-0.020640852,0.012995828,-0.009748021,0.06091833,-0.04159535,0.020750035,0.04621682,-0.032901783,-0.035629656,-0.0062094894,0.011609304,0.021715201,0.017994508,0.03291609,0.02225603,-0.038444046,0.04704998,0.050053768,0.052384682,-0.04150521,0.08658605,-0.015869617,0.027495906,-0.048241857,-0.027406856,0.012829045,-0.008188806,-0.0022625683,0.052069012,0.0142467925,-0.00054331415,-0.05123088,0.021738445,-0.0055492776,0.011081023,-0.05623279,-0.049340613,0.07367503,0.013856808,-0.020115247,-0.01648163,0.0036236907,-0.075668454,-0.08920694,-0.044660725,0.011497664,0.060656086,-0.028454056,0.050522022,0.014708813,-0.09631222,0.03200451,-0.010872409,-0.036867008,0.08587682,-0.011848338,0.034248557,-0.018617306,-0.034616806,0.017162912,0.017730923,-0.008841445,0.023152059,0.032264754,0.012088927,-0.03472797,0.0030071426,0.004104967,-0.029237691,1.5980671e-05,0.004816317,-0.019408297,0.04644538,0.00866323,-0.033778757,-0.0067729168,-0.014862098,-0.002744965,-0.03638694,0.02283052,0.03245059,-0.00930227,-0.011205192,-0.08447912,-0.0034396239,0.024332399,-0.011184338,-0.059088726,0.0002856076,-0.008868952,-0.0121064875,0.039665766,-0.031495143,0.005690132,-0.03679242,-0.024682323,0.036588762,-0.007364671,0.014007907,0.053073373,0.02026496,-0.0060465927,-0.03918433,-0.029773336,-0.039616387,0.021454157,-0.0657703,-0.03834731,-0.030992268,-0.04416921,0.03155961,0.090953186,-0.00095669046,-0.045448042,0.010938287,0.024315301,-0.04242359,0.021721913,0.08299282,0.0449892,0.06838216,0.02288614,-0.012565903,-0.0423908,0.05822632,-0.023797099,-0.052272316,-0.013927743,0.01894246,-0.024625512,-0.0068186517,-0.022568893,0.031618025,-0.05465071,-0.011404743,0.016255755,0.027371295,-0.062286932,0.015198594,0.034872115,-0.02967367,0.0048381095,-0.08421758,-0.022812234,0.03885703,0.008796611,-0.005941349,0.008388516,0.064649455,-0.012972309,-0.013477243,0.009610653,-0.04570965,0.05230522,-0.057456475,-0.074958906,0.05290745,-0.014051707,-0.014164792,-0.06821239,0.07556136,-0.016162818,0.014655112,-0.008698252,0.03840105,-0.050421994,0.05838008,0.016606582,0.008239915,0.017711505,-0.0036375164,0.034677602,0.032993432,-0.013170192,0.010483178,0.0028172617,0.012033578,0.057278458,-0.03002767,-0.036309846,0.0125807235,0.054581232,-0.0032724692,-0.019727996,-0.083825864,-0.024723124,-0.003400819,0.0085197985,-0.024454748,0.027911898,-0.014267775,-0.04909288,0.0012916768,-0.0007827959,-0.0049710735,-0.05182711,0.027047401,0.025546042,0.01327434,0.021161385,-0.0655903,0.018294571,0.021299632,-0.06448435,-0.026578551,-0.06260848,-0.03713256,0.02701986,-0.017266424,0.05824445,0.04507405,-0.020901022,-0.023614189,-0.008553672,-0.019064598,-0.0044881925,-0.0018433545,0.026894601,-0.053787805,0.0005557846,0.04861642,-0.005721526,0.011028173,-0.04473426,0.008034815,0.05747467,0.0065174536,0.011868296,0.0008638156,0.003988692,-0.010949525,0.0052690366,-0.08810546,-0.02019384,-0.016167782,0.018800354,0.030538116,0.007828333,-0.0028394216,0.007713884,-0.022645827,0.05359637,-0.03570623,0.019846706,0.013763538,-0.023450095,0.016703203,0.034706946,0.013584486,-0.02045299,0.00025433538,0.039951928,-0.06204724,-0.029026259,-0.00067825237,0.05198314,0.032167096,0.011614167,-0.051117327,0.040375333,-0.022229236,-0.08329381,0.0070613795,0.01772928,0.0036297229,-0.0034120115,0.002078458,0.003197459,0.044375014,0.025695616,0.08457781,-0.031226428,0.0010485696,0.03677203,-0.057251602,0.012726158,0.0023264047,0.0013580265,0.033423156,-0.0023835418,-0.045871925,-0.025277779,-0.04346116,-0.09093747,0.024187466,0.010033338,-0.043454234,0.0035225353,-0.04590219,-0.06886213,-0.07961328,0.0022706736,0.032706294,-0.05837987,-0.025423845,0.04348098,0.059775002,-0.003030156,-0.03815452,-0.012864716,0.020988954,-0.014722399,0.0029367055,0.013708972,-0.047168434,0.022989744,0.06379792,0.004825819,-0.026885081,0.01048747,0.04823358,0.061419245,0.038497888,-0.039087333,-0.007061775,0.01732637,0.024642013,-0.028060455,0.029940283,0.018015025,-0.03287204,0.018194837,-0.124705024,-0.0051330584,-0.017144572,0.044072613,-0.021816697,-0.017532999,-0.037057463,-0.024403602,-0.011075184,0.009787724,-0.058564708,-0.006712087,0.0683271,0.010781963,-0.02116442,-0.030245287,0.00467023,0.027932685,0.030975249,0.013919458,0.018075686,0.010330538,0.028151527,0.0526881,0.07609177,-0.014028811,-0.007127562,0.008926969,0.0069986843,-0.055835146,0.012869406,-0.013310944,0.03164732,-0.008468554,0.022612201,0.022828974,-0.0014058647,0.026634414,-0.053892724,-0.052908495,-0.06021661,0.028491532,-0.10222825,0.04139492,0.00851215,0.009159888,-0.019294033,0.07834096,0.015031818,-0.0031714588,0.0020581295,-0.026829697,-0.030699773,-0.032425746,0.028276239,-0.03775007,0.004640354,-0.01782621,-0.07413357,-0.03325356,-0.01951001,0.0047130687,0.01573923,0.036084495,0.07609204,0.06495086,-0.010415646,-0.018874025,-0.0022480711,0.041849967,0.0029099712,0.07321844,0.041026305,0.06458706,-0.04948683,-0.025506321,-0.013341877,0.008981605,-0.009259598,0.0032423984,0.0056854957,0.024016546,-0.005830797,0.02047684,0.03312459,-0.054897588,0.013505605,-0.02760312,-0.09144779,-0.003885566,-0.07472758,-0.03204841,-0.050477363,-0.075515345,0.017238861,-0.0142566785,0.006638995,0.05782968,0.010350946,-0.01823953,-0.115261085,0.004104778,-0.0017338769,-0.002187994,0.042665694,-0.015175105,-0.014757698,0.02012774,0.01569834,0.051708497,-0.0110603655,-0.023538455,0.059784118,0.019774863,0.002690948,0.0015248727,0.0016049058,0.013160763,-0.025303766,-0.0027804854,-0.034303207,-0.019712025,-0.029279724,-0.022726985,0.037800144,0.043022726,0.012362967,-0.015494411,0.0237885,0.0038810978,0.020083947,0.0088759195,-0.007579271,0.086432084,0.009054337,-0.076991074,-0.17697778,0.05450838,0.007080226,-0.004435224,-0.020518346,-0.005741805,0.027509283,0.005454504,-0.005593989,0.006993649,-0.0064478028,-0.0004920618,-0.02559581,0.030604579,0.008365184,-0.054275252,0.04794231,-0.06109504,0.050676346,0.01798298,0.0019414297,-0.05599799,0.014855484,-0.020995762,0.031444695,-0.0053601475,0.012364559,0.008155908,0.031461753,-0.033237554,-0.00011041359,-0.05253377,0.03098121,-0.0042402213,0.010296805,-0.0450595,-0.02646557,-0.030620124,0.050594557,-0.04556441,0.010110716,0.042883858,-7.646163e-33,0.03750564,-0.059670214,-0.00675099,0.018872844,-0.021237405,-0.006353717,0.01883631,0.03392403,-0.033501763,0.01001129,-0.014802916,0.050974216,0.04900218,0.029914184,0.041754764,-0.0056519094,-0.0018749294,0.029027794,-0.0009017641,-0.049934097,0.021121666,0.044675887,0.010687285,-0.02256264,0.02714394,-0.0014227951,-0.04315498,0.03328561,0.046338692,-0.028885309,-0.0062494813,0.0068949685,0.00025767292,0.039092064,-0.0120282415,0.095531315,-0.03431002,-0.011955682,-0.018497668,0.05216001,-0.05509733,0.011443141,-0.020282123,0.03818376,0.030305892,-0.035242014,0.0061526676,-0.0052534305,0.017270418,0.03359254,0.052398846,0.0038151315,-0.042494256,-0.09048673,-0.022143623,0.053589106,0.009775611,0.012380115,0.035773665,-0.0019533671,-0.03028663,0.03734278,-0.04230831,0.007222626,-0.03258573,0.006927108,-0.05595079,-0.042363904,-0.07908007,-0.042653535,-0.032318372,0.0083061475,0.035515644,0.032575365,0.020440198,-0.0019439064,-0.035117,0.041690733,0.10145734,0.026235443,0.00922207,0.0012443098,-0.0016051357,0.003937092,-0.018498821,-0.06843648,-0.0021237067,0.031876594,0.0116677135,0.007496128,-0.036693893,0.01679316,-0.03235036,0.013503198,0.03688328,-0.0761043,0.029840278,0.03370624,0.004728391,-0.04241296,-0.0056310915,-0.0034698108,-0.025232853,0.006330298,0.012276785,0.006583746,-0.044143744,0.03244903,-0.048772443,-0.013257346,-0.006345288,0.06425902,0.02491976,0.022242444,0.021417888,-0.049264535,0.008350389,0.0031069627,-0.008904203,0.0020106046,-0.00012427587,0.037406422,-0.094756745,0.05644149,-0.009682783,0.01213918,0.013613592,0.017181491,0.013312297,-0.06258082,0.0059721475,-0.039781462,2.505994e-07,0.0019842105,0.007861386,0.04688221,0.019711358,-0.023669748,0.0030704448,-0.048286352,0.053994738,-0.021185055,-0.07493948,0.036112495,-0.011965769,0.024081139,-0.01618705,-0.016493116,0.010997108,-0.006391022,-0.046233006,0.011844844,-0.021109132,0.041963603,-0.0024514985,0.034700934,-0.034351595,-0.023930833,-0.063689485,0.034969524,-0.050537687,0.055483922,-0.04601673,-0.034156393,0.006548864,-0.015988568,0.01600325,-0.0065946104,-0.01107904,0.04277832,0.10078101,0.005776545,0.033164892,-0.023805158,0.019065127,-0.040311273,0.051186487,0.0103456285,-0.0405425,0.0039793085,0.07117054,0.0075438037,-0.0008376024,-0.022707535,0.018879438,0.024467887,0.034605116,0.02351761,0.017265199,-0.0037082622,-0.016384514,0.011807577,0.006174007,-0.0337669,0.055664536,0.010225234,0.02148042,-0.00037208758,0.0004999742,-0.031218927,7.332347e-35,0.019879125,0.038450208,0.008600496,0.007167966,-0.0085817175,-0.0052037444,-0.03167104,-0.0047102277,0.009186083,0.0061722784,-0.03340265
