question_id,0,1,2,3,4,5,6,7,8,9,10,11,12,13,14,15,16,17,18,19,20,21,22,23,24,25,26,27,28,29,30,31,32,33,34,35,36,37,38,39,40,41,42,43,44,45,46,47,48,49,50,51,52,53,54,55,56,57,58,59,60,61,62,63,64,65,66,67,68,69,70,71,72,73,74,75,76,77,78,79,80,81,82,83,84,85,86,87,88,89,90,91,92,93,94,95,96,97,98,99,100,101,102,103,104,105,106,107,108,109,110,111,112,113,114,115,116,117,118,119,120,121,122,123,124,125,126,127,128,129,130,131,132,133,134,135,136,137,138,139,140,141,142,143,144,145,146,147,148,149,150,151,152,153,154,155,156,157,158,159,160,161,162,163,164,165,166,167,168,169,170,171,172,173,174,175,176,177,178,179,180,181,182,183,184,185,186,187,188,189,190,191,192,193,194,195,196,197,198,199,200,201,202,203,204,205,206,207,208,209,210,211,212,213,214,215,216,217,218,219,220,221,222,223,224,225,226,227,228,229,230,231,232,233,234,235,236,237,238,239,240,241,242,243,244,245,246,247,248,249,250,251,252,253,254,255,256,257,258,259,260,261,262,263,264,265,266,267,268,269,270,271,272,273,274,275,276,277,278,279,280,281,282,283,284,285,286,287,288,289,290,291,292,293,294,295,296,297,298,299,300,301,302,303,304,305,306,307,308,309,310,311,312,313,314,315,316,317,318,319,320,321,322,323,324,325,326,327,328,329,330,331,332,333,334,335,336,337,338,339,340,341,342,343,344,345,346,347,348,349,350,351,352,353,354,355,356,357,358,359,360,361,362,363,364,365,366,367,368,369,370,371,372,373,374,375,376,377,378,379,380,381,382,383,384,385,386,387,388,389,390,391,392,393,394,395,396,397,398,399,400,401,402,403,404,405,406,407,408,409,410,411,412,413,414,415,416,417,418,419,420,421,422,423,424,425,426,427,428,429,430,431,432,433,434,435,436,437,438,439,440,441,442,443,444,445,446,447,448,449,450,451,452,453,454,455,456,457,458,459,460,461,462,463,464,465,466,467,468,469,470,471,472,473,474,475,476,477,478,479,480,481,482,483,484,485,486,487,488,489,490,491,492,493,494,495,496,497,498,499,500,501,502,503,504,505,506,507,508,509,510,511,512,513,514,515,516,517,518,519,520,521,522,523,524,525,526,527,528,529,530,531,532,533,534,535,536,537,538,539,540,541,542,543,544,545,546,547,548,549,550,551,552,553,554,555,556,557,558,559,560,561,562,563,564,565,566,567,568,569,570,571,572,573,574,575,576,577,578,579,580,581,582,583,584,585,586,587,588,589,590,591,592,593,594,595,596,597,598,599,600,601,602,603,604,605,606,607,608,609,610,611,612,613,614,615,616,617,618,619,620,621,622,623,624,625,626,627,628,629,630,631,632,633,634,635,636,637,638,639,640,641,642,643,644,645,646,647,648,649,650,651,652,653,654,655,656,657,658,659,660,661,662,663,664,665,666,667,668,669,670,671,672,673,674,675,676,677,678,679,680,681,682,683,684,685,686,687,688,689,690,691,692,693,694,695,696,697,698,699,700,701,702,703,704,705,706,707,708,709,710,711,712,713,714,715,716,717,718,719,720,721,722,723,724,725,726,727,728,729,730,731,732,733,734,735,736,737,738,739,740,741,742,743,744,745,746,747,748,749,750,751,752,753,754,755,756,757,758,759,760,761,762,763,764,765,766,767,768,769,770,771,772,773,774,775,776,777,778,779,780,781,782,783,784,785,786,787,788,789,790,791,792,793,794,795,796,797,798,799,800,801,802,803,804,805,806,807,808,809,810,811,812,813,814,815,816,817,818,819,820,821,822,823,824,825,826,827,828,829,830,831,832,833,834,835,836,837,838,839,840,841,842,843,844,845,846,847,848,849,850,851,852,853,854,855,856,857,858,859,860,861,862,863,864,865,866,867,868,869,870,871,872,873,874,875,876,877,878,879,880,881,882,883,884,885,886,887,888,889,890,891,892,893,894,895,896,897,898,899,900,901,902,903,904,905,906,907,908,909,910,911,912,913,914,915,916,917,918,919,920,921,922,923,924,925,926,927,928,929,930,931,932,933,934,935,936,937,938,939,940,941,942,943,944,945,946,947,948,949,950,951,952,953,954,955,956,957,958,959,960,961,962,963,964,965,966,967,968,969,970,971,972,973,974,975,976,977,978,979,980,981,982,983,984,985,986,987,988,989,990,991,992,993,994,995,996,997,998,999,1000,1001,1002,1003,1004,1005,1006,1007,1008,1009,1010,1011,1012,1013,1014,1015,1016,1017,1018,1019,1020,1021,1022,1023
rsq001,-0.4249739,0.11375066,-0.3650497,-0.2586085,0.7084383,0.123731956,-0.61467427,-0.18440002,0.28208488,0.9479636,-0.3769055,1.3865969,0.5430615,0.8350533,0.01676919,-1.3624988,-1.3462721,0.19052947,-0.5509561,-1.2563617,-0.2204265,0.53040034,-0.39160034,-0.8398961,0.8981477,-0.69516635,-0.6591299,-0.19303077,0.19022341,-0.663255,-0.34488016,1.1291668,0.687384,-0.12752946,0.83095694,0.31966245,-0.8348826,1.6048994,1.1412323,1.4440143,-0.005833747,-1.4610262,1.3389523,0.4928445,-0.20449623,1.1685114,0.06081716,1.1523902,1.0115695,-0.45807406,-1.350526,-0.08052641,0.7279344,-0.29024053,0.4205321,-0.38077086,0.6841335,0.34182665,-1.2218938,-0.9117191,-1.7042754,1.3683635,0.8449745,-0.516127,0.4338928,-0.56186473,-1.3209239,0.24805106,-0.5441766,0.105334654,-0.4298067,1.3756907,1.0176536,-0.65920615,0.5900165,-0.95607346,-0.21726747,-0.18386644,-0.3392552,-0.5288976,0.57152855,0.8448987,0.5179623,0.241537,-0.3537708,-0.67388535,-0.09848861,-2.086483,-1.1612896,-0.7091981,1.8736539,0.79657394,-0.53601724,-0.0821997,0.7413428,-0.06662437,-0.25278395,-0.9514277,0.6789659,-0.82731235,0.37253696,-0.34545815,0.61452806,-0.15584905,-0.40699512,-0.68950206,-1.7028905,-1.0232372,0.49387607,-0.5719128,0.46882915,-0.6596126,1.5312089,0.58567786,0.4991746,0.13707876,-0.92445767,-1.2312226,2.0879593,0.11754643,0.6498235,-0.3559361,0.20261511,-1.5366305,0.89464307,0.58171993,1.1166637,-0.016222155,0.87866795,-0.30822444,-0.656308,-1.038671,1.3014321,0.53384644,-0.0896853,-0.9456342,2.0029564,0.48409152,-0.5575298,-0.7731173,-0.15019652,-0.7898518,0.021707991,2.6242063,-0.52445227,-0.7557692,0.8938096,-0.084473565,0.4319269,-0.54227334,-0.6052512,-0.91288,-2.0056677,-0.48871088,-1.0542191,-0.78003204,1.2228379,0.36441773,-0.6840893,-0.15353088,-0.5628698,0.06379582,-0.60786957,1.5522429,-0.42082444,0.20126712,1.1839916,-0.43213013,1.00452,1.0476408,0.18124738,1.4717054,-1.3268522,-1.195583,0.4198075,-1.1120949,0.036781874,0.7226502,0.039458014,0.29321253,0.8207372,-0.523809,-0.40382972,0.65329593,-1.8019502,0.22026414,2.2795553,-0.7356173,-0.0295092,-0.86225927,-0.32812726,-0.8933409,0.8750337,0.35793924,-0.97636914,1.0048714,-0.38282228,-1.0328116,0.093821414,-0.41186517,-0.7711209,0.42607522,-0.20189692,0.33705568,-0.16695476,0.09356937,-0.64993405,-0.72400683,-0.17966498,-0.045445226,1.1043868,0.00097229984,-0.2776649,1.3617882,0.06459418,0.6250816,-0.8991559,-0.22065398,0.65759504,0.6027736,0.15398222,0.4436983,0.5569422,-0.2566925,-0.04701806,1.154676,-1.0092877,-0.085150875,0.29582548,0.73934954,0.7569301,-0.9477782,-1.115914,-2.2922003,-1.2935447,-0.61449176,0.62392616,0.5730239,-0.7667233,0.3087944,0.3785448,0.77935135,-1.937107,-1.5277283,0.1475973,1.2998204,-1.9337082,0.07122707,0.13167351,0.13413133,0.3459599,0.95619684,-0.21640314,0.09165574,1.103279,0.10580629,-0.200288,-0.053876836,-0.69128036,-1.4945776,0.85948217,1.3675437,-0.52609384,0.35086012,1.2694199,1.798481,-0.938293,-0.90257144,-1.5010107,0.7525681,1.157744,-0.7541188,-0.88733274,0.11011717,-0.9954874,-0.27260354,0.36192256,0.11043751,0.27165473,-0.8634247,1.2917724,0.65976954,-1.9499199,-0.51095575,-1.2202975,-0.32654172,-0.26434365,1.7735345,-1.3980598,1.0485958,-0.45481914,-0.36213702,0.7048105,-0.5227478,-0.69821477,0.3949237,-1.401989,0.3393239,1.6445024,0.34506184,0.660968,0.051442813,-1.5507909,-0.7151259,-0.037921365,0.37076703,0.79692173,0.7959993,-0.94756067,1.0195346,-0.99929905,0.39969844,0.37391976,0.29767746,0.4469175,-1.2515631,-0.5795674,1.8774055,-0.45461503,-0.59374195,0.014733203,1.0829904,1.9154298,1.3398612,-1.1487997,0.41213003,0.31314588,0.99742377,-1.1437159,-0.074026,1.0973366,-1.3635132,0.27695093,-1.1805336,1.3614353,-0.7183704,-0.48001522,-2.1008666,-0.647354,-1.4966931,0.44889694,1.1330072,0.09696482,0.9010354,-0.5475557,-0.921213,0.24582644,-0.8522741,0.7472864,-1.1180147,0.9048333,0.3741696,0.26981753,0.44015324,-1.1270051,-1.6121848,-1.43509,-1.3364966,0.41311383,-1.5263438,-1.0359848,-0.08026911,-0.97361255,-0.01091408,0.060456425,-0.050026245,-2.0305312,-2.2567463,-0.7178113,0.4304388,0.36689606,-0.13160096,-1.2769573,-0.7426854,-0.5514108,1.0450672,0.045294397,-0.08987489,-0.96726644,0.9991948,-1.0129845,-0.5620932,-1.0784192,-0.40491393,-0.93389606,3.4752574,-1.5859218,-1.0306823,-1.3642726,-0.2855561,-0.7467614,-0.91741604,0.72835875,1.5942525,-0.87060213,0.17084904,0.643533,-0.37803897,-1.995702,-0.98153245,2.30545,0.8607656,1.2949545,0.829591,0.27341697,-0.9329069,-0.67674905,0.09613208,-1.1377256,0.21281189,-0.047290538,0.16516294,-0.38583666,-0.45597565,0.3857879,0.3644725,0.6937545,0.4224856,0.050423853,0.37748426,-0.10609141,0.91619337,-1.0816529,-1.2564485,1.6617692,-0.86791486,1.0644095,1.6868653,-0.18412352,0.35485753,-1.2281888,0.26931715,0.09566031,-0.70096743,-1.987596,0.19346848,0.14028236,-0.1406979,-0.2302835,0.0321067,-0.06251603,0.3487188,1.1779255,-0.103421636,0.5561421,-0.89529806,0.22553834,-0.6660501,-0.5686263,0.9165189,1.7469745,0.058633476,-1.0620582,0.035721302,-0.38915974,0.83561444,-0.5489156,0.40025944,-0.19774553,-0.83683246,0.20280494,-1.4911447,-0.23926853,0.11148624,0.77110934,-0.47253203,-0.3273579,-0.7919431,2.7196805,-0.13927299,-1.0880544,-0.45742908,0.27273458,0.3613853,-0.32524517,-1.3253137,1.706048,0.12328088,0.83953834,-0.2087672,0.64604,0.57276785,1.1014702,-0.741443,0.7849772,0.9309205,-0.27993134,1.6954118,1.441136,-0.34274304,0.39346305,-0.17653437,-0.82238704,0.5524156,1.2068043,-0.29069796,-0.08830972,-1.3114853,1.2594116,0.43479162,0.2966624,-0.34626496,-0.5746856,1.0166763,-0.33449376,0.26182145,-0.49067333,0.13463885,-1.222919,0.021066356,-1.2227014,2.2305317,0.023341905,-0.025635859,-1.2710145,-0.10788597,0.7536452,-0.444505,-0.8708252,0.5001763,0.6716612,-0.23994905,0.72737026,-1.5935314,0.6750642,-0.52782845,-0.5488653,-0.50574833,-1.4621593,1.8062705,-0.63316834,-1.2449971,-0.5950891,-0.1739718,0.09645966,-0.9334709,0.3192187,0.668455,-0.544911,0.10820904,-0.555913,1.3123662,-1.448358,0.000661999,0.3167406,1.3319609,-0.18702772,0.047579072,0.7699975,-0.5869336,1.0297221,0.6690662,0.05507074,0.6028244,0.09819434,0.1401823,-0.12667312,0.28754357,2.3155797,0.2915126,-0.33238527,0.6981308,-0.91505355,-1.6164536,-0.74213314,-0.21162763,0.2065399,0.09138441,0.637237,0.63810456,-1.038014,-0.27815604,0.46123075,-0.020380765,-0.5480898,-0.25447357,0.26291406,-0.6724586,0.8438647,-0.37109542,-2.4553807,0.2879619,0.46169233,1.0517949,0.44323164,-0.44207,-0.2827719,-0.95783675,0.09089839,-0.4053123,-1.0731307,1.8666677,0.52675927,0.8705266,-0.32625157,0.9023625,-0.62973535,0.3031332,0.056878485,0.4667198,0.21726787,1.2072312,-0.07870187,-0.8994021,0.8164823,-0.20910862,1.5979662,0.9771354,-1.6350455,2.0124953,-0.5913705,0.2751113,-2.3037057,-0.7247378,-0.7903905,-0.53526986,-0.10090673,0.047875315,0.77990425,0.3973417,1.2269721,0.30527413,-0.92292,0.32225809,-0.6615643,0.42124644,-0.20875669,-0.14504968,0.46573403,0.31403545,0.2602741,2.0825338,-0.9073581,0.40652153,0.1722739,-1.0979613,0.6168094,-1.4507799,2.7465518,0.06827495,-0.39955804,0.11059074,-0.22287235,0.34726453,0.20867792,-1.3233691,1.7063552,0.48691654,-2.193367,-0.63703084,0.06754047,0.71863645,-1.4750366,-1.440176,-0.6672823,-0.95477253,0.69976306,-0.033136696,0.057349898,1.7138329,-0.6652111,1.2513384,0.6410501,-1.5187435,-1.0126848,-0.36312002,-0.2159738,0.22596303,0.6249582,0.3453377,0.34910008,-0.36109456,-1.0754459,-0.05493985,0.71498156,-0.14772835,-0.08727449,0.74769235,-0.745628,0.19337794,-0.5376063,0.70434195,1.1040878,-1.0420835,-0.7289411,-0.66668767,0.17348957,-1.2946386,-0.6496312,0.61443985,-2.3677802,-0.023612425,1.1188046,0.4435283,-1.0011429,-0.75239825,-1.3595754,1.1507256,-0.28880334,1.1846559,0.70088995,-0.23774652,-1.4750793,-0.5610425,0.7277447,1.5544357,0.4088323,0.5240025,-0.22124809,-0.75803787,-0.50147796,1.6659603,-0.45788956,-0.067862004,-0.80692655,0.111722454,1.2518272,1.4116687,-0.32145813,0.30214444,0.18622923,-0.5472608,-0.25629658,1.4204063,-0.054129496,0.17128907,0.7489686,0.3172739,-0.34387076,-0.5654748,2.2661743,-1.357966,-2.349044,0.49580705,1.1092508,0.8789523,0.837392,-0.991411,0.075336844,0.38124007,0.6164495,-0.51507425,-0.8545586,1.7687593,-1.2982264,-0.8845675,-1.4819429,-0.66820157,-0.6244863,0.15476574,0.69962394,0.85844815,0.42782092,-0.3230803,-0.491856,1.0094465,-0.46869984,-0.3439398,-0.15273906,-0.62547374,-0.454046,1.4250315,0.42266062,-1.1689274,-1.8654993,-0.47298667,-1.768589,-1.0267189,-0.97683215,-0.8804775,1.5861993,-1.458941,-0.47299406,0.012146676,0.2816558,0.3061585,-0.1672248,-0.02468573,0.8938396,-0.41209096,-0.25690642,-0.33447006,0.12072617,1.1075946,-0.31201655,-0.0011991188,-0.36813468,-1.3245076,-0.3161761,0.570366,-0.570071,-1.3311942,0.019738063,0.75197923,-0.20562705,-0.41169265,0.6251271,-1.2147359,0.22248769,0.788936,0.036190882,-1.0617725,0.4124375,-0.63665664,-0.112348035,-1.2648467,1.4534532,0.86928207,-0.31274915,0.14707811,0.58355725,-0.7433756,0.0031061769,0.46013206,2.4327528,0.06383249,0.010456013,-1.1468601,0.7328278,-0.1259541,1.6024078,0.5579534,0.12634392,-0.041260548,-0.010161275,0.38905567,-0.48718226,-0.24662197,-1.5300851,-1.1641737,-0.62236875,0.6695046,0.26602584,-0.064692385,-0.08059856,-1.176547,-2.5074458,-1.0901648,0.5545982,-0.91130614,1.0601872,-1.1555233,0.623939,-0.61278456,0.16896255,1.632774,-2.5507874,0.9427586,0.02177715,0.13918428,0.7164799,0.05025256,-0.92798,-0.35961932,-1.7856947,0.6484828,-0.084993616,0.43479395,-0.4941327,0.13449651,-0.41108602,-1.0366751,-1.739178,1.2479908,-0.2072148,-2.441094,1.3541086,1.1061938,0.12740546,-0.633127,-0.3091607,-0.09358111,1.145196,-0.45483163,-0.032688018,-0.20336156,-0.7073754,0.31588557,-0.30121434,-1.8168869,0.39861244,0.5855804,-0.24420363,3.399887,-0.21925947,1.2210125,0.92119944,-0.87562406,0.009608312,0.7301915,0.17617635,1.9077995,0.25532928,0.9009273,-1.6575223,0.5819445,0.2967096,-0.43893853,-0.14036925,0.3574633,0.13166831,-0.5929338,-0.13987407,-0.79232216,0.88942736,-0.02725844,-0.31745473,0.70212805,0.15692943,1.3705366,0.414555,0.18092991,0.48396683,0.06756157,0.9305147,-0.66167986,-1.0326151,0.30465847,-0.18989226,0.58533037,-0.6248903,-0.2436138,-0.16328005,1.0810015,-0.5237587,-0.16285342,1.8128537,-0.23600477,-0.41752875,1.3359852,1.0371133,-0.356945,0.24344501,0.5960969,-0.29095817,-1.6036968,-1.1455148,-0.40991765,-0.29210377,1.158706,-0.34896955,1.2277615,1.6928617,-1.6549835,0.12654234,-0.07674077,-2.4367118,-1.0483593,0.7539997,-0.72042537,-0.08042448,0.46416444,0.6550047,-0.52440023,1.0151494,1.1150541,-0.13663992,0.76910543,-0.6025842,0.09678606,0.4506784,0.30646074,0.31802195,0.65776324,-0.66047823,-0.49952403,0.17995572,0.6399417,-0.6970285,-0.39089793,1.8449097,-1.0038549,-0.81940615,-0.7049834,0.054761603,0.19386175,0.71155137,0.8144617,0.35209718,0.96246845,-1.3542272,0.10326016,0.5737274,-0.20787938,-0.7494925,-0.55945355,-1.4706569,0.497177,0.9415331,1.2770573,-1.2633073,-1.3026261,1.2100837,-0.2577614,1.0146314,-0.36006063,-0.93310446,0.50554216,0.55546033,-0.4204439,-0.55631137,-0.47180873,-0.20783103,0.03816688,1.2300626,0.46096575,-1.2150689,0.023825577,-0.32200283,-0.8919299,0.950353,-1.097327,0.16808008,1.0422307,-1.2978915,0.25877556,0.42385218,-1.7713886,-0.50570506,1.3651657,-0.8190844,0.57577306,-2.6816149,0.42396152
rsq002,1.4093897,-0.07172922,0.19761129,-0.29028302,0.5491899,0.4619426,0.8309148,0.13598059,0.12796743,0.10354157,-1.288329,0.03331567,-1.1190696,0.3270976,0.5053553,-1.0328704,-0.6906227,0.4546396,-0.121341705,-0.8950382,-0.2569441,-0.14846683,0.45646566,-0.104303606,0.13646163,-1.3632803,-0.1875594,1.025273,0.24172387,-1.3032936,-0.022599028,0.083058015,0.16024344,-0.2956303,0.51686,0.27507648,-0.48767295,0.893556,0.077112414,0.56754965,0.88988096,-0.44546846,-0.40516853,-1.1720121,-0.15339425,0.8093485,0.07308425,1.4117535,1.0422302,0.6773153,-1.6144868,-0.051182218,0.020830354,-0.6786447,1.7524151,0.79820883,0.7181606,0.40085855,-0.5351408,-0.39334464,-0.53845423,0.48896337,-0.29368266,-0.17053199,-0.32845592,-1.2200649,-1.7263448,1.2280943,-0.516881,-1.1194249,-0.40726057,0.6154582,0.31585187,0.12664838,0.15931098,-1.3029402,0.23021664,0.9850022,-0.3461694,0.12173859,-0.5237765,-0.54130745,-0.5427365,0.29158694,-1.3763742,-0.7267509,-0.12628067,-1.0864941,-0.23164879,0.31124762,1.90725,0.24950166,-0.13334386,-0.23254506,0.8711825,-1.0378175,-0.72133076,0.7096191,0.818998,0.92649454,-0.4506033,0.26516607,0.1967334,-0.8806339,-0.27180645,-0.5453182,-2.5760503,-1.507698,1.1511327,1.43421,0.9593858,0.3487428,1.5011204,-0.5127825,1.6690787,1.9931676,1.5376676,-0.3308296,0.27420482,-0.16976501,-0.8417562,-0.5073394,0.5251147,-0.6813183,0.3259485,-0.5234218,-0.32284385,-0.42814812,0.96681625,-0.71930164,-1.0678108,-1.0984858,-0.88984066,0.6194905,0.36727962,0.0738019,2.162624,1.1386346,-1.8095458,-1.8712778,-1.0546253,-0.73500115,0.49826005,2.0131478,0.1588736,-0.953348,1.0252901,-0.51786083,-0.91903836,-1.0372857,1.2688881,1.2705593,-0.6609956,0.19331685,-0.6534344,-0.7135282,-0.506159,0.6500683,-0.379898,-0.9179106,-0.15599264,0.29840726,1.489345,0.75699383,-0.41047725,-1.5887911,0.18880406,-1.1521847,0.90386474,1.1328453,1.8430892,2.6340477,-1.6044075,-1.314295,0.80672723,-1.05803,-1.1097522,0.36749405,0.49292752,0.7779978,-0.7825413,0.38102362,-0.8982875,0.123632535,-0.37065938,-0.091940634,1.3456942,-0.7569829,1.0748836,0.05758554,-0.3624471,-1.2489834,0.5585991,0.25462118,-0.7736912,0.33923903,0.17847821,0.10933356,-0.7046618,-0.07157995,-1.8273469,-0.7215974,-1.4860127,-0.06393928,0.3004128,-1.6433432,0.10560291,-0.8065954,0.21542583,-0.32930478,0.08574238,1.3099535,-0.49517915,1.590167,-0.86168474,0.048829164,0.35011163,0.5953288,1.4614036,1.4693582,-0.73605144,-0.5706846,2.2307093,-0.19146,-0.8211902,1.3445952,-1.1542901,-0.33442086,-0.5239843,-0.7236288,-0.30511665,-0.117722325,0.62442195,-2.0958605,-1.7367388,-1.3047022,-0.23944245,0.4986002,-1.6256076,0.6975468,-0.61490107,0.0827535,-1.6588749,0.12513192,-0.049806178,-0.4245771,-2.1567261,0.9960359,-0.49786785,-0.9765444,0.56244975,-0.37715632,0.90276915,-0.24429204,0.7848963,0.33301014,-0.68930805,-1.2184962,-1.3734248,-0.7542529,1.289991,2.065666,0.55958897,-1.1772244,1.840684,1.2983811,-0.87574035,-0.045868516,-0.5674469,0.13982642,0.8648036,0.5217759,-0.5310035,0.04970438,-0.5890975,0.03192314,1.2641646,1.2906374,0.16043583,-0.9975142,0.43233296,0.119215384,-0.43016174,-0.45709231,-0.5231029,-1.0648715,-1.1923238,-0.22824319,0.21266678,0.0715725,-0.5338521,-0.54085034,-1.0842674,0.056081176,-0.9534282,-1.114731,-1.5429088,-0.5859397,1.4705126,0.10557433,1.403899,-0.93570673,0.042037856,-1.0800968,1.0952481,0.3697578,0.6871126,0.03429203,0.15521471,0.5330962,-1.7367332,0.85378456,0.7486506,1.2208673,-0.12280202,-0.19170687,0.360841,0.4593304,-0.38237825,-0.80587876,0.86656666,1.0284691,1.052336,-0.6405516,-0.13361497,-0.040126972,0.82436574,1.0646967,-0.4687621,0.5140344,0.7339063,-0.85871357,-0.35554668,-0.5575847,-0.7008985,0.27036357,1.5097269,0.24957761,-2.011339,-2.1867785,1.6148689,1.8254423,-1.2620093,-0.44041604,-0.29772753,-0.84634864,-0.18185818,-0.96963656,-0.47321668,0.14773759,0.7015976,-0.7517325,0.5867748,0.23462805,-0.8829513,0.5142577,-1.4088675,-1.7022631,1.4506311,-0.83836967,-1.4136727,-0.28311536,-0.73560935,-0.09681604,0.27506885,-0.37214428,-1.2958931,-1.4958347,0.2457831,1.4329426,-0.062096298,0.14632249,-0.8772956,-0.44262502,-0.5628987,0.9931444,0.8889585,0.96006954,-0.34284395,1.2724879,0.7873691,0.023754796,-1.6753681,0.7286759,-0.038379904,2.4214604,-0.11985973,-0.8987414,-0.7766577,0.68461496,-1.1862231,-1.6381075,0.3668094,1.5743514,-0.581284,-0.18954644,0.01527997,-1.3746978,-1.7369331,-0.9540739,2.1473858,2.3777745,1.516651,-0.3831945,0.9768452,-0.70650023,-0.050889034,-0.15668845,-1.1008503,-0.90082234,-0.7534352,-0.32238895,-0.60626537,0.694491,1.692384,0.16221413,0.2492216,0.8691894,-0.57522744,-1.3294443,0.17325304,1.6783513,-1.50037,-0.50027555,1.1949509,-1.0738149,0.77066165,1.3359778,0.3391487,1.6180131,-1.7253981,-1.3882784,-0.29612753,-0.14546147,-0.75682217,-0.5534968,-0.9376508,0.17911807,-0.29630375,-1.3480933,-1.2250146,0.6416612,-0.09604975,-0.28780916,-1.2178029,-0.73208755,-0.05098668,-0.3657298,-1.8370733,0.55132204,0.31710124,-0.12317655,-0.54626876,-0.2287036,0.81923234,-0.062351085,-0.38873413,0.19542435,-0.55068713,-1.373015,-1.565369,-0.97565454,-0.7426337,1.3935579,0.47198728,0.6378024,0.068741284,-1.1728828,2.3781025,0.8403357,-0.8120947,-0.026598219,1.094538,-0.41072434,-0.09015306,-0.31299168,1.9076205,0.29351237,-0.45321968,0.24271537,0.75012285,-0.529063,-0.1701422,-1.2260984,-0.01591571,0.43623087,0.1666077,0.92720795,-0.061902124,-0.81346995,-0.82592404,-0.54872686,-1.8378613,0.55762535,1.0083773,-0.16039112,0.3311922,-0.9204277,2.8956313,-0.6304428,0.32690963,0.34386596,0.12296879,0.99077046,0.5213905,-0.519128,0.10012988,1.1688882,-1.1490548,1.3066894,0.009439362,1.1322197,-0.78122747,0.4131492,-1.1594067,0.5998155,1.6118743,1.4297105,0.97566426,0.066438936,0.5972829,0.25438,1.3352146,-0.7090483,-0.2601593,1.0584384,0.3530242,1.2113715,-1.4119956,1.8903236,-0.8121228,-0.08129634,-1.1086824,0.729425,0.27854422,-0.7914807,0.2471349,1.3194869,-1.828277,0.4994476,0.1266426,0.7113809,-1.0922105,-0.5663294,0.46183398,0.28222898,0.21105197,-0.28008708,1.0648447,-0.054267507,0.20473352,0.033818964,0.29903463,-0.26142803,0.33747238,-0.6062972,-1.0910181,-0.3464666,1.6326468,0.40424353,0.04269642,0.6645749,-0.68443364,0.412513,-1.1094394,-0.9936041,0.014213671,-0.62036705,-0.8946622,1.1152153,-0.74571466,0.13596474,0.10789953,-0.34071183,-1.466472,1.3090492,0.6965366,-0.8630075,0.17496338,0.8941603,-1.6191744,-0.02750133,-0.09937446,0.529872,-0.5815138,-0.78407764,-0.60658544,-1.2220366,0.8154993,-1.7291373,-0.95935506,0.7107825,-0.3171194,0.4886072,0.34519514,0.8639346,0.16880094,-0.7127052,1.0901419,0.2726044,0.95295936,0.3746739,-0.2824358,-0.831018,0.9445049,1.0862962,0.6293097,-1.382966,-1.250019,1.921852,-0.58656996,0.024638755,-3.041723,-0.34031513,0.8195464,0.777969,-0.5738079,-0.5079284,0.5825896,-0.3460755,2.1383147,0.1315434,0.5712427,0.8487605,0.0639664,1.1018654,0.46627423,0.94901484,-0.18089482,-0.17879854,0.055111594,3.0371437,-0.78781825,-0.112379484,-0.399036,-1.0375909,-1.022696,-1.732711,1.6291751,0.9209825,0.2172438,-0.01283642,-0.1963559,0.08604832,1.0211185,1.5843362,1.7680341,-0.053625096,-1.0833043,-0.8840254,1.4301304,-0.24422768,-0.8960367,-0.73325664,-2.4305122,-0.18185915,1.4711502,-0.014352307,-1.4440051,-0.406564,-1.0343921,0.69291586,0.32248464,-0.90503263,-0.92277145,0.95917606,1.0205147,-0.394943,0.83330685,0.39361483,-0.42707008,-0.101261444,-1.377804,0.026992809,1.2351949,0.09015361,-0.16325584,0.83367425,-1.3425828,-1.1508446,0.11351215,-0.1915789,0.07069551,0.1664428,0.7625777,-0.5046375,0.32800803,-1.6393787,-0.81242985,0.18955708,-0.85038084,0.59356767,0.7970344,0.39215824,-0.9153838,-1.2962888,-0.40995774,2.0843856,-0.72828376,0.6635453,0.16441631,0.19539772,-1.0548426,-0.32834277,-0.464191,1.6847578,0.08308299,0.39178228,0.8035337,-0.70934856,-1.3525771,1.0687186,0.72450954,0.7628784,-0.9622327,-0.22015499,1.4470056,-0.12720254,-1.299917,0.72893226,0.01495313,-1.5598023,-0.938262,1.0044662,0.4957647,0.71653616,-0.3855118,-1.5292593,-1.2004734,0.09879082,1.5091547,-0.34942028,-1.104345,-1.0552443,0.17799112,1.9672737,0.77617747,-0.18102647,0.25524452,-0.47647172,1.382931,0.3312737,0.3737506,0.6808392,-0.5393776,0.73709387,-1.1180938,1.3295524,0.49204308,-1.0591363,-0.12271375,0.5245928,0.46735024,-0.1732939,0.42371008,0.64767945,-0.9081236,-0.36734763,0.94325846,-0.055960782,-0.8040833,0.5332337,-1.5457726,-0.19591717,0.1671158,1.2076532,-1.3871897,-0.07448846,0.44974345,-0.55390614,1.0454181,-0.36803827,-0.103672184,-0.8099822,0.3074738,0.32910213,-1.3023145,-0.17988692,1.2253472,-0.057442605,-0.43727452,-1.0394895,-1.9640638,-0.12882946,1.4108714,-1.2048022,0.4754594,-0.97420394,-0.32850558,0.3097499,0.28054437,-0.791776,0.21863118,-0.44586772,-0.44502643,-1.3474699,-1.1743041,-0.8377323,-0.07918846,-0.91490924,-0.5032905,0.71815366,-0.30086827,-1.1213859,-0.47692975,-0.71643645,0.6714105,-0.40464118,-1.0004032,2.3903182,-0.69708633,-0.48378012,0.64024013,-0.31433424,1.3704165,-0.3576418,-0.3135061,-0.16054048,1.1297892,-0.7146589,-1.3638755,0.39066818,-1.1710676,-1.3035868,-0.29705188,0.91736287,0.5072754,-1.0878906,-0.98929936,-2.145643,-0.8090819,-0.8053074,-0.19477913,-0.8994093,1.2351885,-0.59503037,-1.115306,-0.34169564,0.8717144,-1.6319972,1.780734,-0.42989525,0.7594524,0.3468805,0.40823045,1.292283,-1.6520792,-0.4637467,1.1071856,0.07852181,-0.54083663,-0.6147135,-0.74226844,-0.32443595,-1.2846174,1.5375684,0.31984666,2.1360552,0.87664616,-1.4131184,-0.68508667,-0.02498977,-1.7420881,0.4822559,0.77453697,-1.968548,0.7081646,0.6007031,-0.022672812,-0.62201977,-0.09623399,-0.0035002136,0.007800679,0.48930362,-1.115731,1.298835,-0.8379063,-0.13594185,1.4384655,-1.7557547,0.51511014,0.8706827,0.15003693,1.9784163,0.6192292,0.0049038357,-0.9464603,0.11657264,0.15285437,-1.1231049,0.8713942,1.855943,0.6729918,0.58605534,-1.5186529,2.5296626,-0.45120034,0.13770261,1.7519443,0.15303215,1.5795116,-0.6509315,0.9463728,-0.5288892,0.8721099,-0.31036758,-0.21428737,0.5499362,-0.005514379,0.35529593,0.5711958,-0.64982593,-0.7693572,-0.9265119,2.0665352,-1.4046612,-1.2696711,-0.02129884,-0.3603425,-0.3987162,-0.7705199,0.3648305,-1.9873859,0.89687204,-0.002444959,-0.83289146,0.88446003,-0.67048556,1.1290711,0.25452,1.3196486,-0.25708434,-0.27760378,-0.14085796,0.07116782,-0.43895102,-1.2751887,-0.5278197,1.0926762,1.1855837,-0.17906058,1.4407132,1.4244759,0.54657227,-0.49467555,1.2499207,-1.2597605,0.66291463,0.772107,-1.0754812,-0.061417203,1.4546732,2.2719464,-0.13490415,-0.5471107,0.18042351,-0.2581509,0.24670911,-0.16866623,-0.6363388,0.21358253,1.2308186,1.0513124,-0.16011919,-0.57437843,-0.27086154,0.738093,0.8028259,-1.1006327,-0.629584,2.0273874,-0.1688454,-0.31072268,-1.2041798,-0.060603023,0.96631753,0.34752968,-0.8857452,0.009697378,-0.6497799,-0.6911219,0.0596315,0.74956304,0.752832,-0.42982036,0.83283097,-1.0596793,-0.044840526,-0.21119218,-0.73500454,0.45915917,-0.7819634,0.59630334,-1.2532102,1.1461494,0.49776092,-0.7801075,-1.4997046,0.42848372,-0.08857368,-1.0197495,-0.8483912,-0.9430992,-0.9731454,0.9288147,0.33842453,-0.3560186,0.30477285,-0.06172752,-0.99446094,0.116596535,-0.5542966,0.40092775,-0.36809614,0.020620288,-0.6620712,-0.532058,-0.43205208,-0.5543913,1.1263374,0.3389731,0.68164986,-0.9474143,0.7623138
rsq003,0.4486953,0.1767104,-0.4524682,-0.32287934,0.07107613,-0.6986511,-0.15783979,-0.5821912,0.22914849,-2.004829,-2.096402,1.9933243,-1.9586699,-0.26970562,-1.2630571,-1.582664,-0.41188943,-0.7859137,-0.35866678,-1.3878156,-0.39289114,-1.4610382,0.5315461,0.37698603,-1.090295,-1.0532695,-0.36573377,0.519134,0.33666387,-1.4505124,0.4039581,0.3137321,0.08843885,0.6704898,0.33958536,0.7146992,0.19912447,0.99552983,0.003462447,-0.34743997,0.41363743,0.22847883,-0.32418185,-1.8098043,0.27896178,2.2069452,0.30803597,0.92414784,0.5341106,0.68250173,0.1541195,-0.89083344,0.68789995,-0.95559883,1.0380497,-0.37510115,0.30210736,0.5177363,-1.1201552,-0.03808408,-0.10684043,1.6271837,-0.9291879,0.8544398,0.5568606,0.6031165,-0.89951336,-1.068357,-1.4109612,-0.09241752,-0.19179684,0.30685627,0.5579738,-0.13321675,0.46857944,-0.20289959,-0.026799887,-0.70133233,-0.79793906,-0.9516952,0.24745804,-0.8176105,-1.4619613,0.45108998,-0.8208287,-0.050470307,0.34407166,-0.1384213,-0.12956452,0.0427652,0.96646523,1.03741,0.37521398,0.21090311,0.11727621,0.53515774,1.6581926,0.21154696,-0.8723029,-1.472512,0.5261676,1.7785708,-2.0591073,1.1222252,-0.045887496,-0.62774926,-1.0362552,-2.1497955,-1.5600044,1.042208,0.387599,0.0118613895,0.8436165,-0.08838885,0.59584594,0.64228815,-1.3116357,-0.87014073,-0.86157537,0.19132516,0.31913316,0.3023393,0.63427395,0.31434065,0.9685328,-1.7351367,-0.5753338,-1.2736228,-0.8275517,-0.053679843,-1.0293909,-0.8352123,-1.1206,0.43216556,0.23856585,-0.38782254,1.1684966,-0.36022314,-0.99607444,-1.4782232,-0.28475416,0.6566957,-0.37706578,0.79048556,1.221816,0.26970717,1.6860753,-0.8536073,-0.055601094,-1.0303754,0.37693855,-0.187198,-0.99754864,0.70011127,-1.2621886,-0.71760994,0.026208106,1.0201571,-0.9029076,0.1462748,0.41234177,1.4293872,0.8729949,0.2790218,-1.4890056,-0.08232792,-0.048941746,-0.23472936,0.24304114,-0.1689608,0.9601523,1.9870801,-0.31080914,0.005721953,0.53065425,-1.438078,-1.8725771,-1.0739547,1.2192518,0.89515454,1.1961229,-1.0779842,0.947688,-0.31626272,0.83631295,1.4106075,0.7872212,-0.18681736,0.42291293,-1.8494837,-0.6367313,-0.39487115,0.19609402,-0.81715566,-0.53871506,0.083606325,0.4717181,-0.14113267,0.13557386,0.08194249,-0.42498505,-1.5096906,-1.6945415,0.41038644,1.5295092,0.9847497,-0.68078685,-0.17845422,-0.29150915,-0.9663887,-0.9515029,2.6990726,-0.30816877,0.5916718,-1.5308185,0.67815644,-0.7890562,0.47074455,2.0747309,0.5485885,0.09346225,0.34928268,0.9145734,0.32909292,-0.46138614,0.9786128,-0.8871255,-0.48506573,-0.2250003,-0.07233988,-0.4752813,-1.3128368,-1.2879169,-0.98338276,-0.6150033,1.5999999,-0.98645294,0.8411732,-1.2427497,-0.32797635,-0.845478,0.099441774,-0.781038,0.0066007576,-0.32363325,-0.081942335,-1.8177304,1.835751,-0.41815433,-2.217761,-1.3999544,-0.46386826,-0.9320542,-1.0142261,0.31696975,-0.38529074,0.5232218,0.37464395,-1.5006411,0.20851797,-0.26902786,0.2519201,1.44304,-1.4268053,-0.6390133,0.5148694,-1.0085198,0.2617915,0.643274,0.7007066,0.87209487,-0.04498042,-1.5000538,-0.20776737,0.2819179,-1.170464,0.42095006,0.2662716,-0.62257683,0.35784477,1.9627584,1.3066523,-0.119303666,-0.9460218,0.47018063,-0.17148086,0.740027,1.0059475,-0.55880207,-0.4872701,-0.3386201,0.66341466,0.7320544,-0.2343127,0.43826756,1.4817381,-0.9367826,0.7659638,1.124029,-0.28114268,0.8182498,-1.3303285,0.048897848,-0.5945614,0.46058142,0.66521883,0.89275295,0.2672424,1.1275592,0.7424543,-2.1686146,-1.4229833,0.4634229,1.5446116,-0.21577957,1.0257612,-0.32556835,1.0309162,-0.20803435,-0.37758568,1.1744303,1.8056024,0.29889625,0.29373857,0.76708245,1.6026187,0.043614175,-0.382701,-0.08052781,0.18115288,0.38285175,-0.606417,0.9122711,-0.686438,-1.8819621,-0.27484125,0.8909803,-0.62917703,-0.45603603,-2.1463346,2.039875,-1.0039499,0.07011601,-1.7872726,-0.37658337,-0.9471692,0.6033167,-0.62210935,-1.9673201,0.5460086,1.3394061,-0.44358084,0.6542117,-0.17368978,-1.1752832,1.0626698,-1.2920188,-0.9066696,0.5371459,-0.9541058,-0.3714565,-0.23285235,-1.6867085,-1.1645703,1.2626679,0.40722147,-0.21714608,-0.90738803,-0.30889422,-0.35711205,0.5782528,2.0235019,-0.5334246,-1.7254435,0.85754895,1.0446476,0.38732153,-0.3606707,0.3762801,-0.7193689,1.102436,0.37393883,-0.7065515,0.123229556,0.9318378,2.356611,-0.70596015,-1.5240587,-0.08228453,1.3937345,-0.42207056,-1.4650464,-0.54849076,0.11127147,-0.23798963,0.7758281,-0.018152433,-1.1728333,-1.4343874,-0.8175049,1.4953333,2.3525548,-0.76339805,1.3594042,0.948477,-0.22502653,0.9015627,-0.46427017,-1.0169184,-0.96996605,-0.7920952,0.09729326,-0.29583034,-1.2271296,0.9243965,0.86587656,-0.48660544,0.108028434,-1.0986061,-0.81115425,0.7448903,1.8573807,-0.14534247,-1.377492,0.80102897,-0.69295716,1.8067712,0.21757586,-0.8994897,0.40241405,-1.939345,-0.9289014,-0.45401403,1.3721805,-0.27264318,-0.9341297,1.038549,-0.2609436,0.25462845,-0.2741776,-0.7960945,-0.20724495,0.07132405,0.29989052,-0.12500967,0.434517,-1.2766672,1.6541601,-1.7309576,0.08910835,0.94725144,1.0092044,-0.54623604,-0.75364566,1.1985991,1.0011903,-0.6019635,-0.26180515,0.91947407,-0.78703314,0.3278629,-1.8270541,-0.3640331,0.29565614,0.8226634,-0.6851846,0.611299,0.05819567,2.1965072,1.2864213,-0.71743417,0.6530006,0.10056665,0.6920525,-0.105693,-0.15970194,1.4309117,0.14719175,-1.5103482,-1.0782423,-0.55514634,2.1358473,-1.2338545,0.2892296,1.6921095,0.39830267,-0.22460371,0.82051265,0.04049209,-0.29664952,-0.49691337,-1.2415732,-0.94791836,0.9106654,1.4980593,0.048251923,0.13265817,0.4963139,0.662116,0.2215282,-0.30775288,0.48567295,-0.221898,0.7505839,0.14515895,0.30086717,-1.0390705,1.170408,-0.5286094,-0.055649474,-0.833196,0.5932025,-0.23890907,-0.3514587,-0.050269112,0.6405418,0.25040022,-0.57949966,-0.16212429,0.52167714,-2.0875921,-0.09524204,0.34613192,-2.1916416,-1.931433,0.17704086,-0.6783099,0.7498046,-0.07622087,0.9196923,-0.82399327,0.5460193,0.8321359,0.2708062,-0.20965804,0.5401874,1.1796365,0.34684476,-1.7276955,0.10928375,1.8327991,1.1318278,-0.4079827,1.4352057,0.6197725,0.34627846,0.930877,-0.37276202,-0.5777695,0.026951706,-0.09765312,-0.44027472,0.9462613,0.7735879,-0.7656669,-0.69697326,0.24453606,0.2627552,1.1451043,-0.98270744,0.8649754,0.28590214,-0.24495442,0.07781029,0.14654404,-0.9628472,0.45618063,0.13626024,0.23147053,1.399817,-1.2819614,-0.47569698,-0.19762778,-1.7830914,-0.22285217,1.3541957,0.61912125,-0.9938687,0.79589564,1.6418262,-1.1720386,-0.21883902,-0.8217813,0.5733096,0.008461233,0.5406159,-0.77425027,0.20326298,-0.44626024,-1.1129485,-0.83935905,0.8516998,-1.2036186,-1.803382,0.4875036,0.31018752,-0.11382331,0.65714633,-1.8398827,1.0097945,-0.029825112,-0.038395558,0.58787537,-0.8031329,0.3376603,-0.6291177,1.1760423,-0.4966806,-0.103811674,0.7608612,-2.1605732,0.07737249,-0.67148685,0.4901159,0.52361816,-0.2938132,-0.36093724,1.2437875,0.37358937,0.31032693,0.78368795,-0.42756814,-0.73988223,0.06415207,0.30183348,1.1441177,0.42889708,-0.45488963,-0.87249017,-0.01275102,-0.7472099,-0.22886361,0.92609406,-1.0703732,0.5995467,-0.6403996,-0.6757739,-0.549103,2.0310442,0.76884246,-0.17255083,-0.13683712,-1.164255,0.4181393,-0.2873701,0.6725093,0.88645905,1.9125086,-0.26736325,-1.594617,1.0776263,-1.2714986,-0.60046154,-1.5695286,0.37730053,1.1586175,0.6100328,0.7454708,-1.8938094,0.6601486,-1.4193534,-0.5439942,-0.6059171,0.021587428,0.44820106,-0.43170187,0.96760666,0.054379933,-0.31721878,-1.7338866,1.0743364,0.5920372,0.03194575,-0.61100334,0.6070368,-0.7441687,0.9539693,-0.1272506,-0.26799035,0.08844271,-0.3379072,-0.27522126,-0.39110184,0.685517,1.1189612,-0.6501799,-0.46402878,-0.28410304,-0.18406159,-0.41978243,0.22309573,-0.8868706,-0.45822853,0.9110738,-0.08922385,1.3154813,-1.3775792,-0.31445873,-0.36489037,-0.12865752,0.52252805,0.5082801,-0.17259577,0.114055835,-0.47742182,1.0483271,0.44295725,0.1661679,-1.7427306,0.4096427,-1.0828595,0.7850182,0.48900652,-0.9724598,0.2200318,-0.5606926,1.3380201,-0.56270623,-0.69988984,1.4462124,0.26982555,-0.9287943,0.030537277,-0.06957864,-0.8207996,0.9724065,0.10842451,0.011884881,0.064106666,-0.12875675,1.980099,0.418275,-0.15207306,-0.4115311,0.04662764,0.098827854,-0.4961197,-0.7614427,-0.19135405,-0.0777946,0.066854194,1.2742314,-0.6633299,1.3668243,0.91442806,-0.5309918,-0.6110419,-0.87852126,1.5661521,0.24070385,-1.6496465,0.7057175,2.4345746,0.41217753,-0.18904236,0.5946319,-1.116942,-0.9630517,0.3176008,0.8459654,-0.491992,-0.96918976,-1.101494,0.193393,-1.6433244,1.6113386,-0.17519587,-2.1243422,1.310814,0.9150132,0.30891913,-1.242016,-0.08871189,1.0319599,1.5275083,0.45189422,0.3146274,1.5146686,0.96332633,1.2702465,0.41371828,-0.90419036,1.4462953,-0.48511636,0.86646193,-1.8360418,0.8855615,-1.9080453,-0.6046773,-0.12648764,1.0690994,0.40901893,0.63273895,0.8425706,-1.4246374,1.394486,-1.0864015,0.59102345,-0.4566363,0.27744988,0.11503906,0.23930795,-0.43690225,-0.5525992,0.5068822,-0.8576734,0.046634205,-1.089805,-0.58382916,2.0445426,-0.57999635,0.876397,1.1934931,-0.7133193,1.7109693,-0.43381393,0.25818834,-0.14404927,1.4483906,1.0746412,-1.1557426,0.0056308378,-2.5156908,-0.07354921,0.08532368,0.40632775,-1.1584795,-0.7663326,-0.30048025,0.5858368,0.89522403,-0.5111717,-1.0397015,-0.6978226,0.2897992,-2.1507208,-0.004333847,-0.11819616,0.45342976,-0.9799671,1.190763,-1.9812363,-0.032928087,1.0325757,-0.23781244,1.8771513,-2.3030627,0.9527999,-1.0130038,-0.17325726,-0.34313515,-0.42715654,-0.9662323,-1.0554277,-0.1640606,2.408236,-0.05598349,-0.22859973,-1.3610414,-0.3258947,-0.10470445,-1.5472137,-0.932362,-0.4972423,0.7069082,0.22179145,0.98207325,0.22143763,-0.93361175,-0.20302854,-0.4999804,0.24619076,0.8996484,-0.82286257,0.59273064,-0.33472812,-0.47794777,-1.4621625,1.161613,-1.5217683,0.10910467,0.6607691,0.29321092,2.9811928,0.520455,-1.6221571,-0.3819159,-1.075191,0.7097967,0.14601874,1.3075163,-0.8176677,1.4903365,-0.029032324,-0.503631,1.0015303,-0.8398476,-1.381885,0.5295597,0.65900326,1.3235419,-0.4971637,1.0594664,0.37616685,0.11507543,-0.9351094,1.2495352,-1.0515282,0.42033827,-0.14945625,-0.68329525,-0.10770016,-0.73882586,-0.04250318,0.99724704,-0.6739721,-0.7110998,1.3679614,-0.7044112,1.3278115,-1.2545058,-0.6366179,-0.05886387,2.1123772,-0.17029738,-0.21335377,1.5142117,-0.5828816,0.2752279,1.0858724,1.2529354,-0.56810546,0.15756342,-0.0941062,0.038722984,-0.5632208,-1.2366309,-0.097518995,0.27749133,0.7344922,1.2177224,0.7228496,1.1338346,0.22251599,1.0548027,1.058355,-1.9314278,0.3875772,0.5940931,-0.4087416,0.8976095,-0.558712,0.97296226,1.4597468,0.2201338,1.715065,-1.5094867,0.46127006,-0.9575043,-0.37241516,-0.5884736,0.22195911,-0.24505427,-0.5071552,-0.08623176,-0.840847,0.5165343,-0.48914936,-0.9037393,-0.8969589,1.5957301,0.0018954426,-0.2847985,-0.029261611,0.004515151,-0.0830352,-0.7147831,-0.7178211,-0.6522485,-1.3563147,-0.34467536,0.12171814,-0.66030586,0.46207094,-1.1845073,0.081877284,0.43619776,0.27302706,-0.35622686,0.41479403,0.08190906,0.99740815,0.6578684,-0.94683444,0.88109493,0.11900151,-0.41961938,-1.8385124,1.1625453,-0.321024,-1.2582364,-1.0801152,-2.0694456,-0.30825913,1.4636472,-0.34030396,0.8780746,-0.37268722,-0.349908,-0.50720507,-1.4611354,-0.99722683,0.8091969,0.6046292,-0.03821251,-1.5351815,-1.5567911,-0.17050277,-0.2696711,0.2544264,-0.10150379,0.25156793,-0.5094544,-0.32210696
rsq004,-0.785963,0.17092387,-0.32405055,-1.4886016,-0.44560474,0.17406815,-0.8151877,1.2943565,-0.4621131,0.28555113,-0.15975791,1.7941488,1.1463994,0.50359267,-0.51856476,-2.0394928,0.1885179,-0.5405383,0.27535933,0.44961506,0.06303315,0.15595125,0.46991178,-0.37343022,2.305021,-0.39910048,0.10932848,-0.28900248,0.25794852,0.06629194,0.6464676,1.3535941,-0.40614593,0.9311759,1.548357,-0.48753038,0.6561891,0.1791119,-0.48977455,-0.5621313,0.25262406,0.08206049,-0.9093809,-0.33776554,-0.17147388,0.7758844,-0.08065634,0.054747377,-1.0625657,0.082751416,-1.3252032,-0.9010247,-0.3470163,-0.036791053,-0.1501908,-0.39242283,0.8425467,-1.0243144,0.9103004,1.4422231,-1.2528269,1.4316279,-0.116728716,-0.029592063,1.5366061,0.19267993,-0.37046635,0.056942973,0.20617917,1.3955922,-0.21261024,1.842917,0.26580536,0.22328417,1.6837542,-1.0221126,-0.15578288,-1.738223,0.2995473,-0.78293985,-0.3236076,0.07236364,0.9692406,0.51886964,0.44549596,-0.82255626,0.45511833,-0.83050793,-1.6311753,-0.8010029,1.7778884,0.88903874,-1.2366185,0.5471136,0.1006544,0.43798316,0.2338824,-1.9158802,0.2960213,-1.0468347,0.4377073,-0.20238355,0.519837,-0.029126976,-0.23844253,0.1264128,-1.3209366,-0.71151525,-0.8184439,-0.041090846,-0.03684626,-0.28975403,1.0194097,-0.26205888,-0.981961,-1.0292869,-0.58319116,-0.2325371,0.3089188,-0.004085693,-0.7928426,-1.0463774,-0.21388,-1.0511684,0.2911023,-0.05465938,-0.17412151,-0.039142475,-0.3264264,-0.65270984,0.3823665,-0.9109813,1.0865616,1.2669432,-0.50096405,-0.29984787,1.1453567,-0.12148849,0.24246141,-1.4796433,-0.22346637,-0.24991764,-0.4212273,1.1069182,-0.32003868,0.59569424,0.9660056,1.3579428,0.019718263,1.006619,-1.8835114,0.124123625,-2.0918832,-0.5752188,-1.3180943,-0.4336244,0.34494346,0.33531654,0.051750388,1.4529992,-1.5902761,1.5690551,-1.3236161,-0.6962302,-0.62448555,1.1463623,-0.4106699,0.4426813,-0.5424533,0.48845991,0.24235426,1.0687,-0.93007594,-1.0898752,1.429167,-0.76261806,0.06233777,0.3563502,-0.08404638,1.0440656,-0.0146359755,-0.6341536,-0.52187467,-0.5569023,-1.1677867,-1.4862216,1.2508621,-0.6854295,-0.49365765,-0.9087407,-0.27582183,-0.3930148,1.6155455,-0.8061243,-0.8909057,0.21907827,-0.06687348,-1.0140673,0.6656293,0.14220394,-0.4543901,-1.5483843,0.3961599,-0.14139202,1.1879896,1.2601683,-0.04052202,-0.6538752,-0.07896294,0.7790043,0.048277088,-0.1336447,-0.6275077,-0.18949284,0.21944544,1.4916453,-0.44042265,-0.0006925629,0.4446909,1.2289995,1.0155616,0.23953019,0.8272824,0.6516464,-0.33963978,-0.42753443,-0.07548993,0.35095835,1.0041604,-0.41272816,0.306008,-1.5714073,-0.49328476,-0.6116513,-0.7079182,-0.27899742,0.95397115,-0.06395236,-0.7770702,-0.34198964,-0.052860677,-0.759481,-1.5171437,-1.3672701,-0.6786133,0.5726319,-2.787541,0.6299942,0.108914465,-0.6122905,-0.0755844,0.23829031,0.08132046,0.09561928,0.5205681,0.10766215,0.56481856,0.79279494,-1.0339723,-0.6403686,0.48293018,-0.20055759,-0.8165504,-0.41205436,1.4974002,1.5966125,-0.56570315,-0.9087556,-0.5740418,0.8777945,0.66671115,-1.9306848,0.4258747,-0.1195349,-0.72128814,-0.2699149,-0.23445974,0.5988932,1.1218488,-0.3906831,2.0681639,0.22338027,-1.3052772,-1.063924,-0.10816256,0.03213094,0.29723555,0.8355345,-0.1790214,0.42173457,-0.4047951,-0.6995456,1.2425876,-0.32050627,0.3344809,0.12388805,-0.85969245,-0.5831479,0.53749907,0.6804743,-0.1823715,0.95591706,-1.3070138,-0.28126302,0.009989794,1.2365098,0.29467845,0.2965658,-0.07520905,1.2496942,-0.10874148,0.14929503,0.7209532,-0.21029529,1.0243582,-0.29543447,0.115332894,1.9477427,1.4175246,0.36022902,-0.1825215,1.3397738,0.25301826,1.5951725,0.34640217,0.9568021,-0.11472861,-0.61307347,-1.0896764,-0.04678802,1.0682825,-0.5295804,0.12088319,-0.7180735,-0.012566028,-0.6406445,-0.16650075,-0.15505537,-0.33194324,0.0987343,-0.41746747,0.5888087,1.4436377,-0.73519844,0.038821697,-1.2609484,0.538874,0.5344574,1.1953388,-0.5090135,0.98744583,0.6067792,0.71847314,1.172217,-1.6021551,-1.3383018,-0.6388224,-0.35024607,0.060517114,-2.6360419,-0.42610228,0.624311,-0.035048142,-0.60797316,0.5857427,0.4850475,-1.0642141,-2.1172345,-0.13895196,0.2772616,0.6166238,-0.31146798,-0.44089752,0.11592674,0.031159632,1.2790786,-0.42650005,0.70260453,0.19774872,0.19333607,-2.0273545,0.17027529,-0.7100525,-0.8029815,-0.09130211,3.8400164,-1.2896409,-0.27586973,-0.2004117,-0.38271734,-0.79794526,0.9408686,0.7437947,2.156979,0.19750193,0.44868416,0.8357912,-0.2743781,-0.7479759,-0.06282287,1.4209145,0.04510873,1.2824254,0.19118212,0.16103959,-0.3358538,1.1178249,-0.5837173,-2.2951682,0.6053059,-1.0762177,-0.30984035,-0.19868082,-0.7234546,0.27597114,-0.76855993,0.64142185,0.092146754,0.27134174,1.1189382,1.364008,-0.60396814,-0.08161831,-0.7720326,1.6354718,-0.31021842,-0.18745679,1.7333446,0.3030896,-0.26186928,-1.440677,0.7382483,-0.21947256,-1.093849,-0.82523376,0.0788748,0.63794166,-0.62220895,0.37854895,0.54694706,-0.06928839,0.13007541,1.0124792,-1.5645593,0.6183552,-1.23276,0.11247411,-1.3607059,-1.850878,0.35257858,1.3128407,0.84488136,-1.3401221,-1.2591186,0.8306897,0.1311515,-1.2292701,-0.82862306,1.178288,-1.1387994,-0.21098657,-0.6024528,-0.12265379,-0.37529492,-0.14371166,-0.1735768,-0.9960301,0.08681965,1.198845,-0.9723068,-0.21663986,0.0756515,0.3239647,0.23469475,0.09987931,-0.5663911,0.88806933,-0.9585727,-0.2762619,0.33828864,1.087874,0.96389824,1.4399675,-0.8034919,-0.13256246,0.5594335,-0.48246706,1.9260082,1.1903653,-0.65857625,1.019434,-1.2630029,-0.36875963,0.5605334,1.2218137,0.09142006,0.73337215,0.48745483,1.0617024,0.89131916,0.9300563,0.06427631,0.44947454,0.66442376,-0.844597,-0.60657287,0.8625734,0.37945417,-0.67952687,-0.3340227,-0.9136965,1.8029134,0.10764018,-0.8760018,-0.04724659,-0.03001391,1.1662431,-1.1856518,-0.6752954,0.32747695,-0.7272837,-0.41980055,-0.3995496,-0.57252777,2.0413926,-1.0540032,0.5978798,-0.033914823,-2.0106554,0.5859709,0.8050668,-0.63224304,0.58422333,-0.16379616,-0.6669447,0.114168935,0.6535838,0.40716496,-0.339473,0.112696975,0.7865053,0.53202015,-0.92349297,-0.27565494,-0.5256706,0.16613185,-0.581375,0.45531744,1.0509313,-0.9409075,0.67513585,1.4079078,0.84822756,0.021779455,-1.0975376,-0.24267755,-0.17798407,1.0181929,2.2829988,2.0881758,0.38195407,0.42110372,0.57083595,-1.7046506,-0.7105081,0.32916987,-0.3969017,-0.8736397,1.380653,0.9114044,-2.602809,-0.8922198,0.3991362,-1.1522318,-0.1764244,0.36891598,0.0683811,-1.2564191,1.6223795,-0.6019682,-0.7987715,0.12490453,0.17564453,-0.37481773,0.85006493,-0.3031187,0.41314477,-0.014604769,-0.34384385,-0.2435565,-1.9288455,0.20572488,1.292188,0.8639067,0.8953919,-0.3686025,-0.3340079,-0.68791986,-0.05756666,0.8306439,-0.19662741,0.7460462,0.49243408,-0.009578299,0.013215333,0.9326973,0.4769375,0.15164119,0.16306953,1.5507158,-0.49475828,0.17427725,-1.5740321,-0.8097978,-1.4087579,-1.2872775,0.7758109,0.5297888,0.92432666,0.27150008,1.6026115,-0.25644693,-0.72057384,0.43178156,-2.3701792,-0.8801717,-0.42921272,-0.52521175,0.66031885,0.056676906,1.2540956,-8.402863,1.4993138,-0.4431582,0.061860222,-0.70344394,0.20682307,0.60584426,2.702301,-1.4653913,-0.9555886,-0.3376577,-0.048056472,0.22929007,-0.90318614,-0.5586866,1.0586793,1.832879,-0.60939187,-0.92224354,-1.2533127,2.0530477,-1.1787709,-1.6938976,0.5367526,-0.7314155,0.42214787,0.7470534,0.9671313,1.2294981,-1.116297,0.5751866,0.34141657,-0.39635313,0.10177509,-0.8002999,-0.85247517,0.70110345,0.75558656,-0.09917009,-0.1737379,-0.36927488,-0.72465664,1.1648858,-0.13658518,-0.16917631,-1.1294055,1.9187624,0.06814659,-0.035393443,-1.4185301,0.5262487,0.353504,-0.6460303,-0.2758801,-1.1028736,-0.2598364,-0.81190187,-0.63765305,-0.41272742,-0.817221,-0.1720653,0.19559923,0.84296745,-1.6903512,1.3330292,-0.7209682,-0.1904573,-0.22572671,1.159595,0.45821565,-0.78453636,-0.9033432,0.1796499,-0.20029286,0.13127276,0.47888628,0.24156427,-3.0084906,-0.36080894,-1.2319831,0.768439,0.69489914,0.5300895,0.24447182,0.45658174,1.2064983,0.10254342,-0.064611144,0.86972386,-0.56619805,0.49023044,-0.72012585,2.1464396,0.15173137,0.65752155,0.6139941,0.023325859,-0.85178113,-0.1375989,2.270692,-1.3865091,-1.5442383,-0.52760017,0.81977814,0.16055025,0.07626037,-0.85004926,-0.28229463,0.28014436,-0.49327007,0.18432397,-0.43467847,-0.011797845,-0.8289163,-1.0591327,-0.25403407,-0.89212924,1.1198766,-0.20743911,-0.42508236,0.7455375,1.6242856,-0.9394925,-1.0951579,0.29327643,-1.1962534,-0.2457126,-0.36761642,-1.5519462,-0.2978474,-0.12166985,0.7279039,-1.208771,-0.89312255,-1.0810252,-0.95972455,-2.7413073,-1.2645717,0.53933597,0.5543781,-1.5931566,-0.72865045,-0.18037333,1.3920435,0.87792945,-0.45833036,0.12218005,0.24227735,-0.034198307,0.6146884,-0.4745198,-0.6790239,-0.34146735,0.637556,0.12896429,-0.79674876,-0.09740904,0.17786789,0.58788335,-0.66340023,-0.42972395,0.736768,0.8753975,-0.6359817,1.5644852,0.12343511,-0.6490474,-0.20249508,-0.030029334,0.0070732185,0.089698076,-0.54067296,0.5297051,-0.699225,-0.9074228,1.0857353,1.0655386,-1.0576684,-0.51510966,0.1911572,-0.31875813,1.1121107,0.5651492,1.5869107,0.772075,1.3424187,-0.3750331,0.106357984,1.2238486,-0.31635147,0.58512914,-0.36258787,0.021268457,-0.10053313,-0.10420421,-1.0271114,1.67097,0.13913079,0.14061147,0.79107326,-0.6878553,-0.03770772,0.010831311,0.2491061,-1.5070475,-3.1493082,-0.096376695,2.4710567,-1.4384819,-0.01746247,-1.5412328,0.53980106,-1.9144393,-0.6204917,1.0338185,-2.0502713,-0.8911794,-0.6439842,-0.41191578,0.4399456,-0.99076873,-0.25078335,-0.3484516,-1.2353221,1.2109786,-0.7886463,-1.8202218,-3.1885593,0.2999305,0.20320562,-0.4703526,-2.292197,-0.36016604,-0.4667723,-0.3885573,0.694196,-0.32811975,0.30436194,0.671113,-0.34981024,-0.05667389,-0.3617884,-0.09997237,-0.4655286,0.31320557,1.3700157,-0.18387201,0.6426925,-1.7928889,0.22398244,0.12477681,-0.18234876,2.7552772,-0.35055473,1.2387155,0.98026055,-1.3391563,1.0910596,2.0299504,1.6460124,-0.0027245646,-0.33490202,0.6590787,0.7979238,0.27663234,1.9419774,0.44794708,0.95221204,0.7366245,0.9855851,0.4215808,0.7444995,0.15923262,-0.5319914,0.07854915,0.47238234,-0.77275664,-0.17965995,-0.10588096,-0.31318393,-0.6931928,0.73353523,0.6539849,0.54313016,0.26056457,-1.1846371,1.195992,0.24520731,-0.07601762,-0.74450684,-1.6497607,0.07567353,1.516016,-2.3498268,-0.5585918,2.8442354,0.368044,0.4280716,0.53727925,0.91878414,-0.007686662,1.0211899,0.44767612,-0.65876186,-1.7423719,-2.2627687,0.55783945,-0.23198268,-0.63884014,0.3734998,0.8268582,1.4535353,0.027083278,-2.1035948,0.28779605,-2.5770693,-1.2870928,-0.26527008,0.29050323,-0.071524724,0.18966858,0.37010586,0.29303157,0.46350867,-0.18001065,-1.2477648,2.7542634,-0.85988545,0.29855016,0.43305632,1.2758849,0.18861562,-0.09112057,-0.18535179,-0.965282,0.2648127,0.11169839,-0.47274882,0.6453142,1.4539121,-0.69064975,-0.40521288,0.54264903,-1.3951612,-0.24810499,-1.9015982,1.4322383,-0.3355968,0.5340376,-1.4812751,0.5645173,0.1461392,0.49166366,0.034095567,-1.1519228,-1.8445745,-0.3864879,0.33986798,0.69844484,-1.3467709,-0.061365314,1.6583486,0.18635891,0.2903717,-0.9530398,-0.26176986,-0.77678984,-0.01855333,1.2118433,-0.24573527,-1.0994494,-0.07061415,0.19021231,0.18171307,0.18846305,-1.7860646,-1.0057809,1.260738,-0.85646147,-0.7028434,-1.7693648,0.906337,0.94530773,-1.3697265,0.23117982,0.39816487,-0.17439884,-2.811627,0.8736316,-0.88198733,1.0332444,-1.7127593,1.3940328
rsq005,0.36458537,0.26044005,-0.0412575,-0.60900885,-1.6460495,1.0522872,-0.27747098,-0.7050604,-0.4426173,-0.7139035,0.15343277,1.9884034,-1.3939118,0.48857152,0.80698586,-1.629643,0.109018706,-0.40218112,0.5603368,-0.42219275,0.6054914,0.25112024,0.9563656,-0.56019884,0.5976305,-0.25499704,-0.038949966,0.090676814,-1.3193562,-1.9668607,0.82361466,1.1930346,0.23847905,0.93979603,1.3910425,-0.15918224,-0.33720818,-0.51472497,-1.7411606,-1.3352864,-0.17316557,-0.3901722,0.42125323,-1.4162568,-0.87028366,-0.48800632,-0.7642918,1.0404909,-0.38518283,-1.0860542,-0.4497117,-0.7037813,0.24756904,0.12305523,1.3901596,0.6617625,0.7616815,-0.6996499,1.1344031,0.84799653,-0.50088835,0.70932317,-0.8963506,-0.13087684,0.6252005,0.19173282,0.7103599,0.46034324,0.34830907,0.633322,-0.35097343,0.7066183,-1.0400854,0.35842875,1.4903175,-0.578184,0.13475414,-1.6460403,0.25922126,0.5997381,-0.029752273,-0.0012476553,0.49668673,0.9027979,0.69479996,-1.3327312,0.06409533,0.2473074,-1.211005,0.8189463,0.8058205,-0.13511217,-1.0285963,0.24383642,1.4924461,-0.31725642,1.1579038,-0.23213378,0.5055166,-0.42271236,-0.35158285,0.5620629,-0.23785076,0.8244053,-0.12051678,-0.37643245,-3.1454813,-0.16479169,-0.9246266,1.2530876,0.33787382,-0.041444715,1.3674206,0.31394437,-0.40402162,-0.6385521,0.3792185,0.6512689,-0.063847825,-0.8192097,-1.470573,-1.2060863,-0.24214463,-0.367187,0.5235846,-0.9800312,-0.064676456,-0.8827219,0.6082159,0.12553713,-0.038595945,-1.241689,0.34909314,1.2701293,-0.49688834,-0.63642526,0.76797736,0.52933395,-0.9403145,-1.217045,-1.1381106,-0.7299574,-0.69378376,-0.038374856,0.93163395,-0.17854002,-0.41028175,0.24809574,-1.0313445,-0.5128059,-1.693066,0.71336037,-1.3126785,-2.2329292,-0.2512315,-0.12478628,0.034303233,-0.2823951,-0.13285764,2.3505418,-1.286879,1.8314265,-0.026466511,0.9811026,-0.676389,1.6774547,2.0238292,-0.64705443,-0.43408725,-0.6179119,0.32731155,-0.12193246,-0.5027049,-0.68229765,1.9921639,-0.36470354,-1.0049021,0.38324773,0.51483464,1.0657521,1.2041774,0.23856293,-0.34113595,-0.9212494,-0.39739773,0.03251562,1.2587112,0.17903963,-0.3988124,-0.8319197,-1.4916958,-0.026125692,1.5712845,-0.44892797,-0.6702084,-0.2958316,-0.19834904,-0.402794,0.63421637,0.43925527,-1.3040767,-0.19270796,0.07422343,1.384629,1.2389168,0.65668905,-0.733651,-0.34720135,1.7133555,1.1271443,-0.22248554,0.47897235,-0.074222036,0.51833224,0.5360547,1.0078039,0.6010616,-0.4746271,1.525573,2.0392983,0.5634759,0.0052963304,0.87101364,0.3547499,-0.5190178,-0.17494157,-0.047177173,1.272955,0.63789105,-1.1989096,-0.7687324,-0.5673689,0.3423804,-0.9462086,-0.65039545,-2.7514174,0.61519885,-0.8464956,-0.558618,0.26032883,-0.21770841,1.1636881,-1.2969903,-0.86578315,-2.213312,-0.14926618,-1.857658,0.48331928,0.59228444,-0.3043749,-0.5985742,0.86352706,-0.15454794,-0.5897316,-0.25895408,-0.6933671,0.49147332,-0.21574922,-0.35679573,-2.347643,1.3490992,0.9459122,-1.5170207,-0.55083394,1.0269328,0.32521045,-0.3485266,0.46016836,-0.19287595,0.0846037,0.11511851,-0.41412336,1.0785488,0.8318583,-0.9655474,-0.3273896,0.5876758,0.4740675,1.2457356,-0.7139123,1.25559,-1.234101,0.38832438,-0.80898225,0.41510507,-0.39302254,1.1898421,0.65812916,0.21887526,-1.0079008,0.42046043,-0.08373466,2.7708144,1.0043973,0.2593074,-0.6290742,-0.8172838,-1.6008152,-1.0266784,1.6086904,-0.16885927,-0.60001796,-0.2964956,-0.86900353,0.5295753,-0.18566355,0.56286854,0.4833438,-0.31259984,0.17748035,-0.01831177,0.02115066,0.6607296,0.24490155,1.1972486,-0.2043125,0.48994112,1.2806599,1.4058728,-0.28408024,0.67071193,0.4932273,1.2264498,0.09531342,0.531909,-0.87315786,-0.27061498,-0.17935087,-1.0632137,-0.43084335,-0.49352017,0.26756883,-0.9559252,0.009623197,-0.6614614,-0.6047173,0.7428892,0.52705276,-1.1215243,-0.12993027,0.3661512,1.2070609,-0.39419225,-1.2211804,-0.411808,-1.2064999,1.053455,-0.8013025,-0.73097247,-0.40765727,0.564313,1.0841961,0.9931046,-0.42366573,-1.5803791,-1.2291013,-0.12178297,-0.94137174,0.2081636,-1.4271294,0.33542898,0.34916008,0.7213478,0.36259413,-0.47559693,-0.05174251,-1.7691033,-1.3726176,0.4482212,-0.29095456,0.50732327,0.4756029,-0.2435754,-0.27578443,-0.8825824,0.12868959,1.5231488,0.04033789,1.4369442,0.22304206,-0.9020641,1.1590668,-1.3579899,0.48586762,0.8897243,2.3179266,-1.1179247,-0.48154727,-0.90103036,0.35528246,0.18097375,0.4918353,1.4878167,0.8482972,-0.6726992,-0.19526458,0.108265474,-1.0111374,0.22877115,-0.49518764,0.49846718,-1.2716923,1.2525647,-0.083801895,-0.16242911,-0.43017635,1.4309151,-1.4739158,-1.9966489,-0.15008532,-1.2223779,-0.04876616,0.17778163,-1.0250062,1.2701297,0.06971455,-0.31349483,0.20787443,-0.15751643,0.5320818,0.47102544,0.7282987,-1.2956662,-1.4933997,-0.62621397,0.048853144,-0.30782935,-0.4176861,0.39374164,1.6532031,-0.7897937,-0.06975318,-0.6760409,-0.50449455,0.18716405,0.14362468,0.5538294,0.53840584,1.0776502,-0.36499336,0.0971848,-0.35372317,1.7785802,-0.289232,0.25815022,-1.1846116,-0.33788693,-1.187354,-0.4639497,1.2237023,0.31492895,1.0701641,-1.0643283,-0.8213364,1.963229,-0.74011976,-0.8599594,-0.57946867,1.7093605,-0.18499051,-0.7927099,-1.029755,-1.1742629,1.5171586,0.13952893,0.07900896,-1.6926574,-0.7513223,0.70766634,0.67563844,-1.251901,-0.3706751,-0.03795954,-0.5069249,-0.14392693,-1.3818015,0.020513589,-0.9271236,-0.95619494,0.35272634,-0.15062934,1.2877454,0.04076209,-0.29925302,-0.26279882,-0.13952944,0.07954603,1.2790062,1.8602947,-0.059511706,0.5047531,-1.870855,-0.9299144,1.0261668,1.0671651,-0.12468818,0.053695712,0.08005817,1.6125468,0.8352055,0.6874568,-0.69032323,-0.010462346,0.75515455,-1.1340562,0.33220944,0.65382725,0.61330026,-0.71073663,1.6857231,0.5459965,1.4835087,-0.3248557,-0.43541184,-0.1977243,-0.47967806,0.36953136,-0.27505645,-0.6482335,-0.6157671,0.8194837,0.18301724,-0.14904965,-1.7681706,0.40621775,-0.24250397,0.14265169,1.3241726,-1.4617951,0.4821741,1.6917723,0.033467263,0.3957497,-0.32928437,-0.369369,1.0735999,0.71572304,0.08539202,0.14286308,1.0839713,0.088578485,-0.3645542,-0.877342,0.18416986,0.046229098,-0.24657069,0.21561684,0.32271826,0.33029687,-1.3044406,-0.7860525,0.18181862,0.68465286,-0.12974675,-0.44504902,0.30642205,0.20068245,0.830591,1.3070774,0.9100904,-0.7466309,0.87465376,-0.37023267,-1.1185316,-0.17569284,0.2797307,0.3347019,-0.23713331,-0.22664675,0.963962,-1.459906,-1.1859024,-1.1499451,-1.1791134,-0.6244331,0.04389352,-0.20192967,-1.2041785,0.64675736,0.03265857,-0.7745311,0.4387561,-1.3137959,1.1908381,0.50291824,-0.30915686,2.2052164,-0.3530542,-1.4082714,0.032763053,-0.57841194,-0.6694055,-0.5047269,1.0905249,-0.100211054,-1.0049205,1.5139481,0.36074498,-0.8428289,0.39981195,-0.74658775,0.06099604,0.13082074,-0.43970203,0.036594108,1.2839001,1.0565133,-1.7318702,-0.46828184,0.46433392,-0.5306269,0.20866202,-1.003073,-0.48082846,-0.8810577,0.7420141,0.6302596,0.4844208,0.31765458,0.4740592,0.6426882,-0.306758,0.047086105,0.32691935,-1.729216,0.6244477,0.30882785,0.253855,-0.8701041,-1.0244424,1.39644,-4.8682404,0.38424522,-0.5798511,0.74250984,-0.4615039,0.15778627,-0.25682878,2.2489214,-0.30852464,-0.819265,-0.52356714,-1.1748935,-1.3974274,-0.18194081,-0.47434482,1.0887986,0.9611877,-1.7474598,-1.3104281,0.58062536,1.7503175,-1.2067786,-1.7093387,0.72516096,0.060040757,0.040377203,0.12931512,0.39640683,1.2362005,-1.3316138,0.061561808,0.10857927,1.2278441,-0.49007022,0.96743774,1.3118751,0.10105226,0.5948028,-0.24854392,0.39252463,0.32655767,-0.2845321,0.65013194,0.9209101,-0.4924326,0.2578634,2.0869877,-0.48307225,-0.50201535,-1.2084991,0.36654612,0.10549653,0.03715564,-0.48761785,-0.9779634,1.034363,-0.17279099,-0.097196795,-0.25654256,-0.46577796,0.4426925,0.64137197,-0.30323282,-1.149323,1.2146888,-1.2514756,-0.23127061,-1.7541893,1.4797009,1.7892102,-0.94568217,-0.44809607,-1.081931,0.45991838,0.75155413,-0.2734574,0.525222,-3.194174,-0.07502275,-1.4669845,0.3498737,0.7300999,0.96909004,-1.1373433,0.32580307,0.16624735,0.7429417,-1.546273,1.6116673,-1.1907401,-0.21824302,-1.1484957,1.2896892,-0.075036936,-0.6520651,-1.0194641,-1.6873546,0.73159575,0.72970754,2.3169076,-0.34119523,0.3103206,-1.3166276,0.39686576,2.1308546,-0.38090602,-0.98352456,-0.14944237,-0.57611334,-0.30641383,1.1795098,-0.5093449,0.72971064,-0.015396452,0.75286865,-0.5292059,-1.5951356,2.419263,-1.849672,-1.2157559,1.2412353,2.1392303,-0.70040935,-0.5941183,-0.04294022,-1.2198559,-0.35406658,0.056501053,-0.5581424,1.3747007,0.22467925,0.07036479,-1.2215852,0.34802264,-0.49634397,-0.073045045,-2.2774813,-0.53615147,0.5022042,-0.13415304,-1.5297462,0.47169244,-0.9282491,0.034422055,1.6654271,-0.74102384,1.4542111,1.073692,0.8226885,0.19967547,1.0128887,-1.0462879,-1.2298181,1.1589562,0.11383211,-0.9881519,-0.07739165,-0.13866307,0.32811764,-0.6474457,0.53190947,-0.5842011,-0.46866563,-0.36457357,0.5172427,-0.15738098,0.012058467,-0.989035,0.7497755,-1.0465295,0.9018274,-0.19308576,0.33107936,0.29161346,-0.17077272,0.35426632,0.46361974,-0.46331903,0.2680751,0.22678427,-1.184361,2.067848,-0.040816545,0.46738407,-0.47726354,1.1741654,0.6930718,0.45065516,0.813243,-1.8577263,0.4962721,-0.8528666,-0.06997681,-0.15685093,0.56622946,-0.39869472,0.12061713,0.5804497,-0.8727314,0.028905159,-0.64695966,-0.8740645,0.25642085,1.3871323,-0.43413287,-1.5237674,0.4582263,1.1893348,-1.1141641,-0.4679659,-1.0732902,0.73236346,-0.2147962,-0.6501461,1.1467637,-2.0723252,0.5583866,-0.6363143,-0.54631114,-0.5228946,-0.9793838,0.8499586,0.09550529,-2.1989787,1.0650399,0.10248489,-1.0926741,-1.9686515,-0.091519244,0.08508046,-0.17741656,-2.2487655,-1.1832166,0.18461055,0.82818204,0.92649364,0.49846175,0.21936654,-0.6128569,-0.52057076,-1.0724212,-0.051903736,0.03891859,0.24535704,1.4083997,0.38474646,0.120771885,0.040709384,-0.69387686,0.59322876,-0.27685407,0.15090689,1.0957364,0.20762466,1.6118535,1.4454747,-1.1147388,1.125137,0.6322192,1.7651383,0.35680425,-0.98173994,0.023060702,0.43879297,-0.06656661,1.8374993,-0.1831274,0.60843784,0.49435836,0.8555908,0.029639699,1.4685867,-0.6258986,0.039267007,-0.36892405,-0.08859222,0.38233128,0.18123394,-0.39696476,-0.3921849,-0.9130077,0.14906028,0.2516216,1.5948536,-0.22992498,-0.320849,1.1258966,0.95420176,0.32166296,-0.19297463,-0.31173477,0.006330046,0.6237268,-1.5557454,0.6257975,2.7810273,-0.22337703,0.5370199,-1.5176454,0.5482402,-0.5281958,-0.44883797,0.38566208,-0.22740756,-0.58207965,-2.4552643,0.59228003,0.92315006,-0.55607665,1.3965107,0.6128325,0.11469554,1.25253,-0.23947768,0.07572618,-2.8020523,0.58207035,0.74689776,-1.6034821,0.45167714,-0.48472586,1.640904,1.02648,0.5386665,0.44003364,0.7393081,2.0234993,-0.66371256,-0.4740197,0.4068763,1.3419646,0.7180761,0.29659873,0.28036013,-2.112373,-0.3512847,0.19882002,-0.24005471,-0.7589329,0.9266789,-1.1559703,-0.9892835,1.1768622,-1.0825816,0.12603733,-1.3781066,-0.3465142,-2.359367,0.40284464,-1.327272,0.8205785,0.36701423,0.33611706,-1.5483433,0.003446825,-1.4361743,-0.4156049,-0.056362845,0.7209381,-1.1639249,-0.7419169,0.0051864656,-0.7902691,1.3776352,-0.7603308,-0.78806496,0.07947452,0.41682747,1.258647,-0.74414325,-0.45713434,-1.0878971,0.119424276,0.5202975,-0.7000078,-1.028871,-1.5339516,0.18910833,-0.6838544,-0.2763705,-1.3571798,0.3053728,1.5291169,-0.63225615,-1.0010612,-0.4348486,-0.8681709,-1.6024048,0.8231936,-0.27938935,0.26343265,-0.9242663,1.3743165
rsq006,0.2345479,0.47230363,-0.45865354,-1.7004845,0.3427062,-0.2269129,0.32262653,-0.5904978,0.04202578,-1.2202833,-0.65612066,1.2606024,-0.5882391,-0.28627118,0.16774346,-1.3294846,-0.23139295,-0.8959547,-0.25927398,-0.75755465,-0.50726,-1.3825219,-0.30739918,0.18855509,0.27072257,-0.4044722,-1.0386797,-0.567548,-0.30837914,-1.6406797,0.80454814,0.83001983,0.47367877,0.2703399,-0.018555522,-0.18497834,0.679615,0.16399506,-0.5309807,-0.24462919,1.2490107,0.9701308,0.5112084,-1.1517276,-0.3657742,0.05667909,-0.37942475,1.4745775,-0.60759586,-0.3509144,-0.15541318,-0.7664272,0.23132047,0.36491376,0.6364356,0.26497817,1.1567736,0.14746162,0.03559743,0.2958128,-0.5755891,1.7653904,-0.2173049,1.0597086,-1.4632887,0.12093333,-0.4518053,-0.46581262,-0.58712596,0.35065538,-0.3976894,0.9131695,-0.019430969,1.402303,1.4879403,-1.3211384,1.0506607,-0.6887805,0.17935188,0.49278063,-0.31788394,-0.18382435,-0.5901882,0.93059397,1.0790544,-0.78840935,0.3660863,-0.4667061,-1.2655149,-0.97934496,1.0159941,0.8778761,-1.1006777,0.27554864,1.8085781,-0.25946411,0.8792694,-0.41673905,0.44872364,-0.95421904,-0.052983742,0.3200027,-1.2051444,1.0257744,0.47755688,-0.5965176,-2.24013,-0.52163297,-1.1337097,0.44403544,0.71167517,0.27127695,1.7542989,-0.045486324,0.8028038,-0.6074899,-0.5011264,-0.6997807,-0.25344044,-1.2793678,-1.4109251,-0.1190264,-0.31652808,1.0647494,-0.11418432,-0.75612944,-0.7213688,0.026827227,-0.2764302,-0.5350173,-0.49785298,-0.492124,0.3615145,1.982715,0.57226396,-0.6659844,0.9841654,0.2039731,-0.63218904,-1.8152113,-1.2429818,0.3186615,-0.4066464,0.21646981,0.8251854,-0.4857309,0.123650864,-0.36742228,-0.74745953,-0.6633356,-0.45127162,-0.365153,-0.8181488,-2.2316697,-0.22234473,-0.8325118,1.1104691,0.5302528,0.2720756,0.95629996,-1.464127,1.187062,-0.92603654,0.872625,-0.6673423,1.4384155,0.4278223,-0.28026825,0.56872904,0.21674427,-0.09219696,0.59602374,-0.5226986,-0.9581453,0.68882525,-0.6299449,-0.11048786,0.83160114,0.88955194,0.9761403,1.2856599,0.32335407,-0.37600386,-0.21530214,-0.4945201,0.86420727,0.4119535,-0.048315775,-0.16191249,-0.91961336,-0.3782546,-0.6350457,0.5182038,-1.3654573,-0.081879914,-0.329305,-0.7143554,0.006497079,0.09242455,0.5487383,-1.7299408,-0.6974456,-0.86305684,0.6882025,1.2364837,0.9573897,-0.094324194,-0.5045652,0.95474184,0.42999166,0.15943228,0.7071244,-1.736276,-0.14322646,-0.6102595,0.8624757,-1.7728907,-0.6593052,1.7141616,1.1878558,-0.2630015,-0.825412,0.6572629,0.36348325,-0.28662068,-0.06133282,-0.09884273,0.38484696,0.6252564,-0.2163175,0.49821815,-0.23319694,-0.16253492,-1.5799732,-0.6344215,-1.8358542,0.45665044,-0.5110682,-0.04271658,0.64437133,-1.1667932,0.49674702,-0.6676968,-1.377624,-1.249965,0.41985473,-1.3756919,0.6552901,0.94079286,0.03563588,-0.0004940376,1.7075161,0.2206336,-0.77182513,-0.36550516,0.36403117,-0.08124235,0.3257653,-1.4044135,-0.7020022,1.2571046,1.4750633,-0.5180458,-0.6345972,0.80017805,0.30329943,0.02885124,-0.43142837,0.57099116,0.28786042,0.8452196,0.25616455,-0.654642,0.3524084,-0.6300716,-0.08085253,1.1460283,0.7588887,0.48102155,-0.61459506,2.0343223,-0.7560054,0.43501526,-0.95252496,0.876019,0.25846475,0.9982626,-0.15083551,-0.4834382,-0.21183667,-0.5971428,-0.15451585,1.3814658,-0.24539736,-0.3816269,1.1405036,-0.49320477,-0.8726193,0.15985104,0.82328856,0.44815683,-0.54118836,-0.349531,-0.117872044,0.15209758,0.14649656,1.590801,-0.26625377,-0.49613824,0.6938244,-0.53949463,-1.7652366,1.7033398,1.5060178,0.39136356,0.18944846,0.5326498,1.3360513,1.4128851,0.44593897,1.1464671,0.889223,0.7600315,0.6970214,0.23054942,0.569499,-0.6093105,0.6299076,-1.2904215,0.20418963,0.8518855,-0.088221416,-0.40588158,-0.7239162,0.04494344,-0.9728178,0.00012538434,0.6282676,-0.43917933,-1.1292841,0.57543904,0.85261077,0.12743293,-1.8728955,-0.22225988,-0.16957371,0.42497176,-0.578529,-0.5630909,0.29815993,0.47525302,1.8072767,0.8651851,-0.80151004,-0.55707514,-1.0909035,-0.858039,-1.1160867,1.6184356,-1.356102,-0.5845035,0.9457275,-0.56315863,-0.6872012,0.4784483,0.47121134,-1.854462,-0.48423323,-0.20060563,-0.83818233,-0.15390171,0.5415694,-0.36877814,-0.7334992,-0.58780587,1.1347172,1.0148652,0.777084,2.1784186,0.429387,-1.6791563,0.43475643,0.09980787,0.5174978,0.09833657,2.791687,-1.3213003,-0.3273768,-1.7590482,-0.5620941,-0.47911924,-0.56467396,-0.21621387,1.0577328,-0.7748922,-0.6439204,-0.29194242,0.00067781506,-1.0272677,-0.32472402,1.1278183,0.36333033,1.457645,0.7942909,-0.004490155,-0.13118848,1.0245221,-0.08030443,-1.9518467,-0.6366909,-0.9306754,-0.03142627,0.014795658,-0.9636885,0.17598441,-0.9463854,-0.62608945,0.30686823,-0.39494592,-1.2921139,0.8292912,1.1751596,-0.7360629,-0.93103915,2.0368552,-0.20009,1.5272093,1.1528219,0.94976604,1.0484397,-1.1860071,0.07039529,0.4735548,-1.160065,0.4386611,0.83486825,1.0342172,0.9467637,0.5822048,-0.47261375,-0.39305067,-0.9558508,1.5976303,-1.0080652,0.6648387,-0.41105992,-1.1368841,0.14881605,-1.566541,0.67563516,0.8432153,0.6710194,-1.9676415,-1.0219356,1.0695345,0.6322049,-0.6413065,-0.4310526,1.1134665,-0.4396127,-0.25632045,-0.68316376,-1.6278712,0.55899394,-0.09997176,-0.39343196,-0.6661703,-0.17238227,1.6576363,0.4163951,-1.5266889,0.089284204,-0.08563647,0.4526449,0.72786367,0.05135601,1.5992569,-0.48710576,-1.4986101,-0.016385827,0.7264878,1.3267165,0.8361025,-0.7492323,0.5073765,-0.085210994,-0.5283701,1.7614619,0.03263993,0.21579775,0.11794759,-0.6804395,0.3001694,0.81981677,1.0318464,0.38813418,0.011600688,1.4474671,1.3186855,0.20262043,-1.3049468,0.3803839,-0.86005193,-0.80024844,-0.93100804,-0.9610969,-1.0148108,0.6882144,-1.3112581,0.38151264,-1.097281,1.3856003,-0.9917301,-0.98900014,0.19852707,-0.29958516,0.44815502,-0.90686274,-0.35305873,0.09272392,-0.3757235,0.5889202,-0.0622827,-0.9092678,-0.16550353,0.63330424,0.050327778,1.2419711,-0.6186557,0.15893838,0.77143395,-0.52756166,-0.9312867,0.5089766,-0.31058258,0.71849525,1.3380169,0.89132816,0.76882553,0.13931683,0.5035274,0.25806755,-1.1832426,0.17889687,-0.575077,-0.14152354,0.57021844,-0.74974245,0.1000396,-0.71918327,-0.44721943,0.47726193,1.2611568,-0.40274143,-0.86974823,0.12700683,0.06095918,0.46716475,1.6445538,0.9082774,-0.08975709,0.13835879,0.32111326,-0.5731482,-1.0352705,0.3689666,-0.44881502,-0.41447487,1.0320323,0.7117138,-2.0711513,-0.12520686,0.022767162,-1.1374221,0.3462646,-0.32689852,0.10632913,-0.9333066,0.9883221,-0.6889864,-1.8216436,-1.0212619,-0.318242,1.3982377,-0.91356164,-0.98947966,0.6801735,-0.41112217,-0.99283123,-0.8353094,-2.4240034,-0.042598438,0.4262886,1.1442406,0.24234548,0.43650192,-0.0975593,0.32546097,-0.46767426,0.92810905,-0.81556904,-0.31252137,0.54087985,-0.059190977,0.043185733,0.27675456,0.4177231,-1.9435154,0.5282297,0.42406183,-0.15752226,0.24756809,-0.6317174,-0.90469533,-0.9760599,0.4484593,0.60306215,1.773763,0.7249591,0.06713134,0.8898964,-0.7189101,-0.4163517,0.39900556,-1.3560984,0.24774785,-0.09140919,-0.024476478,-1.2312294,-0.90678614,-0.08551079,-4.132106,1.6344662,-0.25516626,-0.15364376,-0.56780946,-0.55281156,-0.46910086,1.4935949,1.0796938,-0.10673177,-0.7136908,-1.16275,-0.5468486,0.38261476,0.5970236,1.2667133,0.9256476,-0.50870275,-0.41219455,1.3585132,1.8886064,-0.93557036,-1.3330157,-0.49239382,-0.103965506,-0.17945248,0.24092516,-0.047124483,0.8674062,-1.1351165,0.042209305,0.17421815,0.72143567,0.6972612,-0.72765857,1.0881495,-0.2489239,-0.104455814,-0.5445947,0.6524374,0.2936375,-0.16899155,0.44826952,0.6644514,-1.1043018,-0.3421941,1.064192,-0.044781998,-0.74088687,-1.4241956,-0.43540663,-0.36990386,-0.23538132,0.8469809,-0.4726879,0.1384411,-0.3636289,-0.2791857,-0.18016931,-0.73465544,0.05710081,-0.3108825,0.78941077,-0.7066225,1.4240184,-1.9524807,0.81056345,-0.89166087,0.62174046,1.0400221,-0.31828243,-0.16145629,0.48517436,-0.6314394,0.2993545,0.6792142,0.046112336,-1.9208107,-0.13034031,-1.7057343,1.1350864,0.25300804,0.11621122,-0.640237,-0.16568485,0.973699,0.53051585,-0.6083561,1.9344132,-0.198612,-1.1152174,-0.0029781342,0.82400084,0.15782759,0.071738355,-0.011526177,-0.22314021,0.64086545,0.2816455,2.0906472,-0.3784195,-0.23861285,-1.1122706,-0.39612395,1.0436783,-0.5545636,-0.7865492,-0.10429458,-0.22424726,-0.22444367,1.1654104,-0.5749631,0.16040967,0.10973005,-0.058457773,-0.7869234,0.35628074,2.1761773,-0.9547707,-1.219346,0.19102989,2.0402794,-0.035723932,-0.68280566,-0.7703542,-0.9228202,0.06976754,0.8980131,-0.6029235,0.116611995,-0.36212996,-0.6887844,-1.4700158,-0.70692074,-0.39069265,-0.88896734,-1.7136257,-0.35489607,0.7245664,0.9725895,-0.89825296,0.83971226,0.29564014,2.2881386,-0.14623897,0.3732477,1.1078506,0.85026103,0.48827782,0.18866487,0.39957887,-0.659601,-0.85110456,0.3853748,-1.6582115,-0.34360117,-0.49893403,0.22782,0.9266201,-0.24841645,0.65326226,0.30129486,-1.3292202,-1.1136242,1.3685503,-0.23125274,0.35912675,-1.5365689,1.3832878,-0.369886,-0.45097637,-0.5771571,-0.46064782,-0.5578272,-1.4182743,-0.045723796,-0.4625218,-0.46902943,0.14191218,-0.4869998,-0.25422195,1.5143373,-0.27034605,0.9560257,0.137381,1.7987531,0.18687373,0.8617064,0.7602928,-1.8858715,0.40762338,-2.1106021,0.43088046,0.12060492,-0.28518015,-0.8102621,-0.18244305,0.66464853,0.30595112,1.6284078,-0.074378945,-0.8128764,-0.21052916,1.4450333,-1.9830948,-1.8036941,0.9265981,1.690695,-2.0732012,0.75762624,-1.6109995,0.7785607,0.53489757,-0.6390087,1.3802458,-3.157971,0.6482282,0.5323624,-0.43738827,-0.058756124,-1.1703228,0.0688525,-0.9448372,-0.984424,1.842803,-0.13777767,-0.9510004,-2.2534223,0.35904533,0.9332711,0.21568882,-1.7434851,-1.3775171,0.8159421,0.5481467,1.0479491,-0.34225285,-0.12997882,-0.88195074,-0.1814646,-0.34513912,-0.42481127,-0.02114771,-0.21837318,1.4464111,0.87092745,-0.30252665,0.54248965,-1.8884817,0.75034744,0.10337019,1.3279915e-05,1.7441477,-0.37367594,-0.81018335,1.2421917,-1.954169,0.83571357,1.5844003,0.3885707,0.89196855,-0.25054127,1.2573514,0.29028946,0.43564367,0.30289057,-0.054058325,0.96127206,0.7495899,2.05192,0.67550695,0.83054477,0.31856567,0.1572551,-1.226722,0.5324213,-0.64463,-0.6854186,-0.09129067,-0.35806283,-0.76164687,-0.54588366,0.9136717,0.8568533,-0.22073701,-0.45057768,-0.013046676,0.27372804,0.69179857,-0.37255558,-0.23288897,0.2727278,1.7090603,-1.5384758,-0.27797908,2.153625,0.5295883,0.026771143,0.25955763,0.8746687,-0.9688386,-0.659876,0.39823866,-0.540754,-0.6359774,-2.17281,0.14225571,0.51298577,0.36457652,1.3709304,0.76341265,0.47076768,0.07146691,-0.05963149,0.73792434,-3.051558,-0.22679189,0.36450183,-0.5428292,0.50129557,0.18000863,1.7652323,0.5423533,0.9701961,0.08851995,-0.8964941,2.3989425,-0.7902285,0.03593015,0.094898626,2.0771492,-0.47361383,0.44632044,-0.2145669,-0.75168717,-0.002879046,-0.35434583,-0.80304986,-0.3512966,-0.06580584,-0.8303383,-0.5676311,0.071860716,-1.6531767,-0.93440235,-1.723037,0.33080232,-0.8760153,-0.5155942,-0.29308087,0.06533553,0.06096545,0.02129906,-0.2439858,-0.03143868,-0.11236296,0.7110878,-0.08587957,0.0392099,-0.2811982,-1.0125797,0.41575074,-1.0571047,0.9393681,0.03929623,-0.1735654,-0.8257877,0.94887066,0.26694974,-0.2421805,-0.26855844,-0.36731422,-0.3384375,0.6304035,-0.6092437,-0.30522364,-0.70021176,-0.5971844,-1.283267,-0.91192913,-0.20369282,-0.5827154,1.3135955,-1.4895941,-1.3915442,-1.0089127,-0.28898105,-1.7366674,1.1168687,0.20071015,0.37676632,-1.5059079,1.5338354
rsq007,-0.4606105,0.116784334,0.38766202,-0.8395936,-0.8090207,0.37909603,0.3347138,0.42866448,0.18397987,0.0019868065,-1.6870865,0.27413857,-0.28403848,-0.78725576,-0.43262753,-1.3070751,0.0854207,-0.36870405,1.0381923,0.15653399,-0.135457,1.2411824,0.1908784,0.47391525,0.17874599,0.9916835,0.46975765,0.6913827,-0.23534,-0.6325946,-0.5818224,-0.13281676,-0.64535004,-0.08657044,0.13042918,0.68476397,0.19498426,0.8043227,-0.40479574,0.5141567,0.12313669,-0.036385316,1.7686486,0.40370783,-0.023777463,-0.12345486,1.1005535,1.4027971,0.36358,-0.80783266,0.96178675,0.29571047,0.5324889,-0.77127224,-0.24980468,-0.00455221,1.184301,0.3720287,0.41431844,-0.80794597,-0.9976632,0.49647567,-1.0677375,-0.15299208,-0.41017237,0.2475652,-1.0446922,0.5837888,-0.31874642,0.44661736,-0.45797348,-0.24167727,0.09075045,-0.18446952,0.65421915,-0.98119587,0.38359913,-1.5180944,-0.113535486,-0.9491206,0.12547396,1.1532503,-1.2150211,-0.38536823,0.1708957,0.145099,0.2284162,-0.8713357,0.516698,1.5035645,-1.1741565,-0.06113988,-0.666058,-0.5844788,1.285923,-0.009995414,-0.3604916,0.5642308,-1.099076,0.39258608,-0.3968258,0.06176885,-0.1202302,-0.2549038,-0.54608834,-1.1594038,0.031119304,-0.5086613,-1.2440026,0.31105638,-0.52436715,-0.37889305,0.6790542,0.71691483,0.62968606,0.66730577,0.22190519,-0.048131943,0.20329653,-0.6728141,-0.50638515,0.6303427,-0.14053893,0.13566013,0.43595052,-0.6644688,0.36180353,-1.0159019,-0.37256387,0.97716504,0.52413994,-0.02868995,0.9136116,-0.5366962,0.51113576,-0.63361293,-0.37328944,1.0728828,-0.8560369,-0.94818115,-0.23800713,0.042414676,-0.12230646,0.46584353,1.400846,-1.0907,0.4296651,0.15508556,-0.018555598,0.27203164,0.20564832,-0.100019254,-1.6151972,-0.53482515,0.9755163,1.2271823,-0.8010188,-1.2810102,1.3475147,-0.006779293,-1.5226607,-0.57299703,-0.31646362,-0.4673209,1.0712286,1.1795726,-0.20917101,-1.1786286,0.34757462,1.3394289,-0.48052177,-0.5666969,0.117325924,0.0045756004,-0.13398723,0.1609056,-0.26525757,-0.31926596,-0.11504906,0.6582318,0.43403852,-0.20142174,-0.79145116,0.3314143,-0.06545534,-0.92133164,0.77380186,0.65805924,-0.4118996,-2.0658038,-0.31269088,-0.07822277,-0.068252705,1.6017885,-0.12416914,0.115879215,-0.1333748,0.35396698,-1.2617748,0.34602794,-0.010063685,1.3098105,-0.91362816,1.311327,0.60795087,-0.45529678,1.181852,-0.06567433,-0.896792,-0.4633102,1.2844383,0.8989308,0.48703375,0.47975865,-0.5553362,1.8022499,0.86288995,0.112869084,0.31309202,0.5054148,-1.1219797,-0.77936363,0.13670391,-0.29426983,-0.6651091,1.5100027,-0.06724378,-2.011749,0.2754089,-0.03815198,-0.31834686,0.23901652,-0.1109188,-1.1125059,-0.2819943,-1.5187078,-1.0644044,-0.4934083,0.96258855,0.21268861,1.2188593,0.3198439,-0.0073710135,-0.55306095,-0.90095764,0.7282369,-0.19315016,1.2402458,-0.6028736,-0.46216163,0.0480265,-0.36304545,0.5868222,0.1468643,-0.64076203,0.31252918,0.04765901,-0.6519497,-0.6792212,-1.1577389,-0.21673994,0.85880107,0.68693393,0.5835063,0.58079696,0.47757205,-0.24579434,0.0036124636,0.27713054,0.67083186,0.06976092,0.5797034,0.2552353,-0.40598294,0.57153887,0.49169192,-0.3868575,0.663961,0.62884307,-0.7948324,0.78025454,0.22669975,0.78045934,0.66911244,0.2679055,-0.38109407,-0.82957965,1.2675996,0.26766628,-1.5498171,-0.96135825,-0.021824757,0.6911442,0.23336065,-0.03616316,0.37008098,-0.71805793,0.6493259,0.5679825,0.96193594,1.3365844,-1.0485667,-0.18136846,-0.66279674,-0.1004318,-0.14970256,-0.99958014,-0.72630006,0.13962501,-0.2831898,0.8009656,-0.6505583,-0.2660123,0.33056185,0.2718269,-0.9822201,-0.58436316,-0.23592979,0.014604617,-1.0239989,-0.62021,-1.6049881,-0.50079036,-0.7952637,0.6282251,-1.0344995,-0.48483798,-0.10207877,-0.40745935,1.0875973,-1.2586035,0.05887085,0.53312117,0.039698694,0.87524223,-0.35883963,0.29104528,0.19401763,-0.82542944,-2.1843095,0.062110443,1.2978523,-0.34270218,-0.04444185,-0.049655188,-0.44266608,0.36352107,0.2690316,-0.58466977,-0.4630501,0.8259657,0.29210424,-1.3570986,-1.3239155,0.2976973,-0.5687919,-0.80392694,-0.68350506,1.1092666,-0.29216442,-0.7972014,0.31617898,-1.2840704,0.35908905,-0.21853788,-0.7840457,-0.23637938,-0.83978814,-0.9194419,0.006696234,-0.2562758,-0.8695008,-1.9265925,-0.24074708,-0.2364806,-0.2772824,0.5290342,-0.7568355,-1.1648134,-0.21239746,-1.0072689,-1.3536987,-0.1398325,1.0806043,0.57230335,1.440359,-0.1386212,-1.2197847,-1.3935214,0.39336073,0.31361064,-0.5200028,-0.54348046,0.17655306,-1.9581553,0.31394324,0.6997537,-0.008158439,-0.45239675,-0.6811631,0.7572406,-0.8890994,0.4435661,0.081165366,0.61670667,-0.21322443,0.89388174,0.033742752,-0.19352758,0.12646027,-0.06676024,-0.9141366,0.9620073,-0.91641515,0.9041848,-0.4232652,-0.24475233,0.6968748,0.13113248,0.0822213,0.8087444,0.5145822,-1.5292581,0.022732249,-1.0404004,0.45182356,-0.97166044,1.4423612,0.86104923,1.7971516,-1.4220341,0.4725151,-0.25929895,-0.7086881,0.09139285,0.3534061,-0.1715977,-0.35135794,-0.119865626,-1.188387,0.14626026,-0.3572217,0.75576085,0.041135684,0.23644108,0.11952433,-0.37348127,-0.41810653,-0.5710574,-0.012751971,0.35453483,0.097252525,-0.9271415,-0.15503807,0.6550488,-0.16195638,0.3651422,-0.70164686,0.18859553,-0.81246614,-0.34788004,0.50323033,-0.064069904,1.1809837,-0.7941429,0.62372565,-0.08044536,-0.5869186,0.9060817,0.57298034,-0.67084616,0.30598724,-0.2674766,0.53892547,0.18155359,0.31611785,0.6756837,-0.3237945,0.14222373,0.41189244,0.4440405,0.7919648,0.2508115,0.5632128,0.23771518,-1.1460882,0.3530924,1.0511452,1.0825263,0.52497214,-0.07350748,-0.41823745,-0.52378994,0.25885448,0.28294757,1.3666124,-0.94159055,-0.18367057,0.613766,0.40981522,0.0008285741,-0.26818255,-0.8932031,-0.31448483,-0.33019778,-0.5631835,-0.9813242,1.0053884,-0.13237254,1.0743495,0.2739711,0.3783013,-0.75447947,1.6399597,-1.8467684,0.86913055,-0.5658276,0.7921255,-0.37822023,-1.0195304,0.30921808,-0.28248546,0.82130104,-1.6831573,-1.9401417,1.0637276,0.43553603,0.36499384,-0.2199233,1.2783768,-0.8250702,0.48232785,-0.58696365,-0.31631568,0.62372935,-1.1946737,-0.33521342,0.08498403,-0.5075055,-0.21600612,-1.2095705,-1.2237908,-0.6692001,-1.0100211,0.37548482,0.8653315,1.8962463,-0.06994165,0.24796404,-0.1509134,-0.16796036,0.26749155,0.82997894,0.2708712,0.61007315,0.16768497,0.28076127,-0.524923,0.26431146,-1.3446113,0.21876131,-0.040921047,-0.041431956,-0.7167137,-0.66312397,0.39870897,-0.7216746,0.8017478,0.19187714,0.833141,0.6113916,1.3536345,-0.69156915,0.09148738,-0.31827536,-0.5828204,-1.0219508,0.29945824,-1.590076,-0.14199074,-1.9349464,-0.53280824,0.21928392,1.3356699,0.4041462,1.2970233,-0.22633465,-0.38727796,0.2408842,-0.29163805,0.8809579,-0.2570929,-1.2593592,-0.093615144,-1.7423768,1.1838838,0.2065243,0.4709572,-1.0604054,-0.8298981,-0.76466227,-0.0019532542,-0.9203798,-0.99018383,1.8074179,1.1685706,0.9938605,1.0275131,0.6894464,0.6949668,0.15173176,0.38940752,0.94488686,0.058553737,0.37584725,1.0665369,0.40227708,-0.5349946,-0.40893522,0.19809723,0.53781414,0.40914837,-1.0356302,0.16020857,0.4167963,-1.7921072,-0.5631946,-2.5867612,0.3402532,-0.096391164,0.35911968,9.904723,-0.08540145,0.6891139,0.7732776,-0.14855069,-0.70641303,-0.48298833,1.0650624,-0.27160734,-0.29445663,-0.52903324,-1.3549948,0.41062096,0.6696167,0.28894407,-0.22413291,0.28877112,-0.3887559,0.75715226,1.2740296,1.3311499,0.1187708,-0.8489751,-1.3547882,0.38392714,0.3258886,0.36682144,1.0678318,1.4997581,-0.6972124,-0.66667205,0.58402485,-1.1107699,0.083426364,0.7207094,0.9118174,-0.4598488,-0.98184127,-0.23380016,0.23451962,0.29591295,-0.64026916,-0.554666,-0.16056055,-0.72364813,-0.78219795,1.6336619,0.1821181,-1.6035742,-0.6821453,0.7564978,0.19313456,-0.8370023,1.1414429,-0.39279914,0.4934161,-0.68313986,-0.34264278,-0.5508734,1.360319,1.0217482,-0.2075588,-0.9184618,-0.33376703,-1.3360443,-0.45819578,0.3391172,-0.058855444,0.46978065,-0.09118012,0.0070697055,-0.22021323,-0.66191506,-0.14559945,0.9278478,0.4279954,-1.075378,0.17406364,-0.3005814,-1.2461836,1.6651531,0.68590593,1.6491357,-0.2256711,-1.2498628,2.0924547,0.61072266,-0.63862413,-1.8632607,-0.13873836,0.08129134,-0.79906255,-0.33545795,0.17650336,-0.19852279,0.15390973,0.24235062,0.48691788,-0.267579,0.23331948,0.120511375,0.13824292,-0.5996967,-0.6828148,0.90704244,-0.21838112,-0.5667645,0.4364675,-0.15334813,-0.37323284,-0.21182436,-0.40677965,0.8465193,0.29603305,0.9525414,0.0054740408,-0.1942057,-0.22826517,-0.019171739,0.8084793,0.5126931,0.9075758,1.1889576,-0.8497343,0.3450588,-0.5807766,-0.47377598,-0.042126697,0.5417908,-0.1971001,-0.23493485,0.851311,-0.32038125,-0.50464076,-0.7851002,0.7922346,-0.42290965,-0.17078288,-0.15049489,0.3375915,-0.29914233,-0.8814175,0.2718114,-0.8944912,1.1439896,-0.6207669,0.619852,-0.6525938,-1.1489491,-1.0847521,-1.1222506,0.1406463,-0.25217214,-0.7565818,-0.9295911,-0.079453565,-0.54491705,0.5285776,0.69672936,-0.23978688,-0.48092785,-0.5722182,0.46522224,0.022723189,-0.24250557,-0.0023643814,-1.3117497,-1.0057849,-0.13537045,-0.063111745,-0.32342467,-0.45631143,0.32556424,-1.0247294,-1.1021332,0.51260906,-0.27700445,-0.310348,0.17932473,-0.06470207,0.28284863,0.5247274,-0.16512085,0.657231,0.061508298,0.55846643,-0.17776686,-0.7744793,-1.0037527,-0.025886929,-0.80516434,-1.7882448,-0.18771338,-0.35623196,-0.11042639,0.5385348,-0.64026016,-0.5150604,-1.1046542,-1.1991756,-0.32370818,-0.86989325,-0.3291272,0.8591073,-0.4829928,-0.47907594,0.39174947,1.0038403,0.9081051,-0.021106826,-1.4551497,0.13870665,0.11737714,-0.089455344,0.9580179,-1.5892806,-0.666565,0.5712883,-1.0005199,-0.69842243,0.46246168,-0.31201163,-0.5675377,2.3846705,0.41604972,0.21932052,0.06604201,-0.13335104,-0.27651966,0.0130273895,-0.9845266,0.28798705,1.8758874,0.70803875,-1.0594583,0.72357893,-0.03859084,1.238884,1.0232134,-0.9128019,-1.9344606,0.5938131,0.35350907,-1.4593099,1.2469219,-0.12119245,0.12727197,-0.40043935,-0.4442037,0.4160633,0.5163875,0.6047216,-0.03434342,0.5490464,-1.3241057,1.30998,0.1205749,-1.1797167,0.20914592,-0.08266585,-2.1846757,-0.7215331,-1.0907311,0.7077964,1.068171,0.19456987,1.023341,0.33320102,0.012622577,-0.2103122,-0.45365354,-1.1819887,-2.0940628,0.47543797,-0.703716,-1.0992488,0.36084428,-2.0432703,1.2406642,0.35339072,0.9749488,0.79716104,-0.80014306,1.4387585,-0.37391114,0.62418723,0.46301535,0.5053148,0.57133013,-0.14279647,-0.56997055,-1.3070457,0.077472545,1.0661079,-0.6857829,-0.13932247,-1.1741921,0.3944777,-0.389539,1.3912269,-0.05394706,0.5496845,-0.40622815,-0.9431293,-0.7677136,0.8259366,0.8741841,1.2703987,1.6737121,0.27145365,0.8505082,-0.24048728,-0.9585214,0.29118097,-0.08469194,-0.44558334,0.8995064,0.80265194,-0.6302558,0.2974093,0.71541446,0.385883,0.5617058,-0.4164586,0.7996684,0.14544936,-0.096826665,0.30048245,0.6546343,0.9375257,-0.023485804,0.43570852,1.0487376,0.25925407,0.2659852,-1.2230171,0.3927822,0.27710775,-1.3744184,-0.70991635,0.4070741,-0.27589592,-1.165264,0.30072853,-0.4952664,0.5726842,-0.9627479,-0.5606263,0.54410344,0.24805957,-1.8021473,-0.6706237,-0.5316673,-0.30810782,-0.41256726,-0.65160006,0.34444776,0.2651826,-0.4533284,-0.106078245,-1.1833643,0.627997,-0.7783008,-0.39843193,0.9798587,-0.90456384,-0.084707856,-0.5654714,0.22877896,0.6910561,-1.18585,-0.93828607,1.9816502,-0.5692072,0.29126,-0.377923,0.6977126,-1.4609014,-0.7247705,0.5335062,0.87988514,0.38855383,0.16141519,0.13176367,0.45706356,-0.42630538,0.28526157,0.4888892,0.7644908,0.8267174,-0.36070514,-1.3424612,0.44055533
rsq008,0.62242293,0.1608915,0.04037762,-0.6413766,-0.8521781,0.2766917,0.094142884,0.033693545,0.58431613,-0.42859358,-1.3044715,0.382714,-0.6463866,-0.67699665,-0.3590154,-1.5544047,0.13194606,-0.17054063,0.18949887,-1.1003027,-0.7293531,0.69028443,0.9470804,0.42164594,-0.21681425,0.16217667,0.37558436,0.3660902,-0.57431126,-0.91356087,-1.0963411,0.22657147,-0.412757,-0.03585877,0.7173507,0.5868877,0.012601135,-0.53614914,-0.2697682,-0.075181425,0.77848774,0.9622014,1.4131864,-0.48300046,-0.7794361,-0.5616816,0.10187125,0.94544995,-0.46412668,-0.5953692,1.2898517,-0.016015772,1.1690403,-0.6808989,0.034293856,0.25704962,1.2210274,0.8137246,1.1188605,-0.15288498,-0.87237525,0.9446131,-1.1340871,-0.3901175,-0.2000751,0.51261777,0.015280154,0.837013,-0.55641913,-0.010514629,-0.37530863,-0.58535475,-0.5116712,-0.10085093,1.8936937,-1.1123245,-0.020599812,-1.2635024,-0.41720307,-0.5076208,0.37792093,-0.19758976,-0.41278327,-0.4247787,0.31534034,0.06733703,-0.10093659,-1.2790164,-0.56604236,0.93384486,-0.50674665,0.44686478,-0.53617734,-0.5361357,0.7840433,-1.1101606,0.403139,0.4501018,0.40724403,0.50055003,-0.3750959,0.68382275,-0.7295612,0.6996667,-0.41824818,-1.1744051,-0.8402185,-0.9785013,-1.256347,0.70490587,0.10630936,-0.48414436,0.5589249,0.8818753,1.0290639,-0.17906,0.67425096,-0.032991122,-0.41882414,-1.1305165,-0.6954309,0.9735118,-0.29398674,-0.3813439,0.1041471,-0.67870307,-0.31064904,-0.28629443,-0.91105247,0.7473373,0.28216726,-0.37871075,0.92838573,0.51891667,0.20962213,-1.1056648,0.0919521,0.37245074,-1.2297843,-1.7573292,-0.15132497,-0.01884377,0.13302892,-0.4451684,0.5061386,-1.1196251,-0.78986186,0.46382517,-0.54098856,-0.38294291,0.21682069,0.4696762,-0.5483047,-1.5369849,0.72232,0.99543905,0.015872573,-0.4010719,0.6364541,0.83903825,-0.6991552,0.46935543,-0.05549983,0.32763857,1.1447775,-0.111587726,-0.06336086,-0.8305564,0.36264998,0.9280129,-0.96289825,-0.28610712,-0.29088393,0.10633819,-0.5366445,0.23133127,-0.14256446,0.096220315,-0.60135424,-0.039082024,1.4074181,1.1720303,-0.6485152,0.06241738,-0.61312544,-0.048447188,-0.48730755,0.73014396,-0.43858972,-0.90936327,0.28198987,-0.45837447,-0.36618847,0.6322262,-0.032190405,-1.0067085,0.2657965,0.31542745,-0.92448246,0.28174132,0.22872415,0.94195855,-0.26510912,1.4188814,1.7168427,0.30544212,-0.12133713,0.19927515,-0.054494433,-0.19418663,1.0252583,0.9829951,0.4564061,0.055053554,-0.7393536,1.3489027,0.13060853,-0.7764057,0.87749475,0.520084,-0.38581866,-1.6614401,0.3037599,-0.63552916,-0.6437941,0.74161166,0.5567273,-1.2956644,-0.14128153,0.13464141,-0.07621026,0.15856284,0.09297407,-1.6108596,0.44710588,-1.2759547,-0.7945819,-0.320543,0.4512449,0.21348138,0.51600873,0.79440624,-0.614265,-0.7267132,-1.9526839,0.4005288,-0.34468132,1.6184351,0.24687237,0.12324504,0.13712387,-0.6418559,-0.8535055,-0.27266592,-0.39432862,0.037903167,0.35590672,-0.11199419,-1.1713951,-0.8061094,-0.6610899,0.62523025,0.64392793,-0.32375833,0.30241024,-0.19493432,-0.011981949,-0.48193884,-0.3591276,0.12836176,0.55166245,-0.13535291,-0.4439991,-0.42638472,0.06990671,-0.19127622,0.6420405,0.10654762,0.75311583,-1.188721,1.738407,0.55199903,1.9517608,0.24602023,0.58951294,-0.15184242,-0.92013663,2.2278597,0.063409805,-1.814744,-0.53078175,0.118218176,1.3959705,-0.23705328,0.1235149,0.10349488,-0.45173994,0.6708736,0.6440384,0.81076837,1.370731,-1.2462828,-1.0079852,-0.47846842,-0.054812092,-0.5438268,-0.57622164,-0.72600234,1.0130372,0.4134276,0.39329302,-1.321046,0.10291571,1.2563405,-0.25965962,-0.5122466,0.0057054237,0.06539649,-0.11328563,-1.8667758,0.6888287,-1.3842025,0.73873985,-0.4770873,0.9510269,-0.7802819,-0.27350232,-0.076575354,-1.5951777,0.87698245,-1.1361454,0.035570875,-0.0019303861,-0.11421503,0.57710314,0.018863391,0.20514147,-0.29263017,-0.6354612,-1.5184102,0.86641353,1.0446122,0.080025345,-0.39019555,-0.6351148,-0.4729874,0.6019819,-0.25588855,-1.1695864,0.23388562,0.55649424,0.7738841,-1.3324658,-0.31334,-0.43458915,-0.51764107,-0.04222687,-0.17703654,0.5196132,-0.6768483,0.016809858,0.50421643,-0.5613647,0.9099183,-1.4651396,-0.68200946,-1.5654073,-0.67857605,-0.36729032,0.13236228,0.29499894,-0.018424936,-0.42256698,0.03390742,-0.52985424,-0.07638332,1.8215024,-0.57447773,-0.23636425,-0.03109873,-0.8485609,-0.7148726,0.4564275,1.1070787,0.2533734,1.7427866,0.4528407,-1.6961498,-1.5735506,0.08216508,0.3440444,-1.4168894,-0.32305726,-0.67623353,-1.4159335,0.023162864,1.2826746,-0.74812573,0.7921254,-0.6265242,0.5835426,-0.5961659,-0.059554145,-0.3694228,0.65906596,0.19115444,0.7291618,-0.6929362,-0.6535731,-0.93793017,-0.33736172,-0.3796956,0.3041176,-0.4077073,1.3338592,-0.55342996,-0.69987166,0.44081733,-1.1399381,0.7322308,1.5708244,0.07590909,-1.3673166,-0.4284786,0.46969706,-0.18434395,0.2036236,1.8303185,0.84878373,1.4305884,-0.3668687,0.6645631,-0.22577114,-0.6329518,0.5770838,0.10402384,0.2951709,-0.5366145,0.059997097,-0.98190546,-0.58719206,0.27504525,0.48686838,0.46093416,0.16438016,-0.5576805,-0.661459,0.3370319,-1.3045152,0.09809877,0.27100056,0.6294361,-2.0461962,-0.9089217,1.0564243,-0.98541605,0.52105486,-0.70168567,0.93824565,-0.9506487,-0.5406473,0.2123576,-1.0498748,1.5311365,-0.4711631,1.2812967,0.17520216,-1.3646704,1.4306657,0.9075731,-1.5723563,-0.1677484,0.23768623,1.069057,0.4661398,0.09659465,1.7218378,-1.1599439,-0.028827764,1.0605682,0.45903224,1.0170889,0.28333023,0.84535617,1.4031055,-0.660648,-0.07532735,0.94526315,0.5785236,0.7878942,0.31833157,-2.0472012,-0.53608596,0.29318458,1.1259652,1.4092615,-0.30645272,-0.34631726,1.0714676,0.36340556,-0.361668,0.55460656,-1.4783087,0.20929378,-1.6014827,-0.3491445,-1.2100589,0.017434647,-0.22403948,0.8041918,-0.03165846,0.8536793,-0.5474595,1.5341108,0.12683825,0.80245805,-0.7733327,-0.08112042,-1.2588605,-0.809579,1.0031023,-0.3135988,0.30285668,-1.8324623,-1.9055353,0.30530882,0.72658306,0.5261658,-0.07848625,0.28607592,0.0954434,0.46573693,-1.0682825,0.3702796,0.20554745,-0.96468484,-0.09750069,0.74705744,-1.0237496,-0.6249893,-1.4290867,-0.9614842,-0.93093157,-0.76633966,-0.36694303,1.4827135,1.9674703,-0.44119588,0.80142725,0.27997056,0.050421875,0.31482747,0.13308099,0.22918494,-0.47909653,-0.25028354,0.45682484,0.3781728,1.1618634,0.05314415,0.07260865,0.1717974,0.009433411,-1.3115463,-0.3557162,0.50652224,-0.21649006,0.5584098,-0.20500572,0.52150327,0.20118318,1.8952065,-0.62251663,-0.3280298,0.32784107,-0.44653356,0.1982575,-0.31357175,-0.4849336,-0.3984748,-1.9988005,-1.2318304,0.24890599,1.1392773,0.09644731,1.4556241,1.0753835,-0.22555277,-0.5526415,-0.8939147,0.052064016,-1.3243062,-0.6631045,-0.44310793,-1.3259928,0.69292855,-0.35020545,0.24250643,-0.7980658,-0.24268836,-1.9019493,-0.29037565,-0.45582274,-1.0184085,2.02891,1.4889708,1.303354,1.3553005,0.8523561,0.257205,-0.80755234,-0.35158625,0.45097426,-1.1109577,-0.4121831,1.4014177,0.20599687,0.99283123,-0.113627166,0.31234682,0.08691734,0.46407473,-1.0637088,-0.053994484,0.3356434,-1.095572,-0.14630121,-2.0298915,-0.44439322,-0.072419696,0.46359763,7.773192,-0.4762451,0.7090941,-0.1468966,0.560112,-0.9295304,-0.3004248,0.5805178,-0.014571162,0.11720338,-0.69803184,-1.6178201,-0.58244896,0.076857165,0.28967553,0.010561746,0.040933825,-1.4042946,0.096583195,1.3818324,1.3123579,-0.33848733,-0.5590233,-1.3607378,0.7000753,1.0114565,1.0872394,0.759261,1.0872521,-0.46218127,0.060057033,1.0911919,-0.3805656,-0.3001877,0.9543303,2.2841887,-1.1649549,-0.6699521,-0.4660702,0.31361803,0.65955746,-1.322632,-0.97314143,0.16396903,-0.36684534,0.005334951,1.7751658,0.69349444,-0.9008106,-0.9371728,0.61840427,-0.4505989,-0.69605255,0.5045756,-0.26772672,0.3884272,-0.19428858,-0.35752097,0.068481706,0.48984373,1.1334819,-0.26282835,-0.21857782,-0.4210955,-0.31202736,-1.0517144,-0.3398296,-0.6713532,0.77960336,0.44411653,0.18047707,-0.1842305,-0.48311332,0.30934453,1.0187296,0.99508405,-0.017184772,0.022047006,0.4871807,-0.5928845,1.6873833,0.8399017,0.5812108,-0.8934573,-1.4450862,1.5115594,1.0542399,-1.7961847,-0.20004746,-0.6188324,-0.4824952,0.21134438,-0.039003883,0.47012055,0.0062418133,0.20529611,-0.21770011,-0.16439539,-0.7302177,1.2283043,0.13651232,-0.12421997,-1.1320951,-0.44372034,1.7861044,-0.8376551,-1.1571108,0.47544473,-0.8670031,-0.046043977,0.1716897,-0.1312119,1.1844469,0.7953545,0.4211938,-1.0046737,-0.18602653,0.8400273,-0.66941553,-0.53613025,0.80058736,1.8751614,0.49960503,-0.031402435,0.8042823,-0.4297362,-0.5056238,0.59705245,0.27833945,-0.27541262,-0.2335796,-0.22815973,-0.0673648,-0.52644664,-0.4480098,0.48907736,-0.5248078,0.18304288,0.2813913,-0.04985555,-0.6801632,0.5676305,-1.0352749,0.16010027,1.0900708,0.30490625,0.8835129,-0.9206071,-0.5885154,-1.3442369,-0.5711142,0.8265461,-0.35784972,-0.06167829,-1.7832714,0.2907433,-0.98560464,0.83029556,1.0218825,0.13885014,-0.80363476,-0.8042426,0.27238485,-1.5355407,-0.8729374,0.7089883,-0.6665023,-1.4168811,0.6375096,0.19532844,-0.95844156,-0.39199013,0.41424263,0.057831764,-0.96552926,0.34123173,-0.5991192,-1.9136078,0.63606644,-0.27104583,-0.41621068,0.55184305,-0.52571416,0.27228963,0.15983483,0.7307061,0.087702945,0.27563876,-0.065906,-1.4260392,-0.8844284,-1.4864025,-0.28497756,0.45191693,-0.0011794828,0.094024524,-0.7339331,0.5004683,-1.0183547,-0.37652773,0.34353864,-0.78784776,-0.19280219,2.0971904,-1.5518401,0.10987931,0.3505909,1.0247668,0.3046962,0.009365335,-1.471682,0.41389415,-0.5043225,0.1731949,1.5863385,-2.1703324,-0.0074430034,-0.04270915,-1.1372902,-0.64517343,-0.20936812,-0.79018617,0.002391521,1.5207719,0.9612044,0.2743135,0.1440082,-1.0943396,-0.6991904,0.1583717,0.017572023,-0.23704252,0.34874249,0.28912872,-1.8574543,1.3755522,-0.3501818,0.6601644,0.11880616,-0.6069724,-1.3798997,0.4909119,0.6722427,-1.4222338,1.4506311,0.8457284,-0.24479087,0.1819646,-1.1352804,0.40305763,0.87667334,1.9804218,0.7239456,0.05166293,-1.6812217,0.5111373,-0.6342178,-0.2623726,0.96903706,0.41524267,-2.085727,-0.27745563,-0.61566,0.58027345,0.36980435,0.024910528,1.0803257,0.4739177,0.41693932,0.9448927,0.15164256,0.084262624,-1.346351,-0.10561282,-1.1738867,0.041192506,-0.31305283,-1.6395305,-0.1840353,0.5330534,-0.041800704,0.1675817,-0.07895236,1.4078233,-0.20063782,0.32072216,0.72207487,0.8854123,0.20582956,0.010398131,0.2838435,-0.9634227,-0.33026645,0.3741956,-0.81963336,0.29183063,-0.53349155,0.72671527,0.22088434,1.6976919,0.10767129,0.5452372,-0.22905244,-1.4079968,-1.0454317,-0.43879557,0.6710063,1.8223783,1.5384129,0.60205144,0.49964988,-0.14863785,-0.2326341,0.13502328,0.03872706,-0.9014928,1.1067212,-0.34548998,-1.0219097,0.17023644,0.17952293,0.78121924,1.0460355,0.41523618,1.0341654,-0.5407961,0.7442117,-0.010526948,-0.19730246,0.70239574,0.7123093,0.4286442,-0.40237445,0.5972561,0.18097883,-1.0888954,-0.17613584,-0.18567353,-1.2636514,-0.9351585,0.6402156,0.18236445,-0.5726633,-1.5270911,-0.079792716,0.02250208,-0.4890561,-1.1961256,0.24100412,0.45052528,-1.0833813,-0.04798848,-0.5074659,-0.8734181,-0.00751229,-0.11688281,0.4056871,-0.040202685,-0.30768007,-0.18478507,-1.2417518,0.7153801,-1.2275633,0.45304227,0.2655362,-0.674895,-0.10205312,0.0433971,0.30706313,0.20389244,-1.7167647,-1.0410836,0.57261384,-0.8718857,0.48521864,0.25165814,-0.07444859,-1.6191955,-0.7576194,0.17487927,-0.07471929,-0.2257399,0.8141713,0.005093742,-1.032876,-0.712229,0.50270134,0.4442775,0.81116295,0.7439199,0.4352571,-0.23392013,-0.016513314
