question_id,0,1,2,3,4,5,6,7,8,9,10,11,12,13,14,15,16,17,18,19,20,21,22,23,24,25,26,27,28,29,30,31,32,33,34,35,36,37,38,39,40,41,42,43,44,45,46,47,48,49,50,51,52,53,54,55,56,57,58,59,60,61,62,63,64,65,66,67,68,69,70,71,72,73,74,75,76,77,78,79,80,81,82,83,84,85,86,87,88,89,90,91,92,93,94,95,96,97,98,99,100,101,102,103,104,105,106,107,108,109,110,111,112,113,114,115,116,117,118,119,120,121,122,123,124,125,126,127,128,129,130,131,132,133,134,135,136,137,138,139,140,141,142,143,144,145,146,147,148,149,150,151,152,153,154,155,156,157,158,159,160,161,162,163,164,165,166,167,168,169,170,171,172,173,174,175,176,177,178,179,180,181,182,183,184,185,186,187,188,189,190,191,192,193,194,195,196,197,198,199,200,201,202,203,204,205,206,207,208,209,210,211,212,213,214,215,216,217,218,219,220,221,222,223,224,225,226,227,228,229,230,231,232,233,234,235,236,237,238,239,240,241,242,243,244,245,246,247,248,249,250,251,252,253,254,255,256,257,258,259,260,261,262,263,264,265,266,267,268,269,270,271,272,273,274,275,276,277,278,279,280,281,282,283,284,285,286,287,288,289,290,291,292,293,294,295,296,297,298,299,300,301,302,303,304,305,306,307,308,309,310,311,312,313,314,315,316,317,318,319,320,321,322,323,324,325,326,327,328,329,330,331,332,333,334,335,336,337,338,339,340,341,342,343,344,345,346,347,348,349,350,351,352,353,354,355,356,357,358,359,360,361,362,363,364,365,366,367,368,369,370,371,372,373,374,375,376,377,378,379,380,381,382,383,384,385,386,387,388,389,390,391,392,393,394,395,396,397,398,399,400,401,402,403,404,405,406,407,408,409,410,411,412,413,414,415,416,417,418,419,420,421,422,423,424,425,426,427,428,429,430,431,432,433,434,435,436,437,438,439,440,441,442,443,444,445,446,447,448,449,450,451,452,453,454,455,456,457,458,459,460,461,462,463,464,465,466,467,468,469,470,471,472,473,474,475,476,477,478,479,480,481,482,483,484,485,486,487,488,489,490,491,492,493,494,495,496,497,498,499,500,501,502,503,504,505,506,507,508,509,510,511,512,513,514,515,516,517,518,519,520,521,522,523,524,525,526,527,528,529,530,531,532,533,534,535,536,537,538,539,540,541,542,543,544,545,546,547,548,549,550,551,552,553,554,555,556,557,558,559,560,561,562,563,564,565,566,567,568,569,570,571,572,573,574,575,576,577,578,579,580,581,582,583,584,585,586,587,588,589,590,591,592,593,594,595,596,597,598,599,600,601,602,603,604,605,606,607,608,609,610,611,612,613,614,615,616,617,618,619,620,621,622,623,624,625,626,627,628,629,630,631,632,633,634,635,636,637,638,639,640,641,642,643,644,645,646,647,648,649,650,651,652,653,654,655,656,657,658,659,660,661,662,663,664,665,666,667,668,669,670,671,672,673,674,675,676,677,678,679,680,681,682,683,684,685,686,687,688,689,690,691,692,693,694,695,696,697,698,699,700,701,702,703,704,705,706,707,708,709,710,711,712,713,714,715,716,717,718,719,720,721,722,723,724,725,726,727,728,729,730,731,732,733,734,735,736,737,738,739,740,741,742,743,744,745,746,747,748,749,750,751,752,753,754,755,756,757,758,759,760,761,762,763,764,765,766,767
rsq001,0.018787427,0.057374593,0.0019948378,-0.012733981,-0.05269926,0.015504961,-0.057335578,-0.0028515586,0.0092683025,0.00045825727,-0.080920205,-0.026129903,0.000780234,-0.028016122,0.012783658,-0.019224374,-0.018757505,0.025081446,0.014821348,0.017988397,0.027451884,-0.020304296,-0.010570818,-0.051985826,0.062252488,-0.000105831394,-0.009356824,0.056727994,0.041193362,0.017725037,0.021921795,0.02584514,0.0012386006,0.0139708435,1.672269e-06,0.006309846,-0.00041670937,-0.000715751,0.024665248,-0.00035548437,0.006900104,0.031049535,-0.048323568,-0.031589698,-0.011994918,0.0031458896,0.022456737,-0.07311465,0.031155441,-0.05811966,0.011532756,0.076224044,-0.12641387,-0.027716355,0.057402078,-0.035776377,0.053658873,-0.051886365,0.07156927,-0.052822612,-0.00957765,-0.09569521,-0.030113539,-0.017996736,0.039979026,0.027888818,0.02568633,0.042788006,0.0050898264,-0.024892425,-0.026233057,0.048268557,-0.025100987,0.04054718,0.0031586506,0.049859308,-0.004155166,0.01668216,-0.038376857,-0.020444343,0.018358538,0.089780435,0.0048163235,0.047258683,0.072987385,0.028231554,0.0032097893,0.005310608,-0.0009359212,-0.020799855,-0.01712595,-0.031051574,0.01340663,0.017652825,0.008010268,0.025501264,-0.0168841,-0.010059952,0.018117765,-0.019955095,0.02184486,0.007110277,0.03176044,0.033625927,0.03856829,-0.10152348,-0.0283661,-0.06398375,-0.00058792805,0.060568653,0.0617775,0.011713864,0.014542823,-0.015097899,-0.047272008,-0.02748297,0.0053971405,0.0584487,0.030463044,0.009996294,-0.032482363,0.011121043,-0.011582965,0.025686963,0.0007242785,-0.04487675,-0.0008490605,0.0012878722,0.0032998733,-0.030040316,-0.051753618,-0.014890994,0.024403557,-0.034102395,0.008137125,0.051526308,-0.021374717,-0.033954382,0.008114185,-0.0022698925,0.035624344,0.042541653,0.016288877,-0.022524685,0.016665857,-0.070763454,-0.016080303,-0.021405008,0.024086853,-0.0071613477,0.05808545,0.056818996,0.045047652,-0.010500756,0.028189663,0.032745123,-0.016994791,0.04528011,0.05230885,-0.009603755,0.04320385,0.00824337,-0.010587844,-0.0097049875,-0.023755612,0.020435749,0.0889085,0.007150172,0.03342174,-0.0010469414,-0.01010054,-0.08949368,-0.0053333305,-0.0024249556,0.039426453,0.02625827,-0.030423913,0.0031899444,-0.020578336,0.045122,-0.055061344,0.117584914,0.025002945,-0.015937738,-0.015005268,-0.009930528,0.04827789,0.03776506,-0.015042912,0.008994315,-0.005573596,-0.013125983,0.060986876,-0.034635406,0.005525403,0.008011872,0.008037172,-0.07272414,0.043586873,0.0026366226,0.035425387,0.006579243,-0.0167341,0.024250956,-0.02670141,-0.008650679,-0.037771657,-0.0247504,0.0009677895,-0.04290016,0.011633571,0.011623638,0.015844464,0.013301074,-0.02844589,-0.010183581,0.04323532,0.064764835,-0.010534236,0.029673193,-0.043104175,0.08719031,0.058823753,0.017515613,-0.040293787,-0.017389858,0.0233034,0.0014214617,-0.01907007,-0.00488011,-0.015589142,0.0010574694,0.026683576,0.0015574623,-0.011088177,0.07237017,0.012875351,-0.0031300012,-0.045432817,-0.036004543,-0.020125289,-0.06801336,0.056915123,0.02301235,0.021168152,0.0068778833,0.026748253,0.011865387,-0.064252645,-0.015659623,-0.004666733,0.004122465,-0.031169636,0.01295025,0.037052073,-0.027290152,0.010772876,0.014004556,-0.034935962,-0.03616585,-0.038965907,-0.015899243,-0.002662326,-0.039251063,0.07519337,-0.02838063,-0.020840453,-0.045644026,-0.026326803,-0.0017726338,-0.009442258,0.026210867,0.004632088,0.014154368,0.029078748,0.032145597,-0.016621416,-0.0002850086,-0.041286994,0.020741994,0.0108127445,-0.008910882,0.046662707,0.025600227,0.012839868,0.042849578,0.07843544,0.024694568,0.009158851,-0.020726139,-0.008580373,0.019896025,-0.037431423,0.026783628,0.002401811,-0.0011461911,0.008543337,0.036856562,0.007377413,-0.001173696,0.015482737,0.031253874,0.055739406,-0.018096687,0.07090598,-0.010438513,-0.011345596,-0.039453153,-0.026133412,-0.03493808,-0.058112904,0.0002826494,0.0015314309,0.039881956,0.0017480083,0.00015733189,-0.015262388,-0.07109346,-0.034005657,0.016647218,0.0152671235,-0.01630078,0.07355163,0.0007703713,-0.022861034,0.03517655,-0.0027220254,0.014079908,0.04115503,-0.028167466,-0.023915658,0.00909874,-0.0041802544,-0.028652422,0.009241266,-0.046519976,-0.03526018,0.021248167,-0.07562494,0.00855994,-0.018936863,-0.045604922,-0.027712278,-0.07176608,-0.026138078,-0.043736447,-0.00908856,0.030488607,0.021429988,-0.020522263,-0.029611377,-0.09204887,0.033912487,-0.013331708,-0.006250085,0.016261313,-0.014413472,0.041010536,-0.0066573573,0.0075150956,-0.069922894,0.077154264,-0.025606576,0.020199401,0.030762495,0.0048295124,0.028711487,0.024996517,0.016245464,-0.050279584,3.7687603e-06,-0.0098083215,-0.03697776,-0.016390324,0.010375988,-0.05098363,0.0063761007,-0.061601676,0.022447048,-0.024565777,0.017888913,-0.07339811,0.005476308,0.038025063,-0.048741896,-0.057853796,0.002833201,-0.050950594,-0.081417814,0.018727034,0.048739027,0.0016434896,0.043282967,-0.03260936,0.016349876,0.041567612,0.041127507,0.057683736,0.0031901556,0.016197346,-0.014477531,0.16822222,0.008900514,0.02684572,-0.029294375,0.027729917,0.012247092,0.039821144,-0.02973903,-0.01771313,-0.0791961,0.012918195,0.04369698,0.014236371,0.014241246,-0.055835824,-0.0029588693,-0.048680663,0.010726792,0.010434314,-0.030014599,0.03370755,-0.016061598,0.006369897,0.019815613,0.011280464,0.011011664,0.0797463,-0.014032268,-0.026940871,-0.020799806,0.080294564,-0.006125619,-0.0020519323,0.0020209136,-0.026576638,-0.034681782,0.080290794,-0.011879211,-0.028041929,-0.011795266,0.005966412,0.037310768,-0.045709454,0.03901992,-0.05298067,0.006069458,0.017676914,-0.02333773,0.053034414,0.015671752,0.004665327,0.00508857,-0.021607984,-0.054324295,0.01907352,-0.018952865,0.008464144,0.008104472,-0.004042043,0.0048709484,0.02519035,0.04553026,0.03668851,0.014418313,-0.05064397,-0.0103427265,-0.0349227,0.017408485,-0.04061753,0.052222937,-0.011463559,-0.038799874,0.04034864,-0.0482983,0.032349214,-0.06531678,-0.046273448,-0.040680744,-0.0035445848,-0.042962473,-0.0096808765,0.0033212183,0.030045094,0.034214232,0.010446015,0.0012157063,-0.025492147,-0.011438432,-0.08410193,-0.008050596,0.004270029,-0.020862792,0.007066789,-0.020551682,0.03764144,-0.061410297,-0.04448792,0.0014119827,-0.11368687,0.00048292923,-0.02612602,-0.025761949,-0.0018133816,-0.0029647623,-0.035317652,0.0066191936,-0.012312511,0.014594216,-0.03126014,0.028800633,0.017244104,-0.063391514,-0.054974914,0.015438316,0.046902545,0.005731135,-0.010416059,0.03461121,0.017226653,0.020874057,0.01898377,0.006855079,-0.05117199,-0.11209176,0.023271265,0.028218312,-0.002962917,-0.041088562,0.023149611,-0.06416332,-0.018924784,0.023882337,-0.0047956337,0.021600986,0.0048698857,-0.0038906953,0.00017471155,-0.031855524,0.037121568,-0.028026897,-0.01817506,-0.039689038,-0.0034005889,0.008298885,0.005233451,0.010766985,0.0044695055,0.009368279,-0.023000842,0.017285421,-0.03908969,0.036309466,-0.050282966,-0.03735594,-6.628359e-33,0.047119595,-0.029305106,-0.018965174,-0.0041013975,-0.06256826,-0.06634329,-0.009862383,0.01736738,0.038950376,-0.02336,-0.044120476,0.01569156,0.022631798,0.030935936,-0.004983305,-0.0076900525,-0.020234786,-0.006652285,0.03413227,-0.023701698,0.015088415,0.048358146,-0.012370282,-0.060534835,0.03998769,-0.011485452,-0.02312863,-0.0033684878,-0.024152093,-0.05221978,0.021310177,-0.028837545,-0.011714806,0.04686387,0.025283376,0.08723544,0.085235275,0.0027648408,-0.05351689,0.0137753645,-0.01991709,0.012190166,0.024960829,0.0067820037,0.06582262,-0.06461145,0.0029942219,-0.00011935394,0.008163903,-0.0073432424,-0.01756261,0.014266182,-0.012391875,-0.056349296,0.018543212,0.037454065,0.022412773,-0.027074758,0.020286174,0.041389182,-0.01026291,0.031629328,-0.01925948,-0.060893018,0.055806056,-0.008509448,-0.038053457,-0.0032756894,-0.08443064,-0.0677976,-0.023696203,0.02577003,0.016681813,0.014999039,0.020606263,-0.04968026,-0.00799092,-0.017992087,0.04669827,-0.035386637,0.013713409,0.0059724404,0.010714749,-0.02289085,-0.0024281584,0.05287755,-0.018279547,-0.018073201,-0.04755786,0.01574246,-0.025354836,-0.031152146,-0.055161856,-0.0103907855,-0.026925033,0.0072682532,0.04616669,0.004457582,-0.035050467,-0.04257762,0.041759018,0.017991716,-0.010157228,-0.026489876,-0.0034272796,-0.016443191,-0.071888566,0.012468203,0.004851627,0.017613824,-0.036704198,0.080870695,0.057380293,-0.020072257,0.025112033,-0.027035514,-0.013633379,-0.010003102,0.053646404,0.030107351,-0.0045052897,0.05312593,-0.06538896,0.057430983,0.007129913,0.02856645,0.028264645,-0.0126055805,0.005107348,-0.014295115,0.018669277,-0.046138138,2.3545763e-07,-0.006582925,0.01875095,-0.006090995,0.0573952,0.02175247,0.03413625,-0.038541768,0.09006566,0.0869211,-0.06067914,-0.010426622,-0.006591192,0.026719013,0.054934163,0.009697748,-0.022577357,0.002161517,-0.060213264,0.061292708,-0.051100716,0.014977353,-0.06430308,0.049125846,-0.023270082,-0.008114612,-0.046113055,0.0053253016,-0.06674603,0.038985536,0.02271652,-0.046554014,-0.0015006912,-0.06502753,0.029799111,-0.0027956846,-0.016529448,0.005535165,0.062925264,0.023096602,0.016077865,-0.01277185,0.026091715,-0.034066822,0.010638732,0.019535197,-0.08462908,0.015145329,0.07967348,-0.051861018,-0.019721873,0.034334797,-0.0144489035,0.0021673162,0.04246618,0.021574691,0.024440445,0.030043898,-0.0063513443,-0.018950623,-0.03321395,-0.023481192,0.05689142,0.015082923,0.06563194,-0.049159147,-0.04617938,-0.009224404,1.0381107e-34,0.006149055,-0.01067171,0.009958729,-0.024019286,0.0006157088,-7.9567704e-05,-0.00090713374,-0.020854501,0.054444686,0.122931406,-0.028496489
rsq002,0.05636221,0.06461039,-0.035415243,-0.0016263447,-0.06414838,0.0016217433,-0.0077228094,-0.016970227,-0.01627679,-0.013195263,0.07426659,-0.043374058,0.010666272,-0.034502864,-0.016795903,-0.043171328,0.00029032878,0.010641702,0.004743009,-0.0053897384,-0.0026353672,0.04005324,0.021560369,-0.0061375797,0.0043797307,-0.0074844803,0.000484265,0.014822903,0.060627118,0.021930283,0.0027323544,0.017589882,0.017430158,0.021879997,2.2527754e-06,-0.00019774682,-0.016132254,-0.019875763,-0.059857447,0.057061322,-0.023323504,-0.04842881,-0.043038025,-0.0015895698,-0.041891214,-0.016079,0.027232036,0.003322951,0.019227652,-0.0020215365,-0.004118306,0.058704212,-0.06501039,-0.031142779,-0.061275885,-0.058099505,-0.0070721544,-0.010564959,0.022017151,-0.043889664,-0.0067693247,-0.0059260456,-0.0035856988,-0.026937153,-0.04517689,-0.0030642767,0.11403798,0.021502547,-0.010398149,0.031856794,-0.0044350727,0.082017615,-0.008632966,0.025828226,-0.026234776,-0.009749366,0.030999748,0.021622825,-0.056076564,0.006164641,0.041499265,0.042110763,-0.0045177606,0.026933072,-0.043329976,-0.02003157,-0.046873085,0.018086895,-0.052154053,-0.03567079,-0.017623777,-0.07143387,0.021691982,0.0057049575,-0.023786008,0.026832122,-0.030841948,0.02469671,0.016744098,-0.10780042,0.00883553,0.027734604,-0.00045297094,0.030026667,0.07744638,-0.019598287,-0.039650787,-0.03578846,-0.0039905286,0.039886754,0.0017603384,0.031092975,0.008850731,-0.020334702,-0.09500196,0.005172385,0.002404673,0.02597622,-0.019595552,0.03207901,-0.098138556,0.025759866,-0.059122294,-0.014132077,-0.04272076,0.016216328,-0.05561139,-0.0006677268,0.028207563,0.03286047,-0.004549784,-0.063721,0.0466186,0.029998172,-0.029022414,0.052206066,-0.021261059,0.006480103,-0.07837983,-0.0038086472,-0.023997948,-0.028594904,-0.061932605,-0.00737354,-0.0017457666,0.00092700456,-0.012663005,-0.031380594,0.0014013468,-0.022674456,0.0081190495,0.07394887,0.03554888,-0.016932165,0.008573034,0.06814552,0.001234296,-0.047555234,0.005020986,-0.047669556,0.018360976,-0.01069755,0.034360353,-0.01825724,-0.029588697,0.025946345,0.086970106,0.022267044,-0.060143005,-0.003411304,-0.024395365,-0.0032560786,-0.04022947,0.075056925,0.00032493757,0.016205294,-0.0009031987,0.017060325,-0.040345274,0.050055895,-0.048190538,0.07151309,0.004536568,0.0036048666,-0.034195714,-0.022557868,-0.013397932,0.05248013,-0.025865862,0.010976398,0.02132849,-0.013417638,0.017088303,-0.021229967,-0.011907082,-0.005591696,0.038003385,-0.05654096,0.036999144,-0.0059990827,0.019761955,-0.027911006,0.015994987,0.07978527,-0.01776569,-0.015522921,-0.0065568383,-0.044908866,-0.0010861912,-0.010617554,0.019601703,0.036023516,0.021833846,0.015843412,-0.017259387,0.018883927,0.03862613,0.052527886,-0.042752698,0.038077127,-0.01418179,0.1064388,0.015826441,-0.015288477,-0.030686218,-0.040141612,-0.0118549,-0.010481452,-0.0012187151,-0.031733807,-0.0016967487,0.013153824,0.009146018,-0.018937174,-0.042437676,-0.024521397,0.009453155,0.029158441,-0.030557498,-0.1095924,-0.029565845,-0.070542105,0.027053174,0.00097004056,0.055526458,0.021364864,-0.0012023734,0.01399786,0.0011583507,0.00016348036,0.03449371,-0.028419524,-0.0038619214,0.0265469,-0.019980744,-0.018944615,-0.057026472,-0.003643253,0.061096262,0.01676237,-0.0064210403,-0.010196476,-0.0048565087,-0.008825895,0.03147742,0.0069040554,0.01772259,-0.026232649,-0.025792759,-0.004333479,-0.020995544,-0.027607702,0.0034659267,-0.011049355,0.00620254,0.025293864,-0.03937922,0.022326943,-0.045608763,-0.014398524,0.008932585,-0.036719285,0.018903226,-0.00072755746,0.0013727439,0.04876433,0.039478842,-0.013790224,-0.013350295,-0.050396085,0.024084833,-0.008615849,-0.03134401,0.013790748,-0.004090696,0.031440612,0.035256702,-0.0008165923,-0.014935451,0.091609456,0.024867326,-0.017800834,0.015534072,-0.023192,0.024161518,-0.022735246,-0.022301914,-0.024138957,-0.0788588,-0.041792132,0.027527925,0.026206309,0.03522043,-0.0011813245,-0.023649562,-0.0044326466,0.056012902,-0.055774536,0.0018706999,0.07118967,0.040872563,0.020992322,0.030417774,-0.0037463456,0.061375663,0.022155803,-0.030804792,0.0126693165,0.10817316,-0.021869075,-0.028812919,0.04644838,-0.008232528,-0.016875025,-0.03376584,0.026093991,-0.023316253,-0.008758775,-0.07628995,0.014384943,-0.023786517,-0.04620118,0.012666032,-0.01848874,-0.02357362,0.014577326,0.038847134,0.002241003,-0.022623029,-0.030698739,0.003420228,0.01817862,0.004646814,-0.043504618,-0.0037493475,0.010533127,-0.026123967,0.050640915,0.08364188,-0.07033285,-0.002800324,0.028349146,-0.034120426,-0.0011921708,0.00015715306,0.008042023,0.036857553,0.054851823,0.011710482,-0.0032677413,-0.03933514,-0.003542898,-0.058645822,0.003190421,-0.015938422,-0.005112093,0.026061513,-0.057555966,-0.058336627,-0.026761407,0.047638915,-0.07202977,0.044160273,-0.011812087,-0.051296923,-0.04796095,-0.010999016,-0.0476294,0.01604849,0.0491991,0.031067658,-0.01814143,-0.02569396,0.041704956,-0.016519349,-0.002891279,0.07670978,0.003236108,0.021049323,-0.015261392,-0.0011590576,0.017048914,0.045965247,0.06624197,-0.008667627,-0.007109221,-0.011038472,0.0028114966,-0.001995236,0.07319539,-0.012447626,0.02615366,-0.020137502,-0.00041577735,0.021019153,0.0004436602,-0.033674493,-0.066932246,0.0048442283,-0.0025570411,0.0024157653,0.0073912805,0.015828237,-0.049872,0.030365966,0.005830701,-0.06525045,0.036481317,-0.0056620473,0.010230832,-0.03455907,-0.010290193,-0.007960573,-0.034140334,-0.055044834,0.010111086,0.0015390652,0.03705906,0.024578312,-0.0049221306,0.008376583,0.014328503,0.093256965,0.02809046,-0.025000097,0.036921974,-0.01459041,-0.008249697,0.028859617,0.064078115,0.034333702,0.042764537,0.024814185,-0.025071714,0.034030292,-0.0054662707,-0.114705384,0.015333317,0.017593982,0.059992753,-0.014937112,0.052632146,0.053056974,0.030185848,-0.06163757,-0.028686436,-0.042624384,-0.0720221,-0.012119569,-0.004969871,0.047358274,-0.0223654,-0.010939559,0.019483648,0.030888686,0.042166647,-0.02558369,-0.12556514,0.0349372,0.01339996,-0.054372855,0.040969033,-0.043053232,-0.08761354,-0.009155289,-0.005280062,-0.006266732,0.006093936,-0.039574333,-0.06523574,-0.005395397,0.030693263,-0.009387171,0.012132144,0.029438525,-0.03520791,-0.04364659,-0.002885616,0.006997249,-0.053329125,-0.0071582147,0.023928547,0.019370124,-0.031839877,-0.03684166,0.017952338,0.00522833,0.017374262,0.006792389,-0.013070447,-0.0146077555,-0.0020773564,-0.048169807,-0.069107726,-0.0113422675,0.05208467,-0.024683217,0.004129698,0.02309154,0.0031785786,0.03215703,0.018578881,0.017829156,-0.030827476,0.017209107,-8.6366876e-05,0.03840194,0.011965628,-0.0026229024,-0.014305486,-0.049853794,0.006806866,-0.08745728,0.0525636,0.034318786,-0.013949541,-0.0415716,-0.017889298,-0.026372673,-0.01173887,-0.08747633,-0.013021405,0.014271871,0.010655693,-0.02821641,-0.019418003,0.0023256238,-0.009120177,0.031682733,0.009358638,-0.02093431,0.02550515,0.034175854,-0.034159027,0.0855822,-8.2292826e-33,-0.039756108,-0.05915215,-0.00021029252,-0.009445721,-0.01195957,0.012542461,-0.009135407,0.04016563,-0.044352874,-0.011258108,-0.013771364,0.031372007,0.031006103,0.042604003,0.045126736,0.011345517,-0.03687766,0.060388062,0.031212911,-0.039933752,-0.0013483672,0.036541667,0.022322128,-0.092402615,0.015206837,0.005360552,0.0040253736,-0.019499233,-0.031484578,-0.02010296,0.007836316,-0.0053940318,0.0012656191,-0.036174618,0.0015238827,0.050843008,-0.017709697,0.008545283,-0.0058470555,-0.012276678,-0.041233227,-0.06395531,0.012596743,0.046968013,0.028012019,-0.053571746,0.023502115,0.011691026,0.026531223,-0.006717174,-0.06103655,0.033888865,-0.05961406,0.040875763,-0.029064491,0.047497664,-0.01488947,0.034101393,-0.045963947,-0.031644452,-0.024447955,0.005944006,0.0054876,-0.008076236,-0.020595703,0.035450306,0.024742195,-0.029472917,-0.12688333,-0.05761842,-0.03269365,0.087359205,-0.0027513762,0.08816754,-0.015791316,-0.039689034,-0.08923536,-0.02531647,0.03444205,-0.005214608,0.013753796,0.030343655,-0.00013001921,-0.020599477,0.001093449,-0.06745914,-0.0109062325,0.09564823,-0.013585218,-0.026674755,-0.015785262,0.0650539,-0.0038249018,0.008827879,0.012366566,-0.09130484,0.06456618,0.019621328,0.0073187486,0.031849667,0.05456844,-0.010361914,0.0011107046,-0.033554137,0.037362844,-0.010936355,0.010622789,0.0012533236,-0.029428188,-0.002891304,-0.0005397381,0.0357266,0.007976415,0.0010026761,-0.026547832,-0.008059001,-0.010878381,-0.064773306,0.02727728,-0.010809707,0.016944611,0.040964324,-0.04000712,0.01865289,0.008982158,0.039684888,0.0718646,0.043720786,0.039964106,-0.038694672,0.012525124,-0.0069555296,2.7857456e-07,-0.0075842426,0.01626516,-0.015467322,-0.04296458,0.018157875,0.057556547,-0.010087424,0.052754056,-0.036314134,-0.031717144,0.05581872,-0.023156365,0.031617653,0.023773735,0.038847517,-0.008450843,0.022005418,-0.04785198,-0.007334123,-0.039216388,0.094907686,0.025142118,0.050612897,-0.015751233,0.013299967,-0.006792086,0.004993538,-0.024145875,0.051822033,-0.02420239,-0.016587082,-0.019272732,-0.030866612,0.06268674,-0.019170534,0.0053130104,-0.009149527,0.08619939,0.006772013,0.0026651088,0.010517253,-0.091379315,-0.00741857,0.04835652,0.0067078443,-0.017195018,0.008373848,0.013480476,-0.01539022,-0.0035624553,0.04394882,0.065211385,0.013101401,0.051892757,0.006870851,-0.010617897,0.036556654,-0.0017632577,0.045579314,0.026298745,-0.044184566,0.08142038,-0.0011440327,0.03626217,0.019875681,0.05798889,0.016498934,1.4205348e-34,0.007826442,-0.038591918,-0.008605545,-0.0025761172,0.01807544,0.013588433,-0.080120295,-0.016515827,0.026216326,0.036680385,-0.021273308
rsq003,0.056671284,0.11185236,-0.009159404,0.0050856117,-0.056676965,-0.012191337,0.014010787,-0.011872744,-0.044707473,0.006779535,0.08882147,-0.021791445,0.0070534586,0.0054520676,0.014404554,-0.033707898,-0.015654685,0.030981151,-0.02794822,-0.013674939,0.0047414047,0.050236408,0.011610231,0.018480223,-0.0672384,-0.024006657,0.023095453,0.019324653,0.01101241,0.02552368,0.04817256,0.00921966,-0.008686345,-0.0015447092,2.1914366e-06,-0.016394975,0.02474635,-0.021597067,-0.07435162,-0.017703874,-0.059917185,-0.098323,-0.034315884,0.005272765,-0.008843214,0.045296133,0.05066325,0.013066606,0.027051743,-0.010879138,-0.0031539672,0.07728479,-0.02836918,0.008090544,0.019733364,0.032837596,0.0045298846,-0.03455074,0.016769057,-0.03832704,0.040186144,0.03275582,-0.04300238,-0.012394611,0.00882475,0.014842376,-0.004613223,-0.019207502,0.028512044,-0.02525759,-0.011190694,0.009026297,0.016283683,0.07341735,-0.026990354,0.039059944,-0.0071882117,0.048568696,-0.0630962,-0.026670828,-0.011998976,0.004294025,0.004335342,0.008346117,0.01164921,-0.029215574,-0.04787503,-0.006243609,0.00067493354,0.05218786,0.020764776,-0.053913545,0.073522195,0.004417394,-0.051957797,0.010961053,0.004524692,-0.043807622,-0.008569403,-0.07472206,-0.01136161,0.03635565,-0.007523234,0.051578388,0.0069623413,-0.02265472,-0.003421443,0.008138559,-0.04024488,0.032816187,-0.046844598,0.02334488,-0.005089063,-0.035931587,0.020915153,0.0429431,0.032248646,0.001390113,-0.00022282878,0.06042399,0.03452776,0.044029046,-0.077263795,-0.043405414,-0.009638353,-0.002822818,-0.012254239,0.041299153,-0.021655204,0.02891497,-0.021480832,-0.0017349406,0.050464485,0.014163063,0.024343342,0.004116745,-0.0007324481,0.003211482,-0.07263673,-0.0065860995,-0.022887485,0.0011871562,-0.07058314,-0.0061299973,-0.009865322,-0.023699827,-0.0026651528,0.05335637,0.00030297876,-0.023028262,-0.011459082,0.06369906,0.01309399,0.006772925,0.03993361,0.04826463,-0.022905428,-0.066839196,-0.02058254,0.033256706,-0.014423699,-0.005707228,-8.396213e-05,0.0028586835,-0.06441672,0.019433163,0.104592115,0.014507403,-0.036433667,0.03220502,0.029453661,-0.0077118296,0.02138104,0.103300564,0.013421302,-0.014792457,-0.039146047,-0.03659606,-0.025145484,0.05667842,-0.07470519,-0.05450307,-0.0010985305,-0.008883756,0.0109933205,-0.03363439,-0.026608752,0.058339614,-0.03784322,0.022196928,-0.0014679808,-0.0031180894,-0.004285185,0.021977901,0.031133791,-0.022130173,-0.030419461,-0.04689837,-0.025879573,0.03873435,0.04679851,-0.054442983,-0.012574437,0.07233876,-0.025856761,-0.034004323,0.001306761,-0.045379188,0.049987074,0.007607639,-0.0018511286,0.02044425,-0.011992121,0.023395957,-0.029712707,0.009237317,0.01792091,0.031263094,-0.025713032,0.06144022,-0.033667047,0.018145204,-0.022144696,-0.0070157745,0.01723324,-0.02502874,-0.010037125,0.03174393,-0.01756813,-0.0006125159,0.005588105,0.0432962,0.023602488,-0.05224122,-0.012826391,-0.040139515,0.08622151,0.05763899,0.007822684,-0.079112105,-0.040701933,0.02749051,-0.005308191,0.0053291544,0.042098664,-0.011111347,-0.04910837,0.00892973,-0.0050150193,0.00190734,-0.042543758,-0.022202777,0.006818778,0.051677704,-0.024463592,-0.009743483,-0.06919316,-0.0007659912,-0.025064811,0.0067404793,-0.014284318,-0.016085526,0.006470787,-0.00021294005,0.057834685,0.010090707,-0.016862204,-0.01635886,-0.023114001,-0.00985027,-0.002165804,-0.021192716,0.06321029,-0.010097372,0.0121114645,0.014966741,-0.027985834,0.01901725,-0.037687223,0.029430013,0.03617799,-0.023549039,-0.009486778,0.03384842,0.0028510068,-0.03246569,0.06614576,-0.06430799,-0.08505802,0.014069225,0.0063184258,-0.007251799,0.035711657,-0.017924815,0.0029497135,0.015837137,0.04467489,-0.012618015,-0.028992835,0.023317019,0.0148133,-0.0014613122,0.02307769,-0.015387624,-0.017327698,0.00315261,0.0336541,-0.022116536,0.010195181,-0.03939375,0.02960918,0.017762622,0.026244802,0.05109377,-0.013792807,-0.004977782,-0.03816343,-0.085553735,-0.0020262832,0.029618707,-0.03750354,-0.0032235011,-0.036415216,0.02027227,0.030550133,0.017364882,-0.029572027,-0.009138175,0.081404895,-0.08145041,0.023071945,-0.026391668,-0.018105134,-0.047930364,0.02067536,-0.029675892,-0.040825196,-0.110404775,-0.061247602,0.034104247,-0.013784613,-0.046617363,0.00331878,0.01171481,-0.060354386,-0.03850822,0.00998588,0.040291682,-0.04701726,-0.023609942,0.035278477,0.034151338,0.018522017,-0.030928764,0.0005678903,-0.0038695324,-0.03246258,0.07370413,0.012121095,-0.016984675,-0.0018157592,0.016130572,-0.008470628,-0.036818024,-0.029718295,0.020791782,0.05115553,0.043440364,-0.040148426,-0.04697987,-0.009589509,0.0033054787,-0.053653866,0.014768283,-0.014053263,0.01756293,0.024026336,-0.042268407,-0.09210397,-0.015966048,0.057193805,-0.026581084,0.020625228,0.00044605884,-0.0076472755,-0.025869956,-0.016736655,-0.046613865,0.009342645,0.13752806,-0.0033361916,0.05084636,-0.0028875559,-0.0026351716,-0.02096355,-0.024030013,-0.010427637,-0.02244335,0.027613718,0.010946976,0.06480061,0.10927057,-0.008261301,0.027558098,0.0061863977,-0.026215473,0.06541311,0.048424058,0.026629059,0.02144528,0.008380005,0.019843416,-0.02841262,0.01816815,0.0115438225,-0.006938212,-0.052003045,-0.049881525,-0.008271442,-0.07382419,-0.008269034,-0.00974254,0.06353425,-0.019092029,0.048571557,0.0074125305,-0.002867899,0.027333144,0.047545735,-0.058990717,-0.00600888,0.047613222,-0.031786855,0.03426256,-0.10506373,-0.015749704,-0.008129601,-0.035029978,0.026660651,-0.0130633935,0.020317014,0.08799826,0.06099848,0.034345217,-0.04192974,0.015029331,-0.0042650597,0.013597304,-0.023722973,-0.00037482035,0.0633473,-0.008209557,-0.053961642,-0.062959366,0.023593778,-0.0044368617,-0.057673756,-0.07569069,0.020063445,0.039182458,0.034720983,0.04859018,-0.06370302,0.010067601,-0.0009120211,-0.026908528,0.035848334,-0.07911218,-0.012918089,-0.033884436,0.013022763,0.011900281,0.0016645953,-0.011477156,0.052387275,0.004040097,-0.028440885,-0.036547497,0.0053652287,0.035323765,0.025680294,0.029266233,-0.0243166,-0.037007302,0.0044605057,0.032518946,0.07961547,-0.010549968,-0.036519542,0.06903852,0.028952299,0.010672013,0.018341197,0.05995349,0.023253076,-0.019411085,-0.014920572,0.012520366,0.0013014378,-0.035052467,0.030106628,0.036920816,0.040776964,-0.0062063495,-0.004923676,0.01656639,0.018363563,-0.0558843,-0.021771763,0.014401715,-0.006849599,-0.012126003,-0.06557897,-0.11886235,0.010196112,0.04611921,-0.011451652,0.01297729,-0.013954053,-0.006892147,0.026517078,-0.006075389,-0.014529882,-0.0071239597,0.028600307,-0.02158332,0.025277926,0.0137744,-0.06072678,0.04042152,-0.084659316,0.050921932,-0.030268578,0.004903625,-0.025742412,-0.028825704,-0.0138887875,-0.006728177,0.01731897,-0.011196746,-0.0061316574,0.060308542,-0.018242339,-0.010958549,-0.046803888,0.017453663,-0.028357117,-0.028700966,-0.027270282,0.0047758333,-0.021099033,-0.0034933568,-0.010325702,-0.01743482,0.056978814,-7.446484e-33,0.031591922,-0.040187005,0.0037463496,0.016522875,-0.054274984,0.0052287425,-0.0042611384,0.0047013457,-0.028512679,0.014178269,-0.012072392,0.022168875,0.05411088,0.006622466,0.09791033,0.014869952,0.046187032,0.022066437,0.011035109,-0.04392482,0.00577593,0.023191353,0.014826747,0.033140637,0.010375233,0.032879703,-0.050193567,0.027632482,0.035202496,-0.01959312,0.0027814247,0.023958111,-0.0034626252,-0.05516615,-0.0022985819,0.0922451,-0.07872107,0.010910352,-0.0071835043,-0.0005715293,-0.04128735,-0.004821322,-0.01334184,0.033299442,0.020115966,-0.020111272,0.008645411,-0.0029613227,0.034987975,0.001531397,-0.030165195,-0.020991467,-0.03411982,-0.050425053,-0.019602068,0.03911199,-0.007818131,0.014480671,-0.07143369,-0.034164894,-0.04746581,0.031210398,0.008589993,0.01480844,-0.052098703,0.018862223,-0.043000754,-0.008680021,-0.019985218,0.004694688,-0.036341492,0.02692316,-0.03977124,0.04143862,0.026349023,-0.027807418,-0.047223672,0.045406863,0.06246495,0.047574725,0.027795007,-0.0121,0.015895963,-0.034490872,0.035980415,-0.05154811,-0.009258913,0.07945254,0.0015375986,0.0179532,-0.056236926,0.071379155,-0.051754903,-0.009650455,0.047456942,-0.04716388,0.004727484,0.034045313,0.008157835,-0.016707772,-0.010999837,0.024516445,-0.052722912,0.038907543,0.019645033,0.040603876,-0.017543484,-0.0026493056,-0.04023754,-0.0048132627,-0.037031952,0.07099687,0.009823143,-0.008314419,-0.0024768228,-0.015407107,0.032182552,-0.070919394,-0.0040158657,-0.06209563,0.040017348,0.068571426,-0.015251472,0.015417633,-0.059186,-0.014020233,0.033700813,-0.025842974,0.01217113,-0.05153092,-0.034947846,-0.055618655,2.73414e-07,-0.036511872,-0.01794894,0.018209076,0.0022307544,-0.010551208,0.0009471514,-0.019372711,0.041742146,-0.0637973,-0.06828957,0.07159386,-0.059703846,0.040977485,-0.0069845826,-0.058148347,-0.0082243085,0.0009929175,-0.03724775,-0.021833599,0.00044416252,0.05479598,0.024609337,0.049857963,-0.03199985,-0.021817148,-0.047933094,0.023834627,-0.01962056,0.070188284,-0.018491438,-0.007283303,-0.005829303,0.009566256,0.028826095,-0.023879757,-0.06130862,0.01986514,0.07650007,0.012456722,0.04340361,-0.029347165,-0.025809307,0.00014724881,0.055668604,-0.0032266958,-0.014857033,-0.023498287,0.04060924,-0.014173207,0.013873823,-0.014812601,0.04046776,0.0036961588,0.003034185,0.0010581983,0.0090096705,-0.016056538,0.034404594,0.049733244,0.033968493,-0.08472485,0.0006621877,0.03029159,0.03668026,0.027748382,-0.012916284,-0.03308494,1.3146784e-34,0.0059880707,0.023893304,-0.011212395,-0.027265573,0.011313412,0.023043502,-0.09814646,-0.0073542064,0.006802994,0.007534381,-0.014934545
rsq004,0.030165305,-0.06527472,0.0124029415,0.024184922,-0.034391567,0.019623395,-0.028528111,0.048598234,-0.013167099,-0.01849224,0.00040889237,-0.032695357,0.0498275,0.028279413,0.062567204,-0.012353362,0.015929144,0.009656781,0.043007515,-0.00793892,0.027322853,0.01536029,-0.013753191,0.023504777,-0.04776624,-0.058840975,0.019250061,0.0592867,-0.029627537,-0.01107571,0.018473076,-0.0071425145,-0.01774896,-0.019738562,1.2157858e-06,-0.0051259026,0.06368251,-0.020196324,-0.041128475,-0.036845125,0.0665887,0.017701901,0.045105226,0.018459862,0.008738045,-0.0628652,-0.048301626,0.060159788,-0.006634162,0.023211041,0.0092704855,-0.020848157,-0.017100634,-0.056629673,0.021663278,-0.013817828,0.018641338,-0.05306271,0.015430657,-0.0044716108,0.014266372,-0.020978445,-0.054913554,-0.014465742,0.04191465,-0.017118571,0.021691112,0.030853776,0.03451346,-0.032675125,0.01729654,0.02091962,0.036967434,0.03625323,0.01792118,0.052087843,0.0060067773,0.00838045,0.022947855,-0.039802298,-0.03735797,0.06600999,-0.018892825,0.07086095,-0.028655797,0.029566752,-0.042239804,0.042125363,0.04335231,-0.042190544,0.057070892,-0.053313356,0.0067106425,0.044768058,0.00017076802,-0.00988945,0.04524747,-0.061304044,-0.019367373,0.01794454,-0.016692102,0.010274488,0.011593999,0.032349203,-0.014066202,0.0015082852,-0.0021710657,-0.05680346,-0.034644917,0.0212066,0.0031140442,0.028709296,-0.00940891,-0.012496479,0.0009466847,-0.059511654,-0.03925631,0.008830881,0.07027153,0.013988586,-0.021430809,0.024841186,0.008908306,-0.016234986,0.03475589,-0.03502756,-0.03492573,0.012586609,0.018604789,-0.04885231,-0.053776916,-0.00046274543,0.023257982,0.011401058,-0.0045249546,-0.03504336,-0.032841567,-0.025828084,-0.00776972,0.028304135,0.04032416,0.007755109,-0.018650757,-0.0022586794,-0.03752913,0.030188857,0.033691812,-0.00032954387,0.0004457238,-0.031354364,0.013596587,-0.06927307,0.01261591,0.033137154,0.022343209,0.033220354,-0.048935115,0.0073631066,0.005667313,-0.013021106,-0.03520089,-0.050807867,0.04090284,0.019073006,-0.008936808,-0.008933284,0.01556019,-0.022201464,0.029354475,-0.016372245,0.050396446,-0.038846914,0.007082465,0.09297812,0.0026466926,-0.015861884,-0.034896374,-0.029669574,-0.049691632,0.05672378,-0.012972224,0.035558242,-0.0020443904,-0.033997394,-0.06358749,-0.041698236,-0.020691657,-0.012524679,-0.011446309,0.0171329,-0.008048469,0.04781533,0.0008227936,-0.02799225,-0.020163806,0.02858421,-0.055021055,-0.048546873,0.007770681,-0.0015515374,0.005275585,-0.04841186,-0.029390087,0.076903634,-0.027798418,0.058468662,0.124075636,-0.01792787,0.024087382,-0.0041654618,-0.045311812,-0.0059242984,-0.0021420075,0.006255902,-0.039826605,0.0028963895,0.01645851,0.0265141,0.005801797,0.057345513,-0.012640376,0.061929528,-0.02016094,-0.023802713,-0.0028639827,-0.008736311,0.008467126,-0.00014044224,-0.072625995,0.025925033,-0.027696898,0.0024999431,0.015376431,-0.0020432218,0.01013527,-0.034978304,0.0022455533,0.024969196,-0.054941323,-0.032698516,-0.052345328,-0.039481133,0.0012592514,-0.05138958,0.085353315,0.020445006,0.024817439,0.038407806,-0.04062703,-0.020258578,0.043822423,0.056589212,-0.024938982,0.012179461,-0.021237854,0.012419059,0.03165076,0.017414853,-0.037802607,-0.04455653,-0.045835685,-0.061317332,0.051612608,-0.04334472,0.0288258,-0.025230993,-0.026680205,-0.028403062,0.0010999684,0.026571807,-0.02211843,0.0041952115,0.00787284,-0.037681714,0.0350098,0.01627383,0.014038637,-0.022943005,-0.036227275,-0.0013192549,0.036354914,-0.005554711,0.012284347,0.017997066,-0.017922316,0.03500929,0.019328661,-0.00812732,-0.008964863,-0.065561965,-0.020538121,0.0248142,-0.009632187,-0.009080755,0.012372606,0.016662044,0.0663729,0.06045792,0.04810955,-0.0457198,-0.010075081,-0.032468777,-0.021055521,-0.0137532195,0.01412515,0.053007953,-0.010174862,-0.07410447,0.028937837,-0.086354665,0.0010734184,0.023179477,0.0089140795,-0.0073571783,0.029752081,-0.06787318,-0.008718608,0.044078764,-0.028740477,0.048819833,0.064309545,0.0019313478,-0.0316158,0.0016664308,-0.031775765,0.1291996,-0.0012222753,0.06710808,0.040115032,0.0045315,0.03383882,0.028281938,-0.03026786,0.048932828,0.01492094,-0.083292,-0.07944911,-0.037525,-0.052857645,-0.0133609725,0.020809358,-0.002368807,-0.0020458645,0.0055586267,-0.02891283,-0.09102519,-0.057735484,0.02110958,-0.021353431,-0.023049254,-0.019736068,0.021245504,-0.028525617,0.008088571,-0.01088086,-0.0338311,0.026273444,0.009463104,0.011897656,-0.014887295,-0.029759882,-0.03393237,-0.0054175523,0.0059455857,-0.012573801,-0.0002022943,0.025259303,0.03305536,-0.054159936,0.014978244,-0.0027297721,0.04016193,0.02422454,0.009075278,-0.022580333,-0.0035981392,0.009898843,-0.022177711,0.07938612,0.0019792265,0.060468577,-0.040544026,-0.018594535,-0.008246976,0.015758315,0.0073177693,0.036686547,-0.05229635,-0.039604735,0.0503324,0.026991602,-0.061654843,-0.04093804,0.04419399,-0.0032617755,0.05832204,0.022427965,0.046348806,0.00024366859,0.026014056,0.03521187,0.08588144,-0.029479792,0.0008169147,0.061045025,0.008177151,-0.043888833,-0.031827476,0.0014636006,-0.018286813,-0.07051174,-0.008076747,0.042347465,-0.020106317,-0.004154766,-0.023066219,-0.0016738949,-0.016899271,-0.014847045,-0.022147408,0.0427607,0.05206621,-0.02656117,0.015212322,0.0039188,0.057673816,-0.018255627,0.05012148,-0.022071557,-0.036361285,-0.050587155,0.039120015,-0.013027252,0.059213653,-0.007474098,-0.047446128,-0.016196558,0.03502381,0.0024167697,-0.020529063,-0.022311376,-0.01887834,-0.022827327,0.016471272,-0.013321679,-0.045990847,0.0032030188,0.023962244,0.057593644,-0.008239703,0.06297486,-0.031630155,-0.0588769,0.04381229,-0.045818817,-0.0007686429,0.007871585,-0.03201595,0.0068919007,-0.008762371,0.049900502,0.018451206,0.06854672,0.07007345,-0.03261528,-0.03406902,-0.07683014,0.0075876242,0.004804857,-0.027603753,-0.04945587,-0.018555341,-0.008557319,0.012822779,0.023066115,-0.016302403,-0.066012636,-0.055195615,-0.053150207,-0.026025567,-0.032898452,0.047373462,-0.014337681,0.042882755,0.032773506,0.0006561825,0.06918086,-0.015747005,-0.0028110538,-0.01591911,-0.029597685,0.023436885,0.008634116,-0.04915248,-0.0069683515,0.014569575,-0.016821709,-0.02382163,-0.06327936,-0.11401634,0.020544251,0.011904372,0.016220784,0.044962123,0.0053372853,0.024175394,0.011109683,0.053947408,0.02220991,-0.026856227,0.08261474,0.023981491,-0.032141853,-0.0753069,0.051189445,0.017379342,-0.027386254,-0.00796418,0.05249665,0.007406943,0.046035692,-0.018057974,0.011750194,-0.036021497,-0.101940475,0.022564476,-0.010943089,0.0021993613,-0.047743212,0.030411301,-0.09536032,0.022385137,0.034751795,0.015544234,-0.028365469,-0.029111974,0.086762376,0.0044169463,0.00984528,0.024748323,-0.043908525,-0.001964957,-0.0041535427,0.00030463282,0.018176358,-0.016907983,0.062404115,-0.037125375,-0.07010034,-0.029434072,-0.0059907595,-0.034019407,0.0055234414,0.0057736207,0.038281787,-5.679894e-33,0.043389503,-0.014274244,0.021767698,0.041270725,-0.04804094,-0.023329122,-0.043291774,-0.022029828,-0.017468292,-0.061771486,-0.07269155,0.03172606,0.0117693525,0.05046404,0.05719773,-0.01898917,0.031319823,-0.020444147,0.02218867,0.01640786,0.025749065,-0.0058385003,-0.005763703,-0.005605091,-0.00905797,-0.016922573,-0.08029325,-0.00953834,0.055810332,-0.047351018,-0.0249735,-0.033237495,-0.040226907,0.0017549586,0.028156964,0.067187384,0.019047953,0.004508389,-0.0025679527,0.07681575,-0.01850278,0.017849797,0.0031085399,0.015664032,-0.03420045,0.03162921,0.0024069683,0.001328616,0.030505784,-0.008433796,0.01956937,-0.011073141,-0.040352885,-0.06639597,-0.014893656,0.057229616,0.017117178,0.011822341,0.018843038,0.04405204,0.029987384,-0.015855908,-0.0051692594,0.06882096,-0.0055980263,0.006330196,0.033827003,-0.010365153,-0.008278682,-0.018504813,0.03870729,0.005060501,0.039210528,-0.030597607,0.019686487,-0.039819986,0.0056512156,0.034670833,0.057974998,0.014299269,-0.0025185228,0.035617284,0.010118389,-0.03967381,-0.012237398,-0.054551493,0.023115976,0.023462825,-0.025001587,0.014716944,-0.0076083886,0.038656417,0.0140321,0.008513112,-0.07953951,-0.04971008,-0.013002562,-0.032902695,-0.021409435,-0.034329876,-0.0010221839,0.0084585445,0.003954947,-0.03152752,0.013223843,0.04299724,-0.013470417,-0.0028548418,-0.061910637,0.024044067,0.031963896,0.026014334,-0.01221196,-0.09156695,0.029339511,-0.06159796,-0.010755401,0.00044279615,0.011041622,0.0033824926,0.01601257,0.02593935,-0.03345519,0.0249985,-0.06682115,0.034883108,-0.005602818,0.015621723,0.0024215607,-0.019459855,0.008600499,0.016792784,2.0098874e-07,-0.016061824,0.1158903,-0.024502354,0.06349747,0.034185912,0.022043245,-0.028911948,0.012536639,0.052345965,-0.041189015,0.041802417,0.0026880845,-0.014428907,-0.030638594,-0.047363684,-0.038731672,-0.055920742,-0.10879818,0.030714326,-0.015373183,0.02449158,-0.041534085,-0.008976606,0.013569416,-0.0008775315,-0.041828264,0.050672695,-0.0038773555,0.11499341,-0.018228171,-0.05413168,0.01854672,-0.0043037855,0.04919565,-0.024496607,0.045419514,0.012198036,0.06430598,0.0025784916,0.12425496,-0.03535476,0.042136572,-0.038677484,-0.032174215,0.0009891525,0.015709814,0.038862012,0.014667913,0.051940486,0.00037672062,-0.02135776,-0.02555838,0.0117285615,0.017900944,0.0059589297,0.0005220826,0.004807407,-0.023584163,0.029972594,-0.06380023,-0.024903819,0.06645987,0.04815412,0.02288627,-0.020964209,-0.020184059,-0.048065763,7.300203e-35,0.030764408,-0.0066025555,0.040671572,-0.027535759,0.0074567604,-0.03562283,0.05591748,0.008407235,-0.00060253916,0.00018413308,-0.034980245
rsq005,0.020117903,-0.008901717,0.010385918,0.014304911,-0.053158388,0.009759851,-0.018397566,-0.00987138,-0.010629817,0.014700584,0.01537646,-0.07107409,0.049381413,-0.05692966,0.028336288,-0.03749841,0.0049820445,0.015953729,0.086297944,-0.010180947,0.03428966,0.016860312,-0.052500106,0.03894072,-0.030856509,-0.06090705,0.02694491,0.04169954,-0.013927439,-0.036386743,-0.0002589506,-0.0103430115,-0.03490603,0.010639911,1.544711e-06,-0.004456279,0.03241772,-0.038612895,-0.052302826,-0.038218852,0.048238434,0.008367749,0.014733687,0.045779843,-0.018396504,-0.0050151893,0.032861847,0.11818247,0.010052951,0.022970578,0.030017171,0.004813628,-0.0152365845,-0.026372971,0.017118078,0.008457852,-0.016675705,-0.022831764,-0.019086627,-0.018349655,0.01636388,0.0025825894,-0.0514258,-0.022242535,-0.035985574,-0.0012622325,-0.009311896,0.0030734038,0.017654838,0.017991832,0.028923554,-0.0015169698,0.02708537,0.062292237,-0.0027971528,0.07487611,-0.019677116,0.029208608,-0.048923854,-0.024218326,0.00034702927,0.07371116,0.010482069,0.017139435,-0.034367774,0.044410426,-0.038610253,0.0048080026,0.08402793,-0.018765217,0.02535016,-0.056389846,0.022772813,0.009033393,-0.062727086,0.0067970403,0.017430207,-0.009808626,-0.029714756,-0.04904513,-0.00041220395,0.008750284,-0.047808636,0.041037526,0.032390125,-0.067820564,0.018972717,-0.046433713,-0.038327545,0.055811185,-0.016151393,0.034815237,-0.038130593,-0.03586725,0.016965874,-0.03553404,-0.049571738,-0.024122402,-0.020516874,0.049370438,-0.11536998,0.018769152,0.0109075345,-0.05422373,0.016898144,0.045556966,-0.0134886205,0.023971256,0.016764421,-0.04955893,-0.019764936,0.018103842,-0.03454715,0.03184599,-0.017380238,-0.000102014936,-0.012429311,0.011176677,-0.016417356,-0.0053763357,0.007907433,-0.057762332,-0.038786624,-0.0033210092,-0.04032166,-0.010839429,0.05026155,-0.037880924,0.013224148,-0.029813439,0.019276457,0.021647947,0.025825761,0.030758524,0.04961344,0.04258641,-0.025707655,0.025481392,-0.028854102,0.0065644095,0.003365846,-0.05493292,0.02929293,0.0041821715,-0.005151046,0.022014117,0.059335805,-0.009704789,-0.053171687,0.020023577,-0.009751298,-0.015677586,-0.0063075456,0.07586533,0.042490523,0.053696577,-0.031398464,-0.07030479,-0.05970403,0.06322791,-0.0087727,0.028579196,-0.011925062,0.009115976,-0.053295895,-0.009801085,0.015554241,-0.042744007,-0.007911886,0.017427228,0.00404668,0.0144475475,-0.060085975,0.018050428,-0.038834903,-0.029747907,-0.015340793,-0.036541503,0.025566487,0.008143645,-0.04150337,-0.0070602656,0.026823044,0.016185446,-0.059179008,0.055425495,0.09222151,-0.05641278,0.059178405,0.07853524,-0.022888547,0.008079654,-0.022766234,-0.0023174253,-0.054448698,-0.012124424,0.027112545,0.08132187,-0.060124908,0.055223063,0.006144025,0.0032129618,-0.021582633,-0.017368466,0.053063326,0.0076946616,-0.006698116,0.009267049,-0.0070824036,0.009244181,-0.016408628,0.008709567,0.019029811,-0.018465377,-0.0110594565,0.015930858,0.0034787816,0.05208551,-0.029559873,-0.07137621,-0.047303177,-0.06350255,0.034784727,-0.00028836107,0.05593838,-0.029914573,0.05356809,-0.009395037,-0.019064408,-0.015720706,0.010431044,0.027153593,-0.011925717,0.030009748,-0.016379837,-0.0026049428,-0.027723664,0.05430884,-0.04209883,-0.008379147,-0.041586988,-0.02987985,0.008535037,-0.016026132,-0.015117648,-0.037886135,0.031503897,-0.02048755,-0.026597029,0.0037113482,-0.0057901586,-0.016111514,-0.03517746,-0.008968919,0.029280558,-6.3872445e-05,0.02944498,-0.011008507,-0.013375583,-0.022656381,0.013424575,0.005456346,0.050910342,0.02480001,-0.0036679155,0.074815534,0.013382609,-0.036563568,-0.06173548,-0.054666676,0.010753841,-0.017073058,-0.0036004689,0.010849035,-0.006017038,0.023579938,0.028680375,0.031707823,0.047088753,3.3027638e-05,-0.012477028,0.014971281,-0.029107833,-0.033363,-0.026935436,0.04433936,0.007852973,-0.07050741,0.016702833,0.0062475214,0.042329032,0.03482787,0.003112974,0.02614387,0.024615515,-0.035097707,-0.036958337,-0.054730266,-0.0030016946,0.055158008,0.00015634258,-0.031035097,0.028641809,-0.015702555,-0.003676362,0.07185663,-0.011518406,0.04452023,0.020713933,-0.042905636,0.010056065,0.05714733,-0.017672399,0.04237365,-0.044080935,-0.042323362,-0.040134966,-0.023261543,-0.06916778,0.0104448525,0.041505646,0.009479829,-0.027312564,0.022416156,-0.059072573,-0.115161195,-0.047981624,0.025053931,-0.07672859,-0.041639324,-0.012773875,0.009862913,0.016786486,-0.02902597,0.028764755,-0.08082514,-0.019527184,0.001415592,0.05156433,-0.056955952,-0.009380977,-0.005839786,-0.02921052,0.00081095257,-0.028253803,-0.031180002,0.006272935,0.05818805,-0.004888978,0.02269331,0.03175202,0.020628348,0.013656298,0.03238416,-0.039953105,-0.021595752,0.03393317,-0.08032541,0.05721491,-0.020907,0.013262679,-0.086069666,-0.02184653,-0.041803587,0.0118627185,0.0006593869,0.024175666,-0.056230053,0.01769408,0.05588372,0.041360173,0.012779823,-0.0053474484,0.025729418,-0.01695554,0.025801945,0.066268444,0.0052515427,0.023157492,0.0028805304,0.04433756,0.034621794,0.006569799,-0.0060610655,0.037045237,0.0013116964,0.015176666,0.017257152,-0.019259239,-0.049816437,-0.045164473,-0.010305504,0.017294243,0.010307572,0.0075992276,-0.016612368,0.0070163114,0.011848596,0.042515915,-0.01299856,-0.0045933756,0.092588805,-0.0026715973,-0.027829751,-0.03323496,0.055564165,0.055719838,0.08130917,0.021754997,-0.015269699,0.03168951,0.031901784,-0.040007647,0.06682987,0.01678256,-0.03770994,-0.020073619,0.04694844,0.005784452,-0.01583876,0.02600147,-0.01087921,0.023051402,0.0013824302,0.029585723,0.026867505,0.013317227,-0.002403414,0.10496933,0.013412427,0.0948652,-0.017732946,-0.04231528,0.014194878,-0.037194867,-0.012903328,-0.007678332,-0.042980894,-0.002228293,-0.015738443,0.0027292736,0.032194734,0.053179603,0.048892174,0.0048832893,0.012936122,-0.05465522,-0.052725043,-0.024984218,-0.0015547083,0.016303731,-0.00892484,-0.011946022,0.03701326,0.047929313,-0.038147345,-0.07459563,-0.095475264,-0.040043775,0.007890617,-0.009133509,0.025920907,-0.010513565,0.016669642,0.02180043,0.034259982,0.08498699,-0.006920348,0.016677203,-0.026929697,0.060819887,-0.022585792,0.041130446,0.007940445,-0.03562372,-0.0029959318,0.021491319,0.017142333,-0.0606699,-0.037900623,0.030668465,-0.0035788745,0.010272264,0.06789084,-0.007437088,0.044823185,0.023221217,0.035323393,0.046202693,-0.033928946,0.06889915,-0.01714819,-0.056175433,-0.12858011,0.026132198,-0.029690877,-0.06600429,0.030071931,0.04381523,-0.02475712,0.037340164,0.0041631516,0.04489697,-0.0126229385,-0.024397852,0.007783705,-0.017770872,-0.008271336,-0.029510424,-0.006675063,-0.12243618,0.04896733,-0.019075628,-0.013096391,-0.042941704,-0.058591854,-0.040819783,0.032702904,-0.0044525405,0.049990494,-0.041938804,0.083426416,-0.011920291,-0.0046095634,0.00018808778,-0.022639034,0.0055893958,0.03176343,-0.052349046,-0.04816878,0.023829512,-0.0039186673,0.010861504,0.022915134,0.0066056177,-6.359714e-33,0.020749891,-0.04763681,0.013110156,0.043424413,-0.035040345,-0.043867547,-0.014030528,0.0077971565,-0.023862146,0.023005905,0.0071664834,0.04830108,0.015314458,0.026653213,0.0051081865,0.0064078793,0.023689114,0.0457834,0.008745959,-0.015390612,0.010351678,-0.0026775736,-0.00065590465,-0.07291747,0.039011285,0.026016666,-0.033125967,-0.020670129,-0.0058150813,-0.055813644,-0.007539317,-0.02343132,-0.021726005,-0.0018786024,0.015135173,0.077159725,0.013826246,0.0013868413,0.031555828,0.027492337,-0.07958304,0.031562455,-0.042527705,0.014997739,-0.015399124,0.042869013,0.010564292,-0.0046383734,0.013814745,-0.0043467646,-0.033696484,-0.006667307,-0.061099127,-0.05508378,-0.021549933,0.056244064,-0.020761484,-0.0011447904,0.03185291,0.024592971,-0.0005322929,0.025181467,-0.018943684,0.007070434,-0.047935653,0.041252274,0.02219866,-0.020140972,-0.060656905,-0.0014083725,-0.026865587,0.028801352,0.039529286,0.06878179,8.637861e-05,-0.006973707,-0.026502792,0.01373905,0.08106518,0.0059918943,0.049292017,-0.0045741634,0.03977356,-0.03508463,-0.0537495,-0.07984101,0.00481518,0.026057871,-0.01060823,-0.0015827265,-0.008329056,0.028364941,-0.03182461,-0.00094831886,0.013970667,-0.040386982,0.022109622,-0.008565587,-0.013018994,-0.019648919,-0.015106896,0.010300339,-0.00090706046,-0.0076703355,0.055751976,0.020645369,0.027402008,-0.056566864,-0.04811523,0.023488754,-0.0019119068,0.038710672,0.0057708877,-0.08176027,0.030344436,-0.038104843,0.005815712,0.014320337,-0.014806963,-0.031763088,0.03717781,-0.0015559614,-0.046338208,0.07016277,-0.06786581,0.024720473,0.004973373,-0.036058843,0.021593051,-0.056984533,-0.0020754025,-0.021380141,2.2463529e-07,-0.05600576,0.06838285,0.01793328,0.025271349,0.016902044,0.02475423,-0.027065793,0.005559626,0.033082485,-0.12312498,-0.009447875,-0.010491654,0.041356724,0.005846994,-0.0689516,-0.042115424,-0.06297918,-0.084000535,0.00011443393,-0.0041783857,0.041168366,0.030283451,0.009871167,0.009525144,0.037275497,-0.015551919,0.027041608,-0.020933887,0.06642626,0.000343552,-0.0069141504,-0.04546363,0.0053548627,0.047282327,-0.00234589,-0.0046343263,-0.039904747,0.042709105,0.00821285,0.036612805,-0.07679666,0.049361654,-0.03596584,0.014261302,-0.014362925,-0.010957277,0.0043070833,0.017312407,0.016958209,-0.0062376875,-0.011553423,-0.0014178833,-0.013750304,-0.005467806,0.023573652,0.02340597,0.02374779,-0.0103144385,0.049742512,0.016838364,-0.0022026005,0.035783954,0.028366992,-0.025165835,-0.027512083,-0.07511278,-0.048273057,7.91e-35,0.034967273,0.055218123,-0.0151557475,-0.011858416,-0.0074102334,-0.023922075,0.028432123,-0.025842946,0.034972332,0.011098906,0.012101931
rsq006,0.05033228,-0.021218196,0.016039753,-0.038502146,-0.057595804,0.04356334,-0.031181106,-0.009611812,0.035349436,0.034506872,0.07755345,-0.048097163,0.022889962,0.010027608,0.0077749644,0.036989585,-0.01433946,0.028449241,0.048599057,-0.0016132554,-0.004626973,0.0391007,-0.004545943,0.03648096,-0.08382285,-0.040163923,0.040431622,0.025440805,0.031083144,-0.026649311,0.023725308,-0.007073765,0.008888982,-0.04037296,1.8292908e-06,-0.029497026,0.021049524,-0.0385817,-0.0696678,-0.0019007991,-0.0089844735,-0.058053594,0.030825663,1.1613283e-06,-0.0003638125,0.00769282,0.0057420703,0.036624458,-0.025921281,-0.01754163,0.009411433,0.073308915,-0.04034937,-0.033777364,0.0021285755,-0.030651346,0.006972253,-0.014566969,-0.009633312,-0.06198622,0.020433405,-0.020810094,-0.020722566,-0.008149167,0.013442108,0.021555271,0.06139655,-0.027733948,0.029288895,-0.019451702,0.010012272,0.017204612,0.024654107,0.005655515,-0.03115299,0.070979245,-0.054824203,0.011745902,0.014254829,-0.0016652168,-0.01770259,0.111450054,0.018113196,-0.0076175365,-0.021787163,0.014340791,-0.028988255,0.00092694775,0.046384115,0.0032947967,0.015277731,-0.03170858,0.0023269989,-0.02181774,-0.04325427,0.010659431,0.003400824,-0.004181365,0.008234393,-0.0049911495,-0.02669603,0.023694623,-0.029254014,0.02012042,0.011323593,-0.0033369765,-0.010758792,-0.058009606,-0.07116989,0.06368128,-0.009620651,0.007668896,-0.02188857,-0.009269514,0.016164212,-0.047061775,-0.0007535381,0.024500282,-0.0050019287,0.008174221,-0.04453046,0.009291551,-0.023091245,-0.044054065,-0.006056789,-0.012798461,-0.015529683,-0.0035106188,-0.0099523505,-0.017779833,-0.023299877,-0.055554315,0.025790235,-0.008063681,-0.010466428,0.05323139,0.0043219277,0.013952283,0.014122064,0.013348854,0.047189035,-0.031564504,-0.042035747,0.012974161,0.011933322,0.019629663,0.04520506,0.008008883,0.0004788384,-0.04170833,0.00586984,-0.03077474,0.07516251,0.00022615542,-0.0054102857,0.03358582,0.015425295,-0.036078732,-0.046591386,0.018098101,0.033126578,-0.0055389307,0.06714855,0.011973836,-0.024046829,0.049076233,0.08722175,0.029832967,-0.0261794,-0.033024274,0.029758215,-0.045543004,-0.043756533,0.115135945,0.042186417,0.029873522,-0.02598365,-0.035331585,-0.074621245,0.04746388,-0.082135,0.0008335418,-0.010704598,0.05135266,0.00037800535,0.017805915,0.0018195065,-0.012265702,-0.028881198,0.05448144,0.0065520224,0.011101365,-0.044948712,0.008452665,-0.016810562,-0.0056689363,-0.016359478,-0.022274746,-0.01773484,-0.04165303,0.01145038,-0.05742616,-0.025798196,0.052835997,-0.0018482278,0.080343165,0.07426139,0.006657539,0.031014929,-0.009722335,-0.050538566,0.0031751215,-0.033226736,0.03274892,-0.04938286,0.042155065,-0.019247882,0.04069152,-0.050976757,0.030694475,-0.029966509,0.019633036,-0.015664846,-0.014161702,0.021456689,-0.08639169,0.009959544,0.041079476,-0.027561553,-0.022016907,0.0062338645,0.027133308,0.04175048,-0.014671066,0.012121941,-0.028433252,-0.01796904,0.077966146,-0.06339194,-0.018055383,0.0064574,-0.033626154,0.020034928,-0.008321619,0.040501066,0.015072258,0.020120712,0.0059143617,-0.04533848,-0.036134414,-0.0033485193,0.0057717557,0.0065108915,0.0020497227,0.0043436256,-0.0567167,0.03299163,0.021052735,-0.016547155,-0.053025465,0.0023321733,-0.029202098,0.0105180815,0.009557142,0.02140706,-0.01672198,0.020743208,-0.0650256,-0.04552897,0.0069592237,0.00975302,-0.010683784,0.022345472,-0.024794621,0.00037480652,0.032981336,0.0012956138,-0.022518838,-0.015317512,-0.011161081,0.02675643,-0.021663105,0.022023423,-0.0015677931,0.039041042,0.035153728,0.035307027,-0.027028332,-0.014981084,-0.05284831,0.011446216,-0.0124035785,-0.015530457,-0.023617603,0.011475775,-0.0029815203,0.058758166,-0.0019056303,0.0118620135,-0.045059446,0.007505399,-0.028282326,-0.016167743,-0.023850963,-0.05169961,-0.0190917,0.020194111,-0.08018041,0.021261329,0.001578879,0.047694493,0.026469886,0.010611633,-0.09012816,0.014142964,0.017507141,0.028935768,-0.0072776973,-0.049852174,0.07099908,0.02745431,-0.011820432,0.016445808,0.0035232361,-0.0339251,0.09326416,0.037338186,0.0649166,0.10554415,0.013653312,-0.028029354,0.059282158,-0.018422702,0.048556905,-0.028789442,-0.054424837,-0.042460736,-0.022949236,-0.011426454,0.055361632,0.0022941513,0.0038623654,-0.020877376,0.021270292,-0.08226256,-0.06704825,-0.028448224,0.00050827296,-0.012361285,-0.07385365,0.015189627,0.02649099,-0.01072346,-0.039469656,0.002968149,-0.06357375,-0.0065186443,-0.011783576,0.026819246,-0.012650412,-0.01549514,0.002377925,0.021905947,0.00923966,-0.018296305,0.001208403,0.047063492,0.050329745,-0.034049846,0.019906148,-0.033905484,0.040349703,-0.02344867,0.023149058,-0.023922026,0.017903974,0.030922981,-0.101222426,0.07150403,0.0031194852,0.019999864,-0.07649355,-0.028821442,-0.022215515,0.024620624,-0.03911008,0.01945904,0.009865345,-0.020193132,0.07606769,-0.0055503407,0.031983677,0.03638284,0.0152158905,0.012060954,-0.02955368,-0.020605337,0.043694593,0.029125828,0.0061073205,0.046085596,0.01450781,-0.0027224594,0.03723513,0.020347878,-0.009261748,-0.013945998,0.03655812,-0.022457488,-0.009086197,-0.031696137,-0.016499737,0.024364263,-0.0029147828,-0.002710196,0.0032609187,-0.02437798,-0.033494897,-0.009530006,-0.06174329,-0.0078067714,0.015676245,0.0137084825,-0.027473485,-0.0041961176,0.04625487,0.008186463,0.063970074,-0.008687533,-0.059353642,-0.045928355,0.057431318,-0.021703023,0.025883337,-0.056456074,-0.027705278,-0.014154254,0.006250402,-0.0051121763,0.012382081,0.029396873,0.016640482,0.0059267683,0.04256373,0.035556957,0.034444977,-0.0059758537,0.0008953623,0.009767356,0.0364692,0.048172724,0.012087085,-0.03961584,0.0003797403,0.014862387,0.013139483,-0.034330577,-0.03983121,0.023343975,-0.032988016,0.03686246,0.04623676,-0.018302714,0.058883693,-0.0069710603,-0.026916055,-0.036547925,-0.066422775,0.0064804503,-0.011446409,0.0036945115,-0.022423975,-0.02229177,0.01724019,0.030727822,0.010798956,-0.015645456,-0.1268757,-0.0087499395,0.01639672,0.009866538,0.032976054,-0.059339,-0.008288271,-0.0018453009,0.022253498,0.0792748,-0.012026423,-0.010138583,0.029219607,0.02490875,0.036582187,0.0037328477,-0.0038544834,-0.023628324,-0.0191663,0.00014925982,0.0004530071,-0.0031728742,-0.0063270717,0.042013686,-0.009084642,-0.019936362,-0.01276743,0.0075670667,-0.005044322,0.05210886,0.018492756,-0.00490495,-0.0024696826,0.030557428,-0.043283056,-0.019661909,-0.13460995,0.05363454,-0.016963799,-0.073942624,-0.027913734,0.04312369,0.01104425,0.0462958,-0.03388139,0.03545263,0.013444275,-0.02834117,-0.010984181,-0.027626747,-0.0055997176,-0.0016167815,0.027804235,-0.07686566,0.035637,-0.07673371,0.050002366,-0.011227552,-0.018091897,0.042308718,0.015275175,-0.018696893,0.008472849,-0.021756956,0.025573334,-0.011233829,0.012589645,-0.0016748339,-0.0278962,0.05068954,-0.02638278,-0.018677577,0.017171055,-0.007640563,-0.0021179044,0.00011201181,0.024911609,0.009817927,-6.343565e-33,0.043665007,-0.07755931,-0.00054252916,0.08092668,-0.059194416,0.01069155,-0.016316028,0.014461558,0.045350842,-0.0029500248,-0.022235343,-0.0066718142,0.017735742,0.027739719,0.08985637,-0.015823994,-0.008660654,-0.0061872904,0.015872568,-0.0137029,0.03869834,0.02314084,-0.009185918,-0.029085351,0.051015485,-0.049812056,-0.060752183,-0.028464774,0.020683946,-0.043421376,-0.029747942,-0.041567735,-0.020063844,-0.037902523,0.021228189,0.18009691,-0.009259217,-0.030871926,0.018511435,0.025505062,-0.09901282,0.016935484,-0.06373981,0.038096778,-0.04338506,0.00050902076,0.0019339462,0.013672947,-0.0200897,0.0025546602,-0.022900915,-0.020053325,-0.017676694,-0.056535203,-0.012855078,0.11239373,-0.024253536,-0.021179484,0.035845645,-0.01291557,-0.087758034,0.015157465,-0.006675807,0.06905354,0.0014310342,0.05760862,-0.08496295,-0.07696908,-0.04896002,-0.011554248,0.013839328,0.010046196,-0.028178213,0.013604614,-0.0059426795,-0.038143806,-0.037475675,0.0083990265,0.08982928,-0.002717351,0.07434342,0.046310164,0.026651802,-0.028144216,0.028591638,-0.07469403,-0.013855839,0.02568199,-0.045869853,0.00994596,-0.0556227,0.06094958,-0.016693482,-0.00078207516,-0.012413513,-0.044603053,0.019940976,0.012994546,-0.04103937,-0.029095566,0.017859498,0.007484863,-0.044217665,-0.0315003,0.04608378,0.026254328,0.016983697,-0.03420211,-0.017520301,-0.0053672865,-0.009177443,0.04286913,0.021198753,-0.0055942084,0.033257052,-0.038184606,-0.009327438,-0.06132194,-0.02767694,-0.03152,0.00012060503,0.061443936,-0.032291032,0.041913226,-0.07206926,0.023739759,-0.04619893,0.006899272,-0.016013635,-0.038443174,-0.014424216,-0.016997205,2.42167e-07,-0.06699279,0.04434122,-0.02951319,0.00756218,0.033409163,0.056062236,-0.0076242895,0.042273667,-0.0052695563,-0.0760595,0.039414298,-0.04148523,0.024018781,-0.0018025514,-0.052010816,-0.030628378,-0.024882827,-0.058831144,0.035937116,-0.03554905,0.03739969,-0.0065454235,0.013536126,-0.007105923,0.020815242,-0.037699185,0.0300254,-0.047702502,0.07180215,-0.03152682,-0.015932932,-0.012634084,-0.005256542,0.11538073,-0.01362228,-0.017196404,0.018189732,0.07634695,0.016549429,0.0003618989,-0.0071155797,-0.012011532,-0.01344822,-0.0035656346,-0.02610258,0.00028814166,0.06656836,0.029322313,0.042025823,0.0065478426,-0.006430461,0.00825839,0.022564786,0.034662988,0.037976418,-0.0134877,-0.0053168326,-0.00059759646,0.06078365,0.045407444,-0.01651584,0.038618192,0.033141207,0.054755,-0.046934854,-0.017106391,-0.015957115,1.077459e-34,0.0037639576,0.043400466,0.017060159,-0.03616255,0.015150419,-0.021478964,0.011714076,-0.00064076576,0.016142437,0.028224709,-0.057460226
rsq007,0.03259921,0.08677198,-0.012982409,0.01720536,-0.00060882105,0.004812962,-0.020739427,-0.039094508,-0.022711992,-0.0065634525,-0.06314381,-0.008543939,0.0037054142,0.013514954,0.020682642,0.016647669,-0.003609315,-0.033910226,0.036023185,-0.010310005,0.06447754,-0.028242435,-0.014931616,-0.026105454,0.03915141,0.0057622446,-0.023074375,-0.01625539,-0.02904042,0.036884997,-0.034007665,0.022414932,0.0027040034,0.014466746,2.0715843e-06,0.019177115,0.034345157,0.010658788,0.009730867,0.0014768945,-0.006706271,0.004536756,0.0009144883,-0.017384436,-0.039005727,-0.027047759,0.015958443,0.094463855,0.01959005,0.025159325,-0.016789215,0.038585506,-0.06980455,-0.04126525,0.005619748,0.02289679,0.02689831,-0.000112580885,-0.038428817,0.026229419,0.013745656,-0.03610801,-0.059432205,-0.055247314,0.040509947,-0.031672884,0.03963894,-0.018165523,0.012016199,0.074906476,0.026928741,-0.037543166,-0.0028002933,0.05640663,0.008294659,-0.020789452,-0.02509862,0.013265812,0.014486005,0.027596114,0.0030814207,-0.026688708,0.024562033,-0.00101568,0.06617435,0.0557213,-0.018126637,-0.077619925,-0.049897086,-0.028875502,-0.023359727,-0.058832254,0.0084160315,0.0027088905,-0.008330896,-0.008432327,-0.020324059,0.05448159,0.0094626695,0.0071827015,-0.02115654,0.019562844,0.008674849,0.008251239,0.04359229,-0.03604693,0.055421572,0.005970109,0.031186411,0.04342195,-0.0048613423,0.00036749247,0.03666802,0.030257838,-0.08514655,0.0030884284,0.012678088,0.027783746,0.006187158,0.03290459,-0.031013502,-0.049637828,-0.023355495,0.027498074,0.0031521043,-0.012026598,-0.024836766,0.019014193,0.06306973,-0.06803526,-0.067868955,-0.016731862,-0.022040997,0.0042425888,0.0111419745,0.06919108,-0.03591524,0.019530097,0.12140997,-0.028621025,-0.022163047,-0.019957121,0.047586467,0.0238172,-0.014191032,-0.05015726,0.038210027,-0.048148096,-0.005991668,0.017443355,0.0447801,0.09589157,-0.018587573,0.0032595561,0.053749412,0.044650007,0.047941133,-0.03763049,-0.00049400714,-0.018830368,0.04236681,0.020198666,0.0062101297,-0.032961063,0.012719617,-0.024180524,0.0613303,-0.0036035676,0.018876432,-0.002768571,0.0073476965,-0.0045935297,-0.021471817,-0.04890955,-0.0059440313,0.061516304,-0.0602782,0.04282745,-0.015063195,0.01736988,0.0068889814,-0.00018009706,0.009708532,-0.04266853,0.0055147503,0.058210537,0.049876153,0.048692882,-0.0012147421,0.005243957,0.036529135,-0.014069113,0.06775994,-0.016374893,-0.018191993,0.026062226,0.007172844,0.007890474,0.0058016605,-0.015405364,-0.07647458,-0.0039695203,0.010088005,0.010939764,0.012187123,-0.005772104,-0.051685274,-0.062128842,0.0500506,0.056614555,0.07049677,-0.028451422,0.038046774,-0.008320756,0.021209199,-0.00056627026,0.02102659,-0.015477481,-6.0056653e-05,0.020922866,-0.012919537,0.027331615,-0.0147209745,-0.004461256,0.10770346,-0.019330055,0.008216098,-0.014791835,0.017752584,-0.0151325315,-0.04168042,0.031002957,0.02521665,0.03962261,-0.040782448,0.087144144,-0.008773114,-0.008843498,-0.0011044005,-0.07449086,-0.0015853177,-0.03750327,-0.0058634863,0.005501377,0.04874197,0.0032990158,0.007731741,0.020699216,0.03928537,-0.023762455,-0.040388975,-0.027671216,-0.11303486,0.0068424474,0.0051400973,0.034874745,-0.027077245,0.008956753,0.0047903443,-0.017641434,-0.011112759,-0.0042563006,-0.024590088,-0.035088725,0.01849244,-0.012673972,0.044160414,-0.07460993,-0.012305627,-0.0020446265,0.009081938,0.0077628917,0.034443345,0.006096105,-0.067406684,-0.011513893,0.024168517,0.006075387,-0.04297503,0.062601425,-0.03672776,0.02474858,-0.024649365,0.012760741,0.006899938,0.022864394,0.03358729,-0.034775414,0.022893269,0.031429075,-0.043301173,0.02758168,-0.044649005,-0.027839908,0.021558324,-0.012866429,-0.0019477528,-0.033502925,0.043181606,0.027218888,-0.04771464,0.011476613,0.061440263,-0.023599265,0.05342292,-0.020250289,-0.02587278,0.037754335,-0.016521282,0.058160387,-0.019238885,0.0062048864,-0.008218926,-0.002378347,0.028952586,-0.030355992,-0.069259875,-0.04447484,0.02435982,0.0067504016,0.011293022,-0.029069483,0.021986458,0.025251478,0.009814374,0.043183472,0.0013997889,-0.008365134,0.013424031,-0.041311644,-0.013447073,0.07711116,-0.029053356,-0.029476512,-0.07664776,-0.031907547,-0.037685152,0.011070356,-0.049886763,0.028530085,0.023187017,-0.032603167,0.008950562,-0.0035627272,-0.0322386,-0.024154996,0.049340583,0.0040575773,-0.009554178,-0.025613248,-0.0054286118,-0.064508855,0.072471805,-0.038053203,0.0577038,0.0021207118,-0.061902534,0.06923755,-0.010654106,0.032945935,0.0060270806,0.031624675,-0.015768884,0.063258894,0.0525338,0.008927793,0.007441715,0.051883254,-0.018972956,-0.014223456,0.056972798,0.06062051,-0.09033866,0.004522477,-0.0339212,0.035861205,0.02647708,0.005154755,0.013322058,-0.048950013,0.028917817,-0.09119205,-0.014638455,-0.0020422044,-0.028939588,-0.016910767,0.033510342,0.020376626,-0.04790752,-0.033753585,0.041579,-0.048929285,-0.032107227,-0.014791233,-0.00974887,0.004933099,0.050984766,0.0051368535,0.009718651,0.015808308,-0.021003611,0.037964817,0.01252144,0.019440591,0.049224176,0.07279165,0.013020554,0.039069045,0.07482267,-0.0769573,-0.013753051,0.05084236,-0.002823879,0.0009178478,-0.053217813,-0.026557012,-0.007890518,-0.07586073,0.048615955,0.017297724,-0.036110703,-0.0013940973,-0.010611565,-0.028469242,-0.041281987,0.05296176,0.049185112,0.0438367,0.0041188095,0.017363258,0.025501626,0.0072675664,-0.002394111,-0.013477883,-0.040356074,-0.073621005,-0.025395771,0.10104383,-0.03851118,-0.048736546,-0.06324323,-0.037321854,0.05177647,-0.007936105,0.037663322,-0.019725965,0.007882414,-0.005372462,-0.025194881,0.01821139,0.0029922149,0.0033042363,-0.04183408,-0.006134843,0.052061766,-0.02514494,-0.025446357,0.011227045,-0.001294329,-0.050345134,0.018043961,0.039065924,-0.0014787805,0.053341225,-0.05896003,-0.014795293,-0.0007598055,-0.08059249,0.02328692,-0.00087263295,0.0063832332,0.020598827,0.0035462228,0.008506087,-0.030716678,-0.017837318,-0.05800432,-0.0729912,-0.054944836,-0.019711247,-0.029047996,-0.013712833,0.050750438,-0.034544405,-0.020580878,0.018108131,0.016287733,-0.020481044,-0.011727218,-0.011005975,-0.039591316,0.01678954,0.034006022,-0.07373481,-0.06390106,0.050848655,-0.015170002,-0.04116846,-0.029994823,-0.027965926,-0.017438354,-0.004830106,-0.0075689773,0.009744359,0.021798782,-0.009857557,0.027110074,0.034519155,-0.004391606,0.026167145,0.072210796,0.028791608,-0.024257679,-0.10465454,-0.024218056,0.05375051,-0.033902537,0.059087902,0.06374716,-0.029343357,0.021509036,0.05256955,0.07159413,-0.04452124,-0.004820604,0.027430484,0.0007576664,-0.03295846,-0.027573453,-0.032259613,-0.041297328,-0.022747163,0.023553232,0.023969306,-0.042579938,-0.0031630474,-0.023141978,0.020682057,-0.009625695,0.04656918,0.013208869,-0.03584576,-0.014857034,0.014606491,0.031131886,0.0069907,0.02733742,0.016749764,0.029522493,0.0024112642,-0.0049640355,-0.002178822,-0.02794142,-0.06034015,-0.028870674,-7.6812855e-33,-0.02158296,-0.011461531,-0.04306248,0.011014021,-0.12610482,-0.06729434,-0.03506993,0.012065674,0.00010156245,0.04227702,-0.010657049,0.038844716,0.014890387,0.050211478,0.037887212,-0.06415757,0.024117323,0.034248643,-0.014059864,0.026851809,0.0015773525,0.038803693,0.038038414,-0.034744248,0.090082996,0.05445409,-0.0115149515,0.0014211143,0.037008457,-0.015039348,-0.033788458,0.025777414,0.006169749,0.022810308,0.009977725,0.056997318,0.055081207,0.013570472,-0.005123543,-0.02950222,0.0035290217,-0.002405877,0.04627207,-0.02604215,0.02737062,-0.06223735,0.010150664,0.01493412,0.018409025,0.054724853,-0.07344028,-0.010691246,-0.036040127,-0.033292152,-0.024043744,0.0188092,0.035783555,-0.06393573,-0.057938673,0.04402946,0.018598195,0.013168568,-0.0055354405,-0.055847786,0.077849984,0.020828608,0.009769971,0.029018238,0.027631138,-0.03499223,-0.00071225275,0.038731135,-0.0014539474,0.029006446,-0.0011295854,-0.004610091,-0.032847673,-0.008448289,0.034736127,0.03520533,-0.054929566,-0.017915033,-0.042345285,-0.011584004,0.03061308,-0.004219992,0.012992827,0.00082204293,-0.008725905,-0.005818618,-0.028787574,0.0008211485,-0.05161609,-0.019969966,-0.0035383007,-0.028283931,-0.005491949,-0.03813149,-0.027007775,-0.044433355,-0.058485433,-0.00079844357,0.0026242647,0.04158441,0.046972122,0.027716728,-0.07241327,-0.012314244,-0.020861957,-0.019218408,-0.03404156,0.0413294,0.0062814173,0.023036925,-0.045470145,0.023987107,-0.018184599,-0.017394478,-0.05822504,-0.017616969,-0.014744962,0.019741472,-0.03400563,-0.017043488,-0.002268144,-0.041003406,0.020982765,0.020321278,0.015950713,-0.02095771,-0.023153307,-0.08548526,2.7656836e-07,-0.015028958,-0.030739617,0.033051405,0.06273707,-0.00856068,0.057086293,-0.013193722,0.052712504,0.024993818,-0.02651447,-0.03657723,-0.0025538802,0.06627634,-0.006685658,-0.0116427,-0.09939621,-0.031880185,-0.10823273,0.05254536,-0.067396395,0.057386488,0.0037330287,-0.0076040532,-0.008199447,0.028692886,0.0034914783,0.008968118,-0.0629681,0.032444876,-0.0050953818,0.000109827124,-0.034894817,-0.012467452,-0.0051561445,-0.02879618,-0.013015058,-0.02958345,0.021462988,0.024355581,-0.017488038,-0.06576483,-0.0028540143,-0.0020366842,0.028372195,-0.038263418,-0.056703955,-0.023071809,-0.0008052277,0.03145162,0.010957727,0.03118817,-0.008682133,-0.009441418,0.017185956,0.037846018,0.027570866,0.08635361,-0.02229125,0.022369439,-0.05445143,-0.017203586,0.026536578,-0.037523188,0.022672515,-0.060969647,0.062351648,0.0070297713,8.0437385e-35,0.0005077962,-0.015621318,0.029325875,0.07344577,0.026818711,-0.016170867,0.020296581,-0.021909587,0.05104529,-0.006963304,-0.018047087
rsq008,0.07064705,0.0033587131,-0.027817072,0.0066071586,-0.040133364,-0.017055592,-0.01811463,-0.023490572,0.020511672,0.013431529,0.019612907,-0.021293323,0.053488974,0.011266129,-0.009369348,-0.0027220785,0.009645381,0.011734034,0.045612466,-0.0075149937,0.04072367,0.014182018,-0.037129063,-0.012975065,-0.0070540914,-0.0048011136,-0.026417634,-0.02628521,0.0016814346,0.021449015,0.01912658,0.04172778,-0.0037075186,-0.036883306,1.8452013e-06,-0.027780551,0.04514041,-0.032101613,-0.059203263,0.03977189,-0.0053196764,-0.045416832,0.07900293,-0.023749597,-0.045579053,0.018471645,0.017946232,0.090012684,0.027933113,0.011093479,0.0034269665,0.069613926,-0.042275246,-0.03282207,-0.01956618,-0.01718655,-0.014235896,0.0058125705,0.012809041,0.02411561,-0.01398209,-0.00065047684,0.010521676,-0.05500952,-0.030766416,-0.027794547,-0.010574174,-0.017479705,-0.0040135453,0.047074053,0.08152056,0.00010930779,0.0056109284,-0.021707341,-0.013731165,-0.003480319,-0.044766687,0.012271383,-0.002792866,0.022990357,0.0045112744,0.03634331,0.002001474,0.004985737,0.035317164,-0.006698948,-0.039007645,-0.030389681,-0.03679863,-0.029060893,-0.032207154,-0.05636951,-0.03563077,-0.026665661,-0.045938633,0.024481999,0.006709017,-0.012968417,0.02282441,-0.014868555,-0.06640429,-0.007206002,-0.0033751917,0.00505895,0.047579378,-0.011271086,0.054330993,-0.010840507,-0.022718878,0.04185283,0.003895583,-0.030338975,-0.023889216,0.021784108,-0.07339311,-0.014985244,0.036376003,-0.008022808,-0.006193568,0.014925853,-0.031557336,-0.031264726,-0.052899852,-0.013835894,-0.03701016,0.015607251,-0.044703957,0.0587536,0.05011864,-0.043297302,-0.0158495,-0.055699624,0.0011963465,0.04807924,-0.04432876,0.050927408,-0.024429683,0.033797935,0.03297338,-0.008132866,-0.002773138,-0.03864083,-0.030302802,0.02356916,0.010631328,-0.00925965,0.011510829,0.008724259,0.013954243,0.010319025,0.026759712,0.048353128,0.06447685,0.001412661,0.046361964,0.05676934,0.06827438,0.0072455117,0.00944452,-0.048298627,0.028486894,0.0016120562,0.025782611,0.0118611315,0.04175881,-0.019425292,0.10459275,0.020933067,0.024550445,-0.0127598215,0.018428298,0.000271376,-0.05730109,0.008348027,-0.0026650364,0.03096535,-0.09223038,-0.04943505,-0.042620216,0.080194145,-0.03175481,0.06680944,0.014289674,0.011078003,0.0023217788,0.014767333,0.05353746,-0.003043798,-0.021334512,0.0060351198,0.039982714,0.007391143,0.036894005,0.00072669564,-0.06301198,0.017475208,0.0059070345,0.026489792,0.036235183,-0.0301224,-0.04141727,-0.05522289,0.03948156,0.040468723,0.0019572366,0.092149995,0.026388101,-0.02689133,0.06810256,0.061700128,0.038020983,-0.01230335,0.015798211,-0.0073184245,-0.02542891,0.0094756065,0.002277453,-0.0044896677,-0.03986343,0.017480588,0.001185319,-0.001588618,-0.08761402,-0.013299891,0.01883688,-0.056435935,-0.022363398,0.0010307066,-0.0027368027,-0.02031807,0.017099328,0.01779855,0.0155338645,0.028751139,0.0428176,0.008777276,-0.049304217,-0.04084326,-0.027298506,-0.020490121,-0.008958654,-0.056263357,-0.010966439,0.0010367194,0.049312994,-0.015801944,0.039401885,0.017414682,0.0007263677,-0.01831661,-0.009099421,-0.015756063,-0.08014551,0.014546825,-0.020800164,0.0019021699,-0.02339679,0.022102691,-0.0127809495,-0.016528565,0.059222013,-0.018882317,0.0039993846,0.030681029,0.045533925,-0.06888498,0.056558423,-0.09882051,-0.061642643,0.043705694,-0.013260145,-0.020298379,0.038317923,-0.017563118,-0.028947718,0.010121278,-0.0060514035,0.020704642,-0.027475966,0.05556508,0.05385202,-0.03534234,0.00691732,-0.01761043,0.038558703,-0.02240254,0.03161256,-0.044596672,0.009650406,0.018849414,-0.0061023654,-0.0129250735,-0.03267723,-0.02051663,0.008011543,0.04059531,0.087150924,0.0058973525,0.04206381,0.011893106,-0.029317196,-0.003643467,-0.056636564,0.001539715,-0.05768606,-0.032368653,-0.024298312,-0.022867378,0.013262095,0.059112906,-0.0029776196,0.041653737,0.017105106,-0.023922965,0.006317901,-0.008068017,-0.0017751714,-0.030988358,-0.018672977,0.08450785,-0.018380523,-0.024033602,-0.0063131456,0.007850853,-0.008709767,-0.021798288,0.0025452846,0.063692145,0.07672735,-0.042844024,-0.017827626,0.08716119,-0.053503003,-0.036614895,-0.11137745,0.028244965,-0.034817517,-0.003908783,-0.031679913,0.049637247,0.029136213,-0.021681914,-0.032241527,0.05343281,-0.033921048,0.011136163,-0.019584008,-0.031212945,0.015351541,-0.058196448,-0.030829145,-0.0056646094,0.007367462,-0.024285175,0.020123566,-0.042673785,0.025726391,0.07778037,-0.023418281,-0.017207291,0.021914173,0.04554462,-0.04026103,0.03290334,0.061539702,-0.045706525,0.010714242,0.079800405,-0.019316046,0.008085156,0.017986482,0.022240343,-0.05042747,0.016763208,-0.036439132,0.024708869,0.007970201,-0.08913819,0.06454368,-0.0156167075,0.0421268,-0.13400307,0.012193479,-0.026254509,0.035258718,-0.017316818,0.031205386,-0.034349486,-0.048099466,0.047134902,0.005093356,0.0036512518,-0.017368358,0.023705695,0.009767156,0.014385097,0.07396995,0.008059962,0.057077143,-0.020821089,0.05884358,-0.043387927,0.016672377,0.019820357,-0.01548262,0.03789489,-0.032778338,0.05757149,0.0340885,-0.054276943,0.028255267,0.038069636,-0.028632835,-0.02066811,0.013643575,-0.029943094,-0.026134059,-0.08469419,0.021510663,0.045589045,-0.010131275,0.029775204,0.022132885,-0.073096395,-0.02195942,0.0096520195,0.055110335,0.054588165,-0.003748773,5.6147614e-06,0.0015076158,0.0248609,-0.004206857,-0.013677705,-0.02301243,-0.05859523,-0.026928866,0.0033090166,-0.00061013346,-0.021031873,-0.024484731,0.027271494,0.067387275,0.024317903,0.02099853,0.03420032,-0.018341392,-0.025098965,-0.015037584,0.03297095,-0.027561627,0.0137955565,-0.06888388,-0.016887434,-0.03164284,-0.028398301,-0.03763017,0.034834936,0.016860342,-0.04451373,-0.014726352,0.03514491,0.053634167,0.048665065,-0.044430934,-0.045585927,-0.03106427,-0.043135703,0.011452383,0.0050314036,0.031351022,-0.0108261295,0.028098231,0.04540632,0.027954726,-0.009263088,-0.03098893,-0.020333761,-0.08775777,0.011938903,0.036244713,0.021896727,0.030230025,-0.057870228,-0.08384783,0.021153437,0.050328363,-0.005146439,-0.026668059,0.031958353,-0.029965185,0.051813267,0.007035152,-0.027985066,-0.025123335,0.020803137,0.029974457,-0.009395384,0.009271443,-0.06348135,0.0012964329,0.006879447,0.018206477,0.0061649806,-0.011190285,0.06646426,0.024738377,0.04998794,0.010343605,-0.0052438574,0.04442936,-0.029956486,0.024638124,-0.11024147,0.0024061124,0.0016588528,-0.082553014,-0.015441582,0.035220075,-0.0042079934,0.04294005,0.024477592,0.061886057,-0.007950765,-0.017260334,0.035061702,-0.009285622,-0.038115602,-0.026776407,-0.009797165,-0.06853644,0.026096273,-0.08502809,0.06591371,-0.02720086,-0.036082983,0.037685633,-0.028264845,-0.02981816,0.014235442,0.023891173,-0.025530305,-0.059287317,0.0059746355,-0.06057536,-0.029662702,0.060409203,0.03397193,-0.01616056,0.010619914,-0.010218534,0.034377992,-0.0015827368,-0.027079398,0.021021841,-6.934769e-33,-0.03933652,-0.043805458,0.020148322,0.05383678,-0.093531795,0.010335413,-0.032272544,0.021228246,-0.0054632584,0.021170285,0.011417043,0.015296943,0.00749685,0.029404016,0.07566862,-0.064645864,0.021507042,-0.006809494,-0.025009142,0.009095991,0.02752839,-0.008386351,0.03924486,-0.049299076,0.032923397,0.006595365,-0.043438163,-0.040880024,0.0008466821,-0.014761626,0.011178267,0.0011241802,0.0002662008,-0.032170743,-0.0061830105,0.08877553,-0.006751305,-0.0073322817,0.032522887,-0.041711874,-0.09203613,0.01477468,-0.016462201,0.022908032,0.020800129,-0.026427984,0.021604128,0.023637313,0.0056483517,0.045305744,-0.047454003,-0.0066965204,-0.060745254,-0.01862608,0.023871861,0.089483425,-0.010115988,-0.05665077,0.024022046,0.050922323,-0.008524156,0.035968415,0.018206099,0.002699777,0.00978726,0.068367526,0.0019044499,-0.008801868,0.009375149,-0.004184149,0.026757535,0.09395886,-0.07103809,0.026604807,-0.049347907,-0.0432188,-0.022180276,0.0048307017,0.054457884,-0.018084977,-0.008421539,0.0023160218,-0.04643817,-0.057237227,0.024209147,0.020461146,-0.00077483925,0.013057836,0.0074996985,0.028403595,-0.017677402,0.028699655,-0.020744558,-0.0047734804,-0.012853005,-0.024019899,-0.0043291184,0.004326355,-0.05810228,-0.030116916,-0.041615617,-0.032323133,0.01612139,0.013453761,0.009675737,0.049523257,-0.010017298,-0.043646,0.007833946,-0.022749247,-0.0027586913,0.039519574,-0.029526377,0.027603304,-0.03277658,0.014499532,-0.040095553,-0.021736044,-0.04933634,-0.05530041,-0.06929988,0.05146319,-0.032795727,0.01194769,-0.049501613,0.027787173,-0.015393537,-0.0042128065,0.009061172,-0.0065721264,-0.003610734,-0.07309583,2.5200953e-07,-0.027164308,0.0008226913,0.009475645,0.044167995,0.0028492475,0.030261206,0.062349256,0.030019151,0.03882377,-0.062866256,0.030577421,-0.030459542,0.03742112,-0.0096081225,-0.051562898,-0.046751987,-0.061423298,-0.11020828,0.033056002,-0.05459432,0.053658936,-0.0064740847,-0.041457947,-0.009897546,0.006960955,0.021952653,-0.01234586,-0.060351968,0.035999626,0.018436696,0.026369175,-0.038333666,0.053830475,0.08676223,-0.014137833,0.008111963,0.03813043,0.056754727,0.017758032,-0.019422567,-0.014712211,0.0065960446,-0.015683286,0.012295369,-0.00071408047,-0.0076972074,-0.008838646,-0.012410003,0.043200273,-0.0040283883,0.024130141,-0.012747176,0.0049278787,0.00690422,0.0054908306,-0.016915375,0.03990343,-0.00034527422,0.0272191,-0.008598798,-0.011968175,-0.03241149,-0.005379986,0.0075345933,0.006992166,0.044176515,0.01634533,8.756645e-35,0.021505106,0.043241248,0.020184519,0.058687907,0.0106002875,-0.0043386836,0.05845952,-0.014882496,-0.0025577683,-0.010393844,-0.023576187
rsq009,0.099848785,-0.049882665,0.02438269,0.03311476,-0.056195095,-0.020745827,0.01145811,0.005653492,0.021141866,0.017238785,0.01746147,-0.0930516,0.06346624,-0.049638186,-0.0035623547,-0.043565344,-0.012307,-0.032229286,0.089061365,-0.009426111,0.04207015,0.018943815,-0.053760592,0.03807979,-0.03626516,-0.04767471,-0.034525417,0.051127885,0.0016542886,0.018601222,-0.0051342724,-0.00025216938,-0.052703496,-0.026475912,1.5153041e-06,-0.024932964,0.045710046,-0.019499023,-0.099532604,-0.07090936,0.0064293556,-0.019203484,0.056160875,-0.0061184713,0.0038268713,-0.017850002,0.036405437,0.0783292,0.0013513524,0.0038615253,-0.0049190694,0.0032670186,0.0019001142,-0.024648435,0.026916359,-0.05528672,-0.01680247,-0.025994638,0.03679453,0.0029865254,0.016822394,-0.0072304676,-0.017932186,-0.01481441,-0.014356606,0.022248203,-0.003135357,0.027860021,-0.014601385,0.046766836,0.0598483,0.052058052,0.019348755,0.029246105,-0.0063743405,0.04839779,-0.033035118,0.0039907116,-0.021875652,-0.06603641,-0.009995179,0.03671842,-0.02170322,0.015702384,-0.02685732,0.048152816,-0.012879008,0.0076743294,0.016207455,-0.062457215,0.022323182,-0.022644442,0.016813371,0.019552272,-0.06652558,-0.017414207,0.024633596,-0.020771572,-0.026516818,0.01717503,0.011052219,0.01978451,-0.081251405,0.055263005,0.05233937,-0.026039947,0.01842401,-0.04180102,-0.06289739,0.048861686,0.00593983,0.040410105,-0.048542637,-0.0037930293,-0.021454375,-0.044596627,0.0059879054,-0.0017357571,0.09459412,-0.008867715,-0.027838968,0.025904749,0.01048028,-0.009293388,-0.0040008626,-0.0022766767,-0.03959455,0.01697061,0.06264916,-0.045512468,-0.0060049086,-0.018136654,0.03560623,-0.016550627,-0.022313328,0.001238364,-0.068695106,-0.01164711,-0.0055456557,0.006654053,0.019979289,-0.026841056,-0.048129145,0.018543068,0.014395278,0.013512489,0.008312324,-0.015843336,0.017092703,-0.033566058,-0.034954865,0.004603944,0.05867815,0.032873873,0.07042268,0.0035961177,0.0068637147,-0.010078026,-0.031032618,-0.031497307,0.025938781,-0.053146105,0.008275126,0.0063142935,-0.01973778,0.019989198,0.06479209,0.026172105,-0.016040856,0.008978994,0.014389735,0.0032983155,-0.0029668421,0.0190359,0.026384396,0.067770764,-0.03821995,-0.0681142,-0.0296674,0.06562336,-0.030145468,-0.019706223,0.005078904,0.020581564,-0.042553168,-0.04759616,-0.012973165,-0.04603816,-0.03193837,0.021637937,-0.00022505368,-0.0019654916,-0.011105321,0.0058787954,-0.024597334,-0.043508682,-0.026307665,-0.018934172,-0.035875086,-0.00013771618,-0.034836113,-0.01890023,0.043223433,0.048075706,-0.02238865,0.089061566,0.07299635,-0.03743206,0.0021991192,0.007625245,-0.031054769,-0.0028094568,0.013035066,0.015867608,-0.034881406,0.078304686,0.011672501,0.05360315,-0.0012689731,0.06156588,0.037786327,0.0033642892,0.026509108,-0.02671661,0.042188987,-0.011985868,0.018930715,0.0372558,-0.018863196,0.018959645,-0.0008723179,0.012385833,0.026037037,0.021051984,0.004185824,0.004959939,-0.023645718,0.0153123075,-0.031612203,-0.011401008,-0.053257488,-0.073595814,0.020578258,-0.026537525,0.014986121,0.008054036,0.048778243,-0.012846528,-0.024483534,0.005470846,-0.010876909,0.026313927,-0.019464735,0.01219713,0.00326698,-0.012183924,0.0017204214,0.029359197,-0.05886043,-0.07977446,0.012504661,-0.043334153,0.061215036,-0.028991695,0.041124694,-0.010153335,0.011737687,-0.06029197,-0.05329073,0.01963723,-0.034614798,-0.029811429,0.04699623,-0.03238049,-0.019595811,0.011721121,0.0030219615,-0.015450007,-0.01035476,-0.009078752,0.040739678,0.025191024,0.019462597,-0.014791052,0.05057778,0.0406552,0.0028477148,-0.03162488,-0.04518657,-0.058523443,0.0020576988,0.029875716,-0.0047972198,0.010554666,0.030020555,-0.0043076174,0.026984692,0.044734444,-3.4228135e-05,-0.042953007,-0.012455098,-0.020471262,-0.03409999,-0.014915614,-0.009869399,0.03690591,0.031923115,-0.061848845,0.04019564,-0.013980665,0.072154604,0.054253247,0.008891269,-0.06507609,0.012769398,-0.046132997,-0.030310584,0.029142456,-0.035862565,0.07603145,0.006523912,0.0014867991,0.028838664,-0.021063523,-0.03406311,0.06765477,0.0117353005,0.06795232,0.04661836,-0.045794316,0.014090136,0.048792176,-0.031464882,0.021083906,-0.011689815,-0.023192432,-0.027736893,-0.020269047,-0.06230515,0.035846107,0.024075175,-0.008298404,0.0005200747,0.008987189,-0.05508606,-0.04282921,-0.033803187,0.02367541,-0.032846503,-0.012951551,-0.044685043,0.061220724,0.0044668624,-0.0040000863,-0.019887531,-0.01863101,0.031120498,0.034490813,-0.0033326247,0.02506792,-0.0042638197,-0.017104916,0.0062559727,-0.010048811,0.034850907,-0.0022330522,0.038523868,0.04862698,-0.022235813,0.026568102,-0.004133125,0.03744075,0.0017754949,0.020556752,-0.0020622544,-0.021880984,-0.0052283965,-0.08304463,0.028219704,-0.00995933,0.039924007,-0.084098324,-0.0063746376,-0.026551876,-0.012401375,-0.004500025,0.014717042,-0.07896275,-0.02527502,0.040515456,0.012055831,-0.023534354,0.0070790187,0.04208766,0.011380997,0.07735533,0.065337025,0.04479994,0.027518976,0.020102117,0.035065133,0.05002769,0.009333519,-0.00088150834,0.046524554,-0.023948252,0.025007827,-0.018360676,-0.00564629,-0.0016189914,-0.05260028,-0.021358237,-0.0066799005,-0.016332142,-0.043598708,-0.038447604,-0.019104224,-0.015818806,0.026498912,-0.032530874,0.029028043,0.08784478,-0.007490134,-0.013179911,0.03672868,0.044215765,0.0113968905,0.04564488,0.0014380042,-0.0060975007,-0.010485268,0.056020513,-0.016938802,0.0067832805,-0.006581275,-0.0008113026,0.013828229,0.022076694,0.005616018,-0.014455173,0.04735314,0.027429245,-0.019741207,0.036877353,0.01758843,0.0318562,0.016153209,0.0021321042,0.021895649,0.026408816,0.04065016,-0.06980211,-0.05704843,0.05236767,-0.030375268,-0.018360177,0.014639236,-0.04096183,-0.005591887,-0.027999306,0.023539098,0.017113505,0.03174719,0.034897506,-0.022303823,-0.042953063,-0.03033872,-0.06586031,-0.024449395,-0.04297682,-0.0028248772,0.0015921302,-0.012322906,0.028080609,0.02140492,-0.021208543,-0.06359246,-0.09252716,-0.0875704,0.006318031,0.030929202,0.0065215416,0.0026939118,-0.0073806983,-0.0129618095,0.0326469,0.10569291,0.0025253212,-0.0076612993,-0.027104322,-0.017338952,-0.033539582,0.02118127,-0.039372396,-0.0368811,0.034591857,0.042047787,-0.0028189144,-0.017301751,-0.080654904,0.018335236,0.033037208,0.02185476,0.028693909,-0.0080893515,0.031162135,0.023439875,0.060171116,0.0422526,-0.04156065,0.085369915,0.013550474,0.0030357863,-0.15911578,0.07233276,0.029248865,-0.08169678,-0.03017264,0.003670465,0.031821944,0.055404074,-0.0037721302,0.024325795,0.008894021,-0.06456729,0.08771605,-0.019206513,0.010554291,-0.008345096,0.01946176,-0.10220091,0.036166262,0.013602456,0.027577935,-0.07245679,-0.011815327,-0.01348963,-0.012659098,-0.01774804,0.0373501,-0.040088434,0.040509608,-0.044742826,0.001989441,-0.031450316,0.0014460759,0.021968057,0.033959795,-0.040276486,-0.040393353,-0.010215368,0.011941961,-0.073521,-0.0208925,0.008276557,-6.261839e-33,-0.00849453,-0.062089693,0.00059847854,0.043589696,0.011847509,-0.022426229,-0.03560543,0.025336018,-0.018289842,-0.028623499,-0.017457323,0.025164641,0.011223816,0.042562433,0.03554698,-0.046952605,-0.00033744817,-0.011426946,0.01303232,-0.0032594323,-0.0010137386,0.00010954782,0.004967784,-0.037002906,0.061053522,-0.020670373,-0.005760241,0.020667864,0.045145072,-0.040991176,-0.02746025,0.03375504,-0.033056915,0.038558975,0.046231825,0.11800027,-0.0104683265,0.0042680227,0.008470214,0.05921922,-0.08397414,-0.0028417243,-0.03943137,0.018230084,0.012669983,0.033174556,-0.0068051713,0.01701059,0.009518509,0.027899763,0.0072700903,-0.019820513,-0.07100713,-0.077044904,-0.0010833556,0.13108754,-0.01948795,-0.03908456,0.060913276,0.014716122,0.022693152,0.0021835489,-0.041904237,0.02409445,-0.023938896,-0.022506034,0.010083504,-0.043600745,-0.0040616253,-0.02406214,-0.002635959,0.03455779,-0.020124115,0.024243573,-0.01137311,0.020990888,0.028434824,0.013867626,0.10626835,0.017990079,-0.009069667,-0.006058289,0.03896413,-0.030518709,-0.057101756,-0.057508707,-0.0028406505,-0.02434307,0.016230589,-0.023606768,0.011313776,-0.029846832,-0.01711794,0.0012961051,-0.018632123,-0.08458422,0.037943613,-0.02323506,-0.044651862,0.037358407,-0.016892932,-0.0025977131,0.005005597,-0.017477164,0.0053795287,0.028442169,-0.017451648,-0.011104246,-0.031944018,0.008127192,0.0033754443,0.0587688,-0.02983999,0.034110785,-0.008739945,-0.030919269,-0.030516863,0.034407254,-0.017527191,-0.04162445,-0.010929584,-0.0022780157,-0.039627206,0.076978706,-0.09837212,0.056755118,0.01460027,-0.016248299,0.01610871,-0.00048119313,0.013466894,0.010255228,2.0886937e-07,-0.02417408,0.033061635,0.023865825,0.019996379,0.026424356,0.0076534096,0.0058452715,-0.0031993312,0.01141475,-0.06684574,0.028375309,-0.017974084,0.022915898,-0.05983186,-0.10549428,-0.03172617,-0.066952154,-0.0392037,0.0053388034,-0.029300513,0.040467884,-0.01708081,-0.00963988,-0.012630884,-0.00911635,-0.020223923,0.0105242925,-0.056842178,0.06992873,-0.018373376,-0.043507252,-0.02862522,0.019556295,0.061936677,0.0043938463,-0.022915713,0.019753044,0.07189739,0.009627357,0.017637542,-0.024362445,0.051594444,-0.03785851,-0.028051862,0.007307102,0.0039056735,0.017640645,0.057239167,0.01771405,-0.020863242,-0.022496948,-0.007898827,-0.0021332658,0.04001938,0.03516576,-0.0053327135,0.04049228,0.035829883,0.020941067,-0.038504288,0.009037251,0.01972902,0.02211167,-0.04500768,-0.046361897,-0.022446075,-0.022313375,4.7866934e-35,0.005838127,0.058195163,-0.013237913,0.036133505,0.0244772,-0.022994593,0.032002,-0.016362237,0.012549453,-0.013654214,-0.016346259
rsq010,0.044886567,0.0069933604,0.0048385984,0.009303325,-0.05209695,0.012361178,0.012637131,0.0010138591,0.014278474,0.012276465,0.05624419,-0.046029814,0.0036405374,-0.02939116,0.018493861,-0.060207445,-0.045650113,0.03762708,0.023679944,0.03529178,0.02800149,0.04223708,-0.025315484,0.03457834,-0.047800455,-0.030760676,0.011754371,0.062258046,-0.002369288,-0.0015954898,0.022668228,-0.0015835111,-0.016733069,0.0026240943,1.93178e-06,0.021326236,0.004147723,-0.009906156,-0.03620604,-0.05305078,-0.063641936,-0.07906909,-0.014170755,0.03334539,-0.016476743,-0.031141995,0.034305885,0.034943268,-0.0015960867,0.012893473,0.0064113406,0.08307842,-0.024719624,-0.01276451,0.034229517,-0.020640852,0.012995828,-0.009748021,0.06091833,-0.04159535,0.020750035,0.04621682,-0.032901783,-0.035629656,-0.0062094894,0.011609304,0.021715201,0.017994508,0.03291609,0.02225603,-0.038444046,0.04704998,0.050053768,0.052384682,-0.04150521,0.08658605,-0.015869617,0.027495906,-0.048241857,-0.027406856,0.012829045,-0.008188806,-0.0022625683,0.052069012,0.0142467925,-0.00054331415,-0.05123088,0.021738445,-0.0055492776,0.011081023,-0.05623279,-0.049340613,0.07367503,0.013856808,-0.020115247,-0.01648163,0.0036236907,-0.075668454,-0.08920694,-0.044660725,0.011497664,0.060656086,-0.028454056,0.050522022,0.014708813,-0.09631222,0.03200451,-0.010872409,-0.036867008,0.08587682,-0.011848338,0.034248557,-0.018617306,-0.034616806,0.017162912,0.017730923,-0.008841445,0.023152059,0.032264754,0.012088927,-0.03472797,0.0030071426,0.004104967,-0.029237691,1.5980671e-05,0.004816317,-0.019408297,0.04644538,0.00866323,-0.033778757,-0.0067729168,-0.014862098,-0.002744965,-0.03638694,0.02283052,0.03245059,-0.00930227,-0.011205192,-0.08447912,-0.0034396239,0.024332399,-0.011184338,-0.059088726,0.0002856076,-0.008868952,-0.0121064875,0.039665766,-0.031495143,0.005690132,-0.03679242,-0.024682323,0.036588762,-0.007364671,0.014007907,0.053073373,0.02026496,-0.0060465927,-0.03918433,-0.029773336,-0.039616387,0.021454157,-0.0657703,-0.03834731,-0.030992268,-0.04416921,0.03155961,0.090953186,-0.00095669046,-0.045448042,0.010938287,0.024315301,-0.04242359,0.021721913,0.08299282,0.0449892,0.06838216,0.02288614,-0.012565903,-0.0423908,0.05822632,-0.023797099,-0.052272316,-0.013927743,0.01894246,-0.024625512,-0.0068186517,-0.022568893,0.031618025,-0.05465071,-0.011404743,0.016255755,0.027371295,-0.062286932,0.015198594,0.034872115,-0.02967367,0.0048381095,-0.08421758,-0.022812234,0.03885703,0.008796611,-0.005941349,0.008388516,0.064649455,-0.012972309,-0.013477243,0.009610653,-0.04570965,0.05230522,-0.057456475,-0.074958906,0.05290745,-0.014051707,-0.014164792,-0.06821239,0.07556136,-0.016162818,0.014655112,-0.008698252,0.03840105,-0.050421994,0.05838008,0.016606582,0.008239915,0.017711505,-0.0036375164,0.034677602,0.032993432,-0.013170192,0.010483178,0.0028172617,0.012033578,0.057278458,-0.03002767,-0.036309846,0.0125807235,0.054581232,-0.0032724692,-0.019727996,-0.083825864,-0.024723124,-0.003400819,0.0085197985,-0.024454748,0.027911898,-0.014267775,-0.04909288,0.0012916768,-0.0007827959,-0.0049710735,-0.05182711,0.027047401,0.025546042,0.01327434,0.021161385,-0.0655903,0.018294571,0.021299632,-0.06448435,-0.026578551,-0.06260848,-0.03713256,0.02701986,-0.017266424,0.05824445,0.04507405,-0.020901022,-0.023614189,-0.008553672,-0.019064598,-0.0044881925,-0.0018433545,0.026894601,-0.053787805,0.0005557846,0.04861642,-0.005721526,0.011028173,-0.04473426,0.008034815,0.05747467,0.0065174536,0.011868296,0.0008638156,0.003988692,-0.010949525,0.0052690366,-0.08810546,-0.02019384,-0.016167782,0.018800354,0.030538116,0.007828333,-0.0028394216,0.007713884,-0.022645827,0.05359637,-0.03570623,0.019846706,0.013763538,-0.023450095,0.016703203,0.034706946,0.013584486,-0.02045299,0.00025433538,0.039951928,-0.06204724,-0.029026259,-0.00067825237,0.05198314,0.032167096,0.011614167,-0.051117327,0.040375333,-0.022229236,-0.08329381,0.0070613795,0.01772928,0.0036297229,-0.0034120115,0.002078458,0.003197459,0.044375014,0.025695616,0.08457781,-0.031226428,0.0010485696,0.03677203,-0.057251602,0.012726158,0.0023264047,0.0013580265,0.033423156,-0.0023835418,-0.045871925,-0.025277779,-0.04346116,-0.09093747,0.024187466,0.010033338,-0.043454234,0.0035225353,-0.04590219,-0.06886213,-0.07961328,0.0022706736,0.032706294,-0.05837987,-0.025423845,0.04348098,0.059775002,-0.003030156,-0.03815452,-0.012864716,0.020988954,-0.014722399,0.0029367055,0.013708972,-0.047168434,0.022989744,0.06379792,0.004825819,-0.026885081,0.01048747,0.04823358,0.061419245,0.038497888,-0.039087333,-0.007061775,0.01732637,0.024642013,-0.028060455,0.029940283,0.018015025,-0.03287204,0.018194837,-0.124705024,-0.0051330584,-0.017144572,0.044072613,-0.021816697,-0.017532999,-0.037057463,-0.024403602,-0.011075184,0.009787724,-0.058564708,-0.006712087,0.0683271,0.010781963,-0.02116442,-0.030245287,0.00467023,0.027932685,0.030975249,0.013919458,0.018075686,0.010330538,0.028151527,0.0526881,0.07609177,-0.014028811,-0.007127562,0.008926969,0.0069986843,-0.055835146,0.012869406,-0.013310944,0.03164732,-0.008468554,0.022612201,0.022828974,-0.0014058647,0.026634414,-0.053892724,-0.052908495,-0.06021661,0.028491532,-0.10222825,0.04139492,0.00851215,0.009159888,-0.019294033,0.07834096,0.015031818,-0.0031714588,0.0020581295,-0.026829697,-0.030699773,-0.032425746,0.028276239,-0.03775007,0.004640354,-0.01782621,-0.07413357,-0.03325356,-0.01951001,0.0047130687,0.01573923,0.036084495,0.07609204,0.06495086,-0.010415646,-0.018874025,-0.0022480711,0.041849967,0.0029099712,0.07321844,0.041026305,0.06458706,-0.04948683,-0.025506321,-0.013341877,0.008981605,-0.009259598,0.0032423984,0.0056854957,0.024016546,-0.005830797,0.02047684,0.03312459,-0.054897588,0.013505605,-0.02760312,-0.09144779,-0.003885566,-0.07472758,-0.03204841,-0.050477363,-0.075515345,0.017238861,-0.0142566785,0.006638995,0.05782968,0.010350946,-0.01823953,-0.115261085,0.004104778,-0.0017338769,-0.002187994,0.042665694,-0.015175105,-0.014757698,0.02012774,0.01569834,0.051708497,-0.0110603655,-0.023538455,0.059784118,0.019774863,0.002690948,0.0015248727,0.0016049058,0.013160763,-0.025303766,-0.0027804854,-0.034303207,-0.019712025,-0.029279724,-0.022726985,0.037800144,0.043022726,0.012362967,-0.015494411,0.0237885,0.0038810978,0.020083947,0.0088759195,-0.007579271,0.086432084,0.009054337,-0.076991074,-0.17697778,0.05450838,0.007080226,-0.004435224,-0.020518346,-0.005741805,0.027509283,0.005454504,-0.005593989,0.006993649,-0.0064478028,-0.0004920618,-0.02559581,0.030604579,0.008365184,-0.054275252,0.04794231,-0.06109504,0.050676346,0.01798298,0.0019414297,-0.05599799,0.014855484,-0.020995762,0.031444695,-0.0053601475,0.012364559,0.008155908,0.031461753,-0.033237554,-0.00011041359,-0.05253377,0.03098121,-0.0042402213,0.010296805,-0.0450595,-0.02646557,-0.030620124,0.050594557,-0.04556441,0.010110716,0.042883858,-7.646163e-33,0.03750564,-0.059670214,-0.00675099,0.018872844,-0.021237405,-0.006353717,0.01883631,0.03392403,-0.033501763,0.01001129,-0.014802916,0.050974216,0.04900218,0.029914184,0.041754764,-0.0056519094,-0.0018749294,0.029027794,-0.0009017641,-0.049934097,0.021121666,0.044675887,0.010687285,-0.02256264,0.02714394,-0.0014227951,-0.04315498,0.03328561,0.046338692,-0.028885309,-0.0062494813,0.0068949685,0.00025767292,0.039092064,-0.0120282415,0.095531315,-0.03431002,-0.011955682,-0.018497668,0.05216001,-0.05509733,0.011443141,-0.020282123,0.03818376,0.030305892,-0.035242014,0.0061526676,-0.0052534305,0.017270418,0.03359254,0.052398846,0.0038151315,-0.042494256,-0.09048673,-0.022143623,0.053589106,0.009775611,0.012380115,0.035773665,-0.0019533671,-0.03028663,0.03734278,-0.04230831,0.007222626,-0.03258573,0.006927108,-0.05595079,-0.042363904,-0.07908007,-0.042653535,-0.032318372,0.0083061475,0.035515644,0.032575365,0.020440198,-0.0019439064,-0.035117,0.041690733,0.10145734,0.026235443,0.00922207,0.0012443098,-0.0016051357,0.003937092,-0.018498821,-0.06843648,-0.0021237067,0.031876594,0.0116677135,0.007496128,-0.036693893,0.01679316,-0.03235036,0.013503198,0.03688328,-0.0761043,0.029840278,0.03370624,0.004728391,-0.04241296,-0.0056310915,-0.0034698108,-0.025232853,0.006330298,0.012276785,0.006583746,-0.044143744,0.03244903,-0.048772443,-0.013257346,-0.006345288,0.06425902,0.02491976,0.022242444,0.021417888,-0.049264535,0.008350389,0.0031069627,-0.008904203,0.0020106046,-0.00012427587,0.037406422,-0.094756745,0.05644149,-0.009682783,0.01213918,0.013613592,0.017181491,0.013312297,-0.06258082,0.0059721475,-0.039781462,2.505994e-07,0.0019842105,0.007861386,0.04688221,0.019711358,-0.023669748,0.0030704448,-0.048286352,0.053994738,-0.021185055,-0.07493948,0.036112495,-0.011965769,0.024081139,-0.01618705,-0.016493116,0.010997108,-0.006391022,-0.046233006,0.011844844,-0.021109132,0.041963603,-0.0024514985,0.034700934,-0.034351595,-0.023930833,-0.063689485,0.034969524,-0.050537687,0.055483922,-0.04601673,-0.034156393,0.006548864,-0.015988568,0.01600325,-0.0065946104,-0.01107904,0.04277832,0.10078101,0.005776545,0.033164892,-0.023805158,0.019065127,-0.040311273,0.051186487,0.0103456285,-0.0405425,0.0039793085,0.07117054,0.0075438037,-0.0008376024,-0.022707535,0.018879438,0.024467887,0.034605116,0.02351761,0.017265199,-0.0037082622,-0.016384514,0.011807577,0.006174007,-0.0337669,0.055664536,0.010225234,0.02148042,-0.00037208758,0.0004999742,-0.031218927,7.332347e-35,0.019879125,0.038450208,0.008600496,0.007167966,-0.0085817175,-0.0052037444,-0.03167104,-0.0047102277,0.009186083,0.0061722784,-0.03340265
